#subsequence (s \in Sample : s ~ D)	freq(s,D)	freq(s,Sample)

90 -1 39 -1 23 -1 5 -1 41 -1 -2	1	1
8 -1 107 -1 10 -1 68 -1 25 -1 79 -1 94 -1 245 -1 249 -1 135 -1 -2	1	1
10 -1 49 -1 79 -1 114 -1 51 -1 120 -1 143 -1 195 -1 -2	1	1
81 -1 53 -1 110 -1 117 -1 62 -1 249 -1 -2	1	1
34 -1 26 -1 73 -1 11 -1 79 -1 51 -1 113 -1 135 -1 143 -1 245 -1 70 -1 39 -1 -2	1	1
7 -1 31 -1 53 -1 54 -1 72 -1 113 -1 41 -1 20 -1 -2	1	1
120 -1 24 -1 11 -1 73 -1 78 -1 69 -1 88 -1 65 -1 110 -1 132 -1 260 -1 -2	1	1
117 -1 12 -1 136 -1 74 -1 310 -1 -2	1	1
8 -1 28 -1 47 -1 250 -1 25 -1 -2	6	1
46 -1 1 -1 118 -1 3 -1 253 -1 283 -1 -2	1	1
10 -1 35 -1 117 -1 21 -1 253 -1 64 -1 295 -1 -2	1	1
36 -1 19 -1 35 -1 79 -1 33 -1 191 -1 256 -1 -2	1	1
9 -1 65 -1 245 -1 27 -1 -2	6	1
150 -1 -2	208	4
39 -1 61 -1 125 -1 132 -1 9 -1 143 -1 92 -1 -2	1	1
31 -1 7 -1 38 -1 -2	20	1
19 -1 22 -1 247 -1 -2	39	1
4 -1 12 -1 87 -1 44 -1 48 -1 69 -1 -2	1	1
35 -1 117 -1 72 -1 47 -1 150 -1 246 -1 -2	1	1
58 -1 50 -1 24 -1 -2	6	1
18 -1 34 -1 -2	174	1
8 -1 11 -1 22 -1 27 -1 20 -1 38 -1 253 -1 258 -1 -2	1	1
25 -1 132 -1 44 -1 -2	12	1
2 -1 7 -1 9 -1 5 -1 143 -1 36 -1 209 -1 -2	1	1
22 -1 106 -1 78 -1 26 -1 103 -1 75 -1 -2	1	1
22 -1 26 -1 15 -1 66 -1 56 -1 21 -1 139 -1 8 -1 -2	1	1
8 -1 107 -1 118 -1 13 -1 65 -1 20 -1 19 -1 86 -1 50 -1 93 -1 134 -1 149 -1 111 -1 -2	1	1
2 -1 77 -1 87 -1 44 -1 50 -1 56 -1 33 -1 47 -1 146 -1 149 -1 171 -1 -2	1	1
12 -1 78 -1 118 -1 -2	43	1
95 -1 9 -1 35 -1 27 -1 36 -1 48 -1 78 -1 51 -1 117 -1 191 -1 248 -1 -2	1	1
95 -1 29 -1 47 -1 56 -1 8 -1 6 -1 252 -1 -2	1	1
2 -1 1 -1 69 -1 31 -1 87 -1 136 -1 -2	1	1
27 -1 112 -1 143 -1 29 -1 184 -1 273 -1 -2	1	1
46 -1 119 -1 26 -1 -2	3	1
53 -1 68 -1 119 -1 120 -1 143 -1 -2	2	1
78 -1 -2	382	2
158 -1 10 -1 130 -1 19 -1 154 -1 58 -1 75 -1 259 -1 -2	1	1
10 -1 35 -1 73 -1 78 -1 12 -1 -2	13	1
96 -1 35 -1 36 -1 132 -1 53 -1 25 -1 63 -1 248 -1 -2	1	1
51 -1 17 -1 35 -1 11 -1 49 -1 133 -1 247 -1 254 -1 21 -1 -2	1	1
14 -1 22 -1 28 -1 1 -1 66 -1 117 -1 143 -1 149 -1 65 -1 20 -1 261 -1 -2	1	1
22 -1 76 -1 52 -1 175 -1 34 -1 254 -1 -2	1	1
125 -1 19 -1 36 -1 70 -1 57 -1 39 -1 -2	1	1
84 -1 8 -1 105 -1 81 -1 -2	1	1
15 -1 63 -1 26 -1 43 -1 79 -1 110 -1 117 -1 47 -1 132 -1 83 -1 209 -1 227 -1 -2	1	1
1 -1 168 -1 190 -1 3 -1 252 -1 17 -1 -2	1	1
48 -1 43 -1 23 -1 63 -1 -2	1	1
61 -1 8 -1 69 -1 111 -1 92 -1 93 -1 132 -1 89 -1 90 -1 172 -1 260 -1 -2	1	1
46 -1 18 -1 82 -1 96 -1 185 -1 63 -1 189 -1 70 -1 62 -1 256 -1 79 -1 -2	1	1
11 -1 -2	455	2
25 -1 11 -1 31 -1 63 -1 259 -1 -2	1	1
11 -1 17 -1 66 -1 -2	37	1
79 -1 8 -1 28 -1 31 -1 36 -1 57 -1 144 -1 16 -1 -2	1	1
9 -1 70 -1 8 -1 54 -1 41 -1 66 -1 245 -1 -2	1	1
22 -1 8 -1 9 -1 26 -1 35 -1 41 -1 52 -1 253 -1 -2	2	1
1 -1 59 -1 78 -1 -2	39	1
18 -1 25 -1 139 -1 88 -1 255 -1 -2	1	1
2 -1 42 -1 62 -1 108 -1 109 -1 6 -1 114 -1 121 -1 144 -1 -2	1	1
19 -1 42 -1 22 -1 29 -1 132 -1 139 -1 -2	1	1
48 -1 44 -1 118 -1 149 -1 245 -1 82 -1 6 -1 -2	1	1
17 -1 109 -1 117 -1 139 -1 50 -1 38 -1 -2	1	1
1 -1 33 -1 56 -1 23 -1 15 -1 67 -1 -2	1	1
77 -1 9 -1 22 -1 26 -1 36 -1 46 -1 126 -1 245 -1 -2	1	1
44 -1 144 -1 231 -1 246 -1 -2	2	1
72 -1 18 -1 181 -1 253 -1 -2	2	1
1 -1 44 -1 80 -1 11 -1 109 -1 23 -1 124 -1 144 -1 85 -1 -2	1	1
39 -1 57 -1 20 -1 21 -1 18 -1 73 -1 262 -1 -2	1	1
10 -1 47 -1 97 -1 109 -1 138 -1 139 -1 143 -1 150 -1 30 -1 -2	1	1
11 -1 24 -1 22 -1 43 -1 37 -1 118 -1 134 -1 66 -1 179 -1 187 -1 219 -1 -2	1	1
20 -1 63 -1 108 -1 5 -1 81 -1 146 -1 175 -1 -2	1	1
4 -1 90 -1 16 -1 22 -1 12 -1 76 -1 118 -1 253 -1 -2	1	1
42 -1 13 -1 -2	53	1
121 -1 23 -1 31 -1 49 -1 117 -1 106 -1 168 -1 60 -1 145 -1 153 -1 -2	1	1
69 -1 37 -1 80 -1 30 -1 64 -1 132 -1 33 -1 245 -1 -2	1	1
66 -1 12 -1 49 -1 62 -1 255 -1 -2	1	1
1 -1 72 -1 30 -1 71 -1 110 -1 113 -1 -2	2	1
54 -1 67 -1 118 -1 135 -1 143 -1 21 -1 -2	1	1
14 -1 69 -1 118 -1 245 -1 26 -1 41 -1 -2	1	1
92 -1 30 -1 193 -1 38 -1 -2	1	1
41 -1 58 -1 255 -1 -2	11	1
11 -1 82 -1 110 -1 -2	9	1
26 -1 113 -1 141 -1 43 -1 56 -1 54 -1 -2	1	1
5 -1 34 -1 -2	104	1
78 -1 38 -1 150 -1 20 -1 -2	1	1
14 -1 53 -1 6 -1 258 -1 -2	6	1
49 -1 67 -1 50 -1 -2	6	1
13 -1 58 -1 44 -1 38 -1 14 -1 -2	1	1
1 -1 80 -1 61 -1 35 -1 -2	1	1
30 -1 41 -1 253 -1 -2	59	1
2 -1 99 -1 179 -1 35 -1 49 -1 119 -1 70 -1 137 -1 105 -1 249 -1 145 -1 175 -1 -2	1	1
8 -1 68 -1 65 -1 35 -1 149 -1 189 -1 -2	1	1
9 -1 68 -1 22 -1 29 -1 17 -1 143 -1 144 -1 84 -1 162 -1 38 -1 -2	1	1
9 -1 17 -1 89 -1 7 -1 113 -1 72 -1 -2	1	1
39 -1 31 -1 113 -1 117 -1 8 -1 41 -1 147 -1 57 -1 -2	1	1
16 -1 36 -1 122 -1 67 -1 60 -1 91 -1 175 -1 -2	1	1
13 -1 70 -1 36 -1 93 -1 -2	1	1
113 -1 138 -1 28 -1 178 -1 85 -1 -2	1	1
31 -1 18 -1 84 -1 48 -1 63 -1 65 -1 253 -1 -2	1	1
23 -1 16 -1 143 -1 -2	64	1
11 -1 49 -1 50 -1 136 -1 137 -1 -2	2	1
70 -1 111 -1 50 -1 17 -1 55 -1 89 -1 -2	1	1
10 -1 13 -1 44 -1 33 -1 139 -1 144 -1 75 -1 180 -1 256 -1 -2	1	1
20 -1 68 -1 -2	61	1
15 -1 46 -1 25 -1 143 -1 21 -1 14 -1 -2	1	1
1 -1 20 -1 58 -1 -2	45	1
50 -1 39 -1 26 -1 104 -1 27 -1 54 -1 60 -1 78 -1 -2	1	1
113 -1 153 -1 90 -1 119 -1 259 -1 -2	1	1
99 -1 64 -1 68 -1 133 -1 65 -1 93 -1 -2	1	1
8 -1 18 -1 35 -1 195 -1 197 -1 32 -1 -2	5	1
30 -1 41 -1 117 -1 6 -1 247 -1 -2	1	1
4 -1 14 -1 25 -1 100 -1 -2	2	1
12 -1 109 -1 68 -1 182 -1 -2	1	1
9 -1 42 -1 31 -1 71 -1 74 -1 118 -1 139 -1 54 -1 -2	1	1
4 -1 61 -1 55 -1 119 -1 20 -1 -2	1	1
117 -1 259 -1 101 -1 112 -1 -2	1	1
9 -1 17 -1 110 -1 22 -1 54 -1 132 -1 63 -1 150 -1 31 -1 253 -1 51 -1 -2	1	1
45 -1 27 -1 114 -1 44 -1 121 -1 43 -1 -2	1	1
18 -1 36 -1 1 -1 20 -1 70 -1 6 -1 16 -1 -2	1	1
40 -1 17 -1 118 -1 139 -1 29 -1 246 -1 253 -1 -2	2	1
41 -1 32 -1 26 -1 36 -1 88 -1 110 -1 139 -1 30 -1 -2	1	1
70 -1 78 -1 82 -1 109 -1 -2	2	1
32 -1 118 -1 123 -1 52 -1 255 -1 -2	1	1
8 -1 10 -1 149 -1 38 -1 -2	16	1
56 -1 42 -1 48 -1 -2	10	1
132 -1 40 -1 67 -1 19 -1 -2	1	1
2 -1 60 -1 37 -1 39 -1 117 -1 181 -1 209 -1 253 -1 -2	1	1
166 -1 95 -1 113 -1 176 -1 40 -1 138 -1 53 -1 27 -1 84 -1 78 -1 94 -1 171 -1 150 -1 -2	1	1
39 -1 13 -1 51 -1 35 -1 18 -1 86 -1 94 -1 104 -1 96 -1 153 -1 -2	1	1
4 -1 37 -1 117 -1 132 -1 150 -1 35 -1 47 -1 -2	1	1
74 -1 249 -1 -2	8	1
78 -1 7 -1 14 -1 96 -1 73 -1 35 -1 132 -1 48 -1 184 -1 190 -1 245 -1 19 -1 261 -1 -2	1	1
9 -1 24 -1 41 -1 19 -1 -2	7	1
20 -1 17 -1 19 -1 27 -1 53 -1 118 -1 139 -1 84 -1 260 -1 72 -1 -2	1	1
15 -1 8 -1 84 -1 139 -1 24 -1 183 -1 -2	1	1
26 -1 71 -1 55 -1 79 -1 14 -1 247 -1 40 -1 -2	1	1
9 -1 26 -1 14 -1 11 -1 90 -1 53 -1 147 -1 49 -1 -2	1	1
4 -1 13 -1 108 -1 31 -1 34 -1 66 -1 256 -1 68 -1 257 -1 -2	1	1
92 -1 27 -1 36 -1 133 -1 146 -1 55 -1 147 -1 -2	1	1
13 -1 59 -1 11 -1 33 -1 117 -1 12 -1 -2	2	1
18 -1 90 -1 117 -1 133 -1 246 -1 -2	6	1
9 -1 20 -1 112 -1 99 -1 80 -1 97 -1 246 -1 -2	1	1
17 -1 34 -1 35 -1 110 -1 -2	16	1
103 -1 26 -1 18 -1 40 -1 83 -1 1 -1 245 -1 58 -1 261 -1 -2	1	1
5 -1 57 -1 111 -1 143 -1 245 -1 247 -1 -2	1	1
20 -1 34 -1 -2	119	1
134 -1 8 -1 140 -1 9 -1 17 -1 90 -1 79 -1 92 -1 179 -1 141 -1 122 -1 253 -1 -2	1	1
14 -1 35 -1 71 -1 78 -1 82 -1 133 -1 143 -1 1 -1 144 -1 146 -1 245 -1 60 -1 250 -1 -2	1	1
60 -1 26 -1 111 -1 56 -1 45 -1 190 -1 284 -1 -2	1	1
14 -1 52 -1 20 -1 143 -1 21 -1 245 -1 248 -1 -2	1	1
18 -1 70 -1 47 -1 89 -1 96 -1 97 -1 52 -1 195 -1 34 -1 -2	1	1
9 -1 31 -1 52 -1 73 -1 84 -1 110 -1 41 -1 60 -1 -2	1	1
35 -1 60 -1 82 -1 44 -1 124 -1 133 -1 144 -1 180 -1 235 -1 -2	1	1
5 -1 8 -1 62 -1 65 -1 55 -1 117 -1 154 -1 20 -1 180 -1 70 -1 -2	1	1
89 -1 117 -1 6 -1 179 -1 180 -1 -2	2	1
79 -1 22 -1 98 -1 66 -1 90 -1 65 -1 117 -1 135 -1 89 -1 149 -1 64 -1 218 -1 86 -1 -2	1	1
7 -1 53 -1 72 -1 139 -1 38 -1 -2	1	1
9 -1 20 -1 106 -1 22 -1 56 -1 4 -1 -2	1	1
78 -1 95 -1 108 -1 133 -1 144 -1 245 -1 25 -1 249 -1 62 -1 259 -1 -2	1	1
30 -1 43 -1 -2	62	1
73 -1 70 -1 93 -1 40 -1 253 -1 -2	1	1
35 -1 63 -1 69 -1 110 -1 118 -1 195 -1 104 -1 -2	1	1
81 -1 11 -1 96 -1 143 -1 20 -1 147 -1 122 -1 58 -1 137 -1 175 -1 135 -1 -2	1	1
109 -1 117 -1 94 -1 27 -1 60 -1 246 -1 253 -1 -2	1	1
15 -1 83 -1 12 -1 72 -1 132 -1 104 -1 6 -1 253 -1 79 -1 -2	1	1
17 -1 73 -1 15 -1 26 -1 104 -1 60 -1 137 -1 253 -1 71 -1 -2	1	1
9 -1 17 -1 61 -1 6 -1 23 -1 47 -1 256 -1 -2	1	1
24 -1 50 -1 49 -1 29 -1 113 -1 38 -1 31 -1 199 -1 -2	1	1
10 -1 26 -1 139 -1 246 -1 -2	72	1
8 -1 18 -1 26 -1 121 -1 52 -1 150 -1 246 -1 89 -1 -2	1	1
17 -1 77 -1 113 -1 132 -1 76 -1 -2	2	1
29 -1 1 -1 130 -1 102 -1 16 -1 49 -1 266 -1 -2	1	1
9 -1 39 -1 68 -1 57 -1 137 -1 245 -1 153 -1 175 -1 -2	1	1
4 -1 17 -1 25 -1 7 -1 22 -1 -2	2	1
8 -1 62 -1 36 -1 27 -1 53 -1 180 -1 209 -1 80 -1 -2	1	1
51 -1 109 -1 113 -1 104 -1 143 -1 147 -1 63 -1 101 -1 253 -1 258 -1 -2	1	1
34 -1 189 -1 -2	31	1
24 -1 35 -1 74 -1 42 -1 149 -1 150 -1 -2	1	1
11 -1 39 -1 69 -1 55 -1 120 -1 150 -1 -2	1	1
14 -1 117 -1 149 -1 150 -1 21 -1 -2	13	1
144 -1 32 -1 -2	73	1
60 -1 59 -1 53 -1 136 -1 45 -1 -2	1	1
1 -1 9 -1 20 -1 112 -1 103 -1 28 -1 143 -1 -2	1	1
33 -1 53 -1 26 -1 27 -1 35 -1 46 -1 18 -1 245 -1 -2	1	1
24 -1 133 -1 53 -1 11 -1 -2	1	1
68 -1 14 -1 22 -1 245 -1 27 -1 -2	2	1
21 -1 120 -1 -2	42	1
10 -1 12 -1 31 -1 36 -1 113 -1 7 -1 101 -1 88 -1 -2	1	1
42 -1 9 -1 26 -1 79 -1 133 -1 27 -1 25 -1 -2	1	1
15 -1 22 -1 25 -1 -2	41	1
176 -1 54 -1 154 -1 74 -1 36 -1 41 -1 79 -1 92 -1 147 -1 254 -1 259 -1 -2	1	1
8 -1 109 -1 52 -1 -2	13	1
2 -1 28 -1 9 -1 72 -1 38 -1 27 -1 43 -1 21 -1 11 -1 132 -1 -2	1	1
77 -1 38 -1 11 -1 31 -1 83 -1 -2	1	1
55 -1 41 -1 79 -1 58 -1 -2	1	1
1 -1 52 -1 3 -1 72 -1 166 -1 255 -1 263 -1 -2	1	1
80 -1 24 -1 27 -1 30 -1 53 -1 91 -1 -2	1	1
9 -1 67 -1 46 -1 133 -1 139 -1 144 -1 -2	3	1
2 -1 46 -1 1 -1 107 -1 29 -1 83 -1 35 -1 50 -1 67 -1 104 -1 133 -1 96 -1 189 -1 -2	1	1
58 -1 111 -1 17 -1 121 -1 29 -1 6 -1 -2	1	1
14 -1 67 -1 19 -1 23 -1 40 -1 10 -1 139 -1 143 -1 245 -1 -2	1	1
108 -1 28 -1 48 -1 103 -1 82 -1 253 -1 -2	1	1
8 -1 84 -1 44 -1 65 -1 113 -1 133 -1 85 -1 -2	2	1
54 -1 76 -1 49 -1 22 -1 30 -1 77 -1 209 -1 -2	1	1
121 -1 10 -1 88 -1 65 -1 60 -1 97 -1 143 -1 223 -1 -2	1	1
5 -1 59 -1 36 -1 -2	16	1
8 -1 61 -1 141 -1 68 -1 56 -1 58 -1 119 -1 245 -1 50 -1 145 -1 -2	1	1
11 -1 39 -1 36 -1 139 -1 32 -1 12 -1 38 -1 -2	1	1
13 -1 22 -1 29 -1 23 -1 132 -1 72 -1 162 -1 48 -1 262 -1 -2	1	1
23 -1 83 -1 19 -1 26 -1 41 -1 67 -1 135 -1 6 -1 59 -1 -2	1	1
91 -1 54 -1 66 -1 113 -1 33 -1 252 -1 -2	1	1
52 -1 93 -1 57 -1 110 -1 187 -1 -2	1	1
10 -1 72 -1 53 -1 100 -1 145 -1 70 -1 101 -1 -2	1	1
11 -1 46 -1 34 -1 246 -1 55 -1 -2	1	1
4 -1 69 -1 116 -1 39 -1 250 -1 -2	1	1
42 -1 40 -1 44 -1 11 -1 110 -1 117 -1 139 -1 168 -1 76 -1 253 -1 -2	1	1
135 -1 18 -1 253 -1 259 -1 -2	1	1
68 -1 110 -1 61 -1 143 -1 -2	5	1
8 -1 18 -1 107 -1 129 -1 78 -1 119 -1 171 -1 150 -1 21 -1 85 -1 -2	1	1
76 -1 32 -1 48 -1 98 -1 117 -1 33 -1 29 -1 -2	1	1
20 -1 26 -1 47 -1 113 -1 58 -1 209 -1 -2	3	1
50 -1 25 -1 18 -1 117 -1 3 -1 -2	1	1
95 -1 61 -1 107 -1 178 -1 148 -1 157 -1 35 -1 49 -1 57 -1 119 -1 102 -1 52 -1 -2	1	1
125 -1 23 -1 155 -1 156 -1 78 -1 1 -1 70 -1 67 -1 105 -1 259 -1 -2	1	1
9 -1 71 -1 113 -1 190 -1 246 -1 24 -1 -2	1	1
52 -1 16 -1 29 -1 139 -1 181 -1 -2	1	1
5 -1 23 -1 -2	133	1
98 -1 18 -1 53 -1 26 -1 253 -1 58 -1 -2	1	1
90 -1 110 -1 199 -1 46 -1 266 -1 -2	1	1
73 -1 83 -1 32 -1 108 -1 113 -1 132 -1 135 -1 143 -1 247 -1 256 -1 -2	1	1
65 -1 123 -1 30 -1 -2	1	1
2 -1 10 -1 108 -1 24 -1 51 -1 16 -1 64 -1 87 -1 39 -1 118 -1 -2	1	1
246 -1 -2	420	4
58 -1 81 -1 6 -1 23 -1 110 -1 120 -1 245 -1 -2	1	1
86 -1 22 -1 41 -1 79 -1 214 -1 245 -1 96 -1 36 -1 -2	1	1
87 -1 45 -1 -2	13	1
18 -1 113 -1 133 -1 16 -1 -2	27	1
18 -1 23 -1 161 -1 -2	2	1
32 -1 54 -1 83 -1 20 -1 64 -1 28 -1 38 -1 117 -1 139 -1 85 -1 149 -1 190 -1 210 -1 -2	1	1
99 -1 110 -1 82 -1 23 -1 57 -1 113 -1 136 -1 247 -1 249 -1 -2	1	1
105 -1 113 -1 -2	10	1
11 -1 20 -1 -2	173	1
68 -1 23 -1 128 -1 129 -1 149 -1 -2	1	1
8 -1 5 -1 51 -1 113 -1 143 -1 45 -1 39 -1 198 -1 86 -1 255 -1 -2	1	1
4 -1 21 -1 12 -1 62 -1 108 -1 71 -1 253 -1 -2	1	1
4 -1 40 -1 26 -1 79 -1 62 -1 133 -1 143 -1 41 -1 144 -1 63 -1 183 -1 72 -1 255 -1 -2	1	1
1 -1 40 -1 67 -1 29 -1 132 -1 -2	1	1
48 -1 9 -1 26 -1 41 -1 249 -1 -2	1	1
54 -1 13 -1 95 -1 26 -1 14 -1 79 -1 144 -1 62 -1 -2	1	1
11 -1 13 -1 49 -1 111 -1 133 -1 149 -1 -2	2	1
51 -1 10 -1 36 -1 117 -1 -2	7	1
38 -1 28 -1 -2	72	1
83 -1 39 -1 62 -1 40 -1 31 -1 139 -1 25 -1 22 -1 253 -1 -2	1	1
2 -1 63 -1 35 -1 68 -1 113 -1 117 -1 120 -1 144 -1 -2	1	1
120 -1 2 -1 8 -1 98 -1 19 -1 91 -1 112 -1 30 -1 245 -1 253 -1 -2	1	1
8 -1 44 -1 14 -1 20 -1 39 -1 53 -1 113 -1 58 -1 191 -1 -2	1	1
15 -1 103 -1 182 -1 -2	1	1
10 -1 29 -1 21 -1 79 -1 110 -1 218 -1 256 -1 -2	1	1
9 -1 65 -1 35 -1 48 -1 40 -1 45 -1 75 -1 -2	1	1
15 -1 13 -1 105 -1 21 -1 69 -1 95 -1 118 -1 119 -1 25 -1 170 -1 -2	1	1
61 -1 99 -1 122 -1 58 -1 91 -1 97 -1 153 -1 175 -1 268 -1 -2	1	1
80 -1 43 -1 110 -1 133 -1 29 -1 -2	1	1
10 -1 38 -1 16 -1 132 -1 177 -1 -2	1	1
10 -1 26 -1 47 -1 -2	69	1
48 -1 102 -1 73 -1 133 -1 -2	1	1
8 -1 69 -1 110 -1 47 -1 66 -1 -2	3	1
15 -1 84 -1 39 -1 146 -1 218 -1 -2	1	1
120 -1 53 -1 -2	20	1
4 -1 35 -1 118 -1 144 -1 11 -1 39 -1 -2	1	1
10 -1 9 -1 53 -1 36 -1 73 -1 50 -1 55 -1 -2	1	1
140 -1 53 -1 180 -1 19 -1 109 -1 42 -1 119 -1 179 -1 104 -1 -2	1	1
62 -1 38 -1 47 -1 133 -1 144 -1 146 -1 153 -1 53 -1 -2	1	1
8 -1 17 -1 19 -1 26 -1 255 -1 -2	22	1
9 -1 12 -1 13 -1 35 -1 19 -1 38 -1 117 -1 153 -1 6 -1 182 -1 185 -1 189 -1 -2	1	1
37 -1 -2	330	6
1 -1 52 -1 62 -1 113 -1 117 -1 119 -1 22 -1 133 -1 19 -1 -2	1	1
9 -1 80 -1 108 -1 20 -1 37 -1 59 -1 30 -1 73 -1 -2	1	1
40 -1 12 -1 28 -1 50 -1 37 -1 111 -1 32 -1 -2	1	1
18 -1 34 -1 133 -1 143 -1 149 -1 -2	21	1
17 -1 50 -1 18 -1 117 -1 4 -1 -2	1	1
46 -1 52 -1 108 -1 113 -1 117 -1 68 -1 69 -1 70 -1 -2	1	1
2 -1 20 -1 13 -1 9 -1 79 -1 71 -1 84 -1 -2	1	1
2 -1 10 -1 36 -1 110 -1 94 -1 132 -1 149 -1 70 -1 256 -1 79 -1 -2	1	1
1 -1 60 -1 134 -1 101 -1 253 -1 85 -1 -2	1	1
28 -1 47 -1 56 -1 143 -1 149 -1 -2	4	1
86 -1 74 -1 57 -1 59 -1 85 -1 -2	1	1
35 -1 27 -1 10 -1 117 -1 118 -1 29 -1 253 -1 -2	2	1
12 -1 9 -1 17 -1 133 -1 246 -1 -2	9	1
5 -1 37 -1 110 -1 64 -1 250 -1 7 -1 -2	1	1
32 -1 117 -1 132 -1 49 -1 309 -1 -2	2	1
3 -1 54 -1 36 -1 -2	13	1
7 -1 18 -1 113 -1 147 -1 161 -1 198 -1 -2	1	1
84 -1 117 -1 147 -1 -2	13	1
36 -1 8 -1 35 -1 44 -1 121 -1 139 -1 59 -1 62 -1 -2	1	1
32 -1 36 -1 54 -1 17 -1 45 -1 252 -1 -2	1	1
121 -1 73 -1 107 -1 91 -1 26 -1 -2	1	1
30 -1 113 -1 41 -1 -2	13	1
27 -1 19 -1 24 -1 36 -1 79 -1 81 -1 144 -1 -2	1	1
26 -1 6 -1 62 -1 40 -1 49 -1 139 -1 30 -1 23 -1 -2	1	1
36 -1 143 -1 -2	430	1
57 -1 62 -1 54 -1 55 -1 5 -1 65 -1 118 -1 86 -1 -2	1	1
17 -1 120 -1 253 -1 -2	99	1
110 -1 60 -1 17 -1 79 -1 83 -1 143 -1 -2	1	1
11 -1 75 -1 78 -1 -2	18	1
39 -1 133 -1 106 -1 189 -1 -2	1	1
66 -1 65 -1 37 -1 191 -1 76 -1 -2	2	1
74 -1 63 -1 99 -1 88 -1 118 -1 250 -1 -2	1	1
59 -1 91 -1 286 -1 -2	1	1
112 -1 168 -1 22 -1 35 -1 75 -1 117 -1 170 -1 144 -1 147 -1 150 -1 -2	1	1
4 -1 79 -1 47 -1 113 -1 144 -1 255 -1 -2	2	1
2 -1 37 -1 26 -1 43 -1 143 -1 21 -1 -2	2	1
92 -1 4 -1 50 -1 34 -1 6 -1 189 -1 -2	1	1
2 -1 58 -1 49 -1 54 -1 45 -1 29 -1 -2	1	1
10 -1 35 -1 113 -1 253 -1 -2	122	1
58 -1 79 -1 16 -1 38 -1 42 -1 118 -1 143 -1 248 -1 -2	1	1
2 -1 8 -1 30 -1 13 -1 15 -1 31 -1 110 -1 120 -1 7 -1 163 -1 257 -1 -2	1	1
66 -1 178 -1 179 -1 125 -1 73 -1 76 -1 84 -1 67 -1 246 -1 50 -1 -2	1	1
20 -1 28 -1 62 -1 255 -1 -2	5	1
50 -1 22 -1 77 -1 32 -1 21 -1 68 -1 180 -1 253 -1 -2	1	1
9 -1 46 -1 29 -1 21 -1 28 -1 -2	1	1
3 -1 15 -1 35 -1 73 -1 6 -1 143 -1 21 -1 -2	1	1
8 -1 9 -1 19 -1 46 -1 28 -1 101 -1 40 -1 149 -1 -2	1	1
82 -1 108 -1 61 -1 118 -1 -2	2	1
35 -1 71 -1 27 -1 38 -1 -2	2	1
16 -1 17 -1 23 -1 44 -1 22 -1 117 -1 143 -1 144 -1 50 -1 -2	1	1
6 -1 83 -1 8 -1 1 -1 74 -1 22 -1 66 -1 249 -1 -2	1	1
4 -1 113 -1 117 -1 123 -1 80 -1 139 -1 180 -1 -2	1	1
16 -1 15 -1 73 -1 39 -1 61 -1 79 -1 245 -1 93 -1 -2	1	1
24 -1 44 -1 102 -1 47 -1 109 -1 110 -1 11 -1 -2	1	1
8 -1 63 -1 17 -1 85 -1 78 -1 50 -1 269 -1 -2	1	1
8 -1 15 -1 50 -1 110 -1 145 -1 -2	2	1
1 -1 44 -1 82 -1 79 -1 110 -1 256 -1 -2	1	1
73 -1 54 -1 68 -1 20 -1 99 -1 52 -1 -2	1	1
85 -1 27 -1 10 -1 5 -1 143 -1 -2	1	1
1 -1 62 -1 35 -1 99 -1 179 -1 -2	1	1
74 -1 4 -1 59 -1 39 -1 41 -1 110 -1 -2	1	1
24 -1 68 -1 -2	44	1
158 -1 115 -1 167 -1 22 -1 129 -1 58 -1 75 -1 99 -1 117 -1 79 -1 92 -1 149 -1 246 -1 -2	1	1
25 -1 -2	318	4
4 -1 14 -1 98 -1 48 -1 117 -1 -2	1	1
5 -1 52 -1 71 -1 86 -1 36 -1 117 -1 133 -1 147 -1 31 -1 182 -1 62 -1 -2	1	1
36 -1 56 -1 6 -1 -2	26	1
75 -1 78 -1 6 -1 110 -1 1 -1 7 -1 179 -1 66 -1 -2	1	1
3 -1 16 -1 -2	61	1
29 -1 8 -1 69 -1 40 -1 79 -1 110 -1 -2	1	1
33 -1 17 -1 1 -1 209 -1 39 -1 -2	1	1
5 -1 1 -1 82 -1 83 -1 197 -1 -2	2	1
10 -1 45 -1 11 -1 125 -1 26 -1 122 -1 136 -1 67 -1 249 -1 -2	1	1
72 -1 107 -1 104 -1 245 -1 67 -1 52 -1 19 -1 50 -1 -2	1	1
4 -1 109 -1 64 -1 33 -1 -2	1	1
79 -1 -2	346	2
94 -1 30 -1 54 -1 73 -1 113 -1 147 -1 -2	1	1
9 -1 43 -1 27 -1 87 -1 139 -1 230 -1 235 -1 -2	1	1
28 -1 1 -1 145 -1 43 -1 -2	3	1
67 -1 41 -1 68 -1 105 -1 143 -1 -2	1	1
73 -1 253 -1 -2	164	1
41 -1 28 -1 16 -1 108 -1 79 -1 257 -1 -2	1	1
5 -1 118 -1 133 -1 74 -1 146 -1 21 -1 253 -1 -2	1	1
118 -1 85 -1 99 -1 115 -1 54 -1 100 -1 145 -1 63 -1 190 -1 62 -1 -2	1	1
109 -1 65 -1 30 -1 60 -1 124 -1 143 -1 -2	1	1
61 -1 119 -1 168 -1 80 -1 -2	1	1
13 -1 22 -1 133 -1 76 -1 147 -1 150 -1 190 -1 245 -1 253 -1 -2	1	1
11 -1 82 -1 132 -1 50 -1 -2	5	1
9 -1 90 -1 18 -1 117 -1 108 -1 -2	1	1
9 -1 30 -1 1 -1 -2	24	1
47 -1 28 -1 72 -1 76 -1 61 -1 23 -1 110 -1 -2	1	1
79 -1 52 -1 -2	65	1
2 -1 137 -1 10 -1 11 -1 129 -1 24 -1 70 -1 57 -1 245 -1 84 -1 -2	1	1
63 -1 18 -1 1 -1 7 -1 118 -1 121 -1 252 -1 269 -1 -2	1	1
55 -1 113 -1 141 -1 36 -1 30 -1 309 -1 -2	1	1
17 -1 14 -1 58 -1 12 -1 61 -1 54 -1 253 -1 -2	1	1
15 -1 17 -1 145 -1 31 -1 -2	5	1
61 -1 86 -1 4 -1 76 -1 -2	1	1
36 -1 18 -1 1 -1 79 -1 -2	4	1
57 -1 84 -1 108 -1 139 -1 -2	2	1
35 -1 109 -1 113 -1 134 -1 101 -1 84 -1 -2	1	1
10 -1 16 -1 40 -1 92 -1 245 -1 64 -1 -2	1	1
20 -1 -2	428	3
85 -1 3 -1 125 -1 2 -1 54 -1 143 -1 83 -1 66 -1 -2	1	1
41 -1 25 -1 -2	97	1
81 -1 33 -1 41 -1 25 -1 117 -1 84 -1 286 -1 -2	1	1
8 -1 32 -1 253 -1 -2	227	1
11 -1 23 -1 16 -1 143 -1 57 -1 191 -1 246 -1 -2	1	1
34 -1 27 -1 16 -1 108 -1 11 -1 43 -1 -2	1	1
6 -1 141 -1 245 -1 38 -1 285 -1 -2	1	1
17 -1 36 -1 81 -1 99 -1 16 -1 261 -1 -2	1	1
14 -1 92 -1 87 -1 26 -1 35 -1 83 -1 144 -1 -2	1	1
39 -1 117 -1 118 -1 143 -1 -2	89	1
110 -1 32 -1 27 -1 48 -1 73 -1 113 -1 117 -1 52 -1 143 -1 42 -1 -2	1	1
74 -1 10 -1 60 -1 30 -1 70 -1 62 -1 -2	1	1
1 -1 9 -1 58 -1 113 -1 122 -1 -2	1	1
16 -1 8 -1 10 -1 12 -1 26 -1 15 -1 118 -1 55 -1 -2	1	1
17 -1 18 -1 31 -1 113 -1 143 -1 -2	41	1
77 -1 18 -1 143 -1 39 -1 255 -1 -2	2	1
1 -1 41 -1 44 -1 7 -1 49 -1 -2	2	1
40 -1 77 -1 22 -1 119 -1 247 -1 85 -1 -2	1	1
29 -1 25 -1 120 -1 149 -1 27 -1 255 -1 99 -1 -2	1	1
16 -1 18 -1 37 -1 53 -1 43 -1 210 -1 -2	1	1
14 -1 32 -1 190 -1 247 -1 23 -1 -2	1	1
1 -1 60 -1 26 -1 218 -1 253 -1 -2	3	1
1 -1 110 -1 77 -1 18 -1 31 -1 35 -1 42 -1 11 -1 85 -1 -2	1	1
27 -1 42 -1 36 -1 -2	19	1
63 -1 86 -1 19 -1 3 -1 59 -1 -2	1	1
2 -1 68 -1 84 -1 252 -1 46 -1 56 -1 61 -1 -2	1	1
1 -1 73 -1 28 -1 46 -1 55 -1 39 -1 -2	1	1
22 -1 1 -1 253 -1 -2	105	1
73 -1 11 -1 245 -1 29 -1 246 -1 260 -1 22 -1 -2	1	1
48 -1 139 -1 245 -1 -2	76	1
97 -1 27 -1 52 -1 80 -1 93 -1 48 -1 143 -1 246 -1 259 -1 -2	1	1
22 -1 70 -1 75 -1 133 -1 139 -1 253 -1 81 -1 255 -1 -2	1	1
7 -1 118 -1 -2	130	1
70 -1 78 -1 -2	102	1
2 -1 28 -1 53 -1 70 -1 31 -1 111 -1 120 -1 65 -1 139 -1 143 -1 51 -1 145 -1 63 -1 -2	1	1
34 -1 -2	324	1
134 -1 146 -1 -2	30	1
42 -1 31 -1 78 -1 32 -1 119 -1 139 -1 39 -1 262 -1 -2	1	1
8 -1 13 -1 76 -1 11 -1 69 -1 47 -1 27 -1 119 -1 258 -1 -2	1	1
53 -1 8 -1 27 -1 67 -1 114 -1 51 -1 120 -1 146 -1 199 -1 -2	1	1
5 -1 29 -1 67 -1 93 -1 -2	2	1
79 -1 18 -1 121 -1 38 -1 149 -1 246 -1 -2	1	1
18 -1 35 -1 20 -1 5 -1 143 -1 186 -1 -2	1	1
130 -1 79 -1 144 -1 149 -1 66 -1 39 -1 -2	1	1
83 -1 21 -1 24 -1 65 -1 45 -1 67 -1 28 -1 29 -1 86 -1 73 -1 231 -1 -2	1	1
11 -1 149 -1 173 -1 -2	10	1
1 -1 4 -1 113 -1 98 -1 88 -1 13 -1 103 -1 133 -1 253 -1 -2	1	1
26 -1 81 -1 117 -1 52 -1 146 -1 -2	2	1
2 -1 50 -1 27 -1 10 -1 41 -1 30 -1 54 -1 -2	1	1
14 -1 17 -1 69 -1 45 -1 4 -1 65 -1 -2	1	1
66 -1 56 -1 80 -1 114 -1 132 -1 143 -1 59 -1 -2	1	1
13 -1 90 -1 180 -1 31 -1 69 -1 117 -1 119 -1 246 -1 -2	1	1
4 -1 105 -1 27 -1 118 -1 69 -1 133 -1 145 -1 -2	1	1
8 -1 9 -1 99 -1 31 -1 35 -1 73 -1 52 -1 -2	2	1
11 -1 133 -1 52 -1 -2	19	1
41 -1 78 -1 110 -1 -2	72	1
8 -1 42 -1 18 -1 80 -1 246 -1 255 -1 -2	2	1
95 -1 39 -1 96 -1 38 -1 133 -1 43 -1 -2	1	1
11 -1 62 -1 83 -1 117 -1 145 -1 184 -1 252 -1 59 -1 -2	1	1
20 -1 45 -1 7 -1 133 -1 136 -1 143 -1 145 -1 184 -1 -2	1	1
9 -1 45 -1 26 -1 44 -1 24 -1 49 -1 79 -1 111 -1 139 -1 209 -1 -2	1	1
26 -1 64 -1 19 -1 34 -1 135 -1 143 -1 71 -1 -2	1	1
53 -1 -2	330	2
1 -1 69 -1 24 -1 28 -1 227 -1 -2	1	1
60 -1 -2	209	1
97 -1 14 -1 108 -1 26 -1 8 -1 80 -1 9 -1 7 -1 143 -1 82 -1 -2	1	1
86 -1 124 -1 -2	2	1
102 -1 75 -1 9 -1 177 -1 45 -1 -2	1	1
70 -1 8 -1 64 -1 16 -1 49 -1 50 -1 68 -1 45 -1 37 -1 146 -1 150 -1 -2	1	1
18 -1 26 -1 71 -1 101 -1 9 -1 -2	1	1
23 -1 79 -1 1 -1 33 -1 120 -1 195 -1 60 -1 -2	1	1
40 -1 55 -1 34 -1 -2	9	1
21 -1 23 -1 19 -1 -2	16	1
27 -1 4 -1 23 -1 30 -1 45 -1 -2	1	1
19 -1 9 -1 110 -1 119 -1 139 -1 189 -1 190 -1 246 -1 -2	1	1
14 -1 10 -1 81 -1 -2	8	1
4 -1 149 -1 -2	114	1
62 -1 98 -1 133 -1 180 -1 230 -1 -2	1	1
64 -1 27 -1 38 -1 52 -1 14 -1 132 -1 189 -1 57 -1 284 -1 310 -1 -2	1	1
68 -1 41 -1 19 -1 78 -1 32 -1 -2	1	1
17 -1 63 -1 65 -1 -2	19	1
5 -1 113 -1 193 -1 35 -1 246 -1 44 -1 252 -1 -2	1	1
2 -1 10 -1 11 -1 66 -1 148 -1 156 -1 166 -1 73 -1 134 -1 136 -1 146 -1 168 -1 -2	1	1
89 -1 18 -1 79 -1 49 -1 80 -1 252 -1 56 -1 -2	1	1
2 -1 36 -1 21 -1 110 -1 49 -1 -2	2	1
10 -1 42 -1 20 -1 85 -1 41 -1 99 -1 105 -1 94 -1 149 -1 63 -1 33 -1 257 -1 -2	1	1
74 -1 9 -1 50 -1 79 -1 22 -1 102 -1 -2	1	1
30 -1 18 -1 14 -1 26 -1 144 -1 245 -1 100 -1 246 -1 -2	1	1
46 -1 36 -1 105 -1 117 -1 94 -1 132 -1 6 -1 -2	1	1
27 -1 25 -1 117 -1 56 -1 190 -1 245 -1 51 -1 -2	1	1
62 -1 39 -1 30 -1 34 -1 -2	1	1
28 -1 93 -1 74 -1 37 -1 14 -1 -2	1	1
10 -1 18 -1 81 -1 65 -1 117 -1 150 -1 179 -1 32 -1 253 -1 -2	1	1
94 -1 97 -1 -2	9	1
24 -1 48 -1 12 -1 -2	15	1
9 -1 56 -1 110 -1 113 -1 139 -1 31 -1 -2	2	1
99 -1 36 -1 66 -1 11 -1 183 -1 72 -1 251 -1 88 -1 -2	1	1
67 -1 35 -1 62 -1 47 -1 64 -1 68 -1 253 -1 -2	1	1
46 -1 32 -1 182 -1 190 -1 247 -1 258 -1 -2	1	1
4 -1 10 -1 70 -1 26 -1 35 -1 -2	2	1
12 -1 36 -1 253 -1 -2	97	1
11 -1 64 -1 98 -1 112 -1 120 -1 73 -1 19 -1 147 -1 150 -1 162 -1 28 -1 37 -1 -2	1	1
30 -1 46 -1 47 -1 -2	16	1
14 -1 49 -1 60 -1 117 -1 195 -1 -2	2	1
28 -1 79 -1 143 -1 150 -1 39 -1 94 -1 -2	1	1
61 -1 114 -1 34 -1 168 -1 -2	1	1
4 -1 78 -1 255 -1 -2	35	1
13 -1 77 -1 115 -1 120 -1 6 -1 231 -1 -2	1	1
31 -1 16 -1 36 -1 1 -1 2 -1 19 -1 18 -1 -2	1	1
50 -1 56 -1 86 -1 38 -1 44 -1 143 -1 256 -1 61 -1 -2	1	1
20 -1 34 -1 56 -1 88 -1 245 -1 100 -1 75 -1 -2	1	1
101 -1 17 -1 20 -1 35 -1 56 -1 143 -1 48 -1 94 -1 253 -1 -2	1	1
1 -1 83 -1 71 -1 54 -1 119 -1 132 -1 64 -1 46 -1 86 -1 -2	1	1
78 -1 99 -1 143 -1 -2	12	1
41 -1 69 -1 23 -1 95 -1 -2	1	1
17 -1 31 -1 127 -1 132 -1 143 -1 -2	4	1
18 -1 245 -1 47 -1 253 -1 48 -1 -2	2	1
9 -1 64 -1 149 -1 191 -1 -2	7	1
45 -1 6 -1 255 -1 -2	19	1
36 -1 65 -1 33 -1 144 -1 210 -1 211 -1 -2	1	1
24 -1 51 -1 26 -1 48 -1 59 -1 -2	3	1
2 -1 35 -1 118 -1 15 -1 -2	26	1
65 -1 13 -1 105 -1 1 -1 93 -1 60 -1 89 -1 174 -1 191 -1 83 -1 33 -1 98 -1 -2	1	1
23 -1 133 -1 149 -1 19 -1 161 -1 164 -1 41 -1 246 -1 16 -1 32 -1 -2	1	1
10 -1 12 -1 23 -1 246 -1 82 -1 259 -1 -2	1	1
30 -1 37 -1 1 -1 53 -1 113 -1 12 -1 180 -1 245 -1 -2	1	1
11 -1 17 -1 20 -1 37 -1 35 -1 133 -1 139 -1 248 -1 -2	1	1
27 -1 29 -1 139 -1 254 -1 -2	4	1
34 -1 21 -1 143 -1 -2	32	1
17 -1 20 -1 26 -1 34 -1 250 -1 253 -1 -2	6	1
17 -1 26 -1 61 -1 139 -1 30 -1 -2	6	1
4 -1 10 -1 71 -1 9 -1 72 -1 132 -1 139 -1 32 -1 6 -1 -2	1	1
6 -1 30 -1 65 -1 139 -1 143 -1 48 -1 32 -1 -2	1	1
113 -1 91 -1 22 -1 79 -1 56 -1 93 -1 132 -1 16 -1 181 -1 81 -1 -2	1	1
19 -1 22 -1 60 -1 15 -1 43 -1 118 -1 144 -1 -2	1	1
2 -1 21 -1 8 -1 61 -1 46 -1 117 -1 83 -1 18 -1 193 -1 -2	1	1
68 -1 15 -1 35 -1 10 -1 67 -1 118 -1 62 -1 247 -1 -2	1	1
2 -1 47 -1 28 -1 110 -1 189 -1 84 -1 -2	1	1
27 -1 20 -1 47 -1 103 -1 69 -1 -2	1	1
40 -1 35 -1 46 -1 38 -1 76 -1 143 -1 -2	1	1
15 -1 54 -1 72 -1 78 -1 56 -1 28 -1 64 -1 -2	1	1
134 -1 9 -1 40 -1 13 -1 89 -1 70 -1 82 -1 132 -1 150 -1 122 -1 85 -1 -2	1	1
101 -1 5 -1 53 -1 166 -1 184 -1 -2	1	1
74 -1 54 -1 39 -1 70 -1 44 -1 253 -1 254 -1 -2	1	1
38 -1 17 -1 150 -1 179 -1 191 -1 269 -1 -2	1	1
1 -1 20 -1 59 -1 56 -1 117 -1 6 -1 252 -1 -2	1	1
86 -1 17 -1 110 -1 57 -1 132 -1 127 -1 88 -1 82 -1 -2	1	1
14 -1 51 -1 112 -1 81 -1 66 -1 -2	2	1
11 -1 47 -1 74 -1 113 -1 133 -1 75 -1 169 -1 55 -1 99 -1 -2	1	1
57 -1 110 -1 41 -1 15 -1 133 -1 144 -1 153 -1 23 -1 -2	1	1
109 -1 8 -1 108 -1 80 -1 81 -1 132 -1 57 -1 86 -1 72 -1 -2	1	1
46 -1 30 -1 13 -1 34 -1 39 -1 -2	1	1
17 -1 75 -1 67 -1 43 -1 37 -1 212 -1 70 -1 -2	1	1
10 -1 80 -1 18 -1 63 -1 57 -1 -2	1	1
117 -1 106 -1 175 -1 -2	1	1
22 -1 43 -1 15 -1 254 -1 -2	6	1
61 -1 -2	212	1
20 -1 50 -1 98 -1 108 -1 1 -1 22 -1 132 -1 55 -1 43 -1 -2	1	1
47 -1 245 -1 246 -1 -2	97	1
113 -1 -2	341	5
108 -1 74 -1 54 -1 -2	2	1
121 -1 17 -1 111 -1 93 -1 62 -1 133 -1 83 -1 81 -1 -2	1	1
78 -1 107 -1 23 -1 62 -1 90 -1 219 -1 29 -1 -2	1	1
11 -1 29 -1 27 -1 -2	24	1
1 -1 94 -1 4 -1 57 -1 13 -1 45 -1 35 -1 144 -1 245 -1 253 -1 257 -1 -2	1	1
117 -1 12 -1 17 -1 79 -1 134 -1 37 -1 255 -1 -2	1	1
5 -1 1 -1 28 -1 82 -1 143 -1 173 -1 -2	1	1
9 -1 26 -1 14 -1 -2	85	1
8 -1 69 -1 18 -1 22 -1 141 -1 120 -1 93 -1 -2	1	1
23 -1 1 -1 -2	94	1
28 -1 56 -1 7 -1 219 -1 103 -1 246 -1 -2	1	1
36 -1 87 -1 23 -1 39 -1 4 -1 6 -1 1 -1 -2	1	1
18 -1 37 -1 247 -1 -2	38	1
8 -1 13 -1 92 -1 29 -1 103 -1 246 -1 79 -1 -2	1	1
21 -1 8 -1 9 -1 36 -1 20 -1 77 -1 37 -1 117 -1 143 -1 62 -1 39 -1 -2	1	1
8 -1 35 -1 62 -1 36 -1 45 -1 110 -1 56 -1 66 -1 143 -1 83 -1 -2	1	1
9 -1 26 -1 27 -1 15 -1 84 -1 38 -1 191 -1 -2	1	1
66 -1 4 -1 104 -1 189 -1 -2	1	1
2 -1 36 -1 32 -1 46 -1 77 -1 74 -1 25 -1 -2	1	1
51 -1 15 -1 26 -1 36 -1 143 -1 189 -1 209 -1 245 -1 -2	1	1
53 -1 11 -1 1 -1 18 -1 109 -1 37 -1 -2	1	1
107 -1 67 -1 87 -1 5 -1 246 -1 -2	1	1
8 -1 19 -1 79 -1 74 -1 133 -1 30 -1 141 -1 -2	1	1
5 -1 42 -1 35 -1 133 -1 19 -1 34 -1 253 -1 -2	1	1
9 -1 11 -1 -2	301	1
2 -1 113 -1 42 -1 139 -1 150 -1 218 -1 -2	1	1
118 -1 10 -1 51 -1 22 -1 99 -1 93 -1 133 -1 115 -1 69 -1 182 -1 -2	1	1
36 -1 246 -1 253 -1 -2	255	1
54 -1 18 -1 50 -1 1 -1 14 -1 120 -1 132 -1 136 -1 79 -1 143 -1 85 -1 -2	1	1
8 -1 18 -1 28 -1 250 -1 -2	51	1
61 -1 73 -1 17 -1 40 -1 -2	2	1
49 -1 72 -1 -2	28	1
9 -1 24 -1 19 -1 22 -1 123 -1 98 -1 74 -1 -2	1	1
27 -1 36 -1 41 -1 58 -1 32 -1 47 -1 125 -1 195 -1 -2	1	1
74 -1 68 -1 56 -1 45 -1 69 -1 78 -1 110 -1 113 -1 15 -1 21 -1 -2	1	1
94 -1 11 -1 79 -1 -2	5	1
68 -1 9 -1 31 -1 38 -1 26 -1 39 -1 69 -1 105 -1 132 -1 30 -1 5 -1 -2	1	1
4 -1 253 -1 -2	354	1
1 -1 12 -1 110 -1 33 -1 32 -1 -2	1	1
14 -1 7 -1 36 -1 117 -1 -2	14	1
53 -1 67 -1 87 -1 121 -1 16 -1 68 -1 144 -1 180 -1 -2	1	1
39 -1 29 -1 54 -1 55 -1 23 -1 81 -1 78 -1 6 -1 -2	1	1
83 -1 78 -1 39 -1 37 -1 23 -1 184 -1 77 -1 -2	1	1
110 -1 64 -1 89 -1 245 -1 253 -1 259 -1 71 -1 -2	1	1
5 -1 117 -1 217 -1 -2	1	1
9 -1 13 -1 80 -1 114 -1 64 -1 150 -1 29 -1 82 -1 248 -1 -2	1	1
13 -1 89 -1 78 -1 5 -1 58 -1 70 -1 -2	1	1
88 -1 120 -1 6 -1 150 -1 -2	2	1
58 -1 4 -1 12 -1 22 -1 27 -1 65 -1 74 -1 31 -1 82 -1 -2	1	1
16 -1 43 -1 56 -1 108 -1 73 -1 30 -1 41 -1 -2	1	1
11 -1 80 -1 92 -1 39 -1 72 -1 57 -1 71 -1 -2	1	1
84 -1 42 -1 80 -1 110 -1 69 -1 33 -1 72 -1 -2	1	1
13 -1 62 -1 18 -1 24 -1 36 -1 143 -1 246 -1 -2	2	1
95 -1 109 -1 66 -1 14 -1 141 -1 117 -1 137 -1 245 -1 175 -1 -2	1	1
2 -1 10 -1 11 -1 4 -1 81 -1 117 -1 -2	2	1
62 -1 45 -1 35 -1 79 -1 117 -1 8 -1 246 -1 -2	1	1
82 -1 42 -1 38 -1 29 -1 23 -1 119 -1 120 -1 33 -1 34 -1 81 -1 -2	1	1
5 -1 14 -1 33 -1 47 -1 39 -1 180 -1 -2	1	1
44 -1 14 -1 35 -1 34 -1 118 -1 132 -1 81 -1 205 -1 -2	1	1
37 -1 144 -1 145 -1 173 -1 209 -1 30 -1 -2	1	1
4 -1 69 -1 51 -1 62 -1 12 -1 118 -1 46 -1 -2	1	1
17 -1 73 -1 98 -1 65 -1 139 -1 150 -1 171 -1 41 -1 33 -1 248 -1 262 -1 -2	1	1
8 -1 36 -1 45 -1 89 -1 52 -1 -2	2	1
62 -1 24 -1 29 -1 35 -1 41 -1 33 -1 78 -1 143 -1 246 -1 -2	1	1
30 -1 39 -1 16 -1 89 -1 23 -1 117 -1 -2	1	1
99 -1 11 -1 18 -1 41 -1 132 -1 34 -1 66 -1 136 -1 20 -1 245 -1 249 -1 -2	1	1
34 -1 30 -1 36 -1 20 -1 72 -1 44 -1 168 -1 -2	1	1
134 -1 9 -1 115 -1 22 -1 31 -1 69 -1 117 -1 170 -1 149 -1 29 -1 -2	1	1
8 -1 35 -1 49 -1 190 -1 -2	13	1
9 -1 75 -1 50 -1 36 -1 118 -1 40 -1 -2	2	1
83 -1 2 -1 52 -1 254 -1 255 -1 -2	1	1
13 -1 110 -1 66 -1 -2	20	1
22 -1 45 -1 133 -1 151 -1 42 -1 -2	1	1
110 -1 13 -1 77 -1 116 -1 70 -1 132 -1 179 -1 141 -1 150 -1 21 -1 -2	1	1
4 -1 1 -1 54 -1 41 -1 144 -1 252 -1 -2	1	1
134 -1 153 -1 130 -1 116 -1 84 -1 147 -1 -2	1	1
9 -1 83 -1 38 -1 99 -1 110 -1 100 -1 149 -1 189 -1 247 -1 253 -1 59 -1 256 -1 -2	1	1
46 -1 42 -1 86 -1 113 -1 43 -1 255 -1 -2	1	1
25 -1 17 -1 66 -1 117 -1 133 -1 82 -1 -2	1	1
22 -1 10 -1 84 -1 60 -1 246 -1 101 -1 25 -1 259 -1 -2	1	1
1 -1 57 -1 46 -1 36 -1 37 -1 31 -1 139 -1 -2	1	1
1 -1 27 -1 18 -1 -2	73	1
54 -1 36 -1 66 -1 78 -1 144 -1 13 -1 146 -1 261 -1 -2	1	1
68 -1 38 -1 133 -1 135 -1 -2	3	1
17 -1 31 -1 49 -1 45 -1 13 -1 149 -1 193 -1 52 -1 -2	1	1
15 -1 5 -1 23 -1 133 -1 37 -1 42 -1 184 -1 24 -1 310 -1 -2	1	1
41 -1 17 -1 2 -1 51 -1 38 -1 209 -1 248 -1 262 -1 -2	1	1
23 -1 2 -1 -2	38	1
27 -1 62 -1 26 -1 52 -1 121 -1 58 -1 49 -1 37 -1 -2	1	1
68 -1 137 -1 123 -1 18 -1 96 -1 250 -1 253 -1 -2	1	1
76 -1 46 -1 40 -1 1 -1 47 -1 114 -1 118 -1 310 -1 -2	1	1
8 -1 62 -1 41 -1 49 -1 139 -1 83 -1 -2	1	1
44 -1 36 -1 17 -1 23 -1 117 -1 56 -1 256 -1 -2	1	1
83 -1 30 -1 98 -1 109 -1 112 -1 139 -1 46 -1 38 -1 -2	1	1
17 -1 13 -1 30 -1 38 -1 97 -1 133 -1 81 -1 -2	1	1
69 -1 128 -1 35 -1 100 -1 195 -1 -2	1	1
50 -1 2 -1 110 -1 121 -1 245 -1 -2	1	1
13 -1 42 -1 65 -1 30 -1 19 -1 26 -1 32 -1 36 -1 100 -1 70 -1 -2	1	1
80 -1 75 -1 49 -1 132 -1 133 -1 42 -1 47 -1 61 -1 -2	1	1
59 -1 51 -1 -2	40	1
85 -1 84 -1 110 -1 250 -1 -2	4	1
36 -1 -2	528	5
120 -1 12 -1 89 -1 71 -1 28 -1 21 -1 118 -1 6 -1 -2	1	1
65 -1 13 -1 18 -1 17 -1 125 -1 36 -1 126 -1 132 -1 93 -1 101 -1 128 -1 -2	1	1
74 -1 6 -1 117 -1 134 -1 96 -1 245 -1 -2	1	1
113 -1 111 -1 92 -1 68 -1 63 -1 245 -1 -2	1	1
59 -1 10 -1 77 -1 78 -1 121 -1 135 -1 -2	1	1
15 -1 29 -1 141 -1 46 -1 45 -1 18 -1 -2	1	1
1 -1 12 -1 17 -1 44 -1 110 -1 113 -1 118 -1 7 -1 149 -1 256 -1 289 -1 -2	1	1
10 -1 53 -1 85 -1 97 -1 52 -1 120 -1 12 -1 75 -1 -2	1	1
2 -1 8 -1 84 -1 6 -1 118 -1 134 -1 144 -1 101 -1 88 -1 -2	1	1
22 -1 76 -1 113 -1 68 -1 121 -1 147 -1 21 -1 -2	1	1
10 -1 69 -1 27 -1 -2	28	1
12 -1 50 -1 23 -1 131 -1 54 -1 36 -1 118 -1 28 -1 184 -1 189 -1 134 -1 209 -1 253 -1 49 -1 103 -1 107 -1 -2	1	1
54 -1 20 -1 110 -1 147 -1 8 -1 209 -1 -2	1	1
11 -1 10 -1 14 -1 58 -1 35 -1 245 -1 -2	1	1
18 -1 117 -1 17 -1 79 -1 58 -1 154 -1 83 -1 -2	1	1
23 -1 52 -1 19 -1 85 -1 99 -1 50 -1 94 -1 247 -1 -2	1	1
5 -1 12 -1 181 -1 63 -1 13 -1 -2	1	1
2 -1 27 -1 53 -1 108 -1 12 -1 48 -1 -2	1	1
20 -1 27 -1 41 -1 143 -1 149 -1 191 -1 209 -1 24 -1 75 -1 -2	1	1
83 -1 105 -1 111 -1 44 -1 144 -1 146 -1 253 -1 262 -1 -2	1	1
10 -1 40 -1 3 -1 71 -1 136 -1 59 -1 257 -1 -2	1	1
35 -1 95 -1 10 -1 256 -1 -2	1	1
126 -1 15 -1 121 -1 64 -1 177 -1 32 -1 82 -1 63 -1 67 -1 69 -1 -2	1	1
61 -1 110 -1 16 -1 56 -1 122 -1 57 -1 117 -1 67 -1 105 -1 145 -1 -2	1	1
47 -1 111 -1 15 -1 -2	5	1
55 -1 10 -1 133 -1 63 -1 246 -1 -2	1	1
107 -1 26 -1 108 -1 56 -1 78 -1 58 -1 105 -1 249 -1 60 -1 -2	1	1
8 -1 113 -1 14 -1 78 -1 87 -1 22 -1 70 -1 92 -1 172 -1 -2	1	1
74 -1 41 -1 1 -1 84 -1 46 -1 43 -1 -2	1	1
41 -1 14 -1 143 -1 65 -1 -2	2	1
28 -1 24 -1 21 -1 58 -1 133 -1 144 -1 246 -1 37 -1 -2	1	1
112 -1 62 -1 87 -1 7 -1 61 -1 265 -1 286 -1 -2	1	1
53 -1 69 -1 139 -1 33 -1 145 -1 150 -1 212 -1 -2	1	1
110 -1 14 -1 47 -1 143 -1 4 -1 -2	1	1
11 -1 68 -1 157 -1 57 -1 64 -1 114 -1 38 -1 191 -1 -2	1	1
43 -1 8 -1 56 -1 81 -1 78 -1 117 -1 30 -1 -2	1	1
133 -1 245 -1 90 -1 -2	3	1
4 -1 10 -1 13 -1 5 -1 141 -1 143 -1 29 -1 58 -1 -2	1	1
9 -1 18 -1 119 -1 133 -1 134 -1 153 -1 248 -1 -2	2	1
8 -1 46 -1 31 -1 140 -1 36 -1 122 -1 49 -1 58 -1 70 -1 120 -1 -2	1	1
2 -1 10 -1 15 -1 65 -1 -2	9	1
39 -1 9 -1 51 -1 71 -1 36 -1 24 -1 113 -1 6 -1 31 -1 189 -1 247 -1 84 -1 -2	1	1
2 -1 106 -1 57 -1 34 -1 -2	1	1
39 -1 13 -1 3 -1 79 -1 146 -1 197 -1 198 -1 245 -1 272 -1 -2	1	1
60 -1 8 -1 28 -1 20 -1 -2	2	1
15 -1 41 -1 51 -1 26 -1 1 -1 25 -1 35 -1 34 -1 149 -1 33 -1 -2	1	1
126 -1 87 -1 36 -1 120 -1 113 -1 37 -1 6 -1 -2	1	1
23 -1 -2	442	2
46 -1 155 -1 166 -1 -2	1	1
8 -1 107 -1 118 -1 9 -1 17 -1 65 -1 53 -1 32 -1 99 -1 50 -1 113 -1 134 -1 54 -1 153 -1 185 -1 70 -1 -2	1	1
83 -1 20 -1 26 -1 40 -1 117 -1 21 -1 133 -1 245 -1 -2	1	1
43 -1 23 -1 -2	68	1
24 -1 88 -1 112 -1 30 -1 62 -1 132 -1 95 -1 223 -1 246 -1 -2	1	1
72 -1 139 -1 -2	64	1
7 -1 133 -1 143 -1 64 -1 -2	7	1
1 -1 35 -1 113 -1 -2	184	1
40 -1 76 -1 1 -1 143 -1 63 -1 -2	1	1
8 -1 11 -1 69 -1 49 -1 75 -1 58 -1 -2	1	1
1 -1 119 -1 61 -1 139 -1 162 -1 27 -1 39 -1 253 -1 99 -1 -2	1	1
53 -1 25 -1 26 -1 70 -1 -2	1	1
40 -1 52 -1 48 -1 133 -1 43 -1 9 -1 -2	1	1
4 -1 40 -1 38 -1 5 -1 246 -1 -2	1	1
23 -1 82 -1 3 -1 247 -1 -2	1	1
29 -1 12 -1 109 -1 99 -1 103 -1 145 -1 106 -1 182 -1 185 -1 247 -1 79 -1 -2	1	1
31 -1 21 -1 36 -1 245 -1 -2	8	1
95 -1 45 -1 14 -1 105 -1 168 -1 60 -1 -2	1	1
22 -1 13 -1 18 -1 60 -1 11 -1 110 -1 68 -1 255 -1 -2	1	1
63 -1 157 -1 44 -1 136 -1 133 -1 139 -1 -2	1	1
23 -1 42 -1 191 -1 195 -1 250 -1 252 -1 -2	1	1
30 -1 48 -1 35 -1 47 -1 53 -1 310 -1 -2	1	1
98 -1 11 -1 45 -1 6 -1 82 -1 16 -1 143 -1 58 -1 -2	1	1
40 -1 55 -1 33 -1 253 -1 17 -1 -2	1	1
62 -1 44 -1 70 -1 -2	5	1
1 -1 17 -1 33 -1 68 -1 64 -1 253 -1 30 -1 -2	2	1
110 -1 158 -1 129 -1 35 -1 78 -1 79 -1 149 -1 253 -1 -2	1	1
23 -1 118 -1 246 -1 -2	113	1
44 -1 62 -1 52 -1 24 -1 68 -1 27 -1 41 -1 150 -1 58 -1 -2	1	1
41 -1 133 -1 -2	104	1
88 -1 54 -1 98 -1 143 -1 166 -1 176 -1 -2	1	1
73 -1 17 -1 82 -1 69 -1 147 -1 149 -1 182 -1 -2	1	1
19 -1 3 -1 39 -1 245 -1 12 -1 41 -1 -2	1	1
95 -1 140 -1 9 -1 77 -1 118 -1 122 -1 -2	1	1
11 -1 133 -1 254 -1 -2	11	1
168 -1 99 -1 70 -1 -2	1	1
35 -1 27 -1 -2	150	1
13 -1 3 -1 41 -1 63 -1 247 -1 -2	1	1
16 -1 68 -1 1 -1 7 -1 114 -1 -2	1	1
17 -1 18 -1 36 -1 12 -1 2 -1 37 -1 1 -1 52 -1 175 -1 262 -1 -2	1	1
3 -1 105 -1 41 -1 132 -1 143 -1 153 -1 7 -1 262 -1 -2	1	1
11 -1 36 -1 17 -1 39 -1 53 -1 63 -1 168 -1 252 -1 -2	1	1
175 -1 42 -1 54 -1 197 -1 250 -1 49 -1 253 -1 -2	1	1
4 -1 61 -1 36 -1 48 -1 134 -1 183 -1 -2	1	1
10 -1 17 -1 35 -1 254 -1 -2	27	1
40 -1 88 -1 90 -1 133 -1 247 -1 71 -1 -2	1	1
5 -1 86 -1 38 -1 35 -1 36 -1 183 -1 50 -1 -2	1	1
24 -1 29 -1 46 -1 149 -1 23 -1 195 -1 14 -1 -2	1	1
1 -1 35 -1 117 -1 120 -1 10 -1 40 -1 184 -1 44 -1 284 -1 7 -1 -2	1	1
30 -1 79 -1 24 -1 190 -1 -2	3	1
2 -1 12 -1 35 -1 41 -1 44 -1 118 -1 246 -1 255 -1 -2	1	1
39 -1 18 -1 44 -1 132 -1 20 -1 179 -1 68 -1 235 -1 -2	1	1
96 -1 68 -1 36 -1 166 -1 117 -1 91 -1 145 -1 -2	1	1
1 -1 94 -1 17 -1 47 -1 111 -1 113 -1 66 -1 46 -1 101 -1 -2	1	1
82 -1 119 -1 62 -1 22 -1 -2	1	1
62 -1 29 -1 43 -1 114 -1 36 -1 171 -1 -2	1	1
19 -1 35 -1 88 -1 79 -1 -2	5	1
16 -1 79 -1 110 -1 13 -1 246 -1 -2	4	1
14 -1 56 -1 120 -1 59 -1 74 -1 -2	1	1
139 -1 95 -1 54 -1 53 -1 116 -1 42 -1 41 -1 79 -1 131 -1 179 -1 -2	1	1
42 -1 20 -1 19 -1 71 -1 133 -1 143 -1 69 -1 145 -1 247 -1 59 -1 257 -1 -2	1	1
1 -1 110 -1 168 -1 165 -1 69 -1 144 -1 149 -1 247 -1 -2	1	1
118 -1 146 -1 15 -1 29 -1 43 -1 -2	1	1
1 -1 4 -1 74 -1 14 -1 94 -1 30 -1 40 -1 21 -1 -2	1	1
47 -1 40 -1 117 -1 249 -1 68 -1 -2	1	1
15 -1 17 -1 67 -1 132 -1 133 -1 111 -1 59 -1 -2	1	1
2 -1 46 -1 73 -1 13 -1 52 -1 82 -1 111 -1 189 -1 33 -1 -2	1	1
20 -1 114 -1 246 -1 28 -1 -2	5	1
15 -1 20 -1 71 -1 36 -1 103 -1 153 -1 6 -1 111 -1 187 -1 245 -1 257 -1 -2	1	1
64 -1 19 -1 87 -1 117 -1 45 -1 30 -1 -2	1	1
48 -1 63 -1 14 -1 17 -1 118 -1 121 -1 61 -1 149 -1 180 -1 246 -1 252 -1 -2	1	1
11 -1 26 -1 55 -1 110 -1 117 -1 67 -1 47 -1 7 -1 256 -1 -2	1	1
5 -1 29 -1 71 -1 123 -1 84 -1 246 -1 247 -1 -2	1	1
36 -1 144 -1 46 -1 -2	28	1
94 -1 44 -1 52 -1 73 -1 107 -1 46 -1 84 -1 -2	1	1
2 -1 17 -1 29 -1 7 -1 113 -1 65 -1 27 -1 41 -1 -2	1	1
18 -1 28 -1 42 -1 118 -1 144 -1 253 -1 -2	8	1
62 -1 143 -1 262 -1 -2	22	1
2 -1 76 -1 111 -1 113 -1 41 -1 -2	1	1
51 -1 10 -1 17 -1 53 -1 112 -1 30 -1 81 -1 5 -1 65 -1 2 -1 3 -1 64 -1 144 -1 -2	1	1
71 -1 36 -1 17 -1 141 -1 54 -1 -2	1	1
20 -1 35 -1 36 -1 44 -1 79 -1 133 -1 19 -1 58 -1 253 -1 -2	1	1
17 -1 83 -1 49 -1 4 -1 184 -1 210 -1 -2	1	1
54 -1 72 -1 110 -1 118 -1 47 -1 163 -1 174 -1 246 -1 -2	1	1
8 -1 46 -1 7 -1 114 -1 71 -1 68 -1 139 -1 171 -1 -2	1	1
32 -1 14 -1 98 -1 20 -1 36 -1 120 -1 253 -1 -2	1	1
64 -1 45 -1 7 -1 150 -1 -2	3	1
141 -1 147 -1 24 -1 -2	2	1
110 -1 8 -1 167 -1 28 -1 69 -1 117 -1 92 -1 -2	1	1
10 -1 85 -1 105 -1 94 -1 103 -1 104 -1 68 -1 96 -1 153 -1 -2	1	1
35 -1 139 -1 171 -1 -2	17	1
5 -1 1 -1 147 -1 46 -1 52 -1 246 -1 -2	1	1
10 -1 45 -1 26 -1 84 -1 -2	4	1
66 -1 9 -1 35 -1 110 -1 218 -1 -2	2	1
19 -1 16 -1 -2	107	1
186 -1 96 -1 46 -1 141 -1 156 -1 117 -1 163 -1 120 -1 259 -1 135 -1 -2	1	1
32 -1 35 -1 9 -1 15 -1 48 -1 4 -1 61 -1 -2	1	1
38 -1 36 -1 120 -1 -2	16	1
8 -1 34 -1 49 -1 17 -1 79 -1 197 -1 -2	1	1
95 -1 102 -1 145 -1 153 -1 -2	1	1
9 -1 41 -1 13 -1 44 -1 -2	6	1
82 -1 1 -1 10 -1 19 -1 108 -1 64 -1 149 -1 171 -1 -2	1	1
56 -1 27 -1 9 -1 35 -1 88 -1 23 -1 149 -1 257 -1 -2	1	1
83 -1 65 -1 109 -1 38 -1 67 -1 147 -1 153 -1 -2	1	1
5 -1 9 -1 253 -1 -2	145	1
83 -1 17 -1 35 -1 22 -1 24 -1 54 -1 70 -1 59 -1 -2	1	1
67 -1 44 -1 179 -1 41 -1 71 -1 246 -1 -2	1	1
46 -1 27 -1 96 -1 47 -1 40 -1 248 -1 253 -1 67 -1 255 -1 257 -1 -2	1	1
78 -1 92 -1 33 -1 253 -1 261 -1 -2	1	1
18 -1 66 -1 193 -1 246 -1 -2	1	1
10 -1 19 -1 119 -1 147 -1 53 -1 -2	2	1
18 -1 109 -1 110 -1 120 -1 47 -1 32 -1 254 -1 -2	1	1
110 -1 158 -1 166 -1 58 -1 149 -1 85 -1 -2	1	1
24 -1 48 -1 78 -1 143 -1 33 -1 -2	2	1
19 -1 8 -1 30 -1 9 -1 42 -1 54 -1 17 -1 39 -1 71 -1 84 -1 108 -1 133 -1 146 -1 147 -1 18 -1 150 -1 245 -1 -2	1	1
30 -1 -2	344	1
43 -1 81 -1 18 -1 17 -1 19 -1 97 -1 60 -1 47 -1 70 -1 57 -1 84 -1 82 -1 143 -1 -2	1	1
10 -1 43 -1 117 -1 72 -1 189 -1 193 -1 245 -1 58 -1 -2	1	1
15 -1 23 -1 12 -1 20 -1 36 -1 38 -1 62 -1 -2	1	1
59 -1 1 -1 41 -1 42 -1 70 -1 120 -1 15 -1 -2	1	1
9 -1 4 -1 144 -1 53 -1 -2	7	1
18 -1 19 -1 111 -1 57 -1 -2	1	1
5 -1 13 -1 100 -1 25 -1 62 -1 48 -1 50 -1 67 -1 -2	1	1
8 -1 15 -1 10 -1 13 -1 38 -1 7 -1 45 -1 58 -1 -2	1	1
75 -1 8 -1 17 -1 22 -1 74 -1 111 -1 83 -1 18 -1 47 -1 -2	1	1
1 -1 35 -1 54 -1 62 -1 78 -1 143 -1 20 -1 83 -1 227 -1 -2	1	1
5 -1 35 -1 136 -1 258 -1 -2	3	1
14 -1 23 -1 27 -1 79 -1 255 -1 -2	4	1
13 -1 54 -1 133 -1 184 -1 -2	4	1
35 -1 66 -1 46 -1 144 -1 78 -1 -2	1	1
8 -1 22 -1 144 -1 72 -1 50 -1 -2	1	1
1 -1 143 -1 32 -1 65 -1 -2	2	1
13 -1 -2	476	3
50 -1 60 -1 47 -1 113 -1 120 -1 11 -1 132 -1 259 -1 -2	1	1
50 -1 9 -1 67 -1 91 -1 13 -1 52 -1 12 -1 55 -1 110 -1 86 -1 -2	1	1
4 -1 68 -1 113 -1 149 -1 29 -1 150 -1 179 -1 198 -1 262 -1 -2	1	1
34 -1 111 -1 23 -1 -2	5	1
107 -1 82 -1 253 -1 -2	5	1
57 -1 69 -1 72 -1 58 -1 16 -1 12 -1 23 -1 124 -1 45 -1 3 -1 -2	1	1
18 -1 58 -1 84 -1 149 -1 250 -1 -2	3	1
15 -1 18 -1 22 -1 53 -1 50 -1 67 -1 95 -1 96 -1 63 -1 258 -1 -2	1	1
121 -1 166 -1 79 -1 247 -1 249 -1 145 -1 -2	1	1
21 -1 66 -1 90 -1 110 -1 51 -1 77 -1 58 -1 247 -1 -2	1	1
118 -1 -2	439	4
1 -1 63 -1 19 -1 68 -1 27 -1 143 -1 88 -1 76 -1 -2	1	1
11 -1 81 -1 147 -1 42 -1 -2	2	1
39 -1 41 -1 54 -1 -2	22	1
29 -1 20 -1 61 -1 5 -1 -2	2	1
8 -1 38 -1 6 -1 139 -1 43 -1 153 -1 32 -1 23 -1 253 -1 -2	1	1
245 -1 52 -1 252 -1 37 -1 25 -1 -2	1	1
77 -1 23 -1 110 -1 132 -1 107 -1 50 -1 -2	1	1
90 -1 19 -1 84 -1 94 -1 63 -1 -2	1	1
8 -1 112 -1 17 -1 69 -1 103 -1 35 -1 245 -1 100 -1 -2	1	1
84 -1 143 -1 -2	67	1
61 -1 18 -1 15 -1 91 -1 20 -1 104 -1 37 -1 31 -1 97 -1 253 -1 -2	1	1
36 -1 139 -1 57 -1 150 -1 195 -1 -2	1	1
8 -1 23 -1 -2	331	1
18 -1 9 -1 10 -1 66 -1 14 -1 -2	1	1
17 -1 26 -1 76 -1 92 -1 253 -1 -2	3	1
13 -1 63 -1 26 -1 47 -1 -2	4	1
40 -1 55 -1 132 -1 66 -1 139 -1 62 -1 -2	1	1
8 -1 81 -1 119 -1 136 -1 179 -1 37 -1 -2	1	1
3 -1 41 -1 24 -1 150 -1 189 -1 -2	1	1
9 -1 12 -1 14 -1 26 -1 40 -1 1 -1 117 -1 38 -1 181 -1 -2	1	1
112 -1 14 -1 17 -1 54 -1 114 -1 167 -1 79 -1 118 -1 29 -1 -2	1	1
20 -1 4 -1 152 -1 49 -1 21 -1 22 -1 -2	1	1
8 -1 28 -1 53 -1 31 -1 52 -1 43 -1 146 -1 295 -1 -2	1	1
24 -1 19 -1 37 -1 109 -1 41 -1 -2	1	1
1 -1 79 -1 30 -1 38 -1 16 -1 -2	2	1
48 -1 90 -1 133 -1 256 -1 83 -1 -2	1	1
11 -1 76 -1 139 -1 66 -1 73 -1 180 -1 -2	1	1
50 -1 1 -1 35 -1 187 -1 27 -1 -2	1	1
2 -1 13 -1 117 -1 54 -1 259 -1 -2	1	1
10 -1 57 -1 76 -1 84 -1 253 -1 -2	1	1
110 -1 124 -1 179 -1 17 -1 26 -1 67 -1 105 -1 268 -1 135 -1 -2	1	1
32 -1 40 -1 134 -1 154 -1 195 -1 -2	1	1
35 -1 134 -1 143 -1 72 -1 2 -1 165 -1 179 -1 253 -1 21 -1 -2	1	1
101 -1 65 -1 91 -1 30 -1 38 -1 97 -1 29 -1 -2	1	1
144 -1 -2	440	4
9 -1 21 -1 58 -1 46 -1 -2	3	1
72 -1 23 -1 39 -1 56 -1 78 -1 139 -1 53 -1 -2	1	1
2 -1 56 -1 19 -1 96 -1 139 -1 144 -1 85 -1 -2	1	1
61 -1 96 -1 109 -1 14 -1 17 -1 1 -1 134 -1 168 -1 247 -1 120 -1 175 -1 -2	1	1
11 -1 36 -1 108 -1 112 -1 118 -1 149 -1 180 -1 255 -1 260 -1 -2	1	1
31 -1 52 -1 94 -1 28 -1 146 -1 50 -1 22 -1 -2	1	1
58 -1 21 -1 46 -1 43 -1 118 -1 38 -1 -2	1	1
2 -1 5 -1 15 -1 8 -1 118 -1 72 -1 19 -1 26 -1 99 -1 147 -1 153 -1 111 -1 59 -1 -2	1	1
1 -1 46 -1 34 -1 83 -1 97 -1 117 -1 84 -1 25 -1 147 -1 31 -1 -2	1	1
41 -1 13 -1 14 -1 11 -1 75 -1 60 -1 93 -1 54 -1 21 -1 -2	1	1
5 -1 15 -1 52 -1 266 -1 -2	2	1
36 -1 117 -1 -2	374	2
20 -1 18 -1 133 -1 -2	35	1
51 -1 60 -1 133 -1 170 -1 249 -1 -2	1	1
11 -1 108 -1 46 -1 36 -1 6 -1 -2	1	1
2 -1 50 -1 56 -1 74 -1 266 -1 -2	1	1
1 -1 38 -1 8 -1 44 -1 16 -1 67 -1 46 -1 50 -1 63 -1 253 -1 -2	1	1
67 -1 143 -1 76 -1 -2	8	1
1 -1 16 -1 49 -1 44 -1 -2	3	1
14 -1 65 -1 76 -1 74 -1 110 -1 139 -1 64 -1 -2	1	1
25 -1 20 -1 40 -1 36 -1 41 -1 209 -1 284 -1 309 -1 310 -1 -2	1	1
28 -1 35 -1 149 -1 161 -1 250 -1 255 -1 -2	2	1
13 -1 38 -1 15 -1 66 -1 190 -1 -2	1	1
11 -1 49 -1 51 -1 120 -1 77 -1 245 -1 -2	1	1
36 -1 127 -1 184 -1 20 -1 -2	1	1
1 -1 59 -1 56 -1 110 -1 18 -1 144 -1 177 -1 -2	1	1
10 -1 23 -1 38 -1 9 -1 121 -1 15 -1 30 -1 67 -1 -2	1	1
21 -1 17 -1 27 -1 78 -1 110 -1 51 -1 113 -1 67 -1 49 -1 -2	1	1
2 -1 35 -1 65 -1 30 -1 99 -1 93 -1 132 -1 103 -1 253 -1 59 -1 84 -1 -2	1	1
9 -1 31 -1 -2	263	2
100 -1 80 -1 246 -1 253 -1 257 -1 -2	1	1
51 -1 78 -1 79 -1 143 -1 -2	54	1
27 -1 -2	513	4
52 -1 26 -1 53 -1 74 -1 15 -1 149 -1 51 -1 -2	1	1
8 -1 19 -1 99 -1 104 -1 38 -1 62 -1 102 -1 63 -1 -2	1	1
2 -1 26 -1 117 -1 -2	165	1
2 -1 12 -1 8 -1 27 -1 23 -1 -2	3	1
17 -1 70 -1 57 -1 83 -1 53 -1 195 -1 198 -1 247 -1 250 -1 34 -1 -2	1	1
90 -1 13 -1 16 -1 25 -1 73 -1 55 -1 48 -1 60 -1 118 -1 6 -1 -2	1	1
81 -1 124 -1 143 -1 108 -1 58 -1 247 -1 -2	1	1
27 -1 55 -1 35 -1 -2	18	1
38 -1 22 -1 31 -1 110 -1 7 -1 43 -1 117 -1 29 -1 250 -1 -2	1	1
18 -1 40 -1 83 -1 52 -1 147 -1 24 -1 310 -1 -2	1	1
8 -1 117 -1 6 -1 41 -1 179 -1 37 -1 -2	1	1
57 -1 137 -1 268 -1 -2	1	1
10 -1 13 -1 69 -1 98 -1 64 -1 109 -1 112 -1 51 -1 84 -1 38 -1 -2	1	1
4 -1 12 -1 114 -1 118 -1 266 -1 -2	1	1
36 -1 120 -1 104 -1 48 -1 -2	1	1
4 -1 18 -1 7 -1 50 -1 33 -1 173 -1 62 -1 -2	1	1
11 -1 18 -1 53 -1 40 -1 68 -1 39 -1 63 -1 -2	1	1
26 -1 90 -1 38 -1 56 -1 112 -1 -2	1	1
1 -1 37 -1 139 -1 34 -1 62 -1 -2	3	1
17 -1 23 -1 27 -1 45 -1 41 -1 46 -1 57 -1 120 -1 147 -1 179 -1 -2	1	1
50 -1 34 -1 39 -1 56 -1 4 -1 22 -1 -2	1	1
21 -1 10 -1 88 -1 -2	3	1
5 -1 79 -1 113 -1 133 -1 6 -1 37 -1 149 -1 21 -1 -2	1	1
8 -1 9 -1 79 -1 221 -1 245 -1 -2	1	1
86 -1 46 -1 68 -1 56 -1 253 -1 -2	1	1
24 -1 78 -1 80 -1 28 -1 110 -1 60 -1 -2	1	1
74 -1 69 -1 2 -1 149 -1 39 -1 -2	1	1
18 -1 53 -1 45 -1 -2	42	1
28 -1 48 -1 121 -1 133 -1 52 -1 179 -1 30 -1 -2	1	1
25 -1 64 -1 83 -1 63 -1 113 -1 -2	1	1
117 -1 42 -1 61 -1 -2	8	1
32 -1 53 -1 61 -1 27 -1 59 -1 137 -1 24 -1 39 -1 -2	1	1
13 -1 44 -1 117 -1 55 -1 245 -1 -2	5	1
78 -1 48 -1 118 -1 68 -1 163 -1 253 -1 -2	1	1
77 -1 79 -1 12 -1 -2	7	1
35 -1 246 -1 51 -1 -2	16	1
30 -1 47 -1 39 -1 59 -1 61 -1 -2	1	1
21 -1 26 -1 16 -1 -2	26	1
74 -1 27 -1 117 -1 132 -1 232 -1 235 -1 -2	1	1
5 -1 35 -1 262 -1 278 -1 -2	1	1
78 -1 33 -1 -2	92	1
117 -1 53 -1 153 -1 173 -1 179 -1 259 -1 -2	1	1
47 -1 78 -1 23 -1 50 -1 65 -1 195 -1 83 -1 -2	1	1
18 -1 26 -1 74 -1 60 -1 108 -1 109 -1 117 -1 139 -1 -2	1	1
11 -1 15 -1 26 -1 117 -1 120 -1 13 -1 63 -1 38 -1 146 -1 -2	1	1
97 -1 22 -1 92 -1 151 -1 170 -1 39 -1 195 -1 -2	1	1
139 -1 76 -1 6 -1 -2	2	1
9 -1 49 -1 20 -1 50 -1 47 -1 81 -1 143 -1 191 -1 209 -1 252 -1 -2	1	1
82 -1 136 -1 29 -1 66 -1 210 -1 41 -1 -2	1	1
12 -1 78 -1 22 -1 60 -1 5 -1 80 -1 -2	1	1
54 -1 180 -1 36 -1 170 -1 -2	1	1
13 -1 17 -1 44 -1 40 -1 8 -1 41 -1 117 -1 14 -1 -2	1	1
1 -1 11 -1 38 -1 31 -1 63 -1 -2	4	1
15 -1 13 -1 19 -1 105 -1 145 -1 190 -1 101 -1 258 -1 -2	1	1
23 -1 26 -1 166 -1 247 -1 -2	4	1
9 -1 50 -1 13 -1 5 -1 136 -1 39 -1 190 -1 -2	1	1
8 -1 17 -1 20 -1 70 -1 50 -1 78 -1 184 -1 247 -1 -2	1	1
66 -1 33 -1 34 -1 47 -1 103 -1 50 -1 53 -1 15 -1 253 -1 -2	1	1
1 -1 35 -1 17 -1 47 -1 19 -1 84 -1 -2	1	1
113 -1 1 -1 143 -1 33 -1 163 -1 184 -1 252 -1 -2	1	1
46 -1 117 -1 -2	188	1
4 -1 27 -1 -2	174	1
24 -1 117 -1 29 -1 3 -1 180 -1 -2	1	1
13 -1 19 -1 81 -1 133 -1 67 -1 -2	1	1
14 -1 12 -1 132 -1 34 -1 171 -1 38 -1 -2	1	1
1 -1 80 -1 19 -1 12 -1 59 -1 253 -1 -2	1	1
36 -1 9 -1 83 -1 87 -1 23 -1 39 -1 78 -1 71 -1 6 -1 133 -1 66 -1 41 -1 -2	1	1
64 -1 24 -1 65 -1 117 -1 120 -1 86 -1 163 -1 -2	1	1
8 -1 35 -1 52 -1 113 -1 117 -1 88 -1 -2	1	1
54 -1 37 -1 35 -1 21 -1 42 -1 -2	1	1
81 -1 38 -1 132 -1 59 -1 -2	2	1
41 -1 71 -1 -2	35	1
35 -1 8 -1 11 -1 12 -1 53 -1 64 -1 81 -1 117 -1 -2	1	1
2 -1 8 -1 46 -1 13 -1 118 -1 269 -1 -2	1	1
22 -1 34 -1 86 -1 -2	6	1
80 -1 4 -1 34 -1 38 -1 250 -1 -2	1	1
22 -1 9 -1 40 -1 36 -1 90 -1 23 -1 114 -1 117 -1 146 -1 64 -1 272 -1 -2	1	1
14 -1 29 -1 10 -1 27 -1 19 -1 36 -1 32 -1 132 -1 3 -1 25 -1 43 -1 -2	1	1
1 -1 9 -1 118 -1 190 -1 15 -1 255 -1 -2	1	1
9 -1 2 -1 19 -1 15 -1 150 -1 59 -1 40 -1 -2	1	1
38 -1 18 -1 62 -1 58 -1 37 -1 219 -1 -2	1	1
55 -1 45 -1 27 -1 19 -1 24 -1 246 -1 -2	1	1
11 -1 23 -1 74 -1 33 -1 255 -1 -2	2	1
14 -1 22 -1 15 -1 118 -1 50 -1 133 -1 245 -1 -2	1	1
9 -1 47 -1 198 -1 246 -1 255 -1 -2	1	1
110 -1 180 -1 246 -1 -2	16	1
101 -1 88 -1 65 -1 110 -1 133 -1 71 -1 -2	1	1
157 -1 22 -1 58 -1 89 -1 47 -1 59 -1 117 -1 173 -1 184 -1 247 -1 -2	1	1
106 -1 35 -1 110 -1 36 -1 153 -1 99 -1 25 -1 266 -1 -2	1	1
10 -1 17 -1 76 -1 35 -1 43 -1 56 -1 40 -1 -2	1	1
13 -1 2 -1 10 -1 189 -1 253 -1 21 -1 -2	1	1
31 -1 61 -1 111 -1 24 -1 51 -1 145 -1 245 -1 13 -1 -2	1	1
9 -1 77 -1 105 -1 17 -1 90 -1 106 -1 49 -1 118 -1 62 -1 6 -1 144 -1 246 -1 -2	1	1
8 -1 95 -1 10 -1 14 -1 19 -1 115 -1 31 -1 57 -1 -2	1	1
27 -1 145 -1 150 -1 179 -1 -2	8	1
23 -1 13 -1 35 -1 50 -1 -2	6	1
90 -1 16 -1 27 -1 23 -1 83 -1 64 -1 74 -1 253 -1 309 -1 -2	1	1
46 -1 14 -1 112 -1 22 -1 86 -1 49 -1 253 -1 -2	1	1
16 -1 50 -1 64 -1 62 -1 58 -1 253 -1 32 -1 73 -1 -2	1	1
97 -1 35 -1 53 -1 65 -1 68 -1 41 -1 -2	1	1
2 -1 51 -1 18 -1 22 -1 3 -1 136 -1 141 -1 36 -1 100 -1 -2	1	1
27 -1 51 -1 143 -1 171 -1 43 -1 -2	2	1
55 -1 139 -1 245 -1 -2	72	1
23 -1 17 -1 82 -1 78 -1 117 -1 -2	1	1
5 -1 8 -1 19 -1 66 -1 63 -1 85 -1 6 -1 -2	1	1
17 -1 1 -1 59 -1 46 -1 13 -1 113 -1 41 -1 -2	1	1
18 -1 72 -1 46 -1 118 -1 -2	1	1
27 -1 108 -1 110 -1 111 -1 1 -1 21 -1 71 -1 250 -1 -2	1	1
22 -1 23 -1 32 -1 36 -1 101 -1 25 -1 -2	2	1
111 -1 35 -1 -2	13	1
10 -1 25 -1 191 -1 -2	17	1
2 -1 22 -1 25 -1 13 -1 143 -1 -2	2	1
95 -1 90 -1 116 -1 84 -1 82 -1 253 -1 -2	1	1
17 -1 65 -1 54 -1 -2	26	1
28 -1 60 -1 42 -1 7 -1 81 -1 85 -1 -2	1	1
121 -1 44 -1 149 -1 189 -1 -2	2	1
17 -1 35 -1 85 -1 53 -1 31 -1 111 -1 33 -1 59 -1 -2	1	1
77 -1 17 -1 23 -1 59 -1 258 -1 -2	1	1
14 -1 58 -1 76 -1 64 -1 -2	3	1
55 -1 8 -1 31 -1 35 -1 12 -1 75 -1 152 -1 247 -1 -2	1	1
9 -1 10 -1 47 -1 95 -1 -2	3	1
79 -1 147 -1 253 -1 -2	36	1
60 -1 17 -1 62 -1 117 -1 40 -1 -2	3	1
110 -1 68 -1 150 -1 33 -1 -2	3	1
73 -1 35 -1 32 -1 13 -1 -2	1	1
1 -1 4 -1 26 -1 165 -1 191 -1 14 -1 -2	1	1
22 -1 15 -1 58 -1 36 -1 69 -1 45 -1 25 -1 139 -1 195 -1 59 -1 288 -1 -2	1	1
20 -1 18 -1 149 -1 -2	35	1
99 -1 47 -1 133 -1 245 -1 -2	5	1
9 -1 53 -1 17 -1 21 -1 70 -1 -2	1	1
50 -1 60 -1 2 -1 58 -1 19 -1 114 -1 143 -1 -2	1	1
70 -1 52 -1 95 -1 14 -1 50 -1 121 -1 139 -1 35 -1 59 -1 43 -1 71 -1 -2	1	1
10 -1 13 -1 30 -1 72 -1 84 -1 46 -1 58 -1 -2	1	1
11 -1 37 -1 132 -1 4 -1 -2	7	1
76 -1 90 -1 78 -1 36 -1 62 -1 117 -1 253 -1 -2	1	1
2 -1 29 -1 19 -1 117 -1 143 -1 144 -1 -2	8	1
45 -1 18 -1 20 -1 132 -1 69 -1 189 -1 190 -1 -2	1	1
26 -1 60 -1 139 -1 42 -1 -2	8	1
51 -1 90 -1 30 -1 41 -1 143 -1 86 -1 -2	1	1
65 -1 246 -1 252 -1 94 -1 -2	1	1
5 -1 133 -1 143 -1 149 -1 283 -1 -2	4	1
15 -1 120 -1 21 -1 43 -1 173 -1 5 -1 190 -1 -2	1	1
78 -1 109 -1 33 -1 209 -1 40 -1 84 -1 -2	1	1
44 -1 13 -1 20 -1 114 -1 118 -1 72 -1 56 -1 -2	1	1
15 -1 246 -1 -2	187	1
14 -1 149 -1 253 -1 -2	126	1
111 -1 78 -1 83 -1 100 -1 69 -1 136 -1 41 -1 121 -1 81 -1 105 -1 -2	1	1
54 -1 71 -1 79 -1 122 -1 134 -1 31 -1 149 -1 193 -1 245 -1 43 -1 -2	1	1
166 -1 113 -1 9 -1 31 -1 69 -1 131 -1 119 -1 179 -1 94 -1 245 -1 246 -1 122 -1 85 -1 -2	1	1
11 -1 40 -1 78 -1 67 -1 -2	3	1
8 -1 144 -1 -2	376	2
48 -1 54 -1 27 -1 255 -1 -2	3	1
41 -1 135 -1 -2	32	1
14 -1 72 -1 26 -1 13 -1 21 -1 -2	1	1
27 -1 35 -1 32 -1 53 -1 132 -1 133 -1 69 -1 -2	1	1
5 -1 29 -1 10 -1 65 -1 38 -1 24 -1 105 -1 133 -1 115 -1 145 -1 111 -1 70 -1 -2	1	1
72 -1 90 -1 39 -1 132 -1 -2	1	1
118 -1 144 -1 150 -1 -2	118	1
8 -1 30 -1 85 -1 53 -1 38 -1 132 -1 96 -1 169 -1 187 -1 70 -1 245 -1 -2	1	1
18 -1 71 -1 66 -1 54 -1 258 -1 -2	1	1
12 -1 33 -1 117 -1 118 -1 18 -1 146 -1 179 -1 246 -1 -2	1	1
15 -1 51 -1 54 -1 36 -1 250 -1 -2	1	1
17 -1 53 -1 26 -1 44 -1 58 -1 21 -1 -2	1	1
20 -1 119 -1 150 -1 -2	4	1
58 -1 79 -1 14 -1 18 -1 36 -1 51 -1 32 -1 29 -1 69 -1 -2	1	1
26 -1 113 -1 146 -1 191 -1 3 -1 253 -1 -2	1	1
69 -1 136 -1 147 -1 181 -1 9 -1 14 -1 -2	1	1
35 -1 -2	595	6
1 -1 44 -1 59 -1 43 -1 -2	8	1
8 -1 84 -1 41 -1 141 -1 38 -1 77 -1 195 -1 -2	1	1
9 -1 55 -1 141 -1 50 -1 181 -1 -2	1	1
9 -1 18 -1 43 -1 109 -1 49 -1 139 -1 -2	2	1
45 -1 20 -1 31 -1 140 -1 122 -1 117 -1 84 -1 146 -1 -2	1	1
37 -1 17 -1 29 -1 -2	24	1
8 -1 13 -1 87 -1 78 -1 110 -1 6 -1 118 -1 31 -1 133 -1 19 -1 80 -1 -2	1	1
1 -1 61 -1 -2	154	1
2 -1 6 -1 24 -1 29 -1 35 -1 110 -1 253 -1 -2	1	1
96 -1 5 -1 68 -1 17 -1 88 -1 12 -1 16 -1 147 -1 -2	1	1
18 -1 22 -1 51 -1 35 -1 41 -1 -2	5	1
17 -1 26 -1 108 -1 133 -1 12 -1 251 -1 -2	2	1
143 -1 149 -1 68 -1 -2	7	1
121 -1 23 -1 155 -1 156 -1 79 -1 57 -1 84 -1 163 -1 247 -1 -2	1	1
15 -1 51 -1 -2	93	1
1 -1 8 -1 46 -1 18 -1 43 -1 114 -1 245 -1 -2	1	1
9 -1 38 -1 81 -1 149 -1 34 -1 27 -1 -2	1	1
5 -1 66 -1 27 -1 65 -1 31 -1 46 -1 76 -1 51 -1 -2	1	1
38 -1 2 -1 149 -1 191 -1 -2	4	1
17 -1 58 -1 66 -1 54 -1 -2	2	1
23 -1 114 -1 77 -1 143 -1 -2	3	1
13 -1 48 -1 52 -1 28 -1 25 -1 134 -1 66 -1 59 -1 150 -1 56 -1 219 -1 245 -1 -2	1	1
87 -1 28 -1 56 -1 117 -1 143 -1 154 -1 247 -1 98 -1 -2	1	1
79 -1 250 -1 22 -1 -2	6	1
58 -1 50 -1 -2	52	1
33 -1 108 -1 109 -1 1 -1 147 -1 248 -1 -2	3	1
15 -1 10 -1 53 -1 132 -1 103 -1 104 -1 100 -1 63 -1 253 -1 -2	1	1
95 -1 9 -1 108 -1 1 -1 79 -1 101 -1 50 -1 -2	1	1
66 -1 77 -1 36 -1 -2	3	1
3 -1 4 -1 15 -1 44 -1 29 -1 253 -1 -2	1	1
72 -1 19 -1 30 -1 58 -1 147 -1 50 -1 246 -1 31 -1 -2	1	1
10 -1 28 -1 6 -1 111 -1 38 -1 7 -1 21 -1 283 -1 -2	1	1
15 -1 117 -1 179 -1 180 -1 227 -1 230 -1 85 -1 247 -1 -2	1	1
11 -1 16 -1 36 -1 83 -1 117 -1 -2	2	1
9 -1 12 -1 30 -1 10 -1 48 -1 57 -1 168 -1 180 -1 -2	1	1
2 -1 9 -1 117 -1 54 -1 -2	16	1
8 -1 6 -1 63 -1 76 -1 26 -1 25 -1 69 -1 113 -1 147 -1 75 -1 32 -1 245 -1 -2	1	1
26 -1 36 -1 62 -1 53 -1 113 -1 56 -1 96 -1 145 -1 149 -1 24 -1 -2	1	1
89 -1 8 -1 56 -1 253 -1 -2	2	1
13 -1 247 -1 62 -1 -2	4	1
22 -1 133 -1 150 -1 250 -1 -2	23	1
2 -1 40 -1 145 -1 -2	8	1
1 -1 87 -1 37 -1 -2	7	1
49 -1 67 -1 139 -1 253 -1 -2	8	1
70 -1 120 -1 133 -1 191 -1 -2	2	1
7 -1 108 -1 136 -1 -2	3	1
47 -1 23 -1 27 -1 79 -1 73 -1 20 -1 136 -1 143 -1 14 -1 249 -1 -2	1	1
13 -1 90 -1 18 -1 19 -1 30 -1 253 -1 -2	1	1
36 -1 52 -1 12 -1 15 -1 21 -1 37 -1 -2	1	1
22 -1 47 -1 34 -1 189 -1 190 -1 61 -1 -2	1	1
63 -1 10 -1 26 -1 36 -1 -2	2	1
52 -1 2 -1 141 -1 15 -1 91 -1 94 -1 95 -1 -2	1	1
17 -1 53 -1 45 -1 22 -1 -2	5	1
5 -1 40 -1 26 -1 1 -1 133 -1 81 -1 -2	1	1
4 -1 19 -1 44 -1 78 -1 35 -1 64 -1 -2	1	1
83 -1 50 -1 47 -1 52 -1 111 -1 7 -1 112 -1 139 -1 44 -1 144 -1 10 -1 149 -1 248 -1 252 -1 -2	1	1
11 -1 17 -1 5 -1 24 -1 20 -1 37 -1 97 -1 66 -1 59 -1 150 -1 -2	1	1
18 -1 54 -1 119 -1 169 -1 80 -1 -2	1	1
110 -1 78 -1 79 -1 57 -1 137 -1 67 -1 259 -1 145 -1 -2	1	1
77 -1 27 -1 84 -1 -2	2	1
15 -1 53 -1 6 -1 46 -1 -2	7	1
2 -1 12 -1 50 -1 106 -1 26 -1 102 -1 53 -1 110 -1 36 -1 80 -1 16 -1 -2	1	1
14 -1 16 -1 35 -1 252 -1 15 -1 -2	1	1
110 -1 113 -1 9 -1 13 -1 116 -1 74 -1 144 -1 108 -1 253 -1 85 -1 -2	1	1
65 -1 93 -1 70 -1 2 -1 107 -1 91 -1 -2	1	1
79 -1 15 -1 78 -1 31 -1 47 -1 69 -1 7 -1 117 -1 120 -1 4 -1 133 -1 169 -1 -2	1	1
43 -1 9 -1 53 -1 79 -1 30 -1 133 -1 135 -1 144 -1 195 -1 -2	1	1
29 -1 13 -1 1 -1 39 -1 6 -1 26 -1 62 -1 253 -1 -2	1	1
105 -1 53 -1 9 -1 145 -1 54 -1 75 -1 87 -1 -2	1	1
146 -1 -2	162	1
23 -1 36 -1 1 -1 120 -1 145 -1 150 -1 184 -1 -2	1	1
2 -1 39 -1 109 -1 13 -1 17 -1 23 -1 35 -1 36 -1 57 -1 136 -1 50 -1 91 -1 -2	1	1
10 -1 117 -1 -2	344	1
70 -1 5 -1 61 -1 22 -1 46 -1 7 -1 245 -1 -2	1	1
9 -1 83 -1 79 -1 80 -1 118 -1 179 -1 58 -1 231 -1 -2	1	1
84 -1 34 -1 40 -1 110 -1 3 -1 15 -1 193 -1 -2	1	1
99 -1 90 -1 122 -1 245 -1 -2	1	1
75 -1 62 -1 113 -1 117 -1 150 -1 39 -1 -2	1	1
5 -1 46 -1 11 -1 48 -1 84 -1 4 -1 43 -1 63 -1 150 -1 245 -1 253 -1 -2	1	1
15 -1 13 -1 54 -1 22 -1 45 -1 43 -1 12 -1 179 -1 253 -1 59 -1 -2	1	1
1 -1 110 -1 246 -1 15 -1 22 -1 -2	2	1
20 -1 74 -1 16 -1 133 -1 153 -1 191 -1 -2	1	1
109 -1 94 -1 26 -1 16 -1 25 -1 60 -1 34 -1 124 -1 84 -1 -2	1	1
26 -1 13 -1 139 -1 214 -1 4 -1 -2	1	1
9 -1 68 -1 43 -1 78 -1 -2	4	1
48 -1 1 -1 7 -1 191 -1 -2	2	1
39 -1 54 -1 70 -1 -2	7	1
33 -1 113 -1 132 -1 11 -1 247 -1 30 -1 -2	1	1
56 -1 98 -1 12 -1 125 -1 248 -1 -2	1	1
36 -1 139 -1 147 -1 -2	35	1
33 -1 18 -1 37 -1 20 -1 47 -1 110 -1 139 -1 27 -1 -2	1	1
18 -1 59 -1 42 -1 149 -1 150 -1 20 -1 -2	1	1
13 -1 27 -1 36 -1 28 -1 143 -1 247 -1 -2	5	1
47 -1 143 -1 191 -1 245 -1 93 -1 -2	1	1
40 -1 73 -1 44 -1 -2	5	1
69 -1 104 -1 33 -1 245 -1 -2	2	1
68 -1 30 -1 132 -1 246 -1 -2	9	1
8 -1 90 -1 100 -1 70 -1 78 -1 118 -1 132 -1 94 -1 -2	1	1
35 -1 31 -1 144 -1 12 -1 62 -1 -2	1	1
1 -1 47 -1 72 -1 10 -1 65 -1 70 -1 110 -1 119 -1 144 -1 89 -1 -2	1	1
66 -1 10 -1 246 -1 -2	17	1
34 -1 54 -1 43 -1 53 -1 110 -1 47 -1 28 -1 179 -1 247 -1 -2	1	1
10 -1 143 -1 34 -1 191 -1 14 -1 253 -1 -2	1	1
39 -1 18 -1 109 -1 86 -1 99 -1 113 -1 68 -1 6 -1 59 -1 256 -1 -2	1	1
35 -1 85 -1 59 -1 16 -1 62 -1 52 -1 56 -1 114 -1 47 -1 58 -1 144 -1 34 -1 253 -1 32 -1 -2	1	1
64 -1 42 -1 80 -1 133 -1 16 -1 -2	1	1
117 -1 132 -1 47 -1 10 -1 34 -1 -2	1	1
38 -1 120 -1 10 -1 167 -1 51 -1 189 -1 21 -1 -2	1	1
8 -1 22 -1 45 -1 110 -1 143 -1 64 -1 174 -1 230 -1 -2	1	1
49 -1 50 -1 248 -1 260 -1 262 -1 -2	5	1
69 -1 54 -1 117 -1 133 -1 -2	12	1
19 -1 120 -1 -2	64	1
30 -1 18 -1 113 -1 120 -1 133 -1 23 -1 -2	1	1
26 -1 37 -1 134 -1 55 -1 7 -1 30 -1 68 -1 -2	1	1
53 -1 41 -1 -2	94	1
13 -1 19 -1 63 -1 51 -1 -2	5	1
23 -1 18 -1 110 -1 133 -1 134 -1 149 -1 245 -1 253 -1 -2	2	1
51 -1 19 -1 36 -1 246 -1 -2	10	1
9 -1 35 -1 26 -1 45 -1 61 -1 210 -1 230 -1 -2	1	1
15 -1 17 -1 27 -1 -2	88	1
81 -1 96 -1 14 -1 155 -1 36 -1 101 -1 50 -1 -2	1	1
35 -1 166 -1 246 -1 250 -1 -2	4	1
117 -1 13 -1 23 -1 40 -1 27 -1 78 -1 195 -1 -2	1	1
107 -1 9 -1 83 -1 13 -1 94 -1 115 -1 247 -1 257 -1 -2	1	1
111 -1 144 -1 11 -1 -2	6	1
56 -1 7 -1 10 -1 28 -1 62 -1 4 -1 189 -1 261 -1 -2	1	1
37 -1 17 -1 49 -1 85 -1 34 -1 118 -1 133 -1 11 -1 253 -1 -2	1	1
11 -1 17 -1 253 -1 52 -1 265 -1 -2	1	1
73 -1 110 -1 117 -1 -2	76	1
23 -1 26 -1 42 -1 32 -1 98 -1 139 -1 50 -1 9 -1 -2	1	1
113 -1 112 -1 -2	4	1
4 -1 45 -1 1 -1 24 -1 79 -1 18 -1 48 -1 -2	1	1
4 -1 34 -1 110 -1 114 -1 23 -1 250 -1 -2	1	1
11 -1 23 -1 40 -1 21 -1 -2	11	1
45 -1 79 -1 -2	87	1
135 -1 83 -1 29 -1 76 -1 -2	1	1
17 -1 110 -1 120 -1 246 -1 -2	29	1
8 -1 6 -1 33 -1 88 -1 139 -1 11 -1 -2	1	1
8 -1 21 -1 36 -1 34 -1 123 -1 -2	1	1
11 -1 67 -1 16 -1 50 -1 78 -1 30 -1 73 -1 -2	1	1
12 -1 17 -1 8 -1 64 -1 71 -1 39 -1 254 -1 -2	1	1
121 -1 4 -1 8 -1 14 -1 88 -1 70 -1 92 -1 137 -1 143 -1 -2	1	1
105 -1 58 -1 -2	4	1
18 -1 51 -1 83 -1 -2	8	1
22 -1 2 -1 15 -1 31 -1 58 -1 -2	1	1
156 -1 1 -1 106 -1 101 -1 105 -1 168 -1 -2	1	1
5 -1 73 -1 120 -1 253 -1 60 -1 -2	1	1
2 -1 18 -1 120 -1 288 -1 -2	1	1
13 -1 52 -1 29 -1 78 -1 1 -1 133 -1 66 -1 139 -1 146 -1 255 -1 -2	1	1
22 -1 77 -1 250 -1 -2	9	1
51 -1 69 -1 262 -1 -2	3	1
6 -1 8 -1 27 -1 22 -1 40 -1 33 -1 12 -1 15 -1 109 -1 120 -1 144 -1 43 -1 -2	1	1
23 -1 32 -1 146 -1 149 -1 189 -1 -2	5	1
9 -1 60 -1 17 -1 143 -1 4 -1 246 -1 260 -1 106 -1 293 -1 -2	1	1
8 -1 9 -1 11 -1 17 -1 143 -1 149 -1 51 -1 59 -1 -2	2	1
4 -1 10 -1 62 -1 35 -1 133 -1 43 -1 144 -1 253 -1 -2	1	1
57 -1 27 -1 182 -1 16 -1 253 -1 -2	1	1
11 -1 76 -1 112 -1 117 -1 118 -1 132 -1 74 -1 44 -1 145 -1 10 -1 150 -1 252 -1 -2	1	1
43 -1 31 -1 118 -1 209 -1 -2	4	1
35 -1 119 -1 53 -1 10 -1 245 -1 -2	1	1
10 -1 11 -1 26 -1 50 -1 74 -1 -2	2	1
4 -1 74 -1 149 -1 195 -1 59 -1 -2	1	1
37 -1 12 -1 -2	80	1
12 -1 1 -1 11 -1 57 -1 27 -1 150 -1 153 -1 98 -1 99 -1 134 -1 30 -1 -2	1	1
17 -1 22 -1 36 -1 1 -1 47 -1 2 -1 34 -1 181 -1 -2	1	1
46 -1 82 -1 49 -1 -2	6	1
17 -1 39 -1 28 -1 35 -1 136 -1 144 -1 -2	2	1
9 -1 26 -1 53 -1 86 -1 82 -1 93 -1 104 -1 133 -1 182 -1 63 -1 79 -1 -2	1	1
27 -1 65 -1 45 -1 120 -1 162 -1 -2	1	1
29 -1 26 -1 10 -1 144 -1 146 -1 61 -1 54 -1 -2	1	1
13 -1 20 -1 27 -1 52 -1 43 -1 98 -1 -2	1	1
18 -1 41 -1 82 -1 38 -1 77 -1 135 -1 54 -1 190 -1 70 -1 79 -1 -2	1	1
64 -1 36 -1 28 -1 108 -1 118 -1 22 -1 13 -1 -2	1	1
1 -1 50 -1 117 -1 133 -1 139 -1 -2	16	1
109 -1 157 -1 25 -1 134 -1 49 -1 84 -1 245 -1 91 -1 97 -1 -2	1	1
39 -1 12 -1 78 -1 190 -1 -2	2	1
47 -1 96 -1 4 -1 73 -1 94 -1 45 -1 113 -1 117 -1 265 -1 -2	1	1
119 -1 -2	75	2
135 -1 17 -1 147 -1 176 -1 -2	1	1
2 -1 28 -1 50 -1 31 -1 117 -1 64 -1 146 -1 153 -1 27 -1 60 -1 -2	1	1
1 -1 69 -1 9 -1 16 -1 23 -1 7 -1 253 -1 -2	1	1
8 -1 13 -1 17 -1 -2	198	1
28 -1 31 -1 14 -1 11 -1 117 -1 12 -1 29 -1 46 -1 54 -1 -2	1	1
26 -1 13 -1 68 -1 113 -1 135 -1 65 -1 19 -1 -2	1	1
48 -1 42 -1 25 -1 99 -1 110 -1 144 -1 147 -1 29 -1 -2	1	1
9 -1 1 -1 132 -1 180 -1 253 -1 -2	11	1
32 -1 13 -1 26 -1 78 -1 117 -1 74 -1 143 -1 -2	1	1
8 -1 11 -1 13 -1 77 -1 20 -1 -2	4	1
3 -1 117 -1 53 -1 18 -1 83 -1 23 -1 75 -1 -2	1	1
44 -1 55 -1 86 -1 132 -1 37 -1 49 -1 36 -1 -2	1	1
130 -1 78 -1 79 -1 66 -1 -2	2	1
11 -1 109 -1 114 -1 3 -1 144 -1 246 -1 248 -1 -2	1	1
47 -1 8 -1 48 -1 14 -1 26 -1 113 -1 60 -1 246 -1 21 -1 -2	1	1
18 -1 76 -1 99 -1 103 -1 143 -1 39 -1 -2	1	1
74 -1 67 -1 54 -1 16 -1 19 -1 96 -1 174 -1 209 -1 41 -1 235 -1 -2	1	1
9 -1 17 -1 18 -1 133 -1 25 -1 -2	18	1
7 -1 32 -1 6 -1 46 -1 -2	1	1
67 -1 117 -1 118 -1 143 -1 253 -1 289 -1 -2	1	1
150 -1 13 -1 195 -1 -2	4	1
7 -1 76 -1 107 -1 91 -1 104 -1 38 -1 110 -1 64 -1 143 -1 259 -1 -2	1	1
1 -1 5 -1 10 -1 45 -1 59 -1 -2	5	1
48 -1 -2	294	3
46 -1 113 -1 104 -1 153 -1 187 -1 190 -1 84 -1 -2	1	1
33 -1 41 -1 22 -1 27 -1 118 -1 72 -1 246 -1 48 -1 -2	1	1
26 -1 68 -1 143 -1 29 -1 -2	5	1
1 -1 86 -1 29 -1 35 -1 36 -1 114 -1 254 -1 -2	1	1
11 -1 44 -1 50 -1 -2	25	1
51 -1 78 -1 70 -1 30 -1 19 -1 166 -1 247 -1 43 -1 -2	1	1
143 -1 150 -1 169 -1 -2	4	1
23 -1 19 -1 -2	119	1
11 -1 85 -1 14 -1 76 -1 23 -1 54 -1 58 -1 30 -1 -2	1	1
73 -1 52 -1 27 -1 32 -1 57 -1 132 -1 245 -1 40 -1 47 -1 -2	1	1
117 -1 60 -1 221 -1 246 -1 40 -1 -2	1	1
36 -1 125 -1 53 -1 58 -1 38 -1 6 -1 245 -1 -2	1	1
41 -1 84 -1 36 -1 117 -1 39 -1 52 -1 62 -1 63 -1 31 -1 255 -1 -2	1	1
60 -1 67 -1 17 -1 18 -1 31 -1 19 -1 118 -1 132 -1 7 -1 191 -1 252 -1 -2	1	1
37 -1 23 -1 26 -1 27 -1 33 -1 78 -1 111 -1 114 -1 -2	1	1
32 -1 12 -1 39 -1 146 -1 -2	1	1
13 -1 24 -1 43 -1 27 -1 118 -1 56 -1 4 -1 66 -1 28 -1 143 -1 -2	1	1
5 -1 8 -1 17 -1 34 -1 20 -1 83 -1 86 -1 253 -1 -2	1	1
15 -1 150 -1 163 -1 -2	9	1
61 -1 17 -1 114 -1 62 -1 144 -1 -2	1	1
37 -1 10 -1 19 -1 46 -1 33 -1 45 -1 78 -1 -2	1	1
54 -1 35 -1 36 -1 97 -1 80 -1 -2	1	1
111 -1 145 -1 149 -1 252 -1 309 -1 -2	1	1
84 -1 97 -1 99 -1 51 -1 2 -1 -2	1	1
48 -1 69 -1 34 -1 2 -1 143 -1 255 -1 -2	1	1
61 -1 101 -1 77 -1 80 -1 31 -1 68 -1 172 -1 102 -1 108 -1 -2	1	1
21 -1 9 -1 47 -1 87 -1 94 -1 -2	1	1
45 -1 133 -1 143 -1 19 -1 -2	15	1
1 -1 67 -1 5 -1 141 -1 62 -1 -2	1	1
39 -1 54 -1 69 -1 3 -1 283 -1 -2	1	1
5 -1 58 -1 110 -1 149 -1 51 -1 250 -1 45 -1 -2	1	1
18 -1 83 -1 63 -1 86 -1 164 -1 -2	1	1
25 -1 39 -1 8 -1 14 -1 68 -1 168 -1 245 -1 -2	1	1
79 -1 12 -1 77 -1 110 -1 67 -1 45 -1 -2	1	1
2 -1 23 -1 52 -1 36 -1 82 -1 63 -1 -2	2	1
20 -1 113 -1 32 -1 -2	27	1
13 -1 17 -1 1 -1 90 -1 62 -1 29 -1 247 -1 -2	1	1
77 -1 18 -1 117 -1 253 -1 -2	14	1
5 -1 53 -1 75 -1 58 -1 55 -1 110 -1 43 -1 61 -1 82 -1 -2	1	1
39 -1 7 -1 96 -1 58 -1 46 -1 114 -1 52 -1 87 -1 -2	1	1
10 -1 13 -1 41 -1 14 -1 209 -1 -2	2	1
23 -1 32 -1 -2	141	1
5 -1 6 -1 120 -1 7 -1 28 -1 66 -1 253 -1 -2	1	1
120 -1 -2	155	1
67 -1 88 -1 19 -1 26 -1 30 -1 60 -1 62 -1 219 -1 39 -1 12 -1 -2	1	1
35 -1 16 -1 7 -1 245 -1 -2	21	1
5 -1 72 -1 30 -1 26 -1 82 -1 38 -1 113 -1 104 -1 115 -1 54 -1 106 -1 111 -1 187 -1 101 -1 256 -1 84 -1 -2	1	1
26 -1 12 -1 75 -1 72 -1 50 -1 246 -1 58 -1 -2	1	1
33 -1 38 -1 245 -1 7 -1 253 -1 262 -1 -2	1	1
4 -1 46 -1 28 -1 11 -1 16 -1 218 -1 -2	1	1
9 -1 39 -1 61 -1 36 -1 84 -1 143 -1 254 -1 262 -1 -2	1	1
110 -1 10 -1 56 -1 17 -1 54 -1 16 -1 99 -1 81 -1 79 -1 49 -1 47 -1 -2	1	1
17 -1 110 -1 19 -1 117 -1 118 -1 139 -1 247 -1 -2	2	1
23 -1 3 -1 -2	64	1
43 -1 56 -1 13 -1 98 -1 84 -1 133 -1 11 -1 150 -1 -2	1	1
17 -1 119 -1 -2	60	1
82 -1 2 -1 24 -1 89 -1 113 -1 81 -1 255 -1 262 -1 -2	1	1
78 -1 27 -1 143 -1 -2	33	1
11 -1 45 -1 64 -1 26 -1 53 -1 146 -1 -2	1	1
65 -1 48 -1 117 -1 16 -1 179 -1 23 -1 -2	1	1
97 -1 64 -1 59 -1 121 -1 6 -1 66 -1 246 -1 260 -1 -2	1	1
5 -1 110 -1 117 -1 22 -1 -2	17	1
137 -1 26 -1 35 -1 39 -1 77 -1 38 -1 141 -1 173 -1 92 -1 184 -1 100 -1 103 -1 -2	1	1
103 -1 26 -1 53 -1 79 -1 110 -1 1 -1 -2	1	1
18 -1 112 -1 47 -1 114 -1 49 -1 61 -1 144 -1 -2	1	1
14 -1 138 -1 109 -1 70 -1 -2	1	1
1 -1 8 -1 110 -1 253 -1 -2	135	1
14 -1 10 -1 23 -1 17 -1 19 -1 21 -1 135 -1 85 -1 146 -1 -2	1	1
46 -1 14 -1 79 -1 139 -1 73 -1 -2	2	1
56 -1 139 -1 40 -1 262 -1 -2	3	1
3 -1 13 -1 69 -1 40 -1 195 -1 10 -1 -2	1	1
1 -1 13 -1 63 -1 47 -1 88 -1 68 -1 232 -1 -2	1	1
55 -1 24 -1 117 -1 123 -1 72 -1 61 -1 248 -1 -2	1	1
34 -1 12 -1 7 -1 114 -1 117 -1 71 -1 191 -1 59 -1 -2	1	1
2 -1 13 -1 8 -1 12 -1 135 -1 187 -1 -2	1	1
18 -1 27 -1 147 -1 87 -1 253 -1 -2	2	1
2 -1 54 -1 118 -1 64 -1 10 -1 20 -1 209 -1 -2	1	1
2 -1 10 -1 15 -1 69 -1 27 -1 64 -1 68 -1 -2	1	1
46 -1 71 -1 99 -1 104 -1 68 -1 100 -1 147 -1 247 -1 84 -1 -2	1	1
17 -1 56 -1 143 -1 -2	108	1
6 -1 97 -1 36 -1 81 -1 93 -1 -2	1	1
8 -1 61 -1 64 -1 58 -1 195 -1 42 -1 -2	1	1
109 -1 4 -1 10 -1 102 -1 35 -1 110 -1 -2	1	1
11 -1 23 -1 132 -1 65 -1 133 -1 -2	1	1
26 -1 110 -1 310 -1 -2	11	1
21 -1 57 -1 89 -1 78 -1 47 -1 36 -1 116 -1 -2	1	1
76 -1 86 -1 60 -1 26 -1 27 -1 82 -1 87 -1 79 -1 47 -1 29 -1 174 -1 83 -1 209 -1 41 -1 232 -1 -2	1	1
28 -1 38 -1 253 -1 14 -1 -2	7	1
53 -1 62 -1 132 -1 191 -1 245 -1 21 -1 -2	1	1
31 -1 37 -1 113 -1 117 -1 21 -1 2 -1 13 -1 -2	1	1
13 -1 68 -1 117 -1 133 -1 20 -1 135 -1 145 -1 250 -1 25 -1 -2	1	1
1 -1 9 -1 34 -1 41 -1 64 -1 -2	3	1
86 -1 30 -1 16 -1 64 -1 9 -1 87 -1 109 -1 41 -1 118 -1 61 -1 132 -1 37 -1 -2	1	1
2 -1 30 -1 32 -1 20 -1 37 -1 28 -1 35 -1 53 -1 38 -1 144 -1 -2	1	1
26 -1 23 -1 110 -1 60 -1 117 -1 3 -1 118 -1 1 -1 25 -1 211 -1 247 -1 253 -1 -2	1	1
2 -1 49 -1 13 -1 84 -1 82 -1 66 -1 7 -1 -2	1	1
55 -1 4 -1 33 -1 45 -1 29 -1 246 -1 255 -1 -2	1	1
12 -1 54 -1 69 -1 109 -1 50 -1 55 -1 34 -1 143 -1 -2	1	1
2 -1 9 -1 62 -1 7 -1 40 -1 45 -1 141 -1 250 -1 -2	1	1
110 -1 21 -1 63 -1 181 -1 6 -1 -2	1	1
13 -1 28 -1 32 -1 22 -1 193 -1 -2	1	1
1 -1 55 -1 74 -1 146 -1 -2	4	1
77 -1 22 -1 96 -1 15 -1 153 -1 71 -1 195 -1 -2	1	1
32 -1 150 -1 39 -1 -2	14	1
102 -1 40 -1 73 -1 139 -1 96 -1 -2	1	1
76 -1 74 -1 117 -1 147 -1 77 -1 -2	2	1
4 -1 38 -1 253 -1 -2	107	1
113 -1 218 -1 -2	10	1
77 -1 38 -1 31 -1 139 -1 143 -1 -2	1	1
9 -1 29 -1 21 -1 4 -1 79 -1 7 -1 30 -1 16 -1 51 -1 -2	1	1
53 -1 46 -1 147 -1 64 -1 -2	2	1
5 -1 109 -1 181 -1 245 -1 262 -1 -2	1	1
158 -1 90 -1 53 -1 74 -1 117 -1 149 -1 -2	1	1
11 -1 50 -1 35 -1 21 -1 12 -1 136 -1 68 -1 149 -1 -2	1	1
50 -1 93 -1 94 -1 145 -1 253 -1 257 -1 -2	1	1
4 -1 23 -1 24 -1 58 -1 86 -1 109 -1 177 -1 63 -1 254 -1 69 -1 -2	1	1
60 -1 49 -1 127 -1 133 -1 37 -1 12 -1 21 -1 -2	1	1
5 -1 144 -1 60 -1 150 -1 -2	1	1
35 -1 49 -1 1 -1 257 -1 42 -1 -2	1	1
9 -1 23 -1 26 -1 31 -1 46 -1 49 -1 111 -1 13 -1 65 -1 261 -1 -2	1	1
8 -1 11 -1 35 -1 262 -1 19 -1 -2	1	1
21 -1 19 -1 56 -1 36 -1 65 -1 32 -1 -2	1	1
8 -1 176 -1 153 -1 168 -1 130 -1 19 -1 74 -1 31 -1 35 -1 119 -1 132 -1 144 -1 141 -1 245 -1 11 -1 -2	1	1
45 -1 10 -1 29 -1 65 -1 74 -1 85 -1 -2	1	1
37 -1 163 -1 247 -1 -2	6	1
75 -1 9 -1 20 -1 143 -1 -2	3	1
5 -1 143 -1 245 -1 -2	182	1
74 -1 22 -1 75 -1 101 -1 50 -1 84 -1 -2	1	1
72 -1 35 -1 20 -1 109 -1 117 -1 106 -1 182 -1 62 -1 84 -1 -2	1	1
75 -1 1 -1 70 -1 18 -1 34 -1 191 -1 51 -1 -2	1	1
13 -1 52 -1 6 -1 132 -1 133 -1 139 -1 33 -1 34 -1 247 -1 -2	1	1
41 -1 77 -1 145 -1 106 -1 185 -1 62 -1 79 -1 -2	1	1
2 -1 18 -1 23 -1 80 -1 -2	8	1
8 -1 113 -1 114 -1 107 -1 31 -1 35 -1 99 -1 170 -1 150 -1 245 -1 11 -1 -2	1	1
19 -1 26 -1 27 -1 45 -1 11 -1 247 -1 61 -1 -2	1	1
91 -1 13 -1 58 -1 52 -1 82 -1 79 -1 65 -1 117 -1 -2	1	1
2 -1 27 -1 9 -1 11 -1 17 -1 79 -1 74 -1 29 -1 92 -1 124 -1 -2	1	1
17 -1 24 -1 114 -1 80 -1 182 -1 74 -1 -2	1	1
14 -1 -2	420	3
9 -1 10 -1 17 -1 -2	156	1
17 -1 132 -1 144 -1 -2	177	1
17 -1 18 -1 53 -1 82 -1 24 -1 68 -1 143 -1 69 -1 187 -1 -2	1	1
107 -1 118 -1 85 -1 36 -1 108 -1 103 -1 135 -1 185 -1 -2	1	1
25 -1 17 -1 53 -1 253 -1 -2	19	1
34 -1 21 -1 46 -1 50 -1 98 -1 117 -1 146 -1 253 -1 -2	1	1
67 -1 17 -1 24 -1 23 -1 41 -1 78 -1 121 -1 143 -1 15 -1 -2	1	1
111 -1 8 -1 60 -1 49 -1 108 -1 27 -1 120 -1 16 -1 246 -1 257 -1 -2	1	1
32 -1 51 -1 57 -1 120 -1 9 -1 212 -1 19 -1 -2	1	1
2 -1 9 -1 10 -1 11 -1 20 -1 79 -1 56 -1 60 -1 62 -1 89 -1 223 -1 -2	1	1
110 -1 111 -1 83 -1 10 -1 58 -1 -2	1	1
31 -1 4 -1 69 -1 117 -1 29 -1 253 -1 -2	1	1
13 -1 35 -1 54 -1 110 -1 -2	11	1
103 -1 55 -1 120 -1 117 -1 133 -1 65 -1 67 -1 -2	1	1
76 -1 35 -1 110 -1 21 -1 139 -1 189 -1 -2	1	1
18 -1 122 -1 39 -1 -2	1	1
8 -1 9 -1 32 -1 52 -1 248 -1 34 -1 253 -1 -2	1	1
14 -1 38 -1 72 -1 110 -1 209 -1 245 -1 -2	1	1
68 -1 5 -1 84 -1 77 -1 78 -1 28 -1 60 -1 187 -1 52 -1 253 -1 -2	1	1
87 -1 35 -1 73 -1 1 -1 143 -1 -2	1	1
2 -1 57 -1 18 -1 10 -1 120 -1 35 -1 -2	1	1
22 -1 31 -1 69 -1 117 -1 139 -1 261 -1 -2	2	1
110 -1 151 -1 -2	10	1
25 -1 51 -1 12 -1 58 -1 35 -1 101 -1 33 -1 187 -1 63 -1 68 -1 -2	1	1
92 -1 78 -1 62 -1 109 -1 15 -1 47 -1 -2	1	1
5 -1 10 -1 48 -1 28 -1 32 -1 117 -1 -2	1	1
4 -1 139 -1 145 -1 -2	18	1
9 -1 17 -1 11 -1 113 -1 117 -1 39 -1 72 -1 -2	1	1
5 -1 33 -1 17 -1 34 -1 139 -1 143 -1 144 -1 57 -1 39 -1 -2	1	1
4 -1 94 -1 15 -1 62 -1 256 -1 -2	1	1
54 -1 1 -1 31 -1 37 -1 58 -1 57 -1 147 -1 72 -1 -2	1	1
118 -1 29 -1 187 -1 94 -1 246 -1 53 -1 -2	1	1
2 -1 37 -1 -2	139	1
17 -1 8 -1 20 -1 26 -1 80 -1 37 -1 56 -1 95 -1 90 -1 253 -1 -2	1	1
14 -1 15 -1 53 -1 84 -1 133 -1 143 -1 146 -1 190 -1 48 -1 -2	1	1
110 -1 8 -1 95 -1 113 -1 9 -1 10 -1 40 -1 130 -1 115 -1 129 -1 36 -1 69 -1 41 -1 131 -1 132 -1 29 -1 -2	1	1
4 -1 75 -1 80 -1 58 -1 38 -1 119 -1 245 -1 -2	1	1
47 -1 142 -1 78 -1 33 -1 81 -1 153 -1 189 -1 16 -1 49 -1 266 -1 -2	1	1
18 -1 47 -1 78 -1 6 -1 44 -1 139 -1 149 -1 -2	1	1
11 -1 20 -1 26 -1 1 -1 7 -1 68 -1 -2	1	1
44 -1 46 -1 15 -1 134 -1 187 -1 49 -1 -2	1	1
96 -1 73 -1 62 -1 145 -1 -2	1	1
1 -1 17 -1 35 -1 75 -1 73 -1 42 -1 24 -1 18 -1 143 -1 177 -1 256 -1 -2	1	1
14 -1 62 -1 53 -1 7 -1 1 -1 147 -1 246 -1 29 -1 55 -1 -2	1	1
2 -1 139 -1 189 -1 -2	16	1
10 -1 72 -1 52 -1 16 -1 53 -1 104 -1 71 -1 30 -1 118 -1 124 -1 6 -1 260 -1 -2	1	1
11 -1 17 -1 148 -1 155 -1 56 -1 134 -1 117 -1 70 -1 136 -1 120 -1 -2	1	1
130 -1 36 -1 79 -1 110 -1 125 -1 24 -1 256 -1 -2	1	1
11 -1 42 -1 117 -1 41 -1 187 -1 -2	2	1
186 -1 99 -1 39 -1 56 -1 140 -1 1 -1 153 -1 262 -1 -2	1	1
52 -1 9 -1 11 -1 26 -1 38 -1 63 -1 55 -1 59 -1 -2	1	1
8 -1 24 -1 67 -1 106 -1 110 -1 60 -1 149 -1 150 -1 50 -1 33 -1 269 -1 75 -1 -2	1	1
100 -1 68 -1 55 -1 -2	2	1
57 -1 61 -1 32 -1 69 -1 145 -1 -2	1	1
52 -1 95 -1 56 -1 37 -1 132 -1 139 -1 144 -1 -2	1	1
105 -1 20 -1 120 -1 133 -1 80 -1 288 -1 -2	1	1
179 -1 195 -1 198 -1 -2	15	1
35 -1 78 -1 25 -1 255 -1 -2	14	1
47 -1 42 -1 56 -1 27 -1 44 -1 45 -1 40 -1 -2	1	1
15 -1 25 -1 143 -1 73 -1 -2	3	1
46 -1 10 -1 72 -1 85 -1 53 -1 41 -1 24 -1 110 -1 100 -1 31 -1 111 -1 185 -1 -2	1	1
51 -1 69 -1 144 -1 187 -1 72 -1 15 -1 -2	1	1
17 -1 -2	652	1
57 -1 82 -1 27 -1 55 -1 76 -1 -2	1	1
24 -1 18 -1 118 -1 107 -1 68 -1 -2	1	1
5 -1 85 -1 38 -1 108 -1 113 -1 132 -1 135 -1 187 -1 62 -1 256 -1 -2	1	1
51 -1 11 -1 113 -1 133 -1 90 -1 -2	1	1
97 -1 18 -1 120 -1 15 -1 30 -1 -2	1	1
30 -1 72 -1 110 -1 22 -1 246 -1 258 -1 -2	1	1
2 -1 54 -1 108 -1 85 -1 117 -1 -2	1	1
4 -1 132 -1 144 -1 -2	106	1
46 -1 17 -1 18 -1 72 -1 22 -1 43 -1 123 -1 144 -1 253 -1 -2	1	1
8 -1 20 -1 55 -1 67 -1 2 -1 35 -1 57 -1 7 -1 253 -1 -2	1	1
8 -1 16 -1 17 -1 21 -1 112 -1 132 -1 143 -1 171 -1 40 -1 -2	1	1
140 -1 40 -1 130 -1 17 -1 28 -1 -2	1	1
9 -1 46 -1 1 -1 97 -1 109 -1 50 -1 143 -1 19 -1 -2	1	1
86 -1 72 -1 26 -1 73 -1 114 -1 135 -1 190 -1 64 -1 80 -1 -2	1	1
16 -1 23 -1 58 -1 46 -1 3 -1 245 -1 31 -1 56 -1 -2	1	1
11 -1 13 -1 33 -1 -2	43	1
4 -1 11 -1 70 -1 67 -1 195 -1 81 -1 109 -1 14 -1 30 -1 -2	1	1
72 -1 262 -1 -2	20	1
35 -1 65 -1 117 -1 29 -1 164 -1 245 -1 -2	1	1
135 -1 45 -1 43 -1 21 -1 78 -1 56 -1 67 -1 71 -1 29 -1 -2	1	1
8 -1 68 -1 64 -1 24 -1 65 -1 60 -1 67 -1 143 -1 61 -1 -2	1	1
18 -1 24 -1 26 -1 29 -1 -2	12	1
2 -1 79 -1 98 -1 19 -1 91 -1 64 -1 84 -1 -2	1	1
14 -1 25 -1 149 -1 55 -1 85 -1 -2	1	1
36 -1 28 -1 38 -1 47 -1 14 -1 117 -1 12 -1 85 -1 68 -1 4 -1 16 -1 209 -1 248 -1 -2	1	1
1 -1 -2	680	7
140 -1 68 -1 58 -1 88 -1 -2	1	1
50 -1 34 -1 117 -1 187 -1 48 -1 -2	1	1
18 -1 42 -1 49 -1 88 -1 75 -1 26 -1 87 -1 139 -1 143 -1 146 -1 150 -1 -2	1	1
1 -1 31 -1 113 -1 47 -1 145 -1 146 -1 -2	1	1
5 -1 60 -1 32 -1 189 -1 59 -1 261 -1 -2	1	1
13 -1 71 -1 134 -1 67 -1 11 -1 -2	1	1
70 -1 9 -1 64 -1 40 -1 147 -1 149 -1 14 -1 250 -1 -2	1	1
13 -1 57 -1 82 -1 48 -1 41 -1 133 -1 149 -1 246 -1 -2	1	1
4 -1 66 -1 42 -1 61 -1 143 -1 -2	1	1
20 -1 87 -1 17 -1 73 -1 107 -1 -2	1	1
2 -1 76 -1 15 -1 30 -1 -2	5	1
44 -1 25 -1 14 -1 24 -1 67 -1 33 -1 11 -1 163 -1 209 -1 -2	1	1
18 -1 -2	552	6
36 -1 77 -1 60 -1 67 -1 118 -1 6 -1 133 -1 136 -1 163 -1 211 -1 73 -1 -2	1	1
11 -1 114 -1 256 -1 -2	12	1
2 -1 18 -1 9 -1 29 -1 -2	12	1
143 -1 22 -1 -2	61	1
42 -1 27 -1 55 -1 139 -1 11 -1 -2	2	1
2 -1 24 -1 4 -1 30 -1 75 -1 49 -1 123 -1 -2	1	1
9 -1 28 -1 46 -1 21 -1 58 -1 143 -1 253 -1 -2	1	1
65 -1 73 -1 117 -1 168 -1 -2	2	1
29 -1 31 -1 119 -1 49 -1 190 -1 245 -1 -2	1	1
105 -1 29 -1 92 -1 62 -1 132 -1 55 -1 -2	1	1
8 -1 9 -1 16 -1 19 -1 78 -1 34 -1 256 -1 -2	1	1
49 -1 37 -1 31 -1 30 -1 71 -1 -2	1	1
186 -1 39 -1 17 -1 56 -1 119 -1 94 -1 67 -1 105 -1 247 -1 259 -1 -2	1	1
20 -1 16 -1 11 -1 45 -1 79 -1 14 -1 -2	1	1
23 -1 79 -1 117 -1 39 -1 185 -1 -2	1	1
75 -1 10 -1 80 -1 28 -1 74 -1 73 -1 70 -1 76 -1 113 -1 63 -1 101 -1 -2	1	1
32 -1 93 -1 246 -1 59 -1 -2	1	1
11 -1 41 -1 18 -1 72 -1 40 -1 73 -1 24 -1 20 -1 -2	1	1
25 -1 11 -1 13 -1 50 -1 73 -1 43 -1 99 -1 193 -1 -2	1	1
43 -1 37 -1 108 -1 110 -1 138 -1 144 -1 147 -1 187 -1 -2	1	1
166 -1 113 -1 9 -1 153 -1 84 -1 36 -1 117 -1 149 -1 -2	1	1
52 -1 64 -1 107 -1 139 -1 6 -1 16 -1 43 -1 149 -1 174 -1 252 -1 -2	1	1
42 -1 29 -1 30 -1 147 -1 6 -1 -2	1	1
27 -1 23 -1 -2	143	1
1 -1 17 -1 18 -1 113 -1 37 -1 -2	16	1
57 -1 52 -1 19 -1 22 -1 56 -1 5 -1 65 -1 7 -1 245 -1 253 -1 -2	1	1
8 -1 72 -1 118 -1 144 -1 246 -1 247 -1 253 -1 -2	7	1
18 -1 22 -1 139 -1 259 -1 -2	20	1
69 -1 133 -1 16 -1 247 -1 253 -1 -2	3	1
67 -1 169 -1 -2	5	1
12 -1 77 -1 115 -1 126 -1 88 -1 93 -1 128 -1 -2	1	1
10 -1 18 -1 29 -1 143 -1 180 -1 -2	5	1
28 -1 9 -1 56 -1 44 -1 247 -1 -2	2	1
44 -1 17 -1 18 -1 47 -1 67 -1 114 -1 127 -1 40 -1 139 -1 25 -1 -2	1	1
20 -1 108 -1 67 -1 110 -1 132 -1 68 -1 149 -1 70 -1 84 -1 -2	1	1
29 -1 83 -1 12 -1 26 -1 82 -1 99 -1 50 -1 108 -1 77 -1 189 -1 190 -1 -2	1	1
26 -1 35 -1 61 -1 34 -1 60 -1 -2	1	1
8 -1 47 -1 42 -1 39 -1 -2	9	1
99 -1 39 -1 124 -1 66 -1 46 -1 20 -1 26 -1 68 -1 78 -1 84 -1 137 -1 247 -1 97 -1 259 -1 -2	1	1
74 -1 26 -1 28 -1 41 -1 64 -1 -2	1	1
253 -1 280 -1 -2	13	1
8 -1 14 -1 17 -1 37 -1 25 -1 133 -1 165 -1 59 -1 -2	1	1
12 -1 11 -1 75 -1 76 -1 84 -1 135 -1 77 -1 195 -1 197 -1 198 -1 44 -1 262 -1 269 -1 -2	1	1
46 -1 59 -1 117 -1 2 -1 34 -1 43 -1 30 -1 -2	1	1
97 -1 110 -1 82 -1 21 -1 -2	1	1
69 -1 27 -1 124 -1 132 -1 77 -1 -2	1	1
1 -1 24 -1 28 -1 41 -1 37 -1 219 -1 32 -1 82 -1 -2	1	1
36 -1 8 -1 47 -1 -2	14	1
5 -1 18 -1 32 -1 33 -1 -2	11	1
37 -1 118 -1 90 -1 92 -1 191 -1 245 -1 30 -1 61 -1 103 -1 -2	1	1
56 -1 65 -1 69 -1 52 -1 40 -1 150 -1 101 -1 -2	1	1
46 -1 63 -1 73 -1 30 -1 150 -1 253 -1 -2	1	1
20 -1 35 -1 50 -1 -2	45	1
55 -1 60 -1 117 -1 143 -1 153 -1 14 -1 73 -1 -2	1	1
82 -1 17 -1 29 -1 36 -1 27 -1 121 -1 138 -1 146 -1 256 -1 -2	1	1
83 -1 71 -1 91 -1 44 -1 245 -1 32 -1 11 -1 -2	1	1
120 -1 143 -1 150 -1 190 -1 253 -1 309 -1 -2	4	1
36 -1 44 -1 117 -1 135 -1 168 -1 245 -1 4 -1 -2	1	1
63 -1 89 -1 139 -1 6 -1 149 -1 256 -1 -2	1	1
78 -1 14 -1 48 -1 72 -1 80 -1 132 -1 47 -1 255 -1 -2	1	1
47 -1 24 -1 -2	70	1
13 -1 23 -1 86 -1 41 -1 139 -1 -2	2	1
105 -1 73 -1 65 -1 29 -1 68 -1 -2	1	1
70 -1 68 -1 17 -1 35 -1 23 -1 46 -1 87 -1 94 -1 4 -1 141 -1 125 -1 36 -1 103 -1 266 -1 -2	1	1
10 -1 57 -1 26 -1 12 -1 9 -1 114 -1 122 -1 66 -1 149 -1 -2	1	1
31 -1 100 -1 58 -1 26 -1 46 -1 73 -1 84 -1 108 -1 110 -1 133 -1 -2	1	1
72 -1 37 -1 84 -1 253 -1 259 -1 -2	2	1
19 -1 108 -1 3 -1 49 -1 145 -1 29 -1 248 -1 -2	1	1
132 -1 7 -1 139 -1 13 -1 143 -1 256 -1 -2	1	1
36 -1 22 -1 83 -1 50 -1 71 -1 74 -1 85 -1 163 -1 173 -1 57 -1 30 -1 -2	1	1
95 -1 10 -1 89 -1 248 -1 -2	1	1
26 -1 94 -1 253 -1 91 -1 175 -1 -2	1	1
43 -1 150 -1 -2	69	1
40 -1 54 -1 74 -1 262 -1 -2	1	1
17 -1 18 -1 15 -1 144 -1 247 -1 39 -1 -2	1	1
47 -1 50 -1 -2	72	1
87 -1 70 -1 23 -1 10 -1 133 -1 61 -1 163 -1 73 -1 -2	1	1
1 -1 60 -1 56 -1 17 -1 44 -1 9 -1 49 -1 27 -1 7 -1 -2	1	1
35 -1 23 -1 182 -1 -2	1	1
43 -1 60 -1 88 -1 117 -1 -2	2	1
45 -1 18 -1 44 -1 -2	19	1
13 -1 54 -1 133 -1 25 -1 143 -1 15 -1 66 -1 -2	1	1
102 -1 38 -1 141 -1 61 -1 -2	1	1
14 -1 58 -1 70 -1 43 -1 50 -1 150 -1 171 -1 9 -1 255 -1 -2	1	1
11 -1 45 -1 34 -1 136 -1 245 -1 -2	2	1
5 -1 30 -1 93 -1 6 -1 62 -1 253 -1 256 -1 258 -1 -2	1	1
59 -1 110 -1 4 -1 100 -1 116 -1 -2	1	1
120 -1 60 -1 13 -1 23 -1 102 -1 11 -1 139 -1 -2	1	1
18 -1 68 -1 26 -1 24 -1 57 -1 -2	1	1
85 -1 26 -1 17 -1 19 -1 81 -1 60 -1 121 -1 15 -1 46 -1 254 -1 16 -1 -2	1	1
7 -1 3 -1 149 -1 57 -1 25 -1 -2	1	1
11 -1 82 -1 42 -1 36 -1 67 -1 117 -1 141 -1 70 -1 74 -1 253 -1 61 -1 -2	1	1
140 -1 53 -1 35 -1 99 -1 170 -1 178 -1 104 -1 -2	1	1
22 -1 19 -1 64 -1 26 -1 245 -1 -2	1	1
57 -1 92 -1 56 -1 247 -1 248 -1 -2	1	1
31 -1 84 -1 120 -1 133 -1 162 -1 -2	2	1
13 -1 40 -1 73 -1 64 -1 4 -1 -2	1	1
46 -1 39 -1 13 -1 65 -1 18 -1 30 -1 36 -1 24 -1 67 -1 187 -1 -2	1	1
17 -1 23 -1 50 -1 149 -1 168 -1 -2	2	1
2 -1 5 -1 17 -1 106 -1 182 -1 70 -1 101 -1 247 -1 -2	1	1
95 -1 140 -1 40 -1 13 -1 14 -1 58 -1 74 -1 82 -1 245 -1 254 -1 -2	1	1
47 -1 113 -1 -2	94	1
121 -1 10 -1 15 -1 69 -1 79 -1 99 -1 63 -1 -2	1	1
140 -1 176 -1 10 -1 13 -1 90 -1 18 -1 107 -1 167 -1 74 -1 83 -1 70 -1 118 -1 143 -1 150 -1 -2	1	1
22 -1 21 -1 133 -1 245 -1 79 -1 -2	1	1
28 -1 54 -1 139 -1 68 -1 27 -1 250 -1 -2	1	1
8 -1 61 -1 31 -1 21 -1 48 -1 114 -1 253 -1 -2	1	1
35 -1 98 -1 70 -1 246 -1 248 -1 -2	2	1
1 -1 56 -1 57 -1 22 -1 23 -1 115 -1 38 -1 7 -1 149 -1 44 -1 -2	1	1
1 -1 97 -1 96 -1 250 -1 -2	1	1
33 -1 93 -1 10 -1 38 -1 -2	1	1
18 -1 143 -1 4 -1 259 -1 -2	5	1
29 -1 57 -1 28 -1 209 -1 245 -1 103 -1 -2	1	1
36 -1 66 -1 73 -1 117 -1 146 -1 -2	2	1
30 -1 112 -1 17 -1 25 -1 22 -1 117 -1 36 -1 78 -1 246 -1 247 -1 -2	1	1
2 -1 118 -1 82 -1 38 -1 135 -1 54 -1 69 -1 95 -1 189 -1 101 -1 -2	1	1
13 -1 21 -1 29 -1 191 -1 253 -1 23 -1 -2	1	1
13 -1 38 -1 104 -1 24 -1 60 -1 40 -1 -2	1	1
1 -1 71 -1 248 -1 77 -1 -2	1	1
5 -1 14 -1 190 -1 245 -1 -2	14	1
16 -1 125 -1 139 -1 247 -1 253 -1 -2	1	1
83 -1 77 -1 15 -1 18 -1 70 -1 65 -1 80 -1 78 -1 97 -1 60 -1 62 -1 246 -1 -2	1	1
25 -1 44 -1 49 -1 68 -1 246 -1 262 -1 -2	1	1
65 -1 53 -1 95 -1 105 -1 52 -1 103 -1 28 -1 -2	1	1
11 -1 27 -1 58 -1 253 -1 75 -1 286 -1 -2	1	1
36 -1 39 -1 6 -1 62 -1 68 -1 58 -1 246 -1 253 -1 -2	1	1
70 -1 134 -1 97 -1 20 -1 72 -1 -2	1	1
46 -1 93 -1 114 -1 117 -1 143 -1 245 -1 247 -1 -2	1	1
5 -1 56 -1 149 -1 51 -1 73 -1 189 -1 -2	1	1
117 -1 54 -1 79 -1 -2	1	1
14 -1 115 -1 154 -1 35 -1 70 -1 79 -1 119 -1 143 -1 253 -1 -2	1	1
8 -1 25 -1 13 -1 143 -1 27 -1 36 -1 255 -1 -2	1	1
35 -1 114 -1 117 -1 133 -1 143 -1 191 -1 55 -1 -2	1	1
75 -1 13 -1 5 -1 18 -1 10 -1 20 -1 250 -1 -2	1	1
11 -1 18 -1 32 -1 136 -1 273 -1 -2	1	1
40 -1 20 -1 11 -1 82 -1 71 -1 -2	1	1
28 -1 78 -1 121 -1 8 -1 4 -1 44 -1 -2	1	1
47 -1 13 -1 74 -1 10 -1 250 -1 -2	1	1
1 -1 168 -1 116 -1 79 -1 131 -1 150 -1 253 -1 254 -1 -2	1	1
14 -1 37 -1 33 -1 43 -1 80 -1 64 -1 190 -1 -2	1	1
1 -1 50 -1 72 -1 53 -1 62 -1 117 -1 124 -1 -2	1	1
4 -1 34 -1 49 -1 113 -1 79 -1 197 -1 23 -1 71 -1 262 -1 -2	1	1
27 -1 38 -1 18 -1 26 -1 121 -1 28 -1 30 -1 49 -1 -2	1	1
11 -1 83 -1 91 -1 40 -1 -2	1	1
64 -1 41 -1 -2	40	1
29 -1 50 -1 133 -1 74 -1 46 -1 143 -1 253 -1 -2	1	1
55 -1 18 -1 94 -1 36 -1 76 -1 60 -1 144 -1 150 -1 101 -1 -2	1	1
54 -1 105 -1 133 -1 90 -1 184 -1 -2	1	1
125 -1 150 -1 248 -1 -2	3	1
1 -1 140 -1 114 -1 18 -1 154 -1 26 -1 58 -1 74 -1 41 -1 141 -1 150 -1 11 -1 -2	1	1
83 -1 68 -1 13 -1 18 -1 27 -1 64 -1 149 -1 46 -1 48 -1 39 -1 -2	1	1
73 -1 5 -1 83 -1 51 -1 52 -1 109 -1 113 -1 103 -1 63 -1 101 -1 -2	1	1
1 -1 12 -1 125 -1 68 -1 84 -1 70 -1 198 -1 -2	1	1
176 -1 58 -1 28 -1 84 -1 35 -1 70 -1 147 -1 -2	1	1
56 -1 88 -1 17 -1 27 -1 38 -1 89 -1 113 -1 144 -1 193 -1 11 -1 259 -1 -2	1	1
40 -1 67 -1 10 -1 53 -1 79 -1 139 -1 154 -1 16 -1 34 -1 -2	1	1
23 -1 69 -1 59 -1 117 -1 180 -1 247 -1 -2	1	1
69 -1 22 -1 44 -1 110 -1 81 -1 -2	2	1
9 -1 57 -1 110 -1 83 -1 139 -1 34 -1 247 -1 256 -1 -2	1	1
2 -1 53 -1 109 -1 143 -1 -2	7	1
16 -1 1 -1 71 -1 66 -1 110 -1 132 -1 143 -1 45 -1 40 -1 -2	1	1
38 -1 21 -1 -2	77	1
12 -1 19 -1 67 -1 115 -1 6 -1 70 -1 245 -1 84 -1 -2	1	1
56 -1 83 -1 48 -1 195 -1 -2	2	1
14 -1 33 -1 -2	133	1
74 -1 117 -1 139 -1 72 -1 24 -1 -2	1	1
58 -1 9 -1 14 -1 119 -1 286 -1 -2	1	1
5 -1 9 -1 69 -1 95 -1 -2	3	1
103 -1 65 -1 6 -1 42 -1 43 -1 55 -1 173 -1 -2	1	1
25 -1 14 -1 6 -1 35 -1 31 -1 79 -1 42 -1 -2	1	1
57 -1 70 -1 133 -1 33 -1 -2	2	1
2 -1 45 -1 11 -1 178 -1 16 -1 122 -1 168 -1 253 -1 262 -1 135 -1 -2	1	1
62 -1 2 -1 79 -1 140 -1 23 -1 35 -1 85 -1 60 -1 101 -1 -2	1	1
5 -1 20 -1 111 -1 247 -1 39 -1 -2	1	1
73 -1 42 -1 51 -1 30 -1 41 -1 105 -1 103 -1 96 -1 153 -1 -2	1	1
83 -1 43 -1 19 -1 31 -1 46 -1 38 -1 170 -1 10 -1 -2	1	1
133 -1 134 -1 33 -1 -2	7	1
52 -1 16 -1 48 -1 253 -1 254 -1 -2	3	1
5 -1 14 -1 133 -1 139 -1 143 -1 175 -1 246 -1 39 -1 -2	1	1
86 -1 69 -1 63 -1 78 -1 6 -1 56 -1 4 -1 65 -1 231 -1 -2	1	1
34 -1 54 -1 117 -1 68 -1 48 -1 245 -1 -2	1	1
35 -1 65 -1 114 -1 120 -1 38 -1 139 -1 6 -1 246 -1 247 -1 250 -1 -2	1	1
41 -1 113 -1 33 -1 212 -1 -2	1	1
39 -1 29 -1 21 -1 66 -1 45 -1 11 -1 60 -1 253 -1 -2	1	1
34 -1 62 -1 40 -1 78 -1 12 -1 11 -1 246 -1 -2	1	1
11 -1 9 -1 132 -1 5 -1 -2	2	1
18 -1 33 -1 110 -1 111 -1 9 -1 253 -1 -2	1	1
67 -1 69 -1 87 -1 78 -1 79 -1 47 -1 31 -1 163 -1 -2	1	1
35 -1 149 -1 29 -1 7 -1 246 -1 40 -1 -2	1	1
7 -1 9 -1 246 -1 24 -1 62 -1 -2	1	1
17 -1 73 -1 23 -1 79 -1 2 -1 -2	2	1
8 -1 22 -1 39 -1 73 -1 109 -1 11 -1 143 -1 150 -1 -2	1	1
57 -1 35 -1 85 -1 33 -1 62 -1 -2	1	1
143 -1 145 -1 -2	81	1
75 -1 11 -1 59 -1 83 -1 145 -1 146 -1 25 -1 191 -1 39 -1 -2	1	1
39 -1 22 -1 253 -1 -2	70	1
51 -1 24 -1 110 -1 120 -1 139 -1 262 -1 -2	1	1
8 -1 13 -1 32 -1 139 -1 29 -1 16 -1 76 -1 14 -1 77 -1 253 -1 62 -1 257 -1 -2	1	1
1 -1 9 -1 18 -1 22 -1 43 -1 53 -1 110 -1 6 -1 16 -1 29 -1 71 -1 230 -1 246 -1 -2	1	1
167 -1 129 -1 28 -1 69 -1 78 -1 131 -1 149 -1 246 -1 104 -1 85 -1 -2	1	1
75 -1 65 -1 9 -1 20 -1 30 -1 248 -1 -2	1	1
45 -1 9 -1 11 -1 43 -1 14 -1 117 -1 -2	1	1
49 -1 50 -1 -2	80	1
17 -1 29 -1 76 -1 7 -1 120 -1 185 -1 41 -1 255 -1 -2	1	1
60 -1 27 -1 44 -1 23 -1 -2	4	1
1 -1 58 -1 84 -1 29 -1 11 -1 25 -1 75 -1 27 -1 55 -1 250 -1 253 -1 77 -1 -2	1	1
5 -1 20 -1 99 -1 11 -1 133 -1 250 -1 -2	1	1
36 -1 16 -1 79 -1 56 -1 -2	3	1
100 -1 38 -1 55 -1 251 -1 67 -1 -2	1	1
15 -1 24 -1 121 -1 120 -1 37 -1 -2	1	1
2 -1 64 -1 109 -1 110 -1 61 -1 177 -1 219 -1 -2	1	1
9 -1 63 -1 28 -1 71 -1 -2	6	1
42 -1 11 -1 47 -1 60 -1 15 -1 255 -1 -2	1	1
47 -1 11 -1 98 -1 75 -1 37 -1 120 -1 59 -1 63 -1 39 -1 -2	1	1
1 -1 10 -1 41 -1 117 -1 245 -1 -2	40	1
4 -1 116 -1 80 -1 108 -1 47 -1 113 -1 -2	1	1
22 -1 40 -1 246 -1 -2	66	1
1 -1 65 -1 51 -1 50 -1 113 -1 -2	2	1
43 -1 58 -1 181 -1 -2	2	1
72 -1 27 -1 68 -1 136 -1 -2	1	1
22 -1 26 -1 6 -1 16 -1 150 -1 180 -1 -2	3	1
32 -1 1 -1 118 -1 246 -1 -2	25	1
54 -1 33 -1 34 -1 36 -1 70 -1 71 -1 195 -1 253 -1 257 -1 -2	1	1
21 -1 7 -1 65 -1 26 -1 32 -1 49 -1 110 -1 143 -1 193 -1 76 -1 247 -1 51 -1 -2	1	1
18 -1 11 -1 7 -1 149 -1 246 -1 81 -1 -2	1	1
22 -1 29 -1 25 -1 109 -1 110 -1 143 -1 67 -1 -2	1	1
77 -1 24 -1 1 -1 2 -1 139 -1 6 -1 85 -1 209 -1 102 -1 -2	1	1
85 -1 43 -1 6 -1 39 -1 143 -1 218 -1 14 -1 75 -1 -2	1	1
92 -1 14 -1 24 -1 246 -1 -2	1	1
28 -1 35 -1 16 -1 -2	75	1
67 -1 27 -1 41 -1 59 -1 43 -1 227 -1 40 -1 -2	1	1
5 -1 62 -1 16 -1 51 -1 117 -1 149 -1 43 -1 -2	1	1
22 -1 121 -1 6 -1 144 -1 191 -1 98 -1 102 -1 -2	1	1
47 -1 118 -1 120 -1 59 -1 14 -1 -2	2	1
143 -1 35 -1 255 -1 -2	4	1
2 -1 95 -1 79 -1 127 -1 117 -1 97 -1 70 -1 113 -1 42 -1 49 -1 81 -1 -2	1	1
11 -1 14 -1 26 -1 108 -1 147 -1 36 -1 137 -1 163 -1 247 -1 268 -1 -2	1	1
14 -1 13 -1 18 -1 70 -1 62 -1 189 -1 -2	1	1
105 -1 110 -1 37 -1 17 -1 -2	1	1
61 -1 70 -1 1 -1 42 -1 25 -1 15 -1 -2	1	1
38 -1 18 -1 27 -1 44 -1 42 -1 -2	2	1
11 -1 23 -1 26 -1 35 -1 28 -1 9 -1 113 -1 34 -1 143 -1 144 -1 147 -1 59 -1 30 -1 -2	1	1
94 -1 64 -1 245 -1 -2	8	1
9 -1 13 -1 15 -1 26 -1 35 -1 52 -1 171 -1 43 -1 260 -1 -2	1	1
11 -1 35 -1 30 -1 59 -1 -2	3	1
69 -1 14 -1 39 -1 25 -1 -2	1	1
113 -1 26 -1 82 -1 119 -1 108 -1 -2	1	1
11 -1 31 -1 35 -1 45 -1 90 -1 139 -1 73 -1 -2	1	1
18 -1 35 -1 42 -1 48 -1 -2	11	1
5 -1 65 -1 19 -1 77 -1 147 -1 106 -1 84 -1 -2	1	1
56 -1 103 -1 83 -1 139 -1 261 -1 -2	1	1
99 -1 26 -1 27 -1 117 -1 20 -1 29 -1 259 -1 -2	1	1
21 -1 9 -1 11 -1 16 -1 -2	5	1
102 -1 50 -1 74 -1 76 -1 47 -1 -2	1	1
27 -1 20 -1 86 -1 72 -1 41 -1 48 -1 67 -1 75 -1 -2	1	1
4 -1 5 -1 41 -1 37 -1 11 -1 34 -1 33 -1 27 -1 19 -1 7 -1 253 -1 -2	1	1
67 -1 19 -1 36 -1 41 -1 57 -1 144 -1 -2	2	1
24 -1 52 -1 32 -1 7 -1 57 -1 19 -1 247 -1 253 -1 -2	1	1
15 -1 27 -1 4 -1 24 -1 253 -1 -2	4	1
23 -1 107 -1 42 -1 35 -1 26 -1 41 -1 68 -1 111 -1 185 -1 187 -1 190 -1 257 -1 -2	1	1
88 -1 79 -1 195 -1 -2	9	1
72 -1 36 -1 8 -1 144 -1 20 -1 -2	1	1
83 -1 118 -1 134 -1 149 -1 66 -1 -2	1	1
93 -1 21 -1 20 -1 78 -1 255 -1 31 -1 -2	1	1
98 -1 46 -1 246 -1 262 -1 -2	3	1
72 -1 36 -1 113 -1 45 -1 -2	3	1
45 -1 66 -1 -2	37	1
132 -1 133 -1 61 -1 145 -1 245 -1 -2	1	1
5 -1 13 -1 49 -1 24 -1 58 -1 191 -1 -2	1	1
37 -1 42 -1 36 -1 5 -1 20 -1 -2	1	1
35 -1 30 -1 53 -1 143 -1 254 -1 -2	1	1
124 -1 107 -1 141 -1 310 -1 -2	1	1
14 -1 12 -1 26 -1 4 -1 33 -1 36 -1 46 -1 32 -1 139 -1 167 -1 246 -1 39 -1 -2	1	1
57 -1 42 -1 21 -1 43 -1 118 -1 62 -1 143 -1 -2	1	1
52 -1 15 -1 26 -1 114 -1 117 -1 35 -1 -2	1	1
4 -1 111 -1 30 -1 36 -1 84 -1 145 -1 -2	1	1
32 -1 30 -1 68 -1 17 -1 28 -1 38 -1 248 -1 -2	1	1
25 -1 33 -1 40 -1 52 -1 -2	1	1
15 -1 29 -1 35 -1 135 -1 195 -1 10 -1 20 -1 -2	1	1
8 -1 70 -1 26 -1 132 -1 143 -1 33 -1 144 -1 174 -1 66 -1 -2	1	1
8 -1 11 -1 61 -1 30 -1 26 -1 29 -1 -2	1	1
43 -1 45 -1 84 -1 79 -1 82 -1 144 -1 87 -1 150 -1 86 -1 247 -1 -2	1	1
5 -1 7 -1 23 -1 117 -1 27 -1 253 -1 -2	1	1
62 -1 108 -1 24 -1 52 -1 110 -1 41 -1 143 -1 -2	1	1
14 -1 12 -1 44 -1 69 -1 78 -1 79 -1 259 -1 -2	1	1
35 -1 22 -1 125 -1 143 -1 15 -1 -2	1	1
17 -1 72 -1 18 -1 108 -1 2 -1 66 -1 29 -1 -2	1	1
35 -1 26 -1 31 -1 79 -1 117 -1 7 -1 165 -1 -2	1	1
29 -1 10 -1 11 -1 46 -1 44 -1 36 -1 147 -1 -2	1	1
4 -1 38 -1 49 -1 45 -1 144 -1 74 -1 54 -1 245 -1 51 -1 -2	1	1
9 -1 18 -1 79 -1 31 -1 110 -1 113 -1 34 -1 37 -1 49 -1 -2	1	1
22 -1 51 -1 113 -1 117 -1 144 -1 57 -1 50 -1 253 -1 -2	1	1
73 -1 1 -1 19 -1 113 -1 54 -1 169 -1 185 -1 190 -1 79 -1 -2	1	1
91 -1 11 -1 13 -1 45 -1 29 -1 94 -1 -2	1	1
9 -1 84 -1 30 -1 -2	12	1
133 -1 150 -1 -2	130	1
9 -1 109 -1 13 -1 82 -1 119 -1 84 -1 136 -1 101 -1 -2	1	1
118 -1 9 -1 83 -1 20 -1 105 -1 133 -1 147 -1 189 -1 247 -1 -2	1	1
62 -1 95 -1 63 -1 108 -1 260 -1 -2	1	1
2 -1 30 -1 21 -1 31 -1 44 -1 78 -1 133 -1 135 -1 47 -1 -2	1	1
9 -1 46 -1 40 -1 85 -1 218 -1 43 -1 245 -1 81 -1 -2	1	1
46 -1 78 -1 18 -1 48 -1 75 -1 -2	1	1
111 -1 4 -1 57 -1 60 -1 18 -1 31 -1 133 -1 20 -1 144 -1 92 -1 62 -1 -2	1	1
38 -1 89 -1 19 -1 58 -1 -2	2	1
1 -1 33 -1 -2	239	1
15 -1 8 -1 37 -1 34 -1 79 -1 245 -1 -2	1	1
1 -1 13 -1 59 -1 19 -1 48 -1 11 -1 113 -1 29 -1 57 -1 30 -1 15 -1 180 -1 44 -1 31 -1 40 -1 -2	1	1
92 -1 70 -1 27 -1 75 -1 12 -1 56 -1 -2	1	1
31 -1 39 -1 44 -1 10 -1 4 -1 133 -1 33 -1 245 -1 91 -1 -2	1	1
22 -1 93 -1 111 -1 78 -1 133 -1 66 -1 145 -1 197 -1 62 -1 -2	1	1
77 -1 15 -1 23 -1 29 -1 163 -1 -2	1	1
16 -1 69 -1 35 -1 70 -1 42 -1 108 -1 250 -1 -2	1	1
2 -1 59 -1 46 -1 51 -1 245 -1 -2	2	1
15 -1 37 -1 10 -1 34 -1 48 -1 70 -1 253 -1 -2	1	1
95 -1 8 -1 69 -1 60 -1 97 -1 -2	1	1
4 -1 19 -1 23 -1 120 -1 245 -1 259 -1 -2	3	1
56 -1 52 -1 -2	46	1
69 -1 74 -1 23 -1 31 -1 3 -1 173 -1 -2	1	1
1 -1 77 -1 45 -1 54 -1 71 -1 43 -1 26 -1 74 -1 -2	1	1
84 -1 13 -1 15 -1 26 -1 141 -1 73 -1 -2	1	1
31 -1 22 -1 132 -1 62 -1 32 -1 19 -1 -2	1	1
22 -1 143 -1 61 -1 -2	32	1
10 -1 35 -1 50 -1 37 -1 150 -1 -2	3	1
39 -1 83 -1 20 -1 52 -1 247 -1 295 -1 -2	1	1
26 -1 67 -1 9 -1 74 -1 81 -1 -2	1	1
88 -1 104 -1 110 -1 133 -1 12 -1 -2	1	1
8 -1 16 -1 139 -1 246 -1 -2	41	1
22 -1 51 -1 133 -1 72 -1 253 -1 -2	3	1
4 -1 2 -1 71 -1 143 -1 210 -1 232 -1 -2	1	1
23 -1 39 -1 19 -1 41 -1 38 -1 54 -1 95 -1 149 -1 6 -1 62 -1 -2	1	1
5 -1 33 -1 9 -1 18 -1 26 -1 64 -1 109 -1 117 -1 48 -1 54 -1 -2	1	1
17 -1 100 -1 61 -1 139 -1 255 -1 -2	1	1
12 -1 35 -1 22 -1 71 -1 38 -1 67 -1 113 -1 68 -1 134 -1 69 -1 153 -1 -2	1	1
60 -1 56 -1 9 -1 147 -1 190 -1 212 -1 62 -1 255 -1 -2	1	1
2 -1 95 -1 96 -1 143 -1 56 -1 49 -1 146 -1 105 -1 249 -1 60 -1 -2	1	1
14 -1 93 -1 27 -1 25 -1 144 -1 146 -1 86 -1 250 -1 -2	1	1
2 -1 1 -1 10 -1 68 -1 17 -1 35 -1 46 -1 32 -1 38 -1 88 -1 132 -1 4 -1 191 -1 261 -1 -2	1	1
8 -1 47 -1 54 -1 60 -1 109 -1 120 -1 141 -1 3 -1 164 -1 30 -1 179 -1 34 -1 -2	1	1
59 -1 4 -1 60 -1 90 -1 15 -1 68 -1 70 -1 210 -1 245 -1 253 -1 -2	1	1
8 -1 60 -1 92 -1 33 -1 24 -1 -2	1	1
2 -1 95 -1 99 -1 10 -1 45 -1 124 -1 96 -1 16 -1 26 -1 147 -1 113 -1 -2	1	1
27 -1 43 -1 47 -1 163 -1 24 -1 199 -1 30 -1 -2	1	1
5 -1 127 -1 25 -1 24 -1 189 -1 -2	1	1
75 -1 64 -1 78 -1 56 -1 38 -1 -2	1	1
20 -1 11 -1 110 -1 5 -1 132 -1 253 -1 -2	1	1
52 -1 94 -1 146 -1 245 -1 -2	1	1
57 -1 69 -1 8 -1 22 -1 71 -1 139 -1 -2	1	1
35 -1 48 -1 28 -1 82 -1 97 -1 -2	1	1
53 -1 118 -1 80 -1 -2	11	1
41 -1 144 -1 -2	195	2
47 -1 17 -1 109 -1 139 -1 59 -1 34 -1 245 -1 255 -1 260 -1 -2	1	1
9 -1 15 -1 58 -1 61 -1 -2	8	1
1 -1 8 -1 16 -1 53 -1 266 -1 -2	3	1
72 -1 53 -1 117 -1 118 -1 31 -1 28 -1 235 -1 -2	1	1
65 -1 83 -1 72 -1 -2	3	1
37 -1 44 -1 91 -1 35 -1 53 -1 123 -1 143 -1 245 -1 -2	1	1
126 -1 8 -1 49 -1 35 -1 72 -1 7 -1 245 -1 6 -1 -2	1	1
110 -1 118 -1 144 -1 60 -1 69 -1 253 -1 -2	1	1
1 -1 10 -1 5 -1 13 -1 21 -1 278 -1 -2	1	1
2 -1 18 -1 79 -1 81 -1 90 -1 146 -1 247 -1 -2	1	1
64 -1 49 -1 114 -1 139 -1 144 -1 147 -1 149 -1 43 -1 184 -1 9 -1 -2	1	1
7 -1 54 -1 39 -1 -2	5	1
35 -1 23 -1 90 -1 93 -1 286 -1 -2	1	1
56 -1 96 -1 15 -1 40 -1 24 -1 120 -1 80 -1 82 -1 -2	1	1
36 -1 48 -1 253 -1 -2	111	1
121 -1 8 -1 96 -1 13 -1 66 -1 46 -1 68 -1 157 -1 35 -1 166 -1 249 -1 -2	1	1
42 -1 132 -1 83 -1 141 -1 54 -1 81 -1 -2	1	1
54 -1 4 -1 27 -1 105 -1 65 -1 -2	1	1
30 -1 17 -1 26 -1 31 -1 41 -1 113 -1 149 -1 57 -1 180 -1 -2	1	1
35 -1 133 -1 54 -1 43 -1 153 -1 253 -1 -2	1	1
34 -1 13 -1 4 -1 46 -1 191 -1 7 -1 32 -1 -2	1	1
89 -1 60 -1 97 -1 16 -1 -2	1	1
134 -1 166 -1 90 -1 27 -1 84 -1 70 -1 143 -1 -2	1	1
11 -1 46 -1 71 -1 72 -1 23 -1 -2	1	1
11 -1 27 -1 57 -1 117 -1 184 -1 209 -1 19 -1 -2	1	1
4 -1 121 -1 107 -1 109 -1 41 -1 143 -1 103 -1 246 -1 253 -1 21 -1 69 -1 -2	1	1
63 -1 48 -1 -2	43	1
17 -1 9 -1 13 -1 52 -1 22 -1 39 -1 25 -1 146 -1 33 -1 50 -1 -2	1	1
13 -1 117 -1 66 -1 64 -1 211 -1 -2	1	1
68 -1 63 -1 17 -1 18 -1 117 -1 163 -1 211 -1 -2	1	1
78 -1 199 -1 246 -1 -2	9	1
73 -1 110 -1 70 -1 42 -1 149 -1 246 -1 30 -1 49 -1 247 -1 256 -1 16 -1 -2	1	1
22 -1 29 -1 49 -1 -2	23	1
1 -1 2 -1 11 -1 10 -1 38 -1 53 -1 15 -1 16 -1 69 -1 -2	1	1
77 -1 103 -1 27 -1 38 -1 133 -1 102 -1 246 -1 81 -1 -2	1	1
118 -1 3 -1 10 -1 257 -1 -2	1	1
81 -1 110 -1 -2	36	1
58 -1 59 -1 20 -1 70 -1 68 -1 10 -1 117 -1 144 -1 -2	1	1
57 -1 19 -1 24 -1 135 -1 90 -1 48 -1 -2	1	1
8 -1 18 -1 26 -1 19 -1 110 -1 144 -1 29 -1 -2	1	1
93 -1 11 -1 119 -1 91 -1 253 -1 31 -1 -2	1	1
2 -1 8 -1 59 -1 27 -1 89 -1 55 -1 133 -1 -2	1	1
20 -1 135 -1 245 -1 -2	16	1
8 -1 75 -1 79 -1 18 -1 144 -1 -2	3	1
18 -1 84 -1 51 -1 66 -1 -2	4	1
12 -1 44 -1 133 -1 149 -1 101 -1 256 -1 16 -1 -2	1	1
20 -1 108 -1 65 -1 16 -1 60 -1 89 -1 34 -1 51 -1 58 -1 219 -1 -2	1	1
86 -1 71 -1 -2	9	1
73 -1 59 -1 36 -1 39 -1 -2	2	1
14 -1 27 -1 42 -1 40 -1 3 -1 146 -1 -2	1	1
59 -1 146 -1 149 -1 38 -1 245 -1 253 -1 268 -1 -2	1	1
110 -1 134 -1 14 -1 17 -1 58 -1 27 -1 74 -1 36 -1 117 -1 70 -1 57 -1 82 -1 178 -1 147 -1 149 -1 245 -1 -2	1	1
30 -1 18 -1 147 -1 171 -1 -2	1	1
1 -1 19 -1 60 -1 49 -1 108 -1 18 -1 43 -1 28 -1 -2	1	1
42 -1 37 -1 -2	59	1
17 -1 36 -1 101 -1 110 -1 62 -1 -2	1	1
17 -1 3 -1 37 -1 143 -1 255 -1 -2	2	1
9 -1 1 -1 27 -1 35 -1 51 -1 120 -1 53 -1 -2	2	1
76 -1 109 -1 71 -1 -2	2	1
18 -1 69 -1 139 -1 145 -1 248 -1 -2	2	1
8 -1 57 -1 11 -1 71 -1 12 -1 113 -1 25 -1 133 -1 249 -1 253 -1 -2	1	1
100 -1 75 -1 18 -1 46 -1 109 -1 118 -1 133 -1 50 -1 -2	1	1
1 -1 64 -1 69 -1 134 -1 150 -1 170 -1 60 -1 -2	1	1
1 -1 16 -1 57 -1 53 -1 -2	3	1
71 -1 113 -1 25 -1 -2	8	1
13 -1 44 -1 14 -1 35 -1 53 -1 68 -1 51 -1 253 -1 70 -1 -2	1	1
31 -1 17 -1 1 -1 20 -1 47 -1 66 -1 5 -1 117 -1 132 -1 145 -1 76 -1 -2	1	1
1 -1 101 -1 17 -1 66 -1 -2	2	1
2 -1 17 -1 4 -1 27 -1 18 -1 -2	4	1
18 -1 13 -1 83 -1 1 -1 33 -1 143 -1 191 -1 245 -1 -2	1	1
50 -1 110 -1 30 -1 195 -1 250 -1 -2	5	1
6 -1 44 -1 41 -1 78 -1 121 -1 149 -1 61 -1 218 -1 -2	1	1
24 -1 25 -1 15 -1 26 -1 139 -1 143 -1 184 -1 -2	1	1
8 -1 65 -1 1 -1 52 -1 121 -1 132 -1 144 -1 83 -1 -2	1	1
96 -1 50 -1 24 -1 41 -1 139 -1 29 -1 253 -1 -2	1	1
14 -1 26 -1 42 -1 101 -1 19 -1 49 -1 117 -1 50 -1 143 -1 74 -1 162 -1 246 -1 262 -1 77 -1 -2	1	1
17 -1 26 -1 80 -1 68 -1 139 -1 -2	2	1
63 -1 34 -1 29 -1 74 -1 6 -1 170 -1 64 -1 76 -1 -2	1	1
75 -1 35 -1 13 -1 54 -1 118 -1 28 -1 -2	1	1
28 -1 17 -1 118 -1 45 -1 31 -1 -2	1	1
113 -1 12 -1 118 -1 38 -1 210 -1 51 -1 25 -1 -2	1	1
4 -1 11 -1 69 -1 53 -1 62 -1 95 -1 143 -1 75 -1 36 -1 37 -1 85 -1 -2	1	1
74 -1 67 -1 50 -1 19 -1 38 -1 14 -1 245 -1 -2	1	1
2 -1 59 -1 68 -1 133 -1 134 -1 135 -1 253 -1 -2	1	1
1 -1 35 -1 255 -1 -2	106	1
6 -1 139 -1 -2	102	1
30 -1 27 -1 132 -1 -2	33	1
2 -1 22 -1 8 -1 10 -1 27 -1 113 -1 253 -1 -2	1	1
14 -1 28 -1 113 -1 92 -1 252 -1 -2	1	1
37 -1 13 -1 22 -1 -2	21	1
26 -1 1 -1 -2	156	1
65 -1 9 -1 6 -1 4 -1 210 -1 -2	1	1
8 -1 18 -1 26 -1 11 -1 102 -1 65 -1 110 -1 113 -1 6 -1 118 -1 149 -1 173 -1 101 -1 -2	1	1
32 -1 247 -1 -2	93	1
84 -1 17 -1 39 -1 260 -1 -2	1	1
45 -1 36 -1 79 -1 12 -1 16 -1 60 -1 52 -1 -2	1	1
85 -1 26 -1 83 -1 18 -1 34 -1 191 -1 245 -1 256 -1 -2	1	1
22 -1 12 -1 103 -1 28 -1 66 -1 113 -1 49 -1 16 -1 289 -1 -2	1	1
1 -1 17 -1 117 -1 133 -1 143 -1 -2	115	1
2 -1 5 -1 35 -1 43 -1 118 -1 132 -1 133 -1 144 -1 21 -1 -2	1	1
35 -1 149 -1 -2	217	1
120 -1 4 -1 99 -1 56 -1 132 -1 29 -1 81 -1 -2	1	1
41 -1 81 -1 98 -1 46 -1 73 -1 28 -1 149 -1 33 -1 -2	1	1
98 -1 62 -1 65 -1 74 -1 117 -1 191 -1 -2	1	1
26 -1 73 -1 60 -1 79 -1 -2	2	1
9 -1 18 -1 78 -1 54 -1 56 -1 68 -1 -2	1	1
1 -1 8 -1 67 -1 50 -1 28 -1 46 -1 144 -1 253 -1 -2	1	1
9 -1 125 -1 20 -1 23 -1 73 -1 117 -1 76 -1 50 -1 259 -1 -2	1	1
26 -1 75 -1 70 -1 78 -1 42 -1 67 -1 65 -1 149 -1 -2	1	1
2 -1 9 -1 51 -1 -2	71	1
2 -1 89 -1 20 -1 69 -1 113 -1 15 -1 198 -1 253 -1 22 -1 -2	1	1
10 -1 45 -1 11 -1 148 -1 108 -1 166 -1 -2	1	1
52 -1 25 -1 150 -1 68 -1 49 -1 -2	1	1
5 -1 119 -1 -2	28	1
18 -1 7 -1 52 -1 70 -1 107 -1 61 -1 149 -1 50 -1 -2	1	1
130 -1 17 -1 19 -1 84 -1 171 -1 11 -1 -2	1	1
1 -1 262 -1 -2	94	1
47 -1 19 -1 -2	78	1
79 -1 29 -1 63 -1 -2	5	1
1 -1 2 -1 8 -1 99 -1 97 -1 133 -1 219 -1 245 -1 39 -1 108 -1 -2	1	1
36 -1 46 -1 7 -1 74 -1 145 -1 10 -1 30 -1 -2	1	1
100 -1 65 -1 132 -1 33 -1 189 -1 190 -1 249 -1 -2	1	1
19 -1 21 -1 31 -1 247 -1 -2	5	1
24 -1 28 -1 9 -1 50 -1 36 -1 118 -1 132 -1 143 -1 -2	1	1
8 -1 -2	638	4
3 -1 39 -1 117 -1 34 -1 146 -1 189 -1 55 -1 -2	1	1
51 -1 112 -1 71 -1 60 -1 119 -1 45 -1 143 -1 64 -1 -2	1	1
41 -1 11 -1 110 -1 59 -1 57 -1 172 -1 20 -1 -2	1	1
28 -1 47 -1 180 -1 -2	4	1
51 -1 9 -1 61 -1 17 -1 18 -1 30 -1 115 -1 143 -1 -2	1	1
17 -1 18 -1 32 -1 69 -1 113 -1 59 -1 -2	1	1
36 -1 84 -1 133 -1 61 -1 262 -1 -2	1	1
4 -1 30 -1 46 -1 36 -1 -2	4	1
15 -1 94 -1 97 -1 62 -1 59 -1 66 -1 -2	1	1
18 -1 47 -1 27 -1 78 -1 28 -1 74 -1 110 -1 72 -1 168 -1 180 -1 59 -1 -2	1	1
51 -1 59 -1 31 -1 5 -1 47 -1 144 -1 -2	1	1
89 -1 71 -1 28 -1 62 -1 143 -1 100 -1 -2	1	1
68 -1 8 -1 9 -1 10 -1 13 -1 35 -1 22 -1 74 -1 133 -1 -2	1	1
33 -1 41 -1 254 -1 -2	7	1
39 -1 82 -1 64 -1 114 -1 191 -1 125 -1 36 -1 253 -1 -2	1	1
46 -1 23 -1 9 -1 52 -1 41 -1 36 -1 38 -1 110 -1 145 -1 33 -1 247 -1 -2	1	1
56 -1 118 -1 144 -1 150 -1 179 -1 26 -1 -2	1	1
18 -1 16 -1 71 -1 35 -1 39 -1 47 -1 141 -1 219 -1 63 -1 67 -1 69 -1 -2	1	1
5 -1 65 -1 43 -1 59 -1 108 -1 69 -1 -2	1	1
61 -1 5 -1 28 -1 35 -1 -2	2	1
7 -1 36 -1 143 -1 -2	58	1
83 -1 85 -1 42 -1 27 -1 32 -1 49 -1 12 -1 162 -1 260 -1 262 -1 -2	1	1
111 -1 93 -1 60 -1 139 -1 16 -1 143 -1 71 -1 -2	1	1
18 -1 139 -1 150 -1 247 -1 -2	22	1
85 -1 117 -1 135 -1 -2	7	1
1 -1 11 -1 27 -1 120 -1 29 -1 16 -1 -2	1	1
85 -1 53 -1 46 -1 118 -1 249 -1 66 -1 -2	1	1
26 -1 78 -1 117 -1 143 -1 144 -1 10 -1 245 -1 42 -1 309 -1 -2	1	1
17 -1 80 -1 38 -1 95 -1 71 -1 -2	1	1
2 -1 27 -1 43 -1 71 -1 117 -1 -2	1	1
53 -1 23 -1 58 -1 93 -1 139 -1 -2	1	1
64 -1 21 -1 22 -1 66 -1 72 -1 39 -1 119 -1 136 -1 143 -1 121 -1 81 -1 -2	1	1
17 -1 18 -1 50 -1 36 -1 121 -1 125 -1 75 -1 262 -1 -2	1	1
53 -1 24 -1 57 -1 15 -1 48 -1 54 -1 114 -1 117 -1 132 -1 21 -1 149 -1 -2	1	1
57 -1 247 -1 -2	70	1
8 -1 83 -1 69 -1 109 -1 112 -1 50 -1 63 -1 67 -1 209 -1 58 -1 -2	1	1
35 -1 110 -1 29 -1 143 -1 246 -1 59 -1 -2	3	1
28 -1 33 -1 96 -1 18 -1 36 -1 133 -1 257 -1 -2	1	1
15 -1 62 -1 253 -1 45 -1 -2	4	1
78 -1 113 -1 41 -1 57 -1 36 -1 52 -1 169 -1 38 -1 64 -1 -2	1	1
42 -1 78 -1 113 -1 -2	44	1
17 -1 156 -1 36 -1 76 -1 247 -1 97 -1 -2	1	1
32 -1 14 -1 74 -1 39 -1 90 -1 -2	1	1
21 -1 36 -1 -2	86	1
23 -1 25 -1 -2	120	1
96 -1 10 -1 20 -1 100 -1 47 -1 99 -1 125 -1 -2	1	1
12 -1 24 -1 54 -1 46 -1 -2	4	1
70 -1 133 -1 286 -1 -2	3	1
9 -1 17 -1 75 -1 109 -1 143 -1 150 -1 46 -1 54 -1 39 -1 -2	1	1
68 -1 117 -1 118 -1 17 -1 35 -1 132 -1 139 -1 4 -1 245 -1 -2	1	1
32 -1 13 -1 5 -1 -2	8	1
14 -1 33 -1 23 -1 65 -1 247 -1 63 -1 257 -1 -2	1	1
17 -1 132 -1 27 -1 -2	17	1
28 -1 19 -1 37 -1 -2	20	1
2 -1 27 -1 78 -1 -2	69	1
9 -1 13 -1 28 -1 65 -1 133 -1 60 -1 168 -1 191 -1 -2	1	1
77 -1 88 -1 13 -1 181 -1 223 -1 -2	1	1
9 -1 83 -1 42 -1 50 -1 110 -1 143 -1 153 -1 106 -1 257 -1 -2	1	1
11 -1 14 -1 35 -1 36 -1 118 -1 253 -1 -2	13	1
1 -1 72 -1 48 -1 13 -1 28 -1 69 -1 92 -1 -2	1	1
23 -1 29 -1 30 -1 41 -1 67 -1 110 -1 94 -1 169 -1 190 -1 -2	1	1
90 -1 4 -1 9 -1 15 -1 31 -1 53 -1 61 -1 84 -1 108 -1 12 -1 18 -1 245 -1 7 -1 -2	1	1
23 -1 78 -1 7 -1 18 -1 67 -1 132 -1 144 -1 -2	1	1
34 -1 27 -1 3 -1 139 -1 71 -1 -2	1	1
8 -1 39 -1 96 -1 179 -1 17 -1 31 -1 67 -1 120 -1 -2	1	1
10 -1 78 -1 117 -1 118 -1 44 -1 -2	12	1
2 -1 18 -1 48 -1 52 -1 191 -1 -2	4	1
3 -1 25 -1 133 -1 77 -1 -2	1	1
11 -1 17 -1 35 -1 41 -1 119 -1 -2	6	1
2 -1 10 -1 14 -1 -2	70	1
39 -1 25 -1 32 -1 -2	14	1
67 -1 61 -1 30 -1 36 -1 86 -1 260 -1 -2	1	1
69 -1 118 -1 139 -1 -2	47	1
20 -1 60 -1 110 -1 47 -1 -2	6	1
18 -1 37 -1 44 -1 97 -1 150 -1 256 -1 289 -1 -2	1	1
166 -1 95 -1 89 -1 138 -1 27 -1 42 -1 99 -1 118 -1 94 -1 178 -1 253 -1 -2	1	1
17 -1 39 -1 16 -1 25 -1 135 -1 -2	1	1
87 -1 17 -1 88 -1 41 -1 83 -1 -2	1	1
76 -1 22 -1 35 -1 62 -1 109 -1 179 -1 255 -1 41 -1 -2	1	1
81 -1 95 -1 10 -1 39 -1 110 -1 178 -1 82 -1 141 -1 175 -1 -2	1	1
10 -1 70 -1 113 -1 29 -1 26 -1 135 -1 55 -1 66 -1 -2	1	1
4 -1 74 -1 70 -1 -2	12	1
4 -1 35 -1 27 -1 143 -1 40 -1 -2	4	1
28 -1 46 -1 2 -1 77 -1 26 -1 50 -1 92 -1 118 -1 134 -1 52 -1 -2	1	1
17 -1 25 -1 2 -1 -2	15	1
75 -1 17 -1 44 -1 139 -1 149 -1 -2	2	1
51 -1 9 -1 90 -1 13 -1 53 -1 19 -1 76 -1 117 -1 118 -1 139 -1 219 -1 245 -1 253 -1 -2	1	1
11 -1 35 -1 32 -1 31 -1 36 -1 49 -1 1 -1 42 -1 189 -1 245 -1 -2	1	1
53 -1 45 -1 17 -1 113 -1 22 -1 28 -1 118 -1 139 -1 35 -1 63 -1 257 -1 -2	1	1
30 -1 23 -1 29 -1 6 -1 -2	3	1
10 -1 24 -1 49 -1 113 -1 13 -1 16 -1 256 -1 -2	1	1
4 -1 28 -1 36 -1 59 -1 29 -1 143 -1 62 -1 66 -1 -2	1	1
28 -1 58 -1 26 -1 38 -1 118 -1 11 -1 65 -1 -2	1	1
2 -1 24 -1 1 -1 30 -1 40 -1 139 -1 44 -1 61 -1 68 -1 -2	1	1
27 -1 36 -1 -2	247	1
52 -1 -2	267	4
53 -1 62 -1 108 -1 5 -1 28 -1 107 -1 120 -1 219 -1 245 -1 32 -1 84 -1 67 -1 -2	1	1
148 -1 147 -1 97 -1 175 -1 135 -1 -2	1	1
58 -1 54 -1 113 -1 -2	10	1
1 -1 26 -1 110 -1 144 -1 253 -1 44 -1 -2	2	1
45 -1 115 -1 117 -1 50 -1 -2	1	1
81 -1 16 -1 141 -1 35 -1 137 -1 168 -1 247 -1 262 -1 -2	1	1
26 -1 28 -1 144 -1 149 -1 185 -1 7 -1 309 -1 -2	1	1
8 -1 96 -1 26 -1 49 -1 78 -1 23 -1 65 -1 -2	1	1
12 -1 13 -1 58 -1 56 -1 79 -1 28 -1 143 -1 232 -1 -2	1	1
132 -1 253 -1 40 -1 -2	15	1
35 -1 25 -1 119 -1 143 -1 -2	5	1
8 -1 75 -1 108 -1 139 -1 46 -1 66 -1 -2	1	1
7 -1 110 -1 6 -1 78 -1 143 -1 4 -1 245 -1 23 -1 -2	1	1
8 -1 2 -1 46 -1 35 -1 121 -1 61 -1 -2	1	1
13 -1 17 -1 47 -1 205 -1 39 -1 310 -1 -2	1	1
45 -1 38 -1 95 -1 -2	2	1
109 -1 14 -1 31 -1 140 -1 79 -1 117 -1 119 -1 136 -1 50 -1 60 -1 145 -1 -2	1	1
56 -1 92 -1 57 -1 245 -1 -2	1	1
15 -1 28 -1 184 -1 309 -1 51 -1 -2	1	1
8 -1 16 -1 38 -1 133 -1 143 -1 246 -1 44 -1 -2	2	1
2 -1 18 -1 44 -1 245 -1 -2	39	1
255 -1 -2	181	2
15 -1 21 -1 -2	118	1
26 -1 27 -1 84 -1 35 -1 72 -1 253 -1 296 -1 -2	1	1
79 -1 97 -1 19 -1 45 -1 119 -1 139 -1 255 -1 -2	1	1
2 -1 23 -1 1 -1 65 -1 82 -1 50 -1 115 -1 33 -1 -2	1	1
14 -1 36 -1 -2	196	1
15 -1 110 -1 57 -1 117 -1 14 -1 179 -1 64 -1 253 -1 281 -1 -2	1	1
1 -1 3 -1 43 -1 58 -1 110 -1 144 -1 245 -1 247 -1 -2	2	1
11 -1 35 -1 82 -1 47 -1 41 -1 149 -1 253 -1 -2	1	1
75 -1 4 -1 113 -1 42 -1 266 -1 -2	1	1
21 -1 76 -1 15 -1 120 -1 -2	2	1
75 -1 43 -1 1 -1 71 -1 66 -1 38 -1 73 -1 141 -1 5 -1 -2	1	1
29 -1 36 -1 27 -1 97 -1 110 -1 25 -1 149 -1 219 -1 245 -1 -2	1	1
54 -1 98 -1 19 -1 4 -1 120 -1 146 -1 33 -1 -2	1	1
37 -1 16 -1 248 -1 -2	9	1
2 -1 14 -1 36 -1 69 -1 38 -1 65 -1 59 -1 106 -1 -2	1	1
86 -1 25 -1 84 -1 118 -1 144 -1 20 -1 247 -1 56 -1 -2	1	1
12 -1 -2	353	1
63 -1 42 -1 17 -1 1 -1 59 -1 56 -1 112 -1 44 -1 139 -1 30 -1 149 -1 150 -1 245 -1 -2	1	1
1 -1 49 -1 48 -1 132 -1 33 -1 43 -1 -2	1	1
89 -1 26 -1 31 -1 22 -1 45 -1 74 -1 24 -1 -2	1	1
14 -1 41 -1 167 -1 251 -1 -2	1	1
92 -1 86 -1 133 -1 30 -1 42 -1 193 -1 246 -1 248 -1 268 -1 -2	1	1
9 -1 14 -1 5 -1 -2	40	1
2 -1 85 -1 26 -1 143 -1 38 -1 -2	3	1
4 -1 42 -1 26 -1 17 -1 15 -1 78 -1 133 -1 144 -1 246 -1 -2	1	1
8 -1 106 -1 10 -1 69 -1 99 -1 33 -1 -2	1	1
45 -1 -2	329	5
46 -1 9 -1 36 -1 113 -1 52 -1 144 -1 150 -1 246 -1 31 -1 248 -1 -2	1	1
30 -1 13 -1 22 -1 40 -1 53 -1 146 -1 51 -1 76 -1 48 -1 250 -1 -2	1	1
48 -1 26 -1 18 -1 143 -1 11 -1 54 -1 29 -1 -2	1	1
14 -1 74 -1 78 -1 79 -1 139 -1 143 -1 250 -1 254 -1 -2	1	1
2 -1 8 -1 20 -1 19 -1 24 -1 103 -1 104 -1 101 -1 -2	1	1
112 -1 60 -1 11 -1 85 -1 104 -1 53 -1 20 -1 117 -1 143 -1 41 -1 253 -1 -2	1	1
10 -1 18 -1 132 -1 255 -1 -2	15	1
1 -1 41 -1 78 -1 18 -1 36 -1 79 -1 110 -1 117 -1 245 -1 51 -1 246 -1 -2	1	1
17 -1 18 -1 28 -1 143 -1 -2	125	1
39 -1 51 -1 52 -1 30 -1 50 -1 70 -1 245 -1 101 -1 253 -1 -2	1	1
12 -1 18 -1 8 -1 64 -1 107 -1 50 -1 36 -1 44 -1 7 -1 47 -1 84 -1 -2	1	1
40 -1 11 -1 98 -1 12 -1 51 -1 246 -1 66 -1 -2	1	1
26 -1 40 -1 15 -1 21 -1 65 -1 53 -1 -2	1	1
17 -1 72 -1 36 -1 133 -1 12 -1 -2	1	1
10 -1 14 -1 79 -1 149 -1 -2	17	1
59 -1 118 -1 199 -1 262 -1 -2	2	1
22 -1 85 -1 38 -1 94 -1 111 -1 -2	1	1
1 -1 18 -1 47 -1 119 -1 150 -1 -2	3	1
3 -1 48 -1 117 -1 39 -1 -2	3	1
1 -1 17 -1 26 -1 39 -1 47 -1 134 -1 4 -1 145 -1 -2	1	1
186 -1 9 -1 124 -1 155 -1 68 -1 70 -1 105 -1 253 -1 262 -1 -2	1	1
4 -1 60 -1 17 -1 20 -1 18 -1 6 -1 143 -1 65 -1 258 -1 -2	1	1
24 -1 9 -1 110 -1 95 -1 16 -1 108 -1 253 -1 81 -1 -2	1	1
