#subsequence (s \in Sample : s ~ D)	freq(s,D)	freq(s,Sample)

17 -1 113 -1 -2	289	1
245 -1 16 -1 -2	59	1
74 -1 66 -1 11 -1 -2	7	1
69 -1 78 -1 79 -1 143 -1 -2	66	1
28 -1 1 -1 134 -1 165 -1 -2	2	1
10 -1 8 -1 117 -1 23 -1 -2	4	1
92 -1 113 -1 -2	14	1
45 -1 -2	329	16
97 -1 -2	52	6
10 -1 57 -1 21 -1 -2	18	1
78 -1 111 -1 31 -1 132 -1 -2	5	1
71 -1 -2	144	5
26 -1 245 -1 -2	432	1
9 -1 46 -1 32 -1 -2	49	1
87 -1 139 -1 169 -1 -2	1	1
5 -1 83 -1 12 -1 50 -1 139 -1 84 -1 -2	1	1
57 -1 74 -1 78 -1 -2	13	1
67 -1 -2	182	13
54 -1 82 -1 128 -1 78 -1 -2	1	1
67 -1 80 -1 110 -1 13 -1 256 -1 -2	1	1
51 -1 94 -1 104 -1 253 -1 -2	1	1
98 -1 67 -1 -2	6	1
58 -1 15 -1 18 -1 73 -1 32 -1 40 -1 -2	1	1
7 -1 41 -1 64 -1 117 -1 -2	2	1
14 -1 21 -1 48 -1 113 -1 252 -1 -2	3	1
27 -1 117 -1 245 -1 246 -1 -2	133	1
27 -1 81 -1 20 -1 246 -1 -2	4	1
18 -1 79 -1 27 -1 117 -1 37 -1 68 -1 259 -1 -2	1	1
14 -1 26 -1 78 -1 -2	81	1
250 -1 -2	159	5
8 -1 -2	638	24
96 -1 65 -1 27 -1 245 -1 101 -1 -2	1	1
30 -1 82 -1 286 -1 -2	1	1
13 -1 88 -1 92 -1 57 -1 -2	1	1
32 -1 19 -1 43 -1 -2	12	1
38 -1 27 -1 46 -1 67 -1 19 -1 48 -1 -2	1	1
17 -1 27 -1 149 -1 19 -1 161 -1 34 -1 -2	1	1
48 -1 149 -1 150 -1 -2	58	1
2 -1 3 -1 27 -1 55 -1 19 -1 -2	1	1
8 -1 17 -1 118 -1 -2	259	1
1 -1 117 -1 285 -1 -2	1	1
7 -1 81 -1 110 -1 -2	1	1
37 -1 17 -1 23 -1 1 -1 -2	6	1
132 -1 245 -1 -2	254	1
54 -1 75 -1 118 -1 253 -1 -2	7	1
15 -1 52 -1 12 -1 79 -1 2 -1 54 -1 57 -1 -2	1	1
52 -1 114 -1 30 -1 81 -1 284 -1 -2	1	1
40 -1 29 -1 50 -1 -2	14	1
16 -1 -2	358	13
37 -1 117 -1 -2	168	1
12 -1 -2	353	20
9 -1 41 -1 118 -1 203 -1 16 -1 -2	1	1
2 -1 8 -1 144 -1 149 -1 -2	46	1
59 -1 16 -1 55 -1 45 -1 -2	3	1
139 -1 143 -1 13 -1 54 -1 309 -1 -2	1	1
117 -1 43 -1 253 -1 -2	79	1
10 -1 80 -1 -2	46	1
117 -1 69 -1 49 -1 46 -1 23 -1 -2	1	1
10 -1 11 -1 -2	206	1
17 -1 61 -1 118 -1 21 -1 -2	16	1
3 -1 80 -1 7 -1 68 -1 59 -1 -2	1	1
32 -1 25 -1 254 -1 -2	5	1
15 -1 29 -1 35 -1 56 -1 -2	6	1
190 -1 245 -1 -2	65	1
40 -1 23 -1 -2	83	1
83 -1 120 -1 16 -1 210 -1 -2	2	1
41 -1 51 -1 -2	78	1
195 -1 -2	157	6
8 -1 64 -1 25 -1 -2	36	1
62 -1 127 -1 84 -1 15 -1 143 -1 -2	1	1
17 -1 -2	652	33
149 -1 -2	267	12
69 -1 -2	204	8
2 -1 119 -1 245 -1 39 -1 -2	3	1
108 -1 -2	100	3
57 -1 42 -1 -2	50	1
76 -1 29 -1 209 -1 -2	3	1
40 -1 1 -1 120 -1 164 -1 16 -1 -2	1	1
145 -1 38 -1 262 -1 -2	3	1
71 -1 35 -1 2 -1 -2	4	1
24 -1 110 -1 -2	116	1
22 -1 110 -1 -2	184	1
125 -1 245 -1 -2	18	1
17 -1 18 -1 35 -1 14 -1 16 -1 210 -1 248 -1 57 -1 -2	1	1
15 -1 -2	394	19
16 -1 245 -1 -2	215	2
48 -1 118 -1 -2	117	1
17 -1 46 -1 47 -1 5 -1 143 -1 -2	2	1
28 -1 65 -1 -2	62	2
50 -1 49 -1 245 -1 -2	42	1
53 -1 -2	330	27
108 -1 43 -1 146 -1 -2	6	1
42 -1 37 -1 10 -1 26 -1 -2	3	1
69 -1 21 -1 195 -1 -2	13	1
138 -1 53 -1 27 -1 104 -1 -2	1	1
1 -1 118 -1 -2	403	4
64 -1 23 -1 -2	35	1
107 -1 11 -1 157 -1 168 -1 253 -1 -2	1	1
10 -1 88 -1 22 -1 -2	7	1
63 -1 -2	193	5
139 -1 -2	329	22
23 -1 149 -1 -2	124	2
9 -1 54 -1 -2	186	2
74 -1 245 -1 76 -1 -2	9	1
5 -1 87 -1 53 -1 6 -1 23 -1 -2	1	1
36 -1 88 -1 253 -1 32 -1 -2	2	1
3 -1 179 -1 -2	18	1
36 -1 2 -1 76 -1 -2	4	1
30 -1 144 -1 -2	164	1
14 -1 9 -1 55 -1 108 -1 109 -1 11 -1 -2	1	1
17 -1 14 -1 -2	180	1
35 -1 90 -1 14 -1 197 -1 -2	1	1
48 -1 31 -1 113 -1 12 -1 61 -1 190 -1 -2	1	1
41 -1 -2	366	19
119 -1 143 -1 29 -1 -2	10	1
22 -1 -2	474	18
44 -1 64 -1 33 -1 253 -1 -2	5	1
128 -1 16 -1 36 -1 83 -1 24 -1 84 -1 -2	1	1
11 -1 33 -1 9 -1 -2	10	1
189 -1 35 -1 -2	4	1
2 -1 17 -1 -2	227	2
90 -1 10 -1 84 -1 36 -1 -2	1	1
17 -1 23 -1 59 -1 139 -1 245 -1 -2	10	1
18 -1 48 -1 259 -1 -2	14	1
39 -1 4 -1 69 -1 90 -1 51 -1 49 -1 -2	1	1
8 -1 1 -1 94 -1 -2	14	1
144 -1 248 -1 -2	55	1
17 -1 21 -1 43 -1 15 -1 -2	3	1
53 -1 10 -1 59 -1 34 -1 -2	3	1
35 -1 16 -1 -2	178	2
15 -1 117 -1 133 -1 146 -1 149 -1 54 -1 61 -1 -2	1	1
24 -1 132 -1 -2	102	1
76 -1 32 -1 107 -1 79 -1 -2	1	1
125 -1 253 -1 32 -1 -2	3	1
54 -1 28 -1 -2	64	1
54 -1 45 -1 71 -1 -2	8	1
1 -1 -2	680	37
11 -1 245 -1 -2	308	1
83 -1 26 -1 111 -1 247 -1 -2	1	1
259 -1 -2	93	6
2 -1 149 -1 253 -1 -2	116	1
4 -1 113 -1 21 -1 195 -1 -2	3	1
50 -1 -2	288	14
46 -1 14 -1 72 -1 69 -1 -2	1	1
29 -1 99 -1 117 -1 54 -1 59 -1 -2	3	1
14 -1 77 -1 -2	30	1
28 -1 76 -1 20 -1 -2	6	1
20 -1 25 -1 -2	122	1
17 -1 147 -1 -2	85	1
143 -1 -2	626	35
246 -1 -2	420	16
74 -1 136 -1 15 -1 -2	3	1
51 -1 -2	262	11
32 -1 -2	371	17
8 -1 1 -1 26 -1 32 -1 54 -1 182 -1 63 -1 -2	1	1
34 -1 143 -1 -2	183	1
88 -1 17 -1 36 -1 72 -1 90 -1 -2	1	1
83 -1 72 -1 -2	15	1
79 -1 190 -1 -2	28	1
21 -1 36 -1 62 -1 -2	12	1
79 -1 110 -1 7 -1 89 -1 -2	2	1
8 -1 17 -1 197 -1 32 -1 -2	7	1
26 -1 119 -1 121 -1 31 -1 -2	1	1
1 -1 47 -1 -2	234	4
52 -1 44 -1 -2	53	2
69 -1 31 -1 11 -1 33 -1 -2	2	1
24 -1 111 -1 -2	22	1
118 -1 -2	439	25
8 -1 25 -1 209 -1 59 -1 -2	3	1
31 -1 16 -1 -2	102	1
33 -1 88 -1 101 -1 21 -1 250 -1 -2	1	1
31 -1 14 -1 51 -1 65 -1 -2	1	1
31 -1 261 -1 -2	18	1
76 -1 118 -1 144 -1 -2	36	1
52 -1 38 -1 133 -1 253 -1 74 -1 -2	1	1
60 -1 68 -1 88 -1 132 -1 42 -1 214 -1 29 -1 -2	1	1
4 -1 35 -1 56 -1 70 -1 -2	2	1
90 -1 24 -1 50 -1 39 -1 112 -1 -2	1	1
19 -1 67 -1 -2	48	1
2 -1 -2	363	15
9 -1 26 -1 17 -1 114 -1 -2	8	1
23 -1 113 -1 132 -1 54 -1 245 -1 -2	6	1
9 -1 -2	590	26
22 -1 29 -1 58 -1 246 -1 -2	13	1
55 -1 149 -1 50 -1 -2	6	1
37 -1 38 -1 139 -1 259 -1 -2	5	1
146 -1 -2	162	9
1 -1 3 -1 -2	169	2
133 -1 36 -1 -2	28	1
30 -1 -2	344	23
133 -1 -2	338	20
34 -1 -2	324	16
65 -1 105 -1 17 -1 91 -1 150 -1 245 -1 -2	1	1
8 -1 45 -1 -2	258	1
17 -1 22 -1 146 -1 210 -1 23 -1 -2	1	1
30 -1 11 -1 133 -1 -2	20	1
17 -1 46 -1 35 -1 77 -1 143 -1 67 -1 68 -1 -2	1	1
14 -1 76 -1 20 -1 31 -1 53 -1 191 -1 -2	1	1
7 -1 -2	336	12
15 -1 118 -1 -2	170	1
71 -1 38 -1 36 -1 23 -1 -2	2	1
4 -1 11 -1 44 -1 -2	34	1
21 -1 -2	317	14
53 -1 22 -1 83 -1 178 -1 -2	1	1
66 -1 -2	170	11
70 -1 36 -1 86 -1 260 -1 -2	1	1
11 -1 19 -1 149 -1 84 -1 -2	1	1
40 -1 -2	317	18
4 -1 41 -1 -2	154	2
79 -1 27 -1 245 -1 -2	39	1
13 -1 -2	476	16
60 -1 -2	209	8
35 -1 -2	595	32
48 -1 73 -1 -2	42	1
57 -1 70 -1 4 -1 218 -1 -2	1	1
8 -1 21 -1 -2	238	1
5 -1 55 -1 119 -1 38 -1 18 -1 -2	1	1
24 -1 7 -1 36 -1 108 -1 86 -1 179 -1 59 -1 -2	1	1
28 -1 7 -1 15 -1 20 -1 -2	5	1
25 -1 -2	318	18
31 -1 13 -1 -2	86	1
72 -1 27 -1 79 -1 211 -1 65 -1 -2	1	1
120 -1 9 -1 117 -1 114 -1 -2	1	1
2 -1 36 -1 179 -1 54 -1 245 -1 16 -1 -2	1	1
269 -1 -2	7	1
35 -1 144 -1 -2	337	3
77 -1 64 -1 45 -1 58 -1 -2	1	1
10 -1 38 -1 41 -1 -2	32	1
22 -1 10 -1 28 -1 -2	31	1
4 -1 55 -1 7 -1 68 -1 -2	4	1
41 -1 245 -1 16 -1 -2	22	1
120 -1 -2	155	5
147 -1 -2	88	5
118 -1 44 -1 37 -1 39 -1 -2	1	1
20 -1 86 -1 197 -1 -2	2	1
28 -1 25 -1 -2	121	1
20 -1 26 -1 -2	220	1
9 -1 49 -1 78 -1 146 -1 -2	11	1
72 -1 13 -1 117 -1 144 -1 -2	13	1
41 -1 60 -1 32 -1 98 -1 57 -1 46 -1 -2	1	1
79 -1 143 -1 248 -1 -2	26	1
130 -1 109 -1 110 -1 -2	2	1
16 -1 8 -1 49 -1 70 -1 -2	2	1
63 -1 14 -1 110 -1 117 -1 6 -1 149 -1 191 -1 209 -1 102 -1 253 -1 -2	1	1
132 -1 -2	313	22
105 -1 110 -1 64 -1 34 -1 -2	1	1
27 -1 2 -1 -2	55	2
50 -1 136 -1 255 -1 -2	6	1
79 -1 17 -1 143 -1 43 -1 -2	7	1
23 -1 31 -1 -2	160	1
84 -1 26 -1 109 -1 49 -1 250 -1 -2	2	1
144 -1 -2	440	22
5 -1 8 -1 53 -1 40 -1 -2	17	1
78 -1 32 -1 253 -1 -2	65	1
33 -1 139 -1 -2	96	1
149 -1 39 -1 -2	39	1
19 -1 -2	423	25
4 -1 22 -1 252 -1 -2	18	1
77 -1 72 -1 -2	17	1
38 -1 30 -1 56 -1 79 -1 -2	2	1
11 -1 139 -1 -2	174	1
8 -1 26 -1 7 -1 144 -1 18 -1 -2	6	1
83 -1 35 -1 114 -1 118 -1 309 -1 -2	1	1
17 -1 21 -1 -2	220	2
27 -1 110 -1 143 -1 209 -1 -2	51	1
38 -1 218 -1 47 -1 -2	1	1
8 -1 35 -1 143 -1 246 -1 -2	198	1
13 -1 10 -1 12 -1 -2	22	1
8 -1 45 -1 13 -1 -2	46	1
6 -1 1 -1 16 -1 36 -1 118 -1 -2	3	1
19 -1 70 -1 4 -1 132 -1 139 -1 -2	1	1
11 -1 17 -1 61 -1 43 -1 -2	10	1
23 -1 22 -1 57 -1 11 -1 -2	2	1
6 -1 246 -1 -2	155	1
46 -1 21 -1 38 -1 -2	13	1
46 -1 79 -1 1 -1 109 -1 44 -1 13 -1 -2	1	1
26 -1 149 -1 11 -1 -2	18	1
22 -1 67 -1 147 -1 -2	9	1
14 -1 150 -1 -2	112	1
29 -1 56 -1 30 -1 11 -1 -2	4	1
28 -1 117 -1 52 -1 -2	50	1
118 -1 6 -1 24 -1 -2	12	1
22 -1 16 -1 9 -1 -2	7	1
5 -1 27 -1 -2	142	1
4 -1 37 -1 59 -1 -2	14	1
16 -1 31 -1 35 -1 149 -1 -2	19	1
247 -1 -2	202	11
19 -1 41 -1 253 -1 -2	119	1
25 -1 45 -1 52 -1 110 -1 -2	2	1
24 -1 60 -1 258 -1 -2	4	1
91 -1 61 -1 52 -1 54 -1 78 -1 132 -1 -2	1	1
18 -1 1 -1 119 -1 44 -1 -2	1	1
24 -1 187 -1 -2	16	1
10 -1 -2	507	29
6 -1 173 -1 -2	14	1
8 -1 136 -1 -2	82	1
43 -1 171 -1 -2	12	1
119 -1 31 -1 26 -1 14 -1 -2	1	1
44 -1 9 -1 73 -1 -2	10	1
1 -1 72 -1 195 -1 -2	27	1
54 -1 79 -1 117 -1 3 -1 66 -1 198 -1 -2	1	1
1 -1 76 -1 59 -1 35 -1 44 -1 -2	1	1
56 -1 133 -1 -2	70	1
11 -1 13 -1 14 -1 50 -1 29 -1 -2	1	1
70 -1 118 -1 253 -1 -2	75	1
57 -1 -2	222	8
40 -1 210 -1 -2	18	1
63 -1 64 -1 -2	46	1
29 -1 56 -1 120 -1 145 -1 38 -1 184 -1 24 -1 14 -1 -2	1	1
22 -1 9 -1 117 -1 120 -1 139 -1 164 -1 -2	1	1
38 -1 132 -1 20 -1 -2	18	1
71 -1 27 -1 -2	40	1
36 -1 34 -1 -2	133	1
41 -1 55 -1 23 -1 7 -1 68 -1 191 -1 210 -1 -2	1	1
62 -1 -2	197	16
59 -1 -2	217	9
14 -1 195 -1 -2	64	1
134 -1 169 -1 -2	3	1
35 -1 99 -1 1 -1 -2	5	1
41 -1 189 -1 -2	40	1
58 -1 60 -1 189 -1 11 -1 21 -1 -2	1	1
69 -1 59 -1 61 -1 70 -1 -2	1	1
84 -1 81 -1 64 -1 146 -1 19 -1 -2	1	1
22 -1 246 -1 -2	258	1
62 -1 75 -1 79 -1 16 -1 -2	2	1
26 -1 25 -1 14 -1 67 -1 246 -1 -2	2	1
8 -1 84 -1 35 -1 144 -1 50 -1 197 -1 -2	1	1
28 -1 75 -1 18 -1 39 -1 117 -1 92 -1 149 -1 170 -1 -2	1	1
26 -1 -2	601	27
83 -1 150 -1 -2	23	1
136 -1 253 -1 -2	100	1
21 -1 30 -1 36 -1 53 -1 79 -1 24 -1 146 -1 205 -1 -2	1	1
26 -1 38 -1 -2	202	2
5 -1 15 -1 48 -1 -2	23	1
42 -1 1 -1 23 -1 135 -1 -2	1	1
51 -1 247 -1 -2	82	1
44 -1 79 -1 104 -1 -2	2	1
13 -1 28 -1 92 -1 -2	7	1
6 -1 63 -1 26 -1 69 -1 42 -1 -2	1	1
30 -1 1 -1 149 -1 37 -1 183 -1 54 -1 -2	1	1
8 -1 28 -1 18 -1 108 -1 57 -1 -2	1	1
59 -1 113 -1 -2	49	1
50 -1 7 -1 -2	64	1
209 -1 -2	76	7
20 -1 262 -1 -2	57	1
22 -1 143 -1 247 -1 -2	104	1
18 -1 245 -1 -2	390	1
96 -1 31 -1 43 -1 -2	7	1
103 -1 41 -1 70 -1 44 -1 -2	1	1
14 -1 -2	420	16
36 -1 -2	528	18
4 -1 40 -1 -2	123	2
75 -1 -2	118	10
18 -1 38 -1 -2	185	1
38 -1 23 -1 46 -1 -2	15	1
117 -1 1 -1 203 -1 -2	2	1
36 -1 110 -1 83 -1 135 -1 -2	3	1
57 -1 10 -1 4 -1 146 -1 -2	2	1
44 -1 117 -1 164 -1 -2	9	1
44 -1 26 -1 51 -1 -2	16	1
1 -1 245 -1 -2	517	2
62 -1 50 -1 59 -1 253 -1 -2	7	1
3 -1 33 -1 115 -1 44 -1 -2	1	1
87 -1 47 -1 57 -1 -2	2	1
26 -1 168 -1 -2	20	1
141 -1 -2	104	4
1 -1 42 -1 -2	223	1
23 -1 55 -1 46 -1 309 -1 -2	2	1
56 -1 -2	245	10
202 -1 245 -1 -2	4	1
17 -1 113 -1 7 -1 -2	52	1
41 -1 117 -1 143 -1 -2	193	1
40 -1 247 -1 -2	74	1
8 -1 18 -1 35 -1 -2	222	1
64 -1 97 -1 69 -1 12 -1 71 -1 87 -1 -2	1	1
10 -1 20 -1 14 -1 57 -1 132 -1 69 -1 76 -1 261 -1 45 -1 -2	1	1
47 -1 44 -1 -2	55	2
82 -1 114 -1 120 -1 5 -1 -2	2	1
23 -1 -2	442	30
9 -1 46 -1 -2	212	1
9 -1 13 -1 22 -1 31 -1 147 -1 -2	7	1
15 -1 28 -1 139 -1 -2	42	1
80 -1 139 -1 255 -1 -2	7	1
143 -1 253 -1 -2	569	1
99 -1 -2	44	2
9 -1 197 -1 25 -1 -2	6	1
117 -1 245 -1 34 -1 -2	43	1
64 -1 253 -1 -2	144	1
108 -1 79 -1 55 -1 -2	3	1
39 -1 253 -1 -2	278	2
27 -1 169 -1 -2	7	1
37 -1 6 -1 -2	74	1
36 -1 40 -1 309 -1 54 -1 -2	1	1
19 -1 143 -1 -2	278	1
8 -1 23 -1 247 -1 -2	80	1
65 -1 -2	180	7
55 -1 45 -1 -2	61	1
121 -1 45 -1 143 -1 163 -1 -2	2	1
9 -1 91 -1 246 -1 -2	16	1
34 -1 36 -1 -2	98	1
86 -1 246 -1 12 -1 -2	1	1
72 -1 56 -1 70 -1 253 -1 -2	4	1
18 -1 -2	552	22
179 -1 54 -1 -2	4	1
30 -1 42 -1 81 -1 246 -1 -2	2	1
21 -1 35 -1 56 -1 14 -1 55 -1 73 -1 86 -1 258 -1 -2	1	1
39 -1 -2	340	11
70 -1 35 -1 52 -1 44 -1 22 -1 -2	1	1
9 -1 132 -1 54 -1 -2	35	1
24 -1 -2	357	22
13 -1 35 -1 245 -1 59 -1 -2	14	1
10 -1 73 -1 12 -1 139 -1 7 -1 -2	1	1
24 -1 27 -1 84 -1 114 -1 145 -1 179 -1 209 -1 -2	1	1
3 -1 119 -1 -2	16	1
74 -1 187 -1 -2	13	2
30 -1 35 -1 113 -1 1 -1 65 -1 -2	1	1
48 -1 118 -1 191 -1 -2	22	1
2 -1 7 -1 67 -1 79 -1 -2	5	1
26 -1 1 -1 13 -1 117 -1 -2	4	1
29 -1 120 -1 180 -1 -2	3	1
36 -1 86 -1 -2	29	1
5 -1 -2	352	15
2 -1 44 -1 6 -1 -2	26	1
21 -1 1 -1 32 -1 59 -1 3 -1 139 -1 -2	1	1
56 -1 34 -1 -2	54	1
8 -1 10 -1 99 -1 132 -1 115 -1 54 -1 100 -1 185 -1 -2	1	1
17 -1 46 -1 25 -1 -2	58	1
18 -1 138 -1 -2	4	1
32 -1 113 -1 253 -1 -2	84	1
61 -1 64 -1 -2	43	1
65 -1 113 -1 -2	53	1
20 -1 23 -1 -2	153	1
12 -1 63 -1 43 -1 -2	7	1
38 -1 78 -1 62 -1 118 -1 24 -1 146 -1 -2	1	1
26 -1 39 -1 -2	201	1
29 -1 36 -1 132 -1 46 -1 -2	4	1
26 -1 144 -1 -2	354	2
4 -1 54 -1 -2	104	1
14 -1 15 -1 141 -1 84 -1 -2	2	1
30 -1 37 -1 33 -1 149 -1 -2	3	1
36 -1 34 -1 118 -1 139 -1 246 -1 -2	13	1
11 -1 101 -1 7 -1 37 -1 -2	1	1
22 -1 195 -1 245 -1 -2	42	1
18 -1 60 -1 209 -1 -2	10	1
22 -1 8 -1 121 -1 30 -1 -2	1	1
68 -1 58 -1 18 -1 45 -1 -2	3	1
53 -1 153 -1 -2	22	1
68 -1 -2	190	5
49 -1 132 -1 61 -1 262 -1 -2	5	1
82 -1 47 -1 17 -1 -2	3	1
18 -1 125 -1 88 -1 59 -1 -2	1	1
84 -1 8 -1 89 -1 21 -1 69 -1 118 -1 146 -1 -2	1	1
12 -1 37 -1 198 -1 250 -1 -2	3	1
31 -1 -2	417	15
48 -1 -2	294	12
14 -1 111 -1 104 -1 186 -1 12 -1 258 -1 -2	1	1
68 -1 40 -1 -2	40	1
83 -1 110 -1 -2	23	1
18 -1 112 -1 1 -1 70 -1 33 -1 -2	1	1
20 -1 133 -1 149 -1 6 -1 59 -1 -2	1	1
41 -1 43 -1 253 -1 -2	61	1
54 -1 78 -1 28 -1 47 -1 117 -1 -2	1	1
9 -1 79 -1 13 -1 11 -1 -2	4	1
88 -1 73 -1 85 -1 -2	1	1
4 -1 72 -1 91 -1 25 -1 73 -1 60 -1 65 -1 6 -1 -2	1	1
20 -1 71 -1 -2	47	1
22 -1 79 -1 162 -1 7 -1 -2	3	1
55 -1 12 -1 53 -1 28 -1 37 -1 13 -1 54 -1 72 -1 39 -1 -2	1	1
44 -1 57 -1 68 -1 56 -1 -2	2	1
7 -1 69 -1 -2	33	2
34 -1 27 -1 110 -1 139 -1 247 -1 -2	8	1
28 -1 143 -1 245 -1 48 -1 309 -1 -2	6	1
46 -1 54 -1 -2	80	2
146 -1 39 -1 -2	23	1
112 -1 62 -1 11 -1 58 -1 75 -1 -2	1	1
59 -1 13 -1 253 -1 -2	25	1
37 -1 3 -1 210 -1 28 -1 50 -1 -2	1	1
67 -1 139 -1 253 -1 -2	68	1
134 -1 253 -1 -2	63	1
17 -1 117 -1 29 -1 70 -1 -2	4	1
12 -1 135 -1 -2	23	1
18 -1 25 -1 21 -1 139 -1 10 -1 184 -1 -2	1	1
2 -1 136 -1 -2	47	1
4 -1 82 -1 46 -1 247 -1 60 -1 -2	1	1
247 -1 254 -1 -2	20	1
14 -1 79 -1 23 -1 67 -1 68 -1 -2	1	1
25 -1 16 -1 -2	67	1
5 -1 15 -1 79 -1 18 -1 144 -1 150 -1 -2	1	1
6 -1 -2	324	8
34 -1 18 -1 96 -1 85 -1 -2	1	1
32 -1 149 -1 -2	107	2
1 -1 84 -1 113 -1 -2	27	1
9 -1 119 -1 -2	59	1
79 -1 171 -1 189 -1 -2	1	1
49 -1 6 -1 -2	50	1
52 -1 24 -1 -2	64	1
4 -1 90 -1 51 -1 64 -1 21 -1 210 -1 -2	1	1
78 -1 143 -1 -2	326	2
65 -1 1 -1 118 -1 -2	13	1
7 -1 195 -1 -2	59	1
31 -1 17 -1 3 -1 -2	14	1
113 -1 255 -1 -2	72	1
24 -1 78 -1 14 -1 72 -1 117 -1 -2	1	1
25 -1 20 -1 -2	61	1
65 -1 245 -1 -2	119	2
3 -1 -2	219	6
44 -1 40 -1 50 -1 132 -1 84 -1 -2	1	1
113 -1 -2	341	13
61 -1 74 -1 16 -1 122 -1 47 -1 -2	1	1
49 -1 -2	269	10
69 -1 41 -1 46 -1 247 -1 -2	2	1
13 -1 54 -1 20 -1 168 -1 -2	1	1
21 -1 245 -1 -2	168	2
88 -1 176 -1 -2	1	1
18 -1 113 -1 117 -1 -2	185	1
45 -1 26 -1 -2	82	1
12 -1 13 -1 -2	86	1
50 -1 6 -1 49 -1 -2	5	1
37 -1 28 -1 44 -1 109 -1 20 -1 245 -1 -2	1	1
9 -1 43 -1 255 -1 -2	38	1
33 -1 37 -1 110 -1 14 -1 71 -1 -2	1	1
117 -1 1 -1 246 -1 -2	49	1
25 -1 14 -1 15 -1 47 -1 -2	3	1
35 -1 39 -1 143 -1 43 -1 -2	15	1
79 -1 33 -1 -2	80	1
53 -1 132 -1 40 -1 21 -1 -2	6	1
198 -1 -2	37	1
17 -1 9 -1 133 -1 -2	37	1
1 -1 11 -1 23 -1 120 -1 -2	17	1
77 -1 -2	100	4
6 -1 5 -1 28 -1 33 -1 253 -1 -2	4	1
42 -1 18 -1 1 -1 40 -1 141 -1 245 -1 -2	1	1
25 -1 16 -1 31 -1 139 -1 144 -1 55 -1 71 -1 -2	1	1
20 -1 -2	428	19
138 -1 90 -1 115 -1 -2	1	1
118 -1 41 -1 150 -1 245 -1 -2	11	1
17 -1 75 -1 60 -1 81 -1 -2	3	1
119 -1 13 -1 34 -1 94 -1 89 -1 -2	1	1
166 -1 -2	22	2
105 -1 119 -1 133 -1 57 -1 -2	1	1
89 -1 246 -1 49 -1 -2	6	1
248 -1 11 -1 -2	6	1
20 -1 17 -1 149 -1 10 -1 -2	2	1
76 -1 245 -1 -2	84	1
78 -1 11 -1 92 -1 87 -1 119 -1 -2	1	1
28 -1 29 -1 114 -1 245 -1 -2	11	1
117 -1 -2	575	27
44 -1 38 -1 46 -1 149 -1 -2	2	1
55 -1 117 -1 69 -1 -2	5	1
44 -1 191 -1 -2	24	1
45 -1 52 -1 56 -1 6 -1 -2	3	1
35 -1 24 -1 255 -1 -2	42	1
8 -1 46 -1 198 -1 -2	10	1
48 -1 256 -1 34 -1 -2	3	1
47 -1 -2	302	17
53 -1 84 -1 117 -1 132 -1 -2	5	1
105 -1 49 -1 245 -1 -2	1	1
36 -1 176 -1 67 -1 -2	1	1
31 -1 139 -1 246 -1 -2	93	1
69 -1 30 -1 72 -1 -2	6	1
48 -1 35 -1 13 -1 -2	15	1
9 -1 27 -1 53 -1 -2	98	1
37 -1 117 -1 139 -1 -2	104	1
21 -1 67 -1 -2	29	2
31 -1 113 -1 139 -1 39 -1 -2	6	1
8 -1 66 -1 117 -1 33 -1 -2	9	1
9 -1 102 -1 -2	19	1
1 -1 28 -1 -2	317	1
86 -1 117 -1 25 -1 -2	5	1
42 -1 -2	289	15
109 -1 -2	92	6
19 -1 113 -1 44 -1 -2	17	1
1 -1 133 -1 247 -1 -2	99	1
119 -1 -2	75	2
37 -1 16 -1 54 -1 145 -1 52 -1 -2	1	1
13 -1 24 -1 189 -1 -2	18	1
33 -1 6 -1 -2	64	1
52 -1 25 -1 -2	61	1
35 -1 45 -1 37 -1 -2	23	1
35 -1 120 -1 43 -1 146 -1 -2	2	1
82 -1 132 -1 -2	25	1
4 -1 33 -1 -2	123	2
114 -1 -2	199	13
110 -1 250 -1 -2	74	1
4 -1 144 -1 -2	220	2
14 -1 24 -1 60 -1 44 -1 11 -1 113 -1 -2	1	1
26 -1 27 -1 117 -1 -2	263	1
46 -1 11 -1 26 -1 -2	25	1
9 -1 191 -1 193 -1 -2	9	1
1 -1 120 -1 139 -1 82 -1 247 -1 -2	2	1
67 -1 15 -1 -2	46	1
8 -1 10 -1 76 -1 41 -1 19 -1 -2	2	1
22 -1 70 -1 30 -1 253 -1 -2	12	1
13 -1 177 -1 -2	3	1
55 -1 -2	234	10
144 -1 24 -1 -2	58	1
52 -1 54 -1 71 -1 78 -1 3 -1 -2	1	1
144 -1 245 -1 -2	334	2
9 -1 68 -1 19 -1 -2	31	1
30 -1 132 -1 133 -1 -2	49	1
31 -1 45 -1 -2	106	1
19 -1 143 -1 16 -1 -2	34	1
95 -1 84 -1 44 -1 65 -1 6 -1 -2	1	1
14 -1 18 -1 64 -1 -2	39	1
3 -1 246 -1 -2	106	1
36 -1 134 -1 149 -1 -2	30	1
17 -1 10 -1 108 -1 26 -1 41 -1 133 -1 29 -1 144 -1 77 -1 256 -1 -2	1	1
118 -1 144 -1 -2	327	2
84 -1 131 -1 147 -1 149 -1 -2	1	1
15 -1 45 -1 16 -1 37 -1 262 -1 -2	1	1
9 -1 31 -1 -2	263	2
43 -1 1 -1 31 -1 46 -1 54 -1 -2	1	1
19 -1 245 -1 -2	261	1
27 -1 16 -1 -2	159	2
13 -1 34 -1 71 -1 -2	11	1
14 -1 39 -1 16 -1 72 -1 36 -1 -2	1	1
16 -1 124 -1 46 -1 21 -1 253 -1 -2	1	1
17 -1 133 -1 73 -1 -2	20	1
46 -1 63 -1 93 -1 43 -1 269 -1 -2	1	1
28 -1 -2	425	20
87 -1 149 -1 -2	13	1
28 -1 9 -1 37 -1 -2	19	1
84 -1 -2	94	3
9 -1 45 -1 -2	229	1
56 -1 53 -1 38 -1 -2	8	1
133 -1 6 -1 -2	46	2
11 -1 64 -1 253 -1 -2	45	1
133 -1 45 -1 244 -1 43 -1 -2	1	1
4 -1 15 -1 26 -1 54 -1 36 -1 -2	4	1
58 -1 113 -1 -2	61	1
69 -1 21 -1 27 -1 76 -1 -2	1	1
6 -1 1 -1 53 -1 65 -1 117 -1 89 -1 253 -1 34 -1 -2	1	1
4 -1 26 -1 48 -1 -2	52	1
20 -1 31 -1 81 -1 117 -1 139 -1 -2	4	1
51 -1 165 -1 -2	7	1
113 -1 117 -1 141 -1 149 -1 250 -1 -2	11	1
8 -1 38 -1 -2	264	1
19 -1 210 -1 -2	19	1
48 -1 32 -1 144 -1 190 -1 46 -1 -2	1	1
1 -1 78 -1 -2	277	2
10 -1 15 -1 255 -1 -2	42	1
52 -1 30 -1 113 -1 -2	13	1
27 -1 24 -1 79 -1 114 -1 145 -1 40 -1 37 -1 -2	1	1
4 -1 29 -1 49 -1 10 -1 -2	6	1
48 -1 47 -1 118 -1 31 -1 139 -1 51 -1 189 -1 205 -1 246 -1 39 -1 -2	1	1
13 -1 41 -1 245 -1 -2	114	1
27 -1 75 -1 110 -1 112 -1 2 -1 -2	1	1
47 -1 65 -1 23 -1 -2	5	1
2 -1 89 -1 149 -1 -2	14	1
2 -1 43 -1 36 -1 126 -1 99 -1 245 -1 18 -1 255 -1 -2	1	1
45 -1 9 -1 195 -1 -2	6	1
62 -1 63 -1 -2	50	1
4 -1 103 -1 -2	6	1
27 -1 -2	513	23
83 -1 -2	69	3
52 -1 30 -1 78 -1 -2	11	1
10 -1 195 -1 -2	100	1
29 -1 33 -1 248 -1 -2	11	1
52 -1 18 -1 21 -1 -2	17	1
79 -1 -2	346	17
17 -1 195 -1 -2	135	1
70 -1 25 -1 -2	60	1
4 -1 1 -1 54 -1 13 -1 22 -1 -2	1	1
72 -1 78 -1 20 -1 108 -1 117 -1 18 -1 -2	1	1
36 -1 109 -1 -2	55	1
39 -1 20 -1 21 -1 -2	17	1
52 -1 -2	267	13
32 -1 53 -1 -2	83	1
20 -1 35 -1 246 -1 253 -1 66 -1 -2	3	1
36 -1 9 -1 21 -1 -2	19	1
5 -1 67 -1 245 -1 79 -1 -2	2	1
14 -1 34 -1 26 -1 62 -1 -2	3	1
20 -1 79 -1 110 -1 134 -1 195 -1 198 -1 -2	1	1
8 -1 26 -1 22 -1 146 -1 -2	15	1
57 -1 7 -1 -2	46	1
1 -1 47 -1 87 -1 -2	11	1
44 -1 62 -1 38 -1 48 -1 -2	2	1
8 -1 25 -1 26 -1 75 -1 15 -1 21 -1 110 -1 132 -1 133 -1 -2	1	1
51 -1 77 -1 41 -1 65 -1 -2	1	1
35 -1 113 -1 143 -1 -2	231	1
27 -1 36 -1 78 -1 118 -1 119 -1 191 -1 248 -1 -2	1	1
13 -1 255 -1 -2	123	1
38 -1 53 -1 132 -1 -2	24	1
117 -1 164 -1 -2	21	1
19 -1 51 -1 48 -1 209 -1 28 -1 -2	1	1
20 -1 46 -1 199 -1 284 -1 -2	1	1
28 -1 45 -1 9 -1 68 -1 3 -1 143 -1 253 -1 -2	1	1
22 -1 117 -1 -2	287	1
125 -1 248 -1 -2	4	1
18 -1 6 -1 61 -1 205 -1 39 -1 102 -1 253 -1 -2	1	1
28 -1 69 -1 11 -1 -2	21	1
132 -1 25 -1 -2	70	1
3 -1 74 -1 46 -1 51 -1 -2	1	1
12 -1 78 -1 -2	82	2
53 -1 209 -1 -2	32	1
22 -1 113 -1 39 -1 -2	31	1
35 -1 28 -1 -2	134	1
19 -1 35 -1 255 -1 -2	52	1
54 -1 143 -1 -2	170	1
82 -1 19 -1 81 -1 -2	6	1
46 -1 79 -1 33 -1 134 -1 245 -1 -2	1	1
36 -1 118 -1 133 -1 -2	121	1
8 -1 113 -1 149 -1 171 -1 262 -1 -2	1	1
1 -1 39 -1 -2	257	1
76 -1 25 -1 57 -1 247 -1 -2	2	1
134 -1 33 -1 169 -1 -2	2	1
16 -1 144 -1 -2	168	3
37 -1 7 -1 -2	74	1
144 -1 59 -1 44 -1 7 -1 -2	1	1
84 -1 55 -1 54 -1 -2	2	1
253 -1 62 -1 -2	16	1
45 -1 35 -1 -2	99	1
12 -1 77 -1 -2	25	1
80 -1 40 -1 118 -1 71 -1 -2	2	1
9 -1 283 -1 -2	8	1
20 -1 9 -1 255 -1 -2	22	1
22 -1 30 -1 -2	149	1
30 -1 35 -1 -2	116	1
85 -1 -2	61	5
79 -1 9 -1 13 -1 35 -1 45 -1 4 -1 -2	1	1
5 -1 33 -1 -2	118	1
63 -1 139 -1 -2	71	1
5 -1 18 -1 253 -1 -2	133	1
69 -1 246 -1 51 -1 -2	5	1
12 -1 75 -1 -2	25	1
4 -1 9 -1 26 -1 40 -1 -2	40	1
49 -1 78 -1 29 -1 -2	17	1
2 -1 9 -1 70 -1 -2	46	1
80 -1 78 -1 246 -1 56 -1 -2	2	1
73 -1 117 -1 139 -1 16 -1 -2	11	1
30 -1 35 -1 147 -1 246 -1 259 -1 -2	2	1
33 -1 39 -1 127 -1 -2	2	1
32 -1 76 -1 118 -1 133 -1 74 -1 147 -1 -2	1	1
64 -1 35 -1 23 -1 117 -1 133 -1 245 -1 -2	1	1
4 -1 38 -1 113 -1 139 -1 70 -1 173 -1 65 -1 -2	1	1
8 -1 22 -1 -2	365	1
8 -1 1 -1 149 -1 -2	120	1
69 -1 163 -1 227 -1 232 -1 -2	1	1
20 -1 51 -1 11 -1 21 -1 253 -1 -2	1	1
11 -1 46 -1 114 -1 139 -1 143 -1 -2	11	1
119 -1 29 -1 31 -1 52 -1 -2	2	1
17 -1 149 -1 38 -1 -2	30	1
35 -1 108 -1 51 -1 -2	20	1
2 -1 18 -1 245 -1 -2	154	1
132 -1 139 -1 -2	153	2
9 -1 52 -1 23 -1 -2	32	1
16 -1 79 -1 77 -1 286 -1 -2	3	1
41 -1 2 -1 144 -1 -2	26	1
79 -1 98 -1 6 -1 -2	6	1
11 -1 18 -1 144 -1 23 -1 -2	14	1
8 -1 51 -1 -2	205	2
39 -1 1 -1 -2	55	1
121 -1 146 -1 262 -1 -2	10	1
147 -1 246 -1 -2	53	1
9 -1 56 -1 166 -1 246 -1 50 -1 -2	1	1
17 -1 50 -1 -2	199	1
67 -1 24 -1 20 -1 84 -1 -2	1	1
18 -1 66 -1 245 -1 -2	59	1
146 -1 245 -1 -2	112	1
18 -1 27 -1 -2	295	3
7 -1 13 -1 114 -1 -2	5	1
11 -1 117 -1 -2	282	1
113 -1 24 -1 -2	65	2
110 -1 149 -1 -2	127	1
28 -1 22 -1 139 -1 -2	35	1
9 -1 195 -1 -2	130	2
53 -1 256 -1 56 -1 -2	1	1
1 -1 9 -1 35 -1 135 -1 3 -1 -2	4	1
42 -1 117 -1 139 -1 246 -1 -2	46	1
43 -1 118 -1 -2	92	3
8 -1 35 -1 23 -1 3 -1 179 -1 -2	2	1
10 -1 147 -1 46 -1 -2	12	1
70 -1 67 -1 250 -1 -2	20	1
42 -1 26 -1 35 -1 259 -1 -2	5	1
25 -1 143 -1 -2	171	2
51 -1 30 -1 31 -1 67 -1 -2	2	1
57 -1 147 -1 37 -1 245 -1 -2	1	1
10 -1 36 -1 72 -1 -2	40	1
41 -1 62 -1 -2	54	1
39 -1 105 -1 144 -1 150 -1 -2	2	1
32 -1 59 -1 65 -1 16 -1 253 -1 -2	1	1
78 -1 8 -1 113 -1 33 -1 143 -1 -2	1	1
31 -1 41 -1 133 -1 63 -1 -2	3	1
13 -1 53 -1 38 -1 -2	41	1
23 -1 7 -1 -2	113	1
8 -1 27 -1 -2	382	1
51 -1 38 -1 -2	64	2
8 -1 48 -1 18 -1 20 -1 36 -1 117 -1 -2	1	1
29 -1 248 -1 -2	46	2
14 -1 52 -1 -2	96	1
31 -1 132 -1 -2	109	2
61 -1 9 -1 191 -1 -2	7	1
70 -1 132 -1 -2	55	2
87 -1 70 -1 101 -1 110 -1 117 -1 -2	1	1
28 -1 19 -1 252 -1 40 -1 -2	1	1
23 -1 99 -1 67 -1 79 -1 133 -1 -2	1	1
35 -1 46 -1 16 -1 81 -1 256 -1 -2	1	1
57 -1 117 -1 118 -1 144 -1 -2	55	1
190 -1 -2	75	6
20 -1 26 -1 31 -1 41 -1 -2	22	1
60 -1 35 -1 -2	78	1
31 -1 47 -1 32 -1 -2	24	1
43 -1 17 -1 28 -1 -2	16	1
28 -1 22 -1 53 -1 143 -1 245 -1 -2	10	1
66 -1 43 -1 -2	37	2
45 -1 117 -1 25 -1 56 -1 -2	6	1
23 -1 21 -1 257 -1 -2	8	1
18 -1 32 -1 133 -1 -2	43	1
58 -1 78 -1 6 -1 -2	7	1
2 -1 39 -1 30 -1 38 -1 99 -1 117 -1 51 -1 -2	1	1
245 -1 50 -1 -2	44	1
41 -1 54 -1 143 -1 -2	28	1
121 -1 33 -1 -2	14	1
68 -1 36 -1 48 -1 253 -1 42 -1 -2	1	1
22 -1 45 -1 12 -1 1 -1 5 -1 43 -1 -2	1	1
8 -1 14 -1 190 -1 86 -1 -2	3	1
55 -1 253 -1 -2	196	1
84 -1 69 -1 60 -1 143 -1 -2	3	1
8 -1 13 -1 90 -1 79 -1 147 -1 197 -1 -2	1	1
10 -1 75 -1 50 -1 -2	18	1
17 -1 110 -1 117 -1 -2	281	1
257 -1 24 -1 -2	3	1
111 -1 -2	73	2
34 -1 35 -1 -2	103	1
26 -1 54 -1 -2	146	1
143 -1 74 -1 11 -1 -2	2	1
7 -1 139 -1 -2	100	1
25 -1 163 -1 50 -1 -2	3	1
90 -1 113 -1 -2	22	1
30 -1 22 -1 185 -1 247 -1 -2	2	1
56 -1 68 -1 39 -1 41 -1 -2	3	1
29 -1 -2	369	13
43 -1 24 -1 22 -1 44 -1 -2	2	1
41 -1 20 -1 -2	94	1
31 -1 144 -1 209 -1 23 -1 258 -1 -2	1	1
16 -1 4 -1 55 -1 -2	4	1
65 -1 61 -1 19 -1 139 -1 -2	3	1
2 -1 81 -1 39 -1 82 -1 25 -1 84 -1 102 -1 249 -1 -2	1	1
27 -1 56 -1 184 -1 245 -1 35 -1 -2	1	1
18 -1 21 -1 -2	173	2
107 -1 55 -1 256 -1 -2	1	1
2 -1 65 -1 -2	65	1
112 -1 26 -1 74 -1 100 -1 178 -1 -2	1	1
17 -1 32 -1 253 -1 -2	193	1
18 -1 28 -1 309 -1 -2	17	1
12 -1 60 -1 -2	48	1
28 -1 47 -1 150 -1 -2	20	1
54 -1 58 -1 1 -1 144 -1 16 -1 150 -1 -2	1	1
26 -1 70 -1 -2	115	1
40 -1 3 -1 125 -1 16 -1 112 -1 18 -1 27 -1 133 -1 253 -1 -2	1	1
6 -1 31 -1 -2	94	1
79 -1 31 -1 64 -1 139 -1 63 -1 -2	1	1
80 -1 -2	85	3
10 -1 82 -1 85 -1 -2	6	1
24 -1 31 -1 35 -1 39 -1 190 -1 58 -1 -2	1	1
54 -1 58 -1 118 -1 163 -1 179 -1 64 -1 -2	1	1
20 -1 111 -1 33 -1 -2	7	1
56 -1 25 -1 -2	58	1
37 -1 60 -1 -2	47	1
12 -1 29 -1 57 -1 255 -1 -2	2	1
46 -1 43 -1 117 -1 -2	21	1
21 -1 79 -1 90 -1 -2	3	1
130 -1 154 -1 26 -1 74 -1 179 -1 253 -1 -2	1	1
12 -1 64 -1 -2	47	1
8 -1 10 -1 26 -1 162 -1 253 -1 -2	5	1
17 -1 21 -1 90 -1 98 -1 247 -1 -2	1	1
48 -1 13 -1 27 -1 106 -1 117 -1 139 -1 209 -1 -2	1	1
8 -1 38 -1 266 -1 -2	13	1
5 -1 65 -1 -2	59	1
76 -1 50 -1 35 -1 117 -1 -2	6	1
2 -1 41 -1 108 -1 -2	14	1
19 -1 26 -1 120 -1 -2	37	1
10 -1 28 -1 62 -1 -2	27	1
11 -1 31 -1 35 -1 38 -1 -2	23	1
66 -1 31 -1 39 -1 -2	15	1
5 -1 95 -1 48 -1 14 -1 -2	1	1
41 -1 34 -1 46 -1 -2	15	1
24 -1 7 -1 80 -1 253 -1 -2	3	1
78 -1 118 -1 189 -1 209 -1 -2	3	1
14 -1 35 -1 -2	223	3
99 -1 133 -1 -2	27	1
27 -1 145 -1 150 -1 20 -1 -2	5	1
71 -1 84 -1 64 -1 -2	4	1
1 -1 27 -1 78 -1 99 -1 40 -1 -2	1	1
76 -1 120 -1 133 -1 45 -1 -2	1	1
67 -1 86 -1 20 -1 -2	6	1
19 -1 11 -1 180 -1 -2	13	1
117 -1 6 -1 118 -1 72 -1 32 -1 104 -1 66 -1 75 -1 257 -1 -2	1	1
51 -1 38 -1 94 -1 135 -1 54 -1 31 -1 185 -1 245 -1 253 -1 -2	1	1
45 -1 42 -1 -2	71	1
69 -1 53 -1 79 -1 -2	11	1
13 -1 7 -1 -2	152	1
75 -1 1 -1 63 -1 65 -1 50 -1 -2	1	1
112 -1 80 -1 7 -1 -2	3	1
98 -1 26 -1 36 -1 -2	6	1
13 -1 7 -1 80 -1 120 -1 149 -1 171 -1 -2	1	1
52 -1 58 -1 118 -1 -2	18	1
150 -1 -2	208	8
253 -1 47 -1 -2	17	1
133 -1 33 -1 -2	60	1
73 -1 39 -1 136 -1 143 -1 19 -1 -2	1	1
139 -1 64 -1 84 -1 -2	2	1
35 -1 143 -1 205 -1 -2	5	1
13 -1 143 -1 -2	341	1
8 -1 75 -1 98 -1 36 -1 72 -1 -2	1	1
26 -1 15 -1 -2	182	1
4 -1 8 -1 51 -1 70 -1 79 -1 145 -1 250 -1 -2	1	1
39 -1 150 -1 -2	81	2
14 -1 33 -1 -2	133	1
39 -1 254 -1 -2	29	1
49 -1 18 -1 -2	65	1
68 -1 32 -1 45 -1 -2	6	1
17 -1 44 -1 132 -1 281 -1 -2	2	1
13 -1 37 -1 250 -1 41 -1 -2	1	1
13 -1 245 -1 39 -1 246 -1 -2	9	1
31 -1 127 -1 -2	6	1
45 -1 23 -1 4 -1 -2	11	1
24 -1 105 -1 110 -1 149 -1 -2	3	1
96 -1 30 -1 28 -1 99 -1 139 -1 149 -1 -2	1	1
38 -1 77 -1 145 -1 61 -1 -2	1	1
14 -1 87 -1 65 -1 66 -1 255 -1 -2	1	1
51 -1 246 -1 -2	128	1
58 -1 -2	239	20
9 -1 49 -1 10 -1 243 -1 39 -1 -2	1	1
17 -1 143 -1 -2	536	3
9 -1 78 -1 190 -1 -2	21	1
23 -1 48 -1 -2	105	1
10 -1 46 -1 48 -1 110 -1 141 -1 -2	1	1
24 -1 19 -1 41 -1 110 -1 37 -1 -2	2	1
4 -1 15 -1 37 -1 46 -1 34 -1 40 -1 -2	2	1
40 -1 1 -1 143 -1 59 -1 246 -1 -2	3	1
57 -1 36 -1 113 -1 -2	24	1
110 -1 17 -1 11 -1 245 -1 -2	3	1
149 -1 209 -1 -2	26	1
9 -1 35 -1 45 -1 119 -1 -2	5	1
38 -1 -2	336	15
53 -1 66 -1 27 -1 -2	7	1
19 -1 16 -1 17 -1 -2	9	1
5 -1 32 -1 24 -1 -2	27	1
85 -1 4 -1 42 -1 -2	3	1
118 -1 82 -1 -2	17	1
110 -1 132 -1 86 -1 249 -1 20 -1 -2	1	1
70 -1 253 -1 -2	181	1
46 -1 79 -1 111 -1 69 -1 -2	1	1
47 -1 48 -1 110 -1 113 -1 39 -1 -2	1	1
5 -1 10 -1 36 -1 -2	66	1
1 -1 79 -1 19 -1 -2	57	1
59 -1 86 -1 250 -1 -2	5	1
66 -1 139 -1 41 -1 150 -1 -2	4	1
9 -1 17 -1 113 -1 77 -1 70 -1 247 -1 256 -1 -2	1	1
11 -1 -2	455	15
38 -1 132 -1 -2	91	1
21 -1 6 -1 25 -1 -2	13	1
89 -1 22 -1 51 -1 113 -1 -2	2	1
58 -1 12 -1 253 -1 -2	43	1
42 -1 41 -1 -2	78	1
13 -1 113 -1 55 -1 -2	25	1
139 -1 259 -1 -2	47	1
46 -1 -2	318	8
45 -1 28 -1 -2	69	1
90 -1 121 -1 253 -1 -2	3	1
47 -1 258 -1 -2	23	1
5 -1 143 -1 246 -1 -2	137	1
67 -1 61 -1 19 -1 7 -1 43 -1 -2	1	1
34 -1 52 -1 78 -1 245 -1 62 -1 71 -1 259 -1 -2	1	1
68 -1 253 -1 -2	158	1
82 -1 15 -1 169 -1 -2	2	1
77 -1 4 -1 50 -1 64 -1 -2	2	1
13 -1 60 -1 -2	80	1
26 -1 143 -1 246 -1 -2	285	1
67 -1 61 -1 -2	42	1
143 -1 41 -1 39 -1 245 -1 -2	1	1
85 -1 46 -1 256 -1 -2	3	1
31 -1 9 -1 246 -1 -2	39	1
9 -1 245 -1 -2	417	3
1 -1 13 -1 16 -1 40 -1 247 -1 -2	4	1
72 -1 45 -1 4 -1 16 -1 133 -1 252 -1 -2	1	1
37 -1 26 -1 -2	106	1
113 -1 118 -1 60 -1 -2	19	1
48 -1 3 -1 253 -1 -2	41	1
55 -1 53 -1 38 -1 253 -1 -2	8	1
9 -1 25 -1 22 -1 110 -1 143 -1 -2	7	1
2 -1 113 -1 27 -1 -2	26	1
35 -1 15 -1 50 -1 83 -1 110 -1 118 -1 24 -1 -2	1	1
27 -1 36 -1 49 -1 16 -1 -2	11	1
259 -1 264 -1 -2	5	1
27 -1 117 -1 3 -1 -2	55	1
71 -1 18 -1 49 -1 12 -1 143 -1 -2	1	1
42 -1 13 -1 45 -1 68 -1 118 -1 120 -1 -2	1	1
19 -1 33 -1 247 -1 -2	25	1
12 -1 27 -1 58 -1 46 -1 47 -1 10 -1 -2	1	1
8 -1 27 -1 127 -1 -2	9	1
30 -1 117 -1 61 -1 -2	23	1
43 -1 4 -1 28 -1 132 -1 -2	3	1
13 -1 143 -1 30 -1 27 -1 -2	4	1
27 -1 54 -1 12 -1 253 -1 -2	11	1
19 -1 15 -1 -2	105	1
9 -1 24 -1 86 -1 245 -1 253 -1 -2	5	1
52 -1 64 -1 50 -1 36 -1 61 -1 177 -1 -2	1	1
22 -1 143 -1 57 -1 -2	26	1
10 -1 15 -1 14 -1 143 -1 253 -1 49 -1 54 -1 -2	1	1
49 -1 253 -1 -2	214	2
133 -1 58 -1 145 -1 6 -1 19 -1 -2	1	1
10 -1 55 -1 247 -1 -2	35	1
54 -1 117 -1 2 -1 147 -1 195 -1 41 -1 -2	1	1
48 -1 181 -1 -2	9	1
18 -1 149 -1 258 -1 -2	14	1
12 -1 68 -1 16 -1 -2	8	1
248 -1 62 -1 -2	4	1
1 -1 218 -1 -2	16	1
1 -1 26 -1 7 -1 -2	125	1
30 -1 117 -1 -2	153	1
59 -1 67 -1 32 -1 53 -1 -2	2	1
109 -1 99 -1 -2	3	1
117 -1 139 -1 48 -1 -2	40	1
10 -1 27 -1 133 -1 40 -1 253 -1 -2	9	1
70 -1 8 -1 35 -1 100 -1 34 -1 -2	1	1
26 -1 110 -1 118 -1 74 -1 266 -1 -2	1	1
66 -1 40 -1 23 -1 27 -1 37 -1 -2	1	1
9 -1 13 -1 123 -1 132 -1 150 -1 247 -1 -2	2	1
24 -1 23 -1 42 -1 115 -1 -2	2	1
87 -1 32 -1 133 -1 -2	1	1
117 -1 63 -1 58 -1 261 -1 -2	1	1
52 -1 58 -1 183 -1 187 -1 251 -1 -2	1	1
46 -1 84 -1 113 -1 71 -1 23 -1 24 -1 -2	1	1
45 -1 35 -1 144 -1 -2	53	1
8 -1 7 -1 6 -1 -2	39	1
61 -1 22 -1 41 -1 -2	14	1
23 -1 44 -1 139 -1 30 -1 190 -1 46 -1 212 -1 48 -1 309 -1 -2	1	1
2 -1 41 -1 70 -1 -2	15	1
76 -1 -2	129	4
42 -1 118 -1 -2	105	1
70 -1 -2	200	14
64 -1 143 -1 -2	112	1
59 -1 74 -1 78 -1 -2	20	1
2 -1 44 -1 46 -1 -2	30	1
88 -1 113 -1 118 -1 4 -1 -2	1	1
35 -1 21 -1 -2	171	1
17 -1 51 -1 45 -1 57 -1 132 -1 -2	2	1
51 -1 80 -1 90 -1 -2	2	1
44 -1 143 -1 144 -1 245 -1 -2	121	1
4 -1 143 -1 245 -1 246 -1 -2	107	1
78 -1 38 -1 286 -1 -2	3	1
4 -1 8 -1 12 -1 32 -1 20 -1 -2	4	1
34 -1 114 -1 171 -1 -2	3	1
10 -1 72 -1 -2	72	1
28 -1 19 -1 134 -1 58 -1 -2	1	1
39 -1 3 -1 67 -1 9 -1 46 -1 64 -1 36 -1 56 -1 -2	1	1
4 -1 17 -1 21 -1 -2	62	1
59 -1 36 -1 22 -1 78 -1 114 -1 58 -1 -2	1	1
39 -1 1 -1 28 -1 35 -1 132 -1 50 -1 247 -1 -2	1	1
9 -1 18 -1 71 -1 245 -1 -2	28	1
35 -1 78 -1 33 -1 143 -1 -2	22	1
18 -1 8 -1 120 -1 -2	8	1
20 -1 139 -1 -2	152	1
127 -1 -2	15	2
66 -1 47 -1 135 -1 34 -1 255 -1 48 -1 -2	1	1
52 -1 79 -1 -2	61	1
42 -1 149 -1 58 -1 -2	5	1
80 -1 71 -1 32 -1 144 -1 58 -1 -2	1	1
245 -1 -2	549	20
8 -1 41 -1 60 -1 50 -1 52 -1 -2	2	1
13 -1 254 -1 -2	48	1
27 -1 117 -1 -2	336	1
63 -1 86 -1 185 -1 67 -1 -2	1	1
86 -1 3 -1 247 -1 258 -1 -2	1	1
72 -1 48 -1 118 -1 132 -1 57 -1 149 -1 245 -1 -2	1	1
62 -1 39 -1 -2	40	1
19 -1 26 -1 249 -1 -2	9	1
58 -1 99 -1 95 -1 250 -1 -2	1	1
33 -1 37 -1 248 -1 -2	9	1
18 -1 26 -1 -2	321	2
56 -1 4 -1 145 -1 245 -1 -2	2	1
132 -1 168 -1 -2	18	2
14 -1 78 -1 -2	141	1
50 -1 78 -1 89 -1 144 -1 189 -1 246 -1 -2	1	1
36 -1 34 -1 28 -1 -2	10	1
9 -1 132 -1 41 -1 33 -1 -2	3	1
31 -1 99 -1 -2	17	1
31 -1 17 -1 253 -1 -2	61	1
43 -1 144 -1 -2	131	1
44 -1 86 -1 -2	15	1
20 -1 26 -1 48 -1 37 -1 -2	11	1
62 -1 51 -1 -2	43	1
20 -1 36 -1 49 -1 53 -1 -2	9	1
64 -1 118 -1 125 -1 133 -1 -2	1	1
111 -1 49 -1 38 -1 -2	2	1
88 -1 32 -1 117 -1 143 -1 151 -1 34 -1 87 -1 -2	1	1
5 -1 15 -1 39 -1 19 -1 32 -1 153 -1 190 -1 101 -1 -2	1	1
13 -1 184 -1 -2	32	1
49 -1 108 -1 139 -1 -2	13	1
5 -1 9 -1 63 -1 26 -1 49 -1 -2	2	1
2 -1 26 -1 10 -1 -2	37	1
44 -1 -2	315	12
113 -1 133 -1 46 -1 24 -1 309 -1 -2	1	1
70 -1 133 -1 -2	84	1
180 -1 -2	65	1
23 -1 96 -1 118 -1 48 -1 -2	1	1
11 -1 37 -1 16 -1 63 -1 109 -1 147 -1 66 -1 -2	1	1
40 -1 118 -1 143 -1 144 -1 -2	94	1
43 -1 -2	285	7
118 -1 195 -1 -2	87	1
4 -1 23 -1 132 -1 144 -1 -2	37	1
12 -1 253 -1 -2	297	2
2 -1 31 -1 110 -1 118 -1 80 -1 21 -1 144 -1 -2	1	1
9 -1 22 -1 64 -1 -2	61	1
3 -1 120 -1 -2	42	1
99 -1 1 -1 133 -1 -2	6	1
52 -1 36 -1 27 -1 -2	9	1
22 -1 31 -1 132 -1 20 -1 248 -1 -2	2	1
40 -1 27 -1 29 -1 34 -1 82 -1 -2	1	1
26 -1 48 -1 12 -1 72 -1 9 -1 309 -1 -2	1	1
65 -1 22 -1 132 -1 246 -1 52 -1 -2	2	1
1 -1 14 -1 133 -1 12 -1 179 -1 -2	3	1
94 -1 18 -1 27 -1 75 -1 60 -1 254 -1 -2	1	1
48 -1 117 -1 11 -1 246 -1 -2	16	1
8 -1 26 -1 29 -1 50 -1 30 -1 133 -1 -2	1	1
9 -1 95 -1 19 -1 -2	4	1
49 -1 26 -1 171 -1 42 -1 -2	1	1
1 -1 34 -1 25 -1 -2	52	1
68 -1 30 -1 36 -1 -2	14	1
23 -1 118 -1 113 -1 -2	3	1
22 -1 51 -1 21 -1 113 -1 63 -1 144 -1 82 -1 -2	1	1
114 -1 118 -1 32 -1 143 -1 -2	5	1
32 -1 195 -1 -2	60	1
9 -1 61 -1 51 -1 247 -1 -2	12	1
118 -1 61 -1 -2	58	1
36 -1 47 -1 143 -1 144 -1 145 -1 -2	10	1
143 -1 14 -1 57 -1 76 -1 120 -1 -2	1	1
35 -1 193 -1 -2	9	1
41 -1 253 -1 -2	310	1
139 -1 8 -1 143 -1 -2	5	1
9 -1 60 -1 46 -1 -2	32	1
168 -1 -2	33	1
21 -1 145 -1 -2	20	1
93 -1 81 -1 72 -1 -2	1	1
52 -1 26 -1 79 -1 -2	30	1
1 -1 90 -1 246 -1 -2	22	1
146 -1 170 -1 253 -1 -2	11	1
9 -1 50 -1 -2	194	1
25 -1 15 -1 -2	67	1
18 -1 47 -1 154 -1 33 -1 255 -1 -2	1	1
23 -1 8 -1 41 -1 31 -1 7 -1 6 -1 -2	1	1
1 -1 49 -1 144 -1 202 -1 -2	3	1
25 -1 60 -1 18 -1 -2	5	1
29 -1 189 -1 -2	41	1
42 -1 31 -1 79 -1 255 -1 -2	6	1
41 -1 139 -1 34 -1 54 -1 -2	2	1
13 -1 17 -1 35 -1 20 -1 -2	51	1
121 -1 117 -1 -2	4	1
96 -1 132 -1 -2	7	1
51 -1 73 -1 149 -1 253 -1 -2	10	1
9 -1 83 -1 118 -1 143 -1 -2	19	1
24 -1 59 -1 8 -1 -2	5	1
18 -1 40 -1 112 -1 4 -1 -2	2	1
37 -1 22 -1 -2	96	1
268 -1 -2	12	3
97 -1 82 -1 245 -1 254 -1 -2	2	1
12 -1 22 -1 13 -1 -2	16	1
52 -1 27 -1 51 -1 118 -1 254 -1 -2	2	1
27 -1 39 -1 19 -1 3 -1 -2	2	1
1 -1 22 -1 86 -1 38 -1 95 -1 -2	1	1
6 -1 23 -1 -2	90	1
18 -1 132 -1 6 -1 -2	35	1
94 -1 143 -1 -2	35	1
109 -1 110 -1 245 -1 -2	27	1
50 -1 1 -1 190 -1 -2	12	1
86 -1 74 -1 246 -1 -2	9	1
113 -1 191 -1 63 -1 -2	2	1
24 -1 66 -1 -2	44	1
121 -1 99 -1 106 -1 -2	1	1
10 -1 16 -1 22 -1 11 -1 52 -1 -2	1	1
24 -1 59 -1 72 -1 133 -1 65 -1 61 -1 -2	1	1
8 -1 55 -1 37 -1 214 -1 -2	2	1
45 -1 22 -1 117 -1 -2	32	1
118 -1 39 -1 -2	88	1
17 -1 18 -1 40 -1 79 -1 -2	20	1
29 -1 32 -1 2 -1 136 -1 -2	1	1
18 -1 114 -1 247 -1 -2	34	1
51 -1 59 -1 41 -1 -2	7	1
9 -1 39 -1 32 -1 -2	57	1
55 -1 255 -1 -2	51	1
68 -1 11 -1 70 -1 74 -1 143 -1 -2	1	1
46 -1 10 -1 -2	72	2
17 -1 64 -1 78 -1 13 -1 61 -1 51 -1 255 -1 -2	1	1
9 -1 58 -1 110 -1 118 -1 123 -1 133 -1 -2	1	1
22 -1 85 -1 177 -1 -2	1	1
9 -1 123 -1 47 -1 -2	5	1
8 -1 82 -1 80 -1 -2	13	1
44 -1 42 -1 -2	75	1
37 -1 20 -1 9 -1 34 -1 32 -1 143 -1 -2	2	1
90 -1 5 -1 49 -1 143 -1 80 -1 29 -1 150 -1 246 -1 -2	1	1
8 -1 15 -1 35 -1 133 -1 41 -1 -2	7	1
110 -1 -2	376	16
68 -1 86 -1 -2	13	1
74 -1 36 -1 147 -1 -2	7	1
11 -1 78 -1 57 -1 150 -1 108 -1 245 -1 39 -1 283 -1 -2	1	1
82 -1 88 -1 32 -1 30 -1 3 -1 -2	1	1
144 -1 50 -1 -2	53	1
8 -1 92 -1 -2	36	1
16 -1 76 -1 146 -1 81 -1 168 -1 -2	1	1
27 -1 9 -1 10 -1 110 -1 249 -1 -2	1	1
55 -1 57 -1 246 -1 40 -1 -2	4	1
77 -1 59 -1 255 -1 -2	10	1
49 -1 23 -1 46 -1 117 -1 133 -1 44 -1 247 -1 -2	1	1
35 -1 32 -1 -2	181	2
11 -1 19 -1 9 -1 -2	16	1
70 -1 9 -1 137 -1 136 -1 125 -1 -2	1	1
8 -1 113 -1 -2	283	2
28 -1 18 -1 149 -1 -2	29	1
51 -1 65 -1 39 -1 56 -1 -2	2	1
53 -1 42 -1 -2	81	1
56 -1 143 -1 247 -1 -2	49	1
46 -1 143 -1 144 -1 -2	139	1
10 -1 132 -1 31 -1 -2	32	1
85 -1 15 -1 48 -1 60 -1 79 -1 144 -1 -2	1	1
64 -1 -2	174	4
1 -1 50 -1 -2	217	1
53 -1 70 -1 33 -1 -2	14	1
18 -1 69 -1 141 -1 75 -1 195 -1 -2	2	1
47 -1 144 -1 -2	146	1
51 -1 70 -1 143 -1 144 -1 -2	15	1
1 -1 22 -1 44 -1 57 -1 101 -1 -2	2	1
18 -1 110 -1 38 -1 118 -1 146 -1 153 -1 245 -1 -2	1	1
21 -1 143 -1 33 -1 -2	26	1
22 -1 58 -1 45 -1 253 -1 30 -1 -2	2	1
44 -1 9 -1 36 -1 -2	18	1
92 -1 9 -1 101 -1 47 -1 89 -1 49 -1 82 -1 143 -1 149 -1 34 -1 -2	1	1
82 -1 13 -1 46 -1 78 -1 68 -1 111 -1 143 -1 -2	1	1
17 -1 61 -1 110 -1 -2	33	1
184 -1 48 -1 255 -1 -2	2	1
168 -1 184 -1 20 -1 -2	1	1
9 -1 77 -1 -2	75	1
17 -1 179 -1 48 -1 -2	4	1
51 -1 79 -1 113 -1 -2	40	1
78 -1 117 -1 -2	288	1
33 -1 35 -1 -2	91	1
22 -1 4 -1 190 -1 -2	11	1
10 -1 132 -1 32 -1 -2	37	1
27 -1 50 -1 283 -1 -2	6	1
14 -1 6 -1 -2	126	1
53 -1 133 -1 253 -1 -2	132	1
4 -1 34 -1 118 -1 30 -1 -2	8	1
70 -1 64 -1 74 -1 60 -1 171 -1 -2	1	1
120 -1 4 -1 17 -1 74 -1 132 -1 63 -1 -2	1	1
33 -1 64 -1 19 -1 37 -1 -2	3	1
48 -1 5 -1 -2	56	1
40 -1 78 -1 39 -1 -2	16	1
78 -1 79 -1 -2	281	3
9 -1 19 -1 96 -1 -2	9	1
20 -1 70 -1 98 -1 -2	3	1
45 -1 39 -1 253 -1 -2	61	1
14 -1 66 -1 58 -1 -2	11	1
9 -1 63 -1 -2	137	2
22 -1 85 -1 110 -1 -2	9	1
40 -1 13 -1 -2	60	1
25 -1 72 -1 15 -1 92 -1 118 -1 53 -1 253 -1 -2	1	1
83 -1 109 -1 117 -1 118 -1 133 -1 139 -1 149 -1 40 -1 -2	1	1
40 -1 37 -1 -2	82	1
36 -1 17 -1 29 -1 -2	31	1
1 -1 29 -1 -2	275	4
18 -1 60 -1 43 -1 36 -1 29 -1 -2	1	1
78 -1 80 -1 195 -1 250 -1 -2	6	1
57 -1 20 -1 139 -1 -2	15	1
21 -1 84 -1 63 -1 -2	7	1
53 -1 89 -1 139 -1 -2	6	1
8 -1 87 -1 13 -1 113 -1 108 -1 -2	1	1
66 -1 5 -1 59 -1 63 -1 42 -1 -2	1	1
43 -1 253 -1 296 -1 -2	1	1
37 -1 70 -1 61 -1 -2	5	1
5 -1 50 -1 35 -1 133 -1 165 -1 180 -1 197 -1 246 -1 -2	1	1
1 -1 19 -1 119 -1 -2	23	1
70 -1 78 -1 39 -1 135 -1 -2	3	1
26 -1 57 -1 114 -1 150 -1 -2	5	1
43 -1 4 -1 -2	31	1
149 -1 19 -1 -2	36	1
69 -1 254 -1 -2	15	1
8 -1 24 -1 94 -1 115 -1 135 -1 143 -1 96 -1 169 -1 182 -1 33 -1 -2	1	1
46 -1 117 -1 -2	188	2
4 -1 6 -1 42 -1 65 -1 51 -1 71 -1 -2	1	1
61 -1 113 -1 91 -1 -2	4	1
120 -1 50 -1 49 -1 23 -1 -2	1	1
43 -1 61 -1 143 -1 49 -1 -2	2	1
143 -1 22 -1 66 -1 -2	6	1
23 -1 26 -1 118 -1 40 -1 245 -1 -2	7	1
55 -1 43 -1 -2	57	1
26 -1 20 -1 48 -1 -2	20	1
9 -1 259 -1 -2	77	2
117 -1 253 -1 -2	519	1
20 -1 26 -1 133 -1 4 -1 49 -1 -2	1	1
3 -1 33 -1 -2	44	1
1 -1 2 -1 7 -1 -2	60	1
21 -1 12 -1 245 -1 -2	41	1
6 -1 45 -1 150 -1 -2	18	1
191 -1 -2	87	7
27 -1 18 -1 -2	112	1
26 -1 19 -1 -2	163	1
21 -1 32 -1 -2	76	1
16 -1 11 -1 247 -1 -2	26	1
26 -1 117 -1 -2	440	3
40 -1 14 -1 -2	70	1
26 -1 27 -1 -2	377	2
70 -1 11 -1 64 -1 10 -1 -2	1	1
4 -1 30 -1 13 -1 70 -1 41 -1 6 -1 117 -1 -2	1	1
143 -1 136 -1 175 -1 -2	1	1
110 -1 20 -1 73 -1 153 -1 -2	1	1
28 -1 143 -1 -2	316	1
56 -1 117 -1 54 -1 72 -1 86 -1 246 -1 33 -1 -2	1	1
246 -1 40 -1 -2	24	1
75 -1 143 -1 39 -1 -2	16	1
45 -1 74 -1 79 -1 -2	24	1
33 -1 69 -1 -2	37	1
40 -1 149 -1 13 -1 17 -1 -2	1	1
17 -1 3 -1 36 -1 -2	32	1
28 -1 59 -1 -2	77	1
57 -1 143 -1 58 -1 -2	11	1
45 -1 64 -1 -2	40	1
29 -1 85 -1 45 -1 39 -1 114 -1 117 -1 118 -1 146 -1 250 -1 -2	1	1
20 -1 118 -1 42 -1 66 -1 -2	2	1
28 -1 110 -1 61 -1 -2	31	1
26 -1 255 -1 -2	148	1
20 -1 253 -1 -2	348	1
73 -1 48 -1 -2	43	1
9 -1 53 -1 -2	231	2
11 -1 36 -1 78 -1 79 -1 246 -1 -2	36	1
46 -1 283 -1 -2	7	1
13 -1 12 -1 69 -1 56 -1 59 -1 25 -1 255 -1 262 -1 -2	1	1
18 -1 61 -1 181 -1 249 -1 -2	2	1
64 -1 149 -1 -2	56	1
22 -1 12 -1 10 -1 40 -1 31 -1 19 -1 -2	1	1
115 -1 7 -1 -2	7	1
10 -1 17 -1 53 -1 118 -1 55 -1 266 -1 -2	2	1
255 -1 -2	181	6
2 -1 10 -1 -2	186	1
55 -1 61 -1 -2	43	1
63 -1 13 -1 108 -1 109 -1 146 -1 25 -1 190 -1 -2	1	1
74 -1 42 -1 -2	34	1
117 -1 31 -1 73 -1 11 -1 -2	1	1
83 -1 35 -1 26 -1 41 -1 68 -1 106 -1 187 -1 -2	1	1
2 -1 70 -1 56 -1 93 -1 -2	1	1
60 -1 17 -1 23 -1 144 -1 -2	11	1
13 -1 30 -1 55 -1 262 -1 -2	2	1
36 -1 21 -1 145 -1 80 -1 -2	1	1
100 -1 76 -1 -2	8	1
7 -1 28 -1 62 -1 154 -1 245 -1 -2	1	1
13 -1 42 -1 59 -1 -2	22	1
1 -1 246 -1 256 -1 -2	33	1
186 -1 -2	8	1
43 -1 51 -1 253 -1 -2	39	1
69 -1 17 -1 76 -1 47 -1 132 -1 149 -1 51 -1 246 -1 -2	1	1
1 -1 17 -1 -2	356	2
19 -1 110 -1 -2	149	1
36 -1 8 -1 38 -1 -2	17	1
36 -1 53 -1 61 -1 250 -1 -2	6	1
13 -1 23 -1 35 -1 5 -1 -2	17	1
35 -1 9 -1 58 -1 -2	21	1
8 -1 24 -1 114 -1 191 -1 -2	6	1
28 -1 175 -1 39 -1 -2	2	1
63 -1 139 -1 144 -1 -2	51	1
139 -1 141 -1 195 -1 -2	13	1
99 -1 59 -1 56 -1 57 -1 -2	1	1
58 -1 114 -1 132 -1 59 -1 262 -1 -2	2	1
35 -1 36 -1 51 -1 -2	82	1
17 -1 89 -1 20 -1 195 -1 -2	3	1
5 -1 23 -1 -2	133	1
61 -1 42 -1 -2	47	1
8 -1 13 -1 28 -1 -2	108	1
80 -1 40 -1 143 -1 -2	9	1
37 -1 247 -1 -2	79	2
43 -1 41 -1 70 -1 108 -1 110 -1 -2	1	1
26 -1 14 -1 58 -1 -2	17	1
89 -1 113 -1 77 -1 -2	5	1
54 -1 78 -1 17 -1 255 -1 -2	1	1
11 -1 46 -1 52 -1 34 -1 27 -1 12 -1 -2	1	1
8 -1 13 -1 84 -1 17 -1 75 -1 185 -1 -2	1	1
55 -1 22 -1 139 -1 13 -1 -2	2	1
63 -1 110 -1 32 -1 164 -1 -2	1	1
20 -1 11 -1 36 -1 78 -1 72 -1 84 -1 -2	1	1
69 -1 32 -1 -2	54	2
60 -1 105 -1 10 -1 41 -1 52 -1 -2	1	1
2 -1 8 -1 -2	233	1
67 -1 202 -1 -2	2	1
30 -1 35 -1 98 -1 101 -1 108 -1 143 -1 34 -1 144 -1 162 -1 46 -1 260 -1 -2	1	1
8 -1 80 -1 -2	73	1
66 -1 7 -1 -2	40	1
22 -1 48 -1 11 -1 144 -1 -2	6	1
72 -1 5 -1 10 -1 8 -1 12 -1 25 -1 -2	1	1
37 -1 3 -1 261 -1 -2	2	1
72 -1 -2	153	4
25 -1 41 -1 69 -1 135 -1 20 -1 218 -1 -2	1	1
15 -1 150 -1 -2	98	2
112 -1 129 -1 179 -1 143 -1 150 -1 -2	1	1
18 -1 58 -1 -2	131	1
67 -1 247 -1 63 -1 -2	1	1
72 -1 16 -1 32 -1 252 -1 -2	1	1
8 -1 73 -1 70 -1 101 -1 -2	5	1
66 -1 4 -1 36 -1 135 -1 -2	2	1
63 -1 16 -1 123 -1 100 -1 45 -1 254 -1 -2	1	1
9 -1 79 -1 117 -1 184 -1 47 -1 -2	1	1
67 -1 78 -1 48 -1 81 -1 92 -1 -2	1	1
29 -1 49 -1 -2	61	1
36 -1 39 -1 20 -1 -2	21	1
40 -1 54 -1 76 -1 43 -1 133 -1 33 -1 -2	1	1
133 -1 67 -1 16 -1 30 -1 -2	1	1
45 -1 2 -1 253 -1 -2	29	1
144 -1 14 -1 4 -1 310 -1 -2	1	1
248 -1 -2	83	5
28 -1 38 -1 52 -1 69 -1 85 -1 309 -1 -2	1	1
8 -1 250 -1 -2	146	1
74 -1 -2	186	10
54 -1 35 -1 89 -1 73 -1 261 -1 -2	1	1
30 -1 50 -1 82 -1 56 -1 -2	1	1
41 -1 109 -1 79 -1 36 -1 53 -1 153 -1 -2	1	1
74 -1 117 -1 33 -1 149 -1 185 -1 -2	1	1
64 -1 14 -1 26 -1 49 -1 -2	4	1
68 -1 80 -1 44 -1 60 -1 40 -1 -2	1	1
51 -1 22 -1 21 -1 -2	10	1
11 -1 35 -1 32 -1 51 -1 -2	11	1
35 -1 253 -1 -2	527	1
121 -1 132 -1 56 -1 -2	6	1
132 -1 254 -1 -2	24	1
8 -1 4 -1 -2	134	3
5 -1 36 -1 -2	154	1
79 -1 4 -1 5 -1 262 -1 -2	1	1
28 -1 72 -1 -2	63	1
32 -1 19 -1 50 -1 79 -1 189 -1 -2	1	1
44 -1 17 -1 30 -1 179 -1 -2	3	1
52 -1 54 -1 -2	64	1
11 -1 36 -1 38 -1 54 -1 -2	5	1
17 -1 110 -1 136 -1 139 -1 29 -1 -2	10	1
40 -1 245 -1 -2	179	1
28 -1 7 -1 65 -1 -2	10	1
133 -1 145 -1 -2	69	1
20 -1 21 -1 245 -1 -2	68	1
80 -1 35 -1 254 -1 -2	3	1
15 -1 10 -1 26 -1 -2	30	1
11 -1 248 -1 254 -1 -2	5	1
61 -1 36 -1 -2	68	1
108 -1 136 -1 -2	18	1
2 -1 54 -1 58 -1 144 -1 -2	11	1
45 -1 79 -1 -2	87	1
44 -1 139 -1 245 -1 -2	103	1
53 -1 54 -1 58 -1 114 -1 12 -1 74 -1 149 -1 60 -1 171 -1 41 -1 -2	1	1
14 -1 114 -1 51 -1 -2	16	1
12 -1 10 -1 33 -1 2 -1 139 -1 38 -1 -2	1	1
8 -1 190 -1 -2	67	1
128 -1 10 -1 16 -1 58 -1 147 -1 247 -1 279 -1 -2	1	1
117 -1 132 -1 136 -1 -2	44	1
21 -1 11 -1 46 -1 -2	16	1
149 -1 247 -1 -2	91	1
253 -1 -2	664	29
120 -1 180 -1 -2	18	1
22 -1 27 -1 248 -1 -2	17	1
38 -1 48 -1 97 -1 43 -1 30 -1 -2	1	1
11 -1 15 -1 69 -1 34 -1 58 -1 -2	1	1
84 -1 70 -1 56 -1 -2	5	1
2 -1 3 -1 180 -1 9 -1 256 -1 -2	1	1
37 -1 20 -1 -2	82	1
14 -1 37 -1 48 -1 35 -1 59 -1 58 -1 -2	1	1
70 -1 63 -1 -2	38	1
47 -1 27 -1 133 -1 -2	23	1
20 -1 106 -1 93 -1 62 -1 33 -1 -2	1	1
36 -1 47 -1 -2	146	1
41 -1 48 -1 60 -1 -2	9	1
26 -1 28 -1 -2	227	1
245 -1 41 -1 -2	41	1
51 -1 181 -1 245 -1 -2	11	1
58 -1 78 -1 -2	62	2
76 -1 83 -1 85 -1 -2	2	1
132 -1 82 -1 257 -1 -2	1	1
51 -1 36 -1 61 -1 -2	13	1
10 -1 250 -1 24 -1 -2	14	1
117 -1 15 -1 17 -1 16 -1 -2	1	1
20 -1 35 -1 47 -1 -2	52	1
117 -1 9 -1 -2	44	2
78 -1 77 -1 -2	38	1
22 -1 69 -1 118 -1 -2	27	1
27 -1 11 -1 184 -1 -2	10	1
41 -1 29 -1 132 -1 -2	23	1
42 -1 3 -1 -2	34	1
19 -1 82 -1 101 -1 70 -1 48 -1 47 -1 -2	1	1
97 -1 117 -1 118 -1 66 -1 251 -1 -2	1	1
79 -1 149 -1 -2	123	1
28 -1 1 -1 66 -1 144 -1 10 -1 -2	1	1
75 -1 118 -1 249 -1 -2	4	1
26 -1 19 -1 21 -1 118 -1 256 -1 -2	1	1
41 -1 63 -1 79 -1 143 -1 -2	6	1
67 -1 245 -1 -2	122	1
137 -1 110 -1 92 -1 -2	1	1
22 -1 90 -1 69 -1 113 -1 60 -1 46 -1 149 -1 -2	1	1
99 -1 42 -1 25 -1 -2	1	1
9 -1 47 -1 -2	195	2
120 -1 189 -1 -2	19	1
62 -1 19 -1 -2	54	1
44 -1 15 -1 11 -1 -2	12	1
31 -1 41 -1 117 -1 30 -1 -2	12	1
117 -1 49 -1 58 -1 120 -1 143 -1 32 -1 104 -1 23 -1 -2	1	1
15 -1 253 -1 -2	340	1
26 -1 117 -1 260 -1 -2	13	1
118 -1 253 -1 281 -1 -2	5	1
7 -1 70 -1 144 -1 -2	13	1
22 -1 49 -1 20 -1 -2	15	1
6 -1 262 -1 -2	42	1
95 -1 16 -1 75 -1 -2	2	1
20 -1 26 -1 149 -1 -2	78	1
262 -1 -2	96	7
147 -1 182 -1 187 -1 190 -1 -2	1	1
89 -1 58 -1 170 -1 141 -1 245 -1 122 -1 254 -1 85 -1 -2	1	1
89 -1 26 -1 9 -1 -2	1	1
68 -1 15 -1 24 -1 1 -1 174 -1 211 -1 -2	1	1
50 -1 118 -1 -2	102	1
95 -1 90 -1 120 -1 -2	2	1
26 -1 247 -1 -2	155	1
33 -1 17 -1 34 -1 48 -1 3 -1 45 -1 146 -1 -2	1	1
121 -1 177 -1 -2	2	1
35 -1 247 -1 -2	167	1
55 -1 37 -1 149 -1 150 -1 -2	10	1
18 -1 39 -1 120 -1 191 -1 -2	6	1
29 -1 14 -1 143 -1 251 -1 -2	1	1
52 -1 139 -1 -2	93	1
134 -1 143 -1 189 -1 -2	10	1
125 -1 -2	21	2
76 -1 74 -1 4 -1 42 -1 -2	1	1
19 -1 31 -1 247 -1 -2	38	1
26 -1 65 -1 -2	98	1
60 -1 16 -1 20 -1 64 -1 230 -1 -2	1	1
1 -1 7 -1 98 -1 103 -1 90 -1 -2	1	1
2 -1 16 -1 67 -1 54 -1 53 -1 79 -1 72 -1 -2	1	1
32 -1 40 -1 149 -1 99 -1 -2	1	1
5 -1 40 -1 150 -1 -2	26	1
28 -1 31 -1 132 -1 -2	26	1
60 -1 12 -1 6 -1 117 -1 144 -1 -2	2	1
13 -1 34 -1 23 -1 55 -1 58 -1 110 -1 -2	1	1
4 -1 246 -1 -2	203	1
34 -1 143 -1 48 -1 -2	29	1
27 -1 80 -1 133 -1 68 -1 -2	3	1
87 -1 107 -1 27 -1 94 -1 76 -1 -2	1	1
141 -1 143 -1 181 -1 14 -1 -2	2	1
36 -1 35 -1 108 -1 -2	16	1
15 -1 32 -1 58 -1 114 -1 4 -1 23 -1 245 -1 8 -1 -2	1	1
153 -1 -2	35	3
74 -1 10 -1 -2	33	1
27 -1 247 -1 47 -1 -2	7	1
120 -1 253 -1 40 -1 -2	7	1
53 -1 43 -1 77 -1 -2	4	1
20 -1 109 -1 -2	39	2
4 -1 60 -1 144 -1 -2	40	1
64 -1 31 -1 117 -1 248 -1 42 -1 -2	1	1
18 -1 50 -1 53 -1 73 -1 -2	3	1
1 -1 78 -1 20 -1 -2	58	1
18 -1 26 -1 113 -1 133 -1 250 -1 -2	36	1
53 -1 29 -1 109 -1 -2	3	1
13 -1 144 -1 245 -1 -2	190	1
13 -1 36 -1 -2	243	2
59 -1 23 -1 113 -1 33 -1 150 -1 13 -1 -2	1	1
15 -1 28 -1 78 -1 59 -1 -2	5	1
23 -1 110 -1 44 -1 254 -1 -2	4	1
40 -1 54 -1 -2	62	1
29 -1 118 -1 120 -1 -2	21	1
37 -1 -2	330	12
57 -1 6 -1 -2	53	1
37 -1 18 -1 23 -1 -2	38	1
26 -1 11 -1 40 -1 -2	32	1
95 -1 22 -1 23 -1 -2	6	1
88 -1 74 -1 150 -1 -2	1	1
82 -1 -2	93	3
23 -1 36 -1 -2	176	2
27 -1 28 -1 37 -1 143 -1 245 -1 248 -1 -2	3	1
9 -1 32 -1 246 -1 -2	111	1
56 -1 114 -1 35 -1 -2	5	1
22 -1 79 -1 10 -1 118 -1 -2	5	1
71 -1 49 -1 -2	27	1
51 -1 26 -1 29 -1 115 -1 139 -1 3 -1 -2	1	1
106 -1 71 -1 17 -1 73 -1 4 -1 117 -1 -2	1	1
2 -1 92 -1 51 -1 69 -1 30 -1 -2	1	1
42 -1 120 -1 -2	40	1
79 -1 42 -1 144 -1 28 -1 -2	5	1
33 -1 48 -1 144 -1 -2	16	1
113 -1 138 -1 149 -1 14 -1 -2	1	1
57 -1 144 -1 -2	109	1
64 -1 81 -1 -2	18	1
54 -1 -2	264	8
90 -1 252 -1 -2	2	1
84 -1 113 -1 30 -1 46 -1 -2	1	1
109 -1 73 -1 133 -1 -2	3	1
65 -1 41 -1 6 -1 69 -1 122 -1 27 -1 76 -1 -2	1	1
19 -1 144 -1 -2	202	1
19 -1 133 -1 -2	133	1
33 -1 18 -1 52 -1 -2	12	1
51 -1 7 -1 -2	71	1
8 -1 76 -1 52 -1 145 -1 -2	4	1
1 -1 189 -1 -2	76	1
5 -1 22 -1 12 -1 -2	35	1
47 -1 46 -1 117 -1 91 -1 139 -1 -2	1	1
11 -1 55 -1 45 -1 42 -1 35 -1 110 -1 120 -1 -2	1	1
52 -1 117 -1 88 -1 -2	4	1
13 -1 70 -1 -2	91	1
69 -1 34 -1 189 -1 190 -1 -2	3	1
47 -1 70 -1 147 -1 -2	6	1
22 -1 35 -1 -2	242	1
117 -1 135 -1 17 -1 -2	1	1
15 -1 63 -1 -2	62	1
118 -1 139 -1 144 -1 -2	222	1
18 -1 20 -1 26 -1 45 -1 -2	31	1
42 -1 73 -1 71 -1 143 -1 146 -1 -2	4	1
17 -1 67 -1 250 -1 -2	36	1
73 -1 5 -1 246 -1 7 -1 -2	1	1
26 -1 10 -1 143 -1 5 -1 -2	6	1
86 -1 53 -1 198 -1 42 -1 -2	1	1
10 -1 12 -1 -2	163	1
124 -1 219 -1 -2	2	1
75 -1 10 -1 38 -1 45 -1 110 -1 136 -1 -2	1	1
14 -1 30 -1 40 -1 1 -1 43 -1 -2	1	1
35 -1 112 -1 2 -1 -2	5	1
46 -1 20 -1 -2	80	1
50 -1 7 -1 67 -1 245 -1 -2	3	1
8 -1 100 -1 -2	18	1
45 -1 31 -1 57 -1 32 -1 -2	2	1
81 -1 72 -1 9 -1 27 -1 39 -1 25 -1 65 -1 195 -1 -2	1	1
44 -1 9 -1 24 -1 -2	15	1
11 -1 52 -1 36 -1 163 -1 -2	1	1
195 -1 262 -1 -2	29	1
29 -1 113 -1 -2	107	1
9 -1 30 -1 34 -1 177 -1 -2	1	1
26 -1 35 -1 132 -1 3 -1 -2	27	1
10 -1 22 -1 31 -1 -2	75	1
9 -1 100 -1 149 -1 -2	9	1
1 -1 22 -1 -2	326	1
1 -1 31 -1 78 -1 253 -1 -2	85	1
14 -1 30 -1 139 -1 51 -1 -2	3	1
6 -1 66 -1 -2	39	1
4 -1 132 -1 13 -1 -2	11	1
50 -1 39 -1 -2	67	1
18 -1 42 -1 8 -1 69 -1 -2	2	1
27 -1 61 -1 7 -1 -2	18	1
1 -1 12 -1 4 -1 16 -1 -2	8	1
15 -1 63 -1 17 -1 24 -1 -2	2	1
12 -1 143 -1 209 -1 -2	32	1
28 -1 56 -1 16 -1 132 -1 -2	2	1
9 -1 246 -1 -2	338	1
6 -1 14 -1 -2	67	1
27 -1 48 -1 43 -1 -2	28	1
12 -1 54 -1 -2	76	1
3 -1 258 -1 -2	13	1
32 -1 145 -1 210 -1 -2	1	1
5 -1 147 -1 11 -1 -2	5	1
19 -1 36 -1 69 -1 95 -1 253 -1 -2	2	1
1 -1 78 -1 44 -1 245 -1 68 -1 -2	4	1
72 -1 143 -1 63 -1 -2	15	1
5 -1 11 -1 36 -1 146 -1 181 -1 -2	1	1
35 -1 117 -1 2 -1 -2	45	1
22 -1 23 -1 114 -1 -2	37	1
11 -1 90 -1 109 -1 -2	3	1
2 -1 8 -1 38 -1 -2	100	1
1 -1 8 -1 35 -1 73 -1 32 -1 -2	8	1
64 -1 22 -1 16 -1 54 -1 -2	1	1
12 -1 31 -1 -2	95	1
17 -1 64 -1 18 -1 132 -1 86 -1 180 -1 41 -1 211 -1 -2	1	1
8 -1 27 -1 18 -1 114 -1 195 -1 35 -1 -2	1	1
18 -1 254 -1 -2	55	1
47 -1 109 -1 50 -1 -2	9	1
11 -1 20 -1 1 -1 117 -1 32 -1 5 -1 189 -1 39 -1 -2	1	1
56 -1 253 -1 -2	207	1
13 -1 54 -1 109 -1 144 -1 43 -1 39 -1 -2	2	1
27 -1 16 -1 117 -1 120 -1 -2	13	1
22 -1 89 -1 78 -1 7 -1 -2	1	1
41 -1 18 -1 49 -1 117 -1 272 -1 -2	1	1
8 -1 6 -1 32 -1 79 -1 117 -1 -2	6	1
245 -1 246 -1 -2	282	2
20 -1 10 -1 53 -1 57 -1 120 -1 -2	1	1
63 -1 118 -1 149 -1 -2	29	1
2 -1 4 -1 13 -1 -2	36	1
6 -1 110 -1 -2	65	1
44 -1 14 -1 83 -1 117 -1 118 -1 133 -1 19 -1 150 -1 -2	1	1
35 -1 7 -1 29 -1 25 -1 150 -1 -2	1	1
8 -1 117 -1 -2	473	1
143 -1 204 -1 54 -1 -2	1	1
139 -1 103 -1 245 -1 71 -1 -2	1	1
22 -1 38 -1 141 -1 -2	12	1
11 -1 31 -1 -2	171	1
13 -1 59 -1 30 -1 117 -1 -2	4	1
18 -1 41 -1 68 -1 25 -1 -2	5	1
78 -1 68 -1 135 -1 143 -1 -2	2	1
23 -1 21 -1 143 -1 48 -1 -2	4	1
61 -1 73 -1 78 -1 104 -1 223 -1 -2	1	1
134 -1 47 -1 -2	7	1
176 -1 178 -1 141 -1 11 -1 -2	1	1
23 -1 28 -1 69 -1 120 -1 3 -1 63 -1 262 -1 -2	1	1
112 -1 68 -1 35 -1 -2	2	1
13 -1 38 -1 71 -1 -2	17	1
35 -1 49 -1 -2	136	1
5 -1 13 -1 36 -1 189 -1 253 -1 268 -1 -2	1	1
11 -1 35 -1 -2	228	1
62 -1 13 -1 78 -1 37 -1 253 -1 -2	2	1
30 -1 26 -1 37 -1 -2	20	1
65 -1 117 -1 247 -1 -2	30	1
69 -1 29 -1 261 -1 -2	6	1
1 -1 68 -1 39 -1 77 -1 -2	4	1
8 -1 27 -1 54 -1 21 -1 -2	16	1
10 -1 31 -1 41 -1 78 -1 143 -1 -2	13	1
246 -1 34 -1 -2	33	1
15 -1 248 -1 253 -1 -2	33	1
1 -1 21 -1 245 -1 -2	121	1
7 -1 2 -1 132 -1 139 -1 -2	6	1
2 -1 9 -1 18 -1 19 -1 -2	53	1
11 -1 18 -1 -2	199	1
150 -1 179 -1 -2	31	1
15 -1 63 -1 117 -1 -2	23	1
1 -1 23 -1 -2	317	1
1 -1 8 -1 73 -1 245 -1 -2	45	1
35 -1 43 -1 -2	170	1
256 -1 -2	68	4
73 -1 143 -1 -2	140	2
180 -1 245 -1 -2	39	1
13 -1 41 -1 -2	174	2
71 -1 42 -1 -2	28	1
10 -1 1 -1 -2	166	1
15 -1 7 -1 150 -1 -2	26	1
9 -1 54 -1 34 -1 -2	42	1
26 -1 16 -1 60 -1 55 -1 84 -1 -2	1	1
35 -1 108 -1 51 -1 139 -1 253 -1 -2	6	1
70 -1 90 -1 57 -1 60 -1 -2	1	1
81 -1 28 -1 54 -1 -2	6	1
213 -1 -2	10	2
36 -1 203 -1 -2	8	1
8 -1 15 -1 64 -1 -2	45	1
43 -1 74 -1 143 -1 218 -1 247 -1 -2	3	1
19 -1 55 -1 57 -1 -2	9	1
2 -1 186 -1 10 -1 23 -1 35 -1 134 -1 49 -1 60 -1 -2	1	1
9 -1 48 -1 -2	204	1
35 -1 113 -1 54 -1 -2	36	1
61 -1 94 -1 28 -1 48 -1 15 -1 -2	1	1
10 -1 14 -1 -2	172	2
23 -1 97 -1 64 -1 246 -1 -2	4	1
95 -1 88 -1 54 -1 -2	1	1
51 -1 117 -1 144 -1 4 -1 -2	5	1
7 -1 195 -1 245 -1 -2	28	1
2 -1 55 -1 117 -1 136 -1 16 -1 -2	1	1
25 -1 66 -1 36 -1 41 -1 247 -1 -2	1	1
26 -1 109 -1 7 -1 139 -1 -2	3	1
13 -1 11 -1 -2	145	1
46 -1 50 -1 -2	84	2
13 -1 140 -1 73 -1 25 -1 58 -1 70 -1 52 -1 -2	1	1
8 -1 12 -1 66 -1 114 -1 -2	3	1
64 -1 69 -1 36 -1 -2	3	1
18 -1 8 -1 253 -1 -2	71	1
14 -1 18 -1 36 -1 -2	95	1
68 -1 117 -1 -2	108	2
26 -1 99 -1 113 -1 259 -1 -2	1	1
12 -1 52 -1 64 -1 50 -1 48 -1 143 -1 75 -1 -2	1	1
14 -1 60 -1 17 -1 41 -1 82 -1 84 -1 -2	1	1
9 -1 14 -1 -2	266	1
27 -1 143 -1 39 -1 -2	56	1
253 -1 26 -1 -2	16	1
258 -1 -2	49	3
76 -1 17 -1 75 -1 90 -1 59 -1 69 -1 137 -1 162 -1 245 -1 77 -1 -2	1	1
35 -1 257 -1 -2	38	1
14 -1 51 -1 -2	104	1
83 -1 72 -1 67 -1 106 -1 -2	1	1
1 -1 253 -1 -2	616	1
48 -1 62 -1 249 -1 80 -1 -2	1	1
134 -1 -2	68	6
46 -1 20 -1 25 -1 45 -1 10 -1 245 -1 -2	1	1
14 -1 92 -1 71 -1 75 -1 -2	2	1
47 -1 40 -1 21 -1 24 -1 39 -1 -2	1	1
281 -1 -2	9	2
106 -1 150 -1 16 -1 -2	1	1
132 -1 247 -1 -2	76	1
83 -1 21 -1 -2	17	1
35 -1 184 -1 -2	40	1
26 -1 139 -1 -2	261	1
36 -1 89 -1 110 -1 151 -1 -2	1	1
18 -1 184 -1 -2	34	1
61 -1 -2	212	8
61 -1 110 -1 124 -1 23 -1 -2	1	1
27 -1 113 -1 144 -1 54 -1 -2	10	1
35 -1 29 -1 245 -1 -2	88	1
79 -1 51 -1 139 -1 -2	14	1
51 -1 259 -1 -2	25	1
23 -1 38 -1 1 -1 74 -1 -2	1	1
88 -1 23 -1 3 -1 -2	2	1
47 -1 24 -1 245 -1 64 -1 -2	2	1
2 -1 48 -1 -2	121	1
41 -1 26 -1 58 -1 44 -1 124 -1 -2	1	1
24 -1 17 -1 101 -1 77 -1 19 -1 91 -1 28 -1 30 -1 64 -1 12 -1 259 -1 -2	1	1
117 -1 189 -1 190 -1 253 -1 -2	49	1
57 -1 41 -1 -2	49	1
27 -1 60 -1 -2	78	1
8 -1 28 -1 110 -1 21 -1 -2	25	1
4 -1 8 -1 7 -1 12 -1 56 -1 51 -1 -2	2	1
23 -1 35 -1 36 -1 113 -1 179 -1 198 -1 -2	2	1
44 -1 143 -1 -2	221	2
117 -1 132 -1 68 -1 -2	30	1
19 -1 69 -1 -2	53	2
78 -1 17 -1 -2	43	1
2 -1 72 -1 257 -1 -2	7	1
35 -1 11 -1 45 -1 118 -1 231 -1 -2	1	1
117 -1 254 -1 -2	56	1
18 -1 59 -1 5 -1 70 -1 86 -1 -2	1	1
17 -1 48 -1 -2	202	1
63 -1 30 -1 247 -1 -2	5	1
13 -1 51 -1 150 -1 -2	29	1
94 -1 114 -1 6 -1 247 -1 -2	2	1
1 -1 43 -1 21 -1 253 -1 -2	27	1
1 -1 61 -1 -2	154	1
33 -1 118 -1 -2	96	1
33 -1 27 -1 53 -1 195 -1 -2	3	1
1 -1 54 -1 -2	209	1
15 -1 25 -1 69 -1 -2	10	1
28 -1 5 -1 25 -1 -2	22	1
22 -1 30 -1 250 -1 -2	19	1
19 -1 51 -1 22 -1 -2	16	1
9 -1 18 -1 143 -1 181 -1 22 -1 -2	2	1
28 -1 44 -1 195 -1 20 -1 -2	2	1
34 -1 29 -1 19 -1 -2	10	1
101 -1 -2	39	2
25 -1 6 -1 143 -1 49 -1 33 -1 -2	1	1
21 -1 80 -1 146 -1 195 -1 50 -1 -2	1	1
40 -1 6 -1 144 -1 -2	27	1
5 -1 8 -1 253 -1 -2	141	1
52 -1 27 -1 122 -1 138 -1 50 -1 -2	1	1
7 -1 201 -1 28 -1 -2	1	1
44 -1 42 -1 31 -1 39 -1 66 -1 10 -1 25 -1 48 -1 -2	1	1
17 -1 28 -1 -2	297	1
17 -1 22 -1 245 -1 -2	233	1
17 -1 47 -1 139 -1 143 -1 245 -1 -2	41	1
24 -1 82 -1 30 -1 37 -1 -2	1	1
1 -1 40 -1 -2	238	3
2 -1 28 -1 32 -1 -2	53	1
5 -1 218 -1 -2	11	1
24 -1 14 -1 71 -1 -2	3	1
70 -1 73 -1 139 -1 74 -1 43 -1 -2	1	1
43 -1 36 -1 -2	69	1
47 -1 60 -1 37 -1 133 -1 20 -1 43 -1 -2	1	1
1 -1 53 -1 111 -1 -2	17	1
117 -1 252 -1 -2	50	1
24 -1 250 -1 256 -1 -2	4	1
33 -1 75 -1 59 -1 -2	6	1
27 -1 1 -1 35 -1 132 -1 45 -1 -2	2	1
40 -1 111 -1 104 -1 249 -1 -2	1	1
10 -1 100 -1 29 -1 77 -1 -2	1	1
20 -1 8 -1 58 -1 143 -1 -2	11	1
19 -1 28 -1 54 -1 117 -1 143 -1 144 -1 -2	3	1
10 -1 40 -1 114 -1 70 -1 133 -1 146 -1 150 -1 250 -1 -2	1	1
9 -1 63 -1 86 -1 258 -1 284 -1 -2	1	1
9 -1 137 -1 143 -1 -2	12	1
17 -1 189 -1 -2	73	1
16 -1 47 -1 71 -1 48 -1 -2	1	1
14 -1 41 -1 -2	135	1
32 -1 53 -1 252 -1 9 -1 -2	1	1
35 -1 47 -1 45 -1 139 -1 87 -1 -2	1	1
28 -1 75 -1 139 -1 72 -1 65 -1 -2	2	1
81 -1 62 -1 85 -1 -2	1	1
39 -1 199 -1 -2	9	1
8 -1 39 -1 71 -1 258 -1 -2	2	1
10 -1 40 -1 35 -1 21 -1 -2	8	1
54 -1 26 -1 -2	76	1
80 -1 64 -1 14 -1 23 -1 -2	1	1
39 -1 38 -1 -2	70	1
42 -1 14 -1 22 -1 -2	15	1
47 -1 125 -1 132 -1 149 -1 91 -1 6 -1 -2	1	1
8 -1 23 -1 59 -1 246 -1 15 -1 -2	3	1
44 -1 17 -1 117 -1 91 -1 65 -1 -2	1	1
245 -1 253 -1 -2	486	1
22 -1 19 -1 120 -1 -2	18	1
80 -1 38 -1 52 -1 -2	3	1
93 -1 30 -1 34 -1 -2	1	1
4 -1 65 -1 45 -1 111 -1 67 -1 132 -1 -2	1	1
88 -1 41 -1 84 -1 120 -1 146 -1 286 -1 -2	1	1
86 -1 117 -1 100 -1 -2	2	1
54 -1 71 -1 255 -1 -2	7	1
16 -1 51 -1 -2	73	1
132 -1 48 -1 286 -1 -2	1	1
2 -1 15 -1 23 -1 35 -1 179 -1 -2	2	1
68 -1 79 -1 70 -1 163 -1 -2	1	1
10 -1 72 -1 19 -1 95 -1 -2	1	1
33 -1 64 -1 34 -1 95 -1 -2	1	1
8 -1 32 -1 48 -1 -2	53	1
77 -1 58 -1 70 -1 10 -1 246 -1 -2	1	1
44 -1 124 -1 64 -1 144 -1 -2	1	1
29 -1 35 -1 189 -1 25 -1 -2	5	1
61 -1 253 -1 -2	177	1
26 -1 35 -1 75 -1 120 -1 72 -1 50 -1 51 -1 52 -1 -2	1	1
17 -1 37 -1 68 -1 -2	30	1
89 -1 77 -1 56 -1 68 -1 62 -1 63 -1 -2	1	1
11 -1 9 -1 36 -1 171 -1 -2	1	1
73 -1 31 -1 60 -1 108 -1 259 -1 -2	1	1
28 -1 111 -1 163 -1 -2	1	1
12 -1 132 -1 135 -1 66 -1 56 -1 145 -1 -2	1	1
179 -1 256 -1 -2	10	1
83 -1 111 -1 68 -1 -2	3	1
11 -1 253 -1 -2	391	1
11 -1 23 -1 40 -1 -2	48	1
60 -1 31 -1 80 -1 -2	3	1
4 -1 33 -1 17 -1 204 -1 44 -1 -2	1	1
53 -1 23 -1 143 -1 -2	43	1
35 -1 79 -1 -2	253	1
42 -1 45 -1 -2	77	1
8 -1 3 -1 143 -1 -2	88	1
1 -1 46 -1 26 -1 53 -1 21 -1 117 -1 -2	2	1
8 -1 11 -1 -2	343	1
12 -1 48 -1 117 -1 44 -1 -2	4	1
6 -1 253 -1 -2	291	3
78 -1 33 -1 -2	92	2
110 -1 16 -1 -2	96	1
73 -1 117 -1 12 -1 -2	20	1
78 -1 5 -1 -2	63	1
13 -1 86 -1 28 -1 -2	5	1
1 -1 23 -1 27 -1 38 -1 134 -1 143 -1 246 -1 -2	1	1
113 -1 122 -1 29 -1 -2	3	1
19 -1 24 -1 -2	114	1
60 -1 24 -1 36 -1 136 -1 -2	3	1
132 -1 76 -1 -2	25	1
57 -1 22 -1 38 -1 -2	12	1
63 -1 72 -1 255 -1 -2	7	1
39 -1 37 -1 213 -1 59 -1 -2	1	1
68 -1 13 -1 37 -1 31 -1 -2	3	1
8 -1 22 -1 144 -1 -2	181	1
8 -1 17 -1 53 -1 -2	153	1
35 -1 145 -1 -2	71	1
35 -1 50 -1 -2	152	1
68 -1 26 -1 7 -1 29 -1 144 -1 -2	2	1
53 -1 9 -1 4 -1 -2	4	1
36 -1 43 -1 246 -1 -2	59	1
15 -1 8 -1 246 -1 -2	31	1
1 -1 78 -1 3 -1 61 -1 53 -1 -2	1	1
38 -1 103 -1 102 -1 -2	1	1
14 -1 18 -1 1 -1 49 -1 -2	8	1
16 -1 119 -1 -2	27	1
1 -1 22 -1 44 -1 119 -1 139 -1 21 -1 -2	1	1
6 -1 14 -1 57 -1 253 -1 -2	5	1
1 -1 68 -1 16 -1 -2	38	1
57 -1 179 -1 -2	21	1
63 -1 78 -1 246 -1 -2	33	1
54 -1 137 -1 135 -1 57 -1 133 -1 141 -1 143 -1 245 -1 -2	1	1
31 -1 78 -1 88 -1 29 -1 76 -1 283 -1 -2	1	1
29 -1 212 -1 28 -1 24 -1 -2	1	1
22 -1 44 -1 -2	145	1
5 -1 38 -1 253 -1 -2	89	1
117 -1 10 -1 -2	63	1
6 -1 32 -1 -2	97	1
92 -1 67 -1 -2	7	1
8 -1 79 -1 64 -1 146 -1 -2	7	1
8 -1 50 -1 45 -1 -2	39	1
31 -1 108 -1 -2	47	1
2 -1 143 -1 144 -1 -2	188	1
15 -1 28 -1 110 -1 139 -1 146 -1 -2	7	1
63 -1 81 -1 -2	16	1
177 -1 -2	10	1
121 -1 253 -1 266 -1 -2	4	1
117 -1 112 -1 41 -1 -2	1	1
6 -1 41 -1 143 -1 -2	37	1
30 -1 9 -1 23 -1 -2	14	1
22 -1 74 -1 -2	80	2
7 -1 179 -1 -2	32	1
2 -1 149 -1 -2	134	1
120 -1 165 -1 -2	3	1
2 -1 133 -1 51 -1 -2	20	1
9 -1 10 -1 143 -1 -2	234	1
4 -1 165 -1 42 -1 195 -1 32 -1 -2	1	1
9 -1 143 -1 144 -1 -2	321	1
74 -1 52 -1 -2	34	1
23 -1 71 -1 32 -1 118 -1 5 -1 50 -1 -2	1	1
43 -1 259 -1 -2	29	1
116 -1 133 -1 64 -1 33 -1 -2	1	1
23 -1 48 -1 34 -1 110 -1 113 -1 246 -1 -2	2	1
18 -1 24 -1 245 -1 -2	80	1
52 -1 96 -1 -2	10	1
14 -1 53 -1 26 -1 -2	25	1
4 -1 58 -1 139 -1 -2	38	1
81 -1 78 -1 133 -1 179 -1 -2	3	1
47 -1 143 -1 175 -1 -2	5	1
31 -1 14 -1 45 -1 -2	13	1
22 -1 27 -1 50 -1 143 -1 20 -1 -2	6	1
13 -1 147 -1 37 -1 246 -1 253 -1 -2	2	1
36 -1 12 -1 -2	136	1
34 -1 195 -1 246 -1 16 -1 -2	6	1
47 -1 45 -1 257 -1 -2	7	1
117 -1 19 -1 37 -1 253 -1 -2	4	1
76 -1 73 -1 -2	30	1
23 -1 114 -1 5 -1 -2	19	1
27 -1 74 -1 -2	70	1
2 -1 11 -1 17 -1 253 -1 262 -1 -2	10	1
30 -1 245 -1 -2	194	1
31 -1 118 -1 40 -1 43 -1 26 -1 -2	1	1
78 -1 24 -1 -2	77	1
4 -1 -2	384	19
47 -1 69 -1 75 -1 23 -1 83 -1 -2	1	1
72 -1 56 -1 15 -1 253 -1 -2	1	1
31 -1 25 -1 -2	115	1
14 -1 15 -1 110 -1 67 -1 81 -1 -2	1	1
36 -1 245 -1 -2	369	2
32 -1 22 -1 28 -1 122 -1 66 -1 74 -1 256 -1 -2	1	1
6 -1 78 -1 30 -1 -2	15	1
20 -1 27 -1 34 -1 70 -1 32 -1 -2	2	1
49 -1 133 -1 246 -1 -2	52	1
26 -1 56 -1 246 -1 248 -1 -2	8	1
53 -1 22 -1 143 -1 -2	38	1
13 -1 25 -1 47 -1 -2	27	1
30 -1 94 -1 58 -1 139 -1 80 -1 -2	1	1
133 -1 147 -1 -2	52	1
141 -1 150 -1 21 -1 195 -1 -2	1	1
47 -1 79 -1 -2	73	1
30 -1 28 -1 -2	75	1
17 -1 78 -1 20 -1 52 -1 19 -1 -2	2	1
62 -1 135 -1 254 -1 -2	3	1
2 -1 47 -1 136 -1 179 -1 -2	1	1
80 -1 13 -1 49 -1 -2	6	1
23 -1 27 -1 253 -1 -2	161	1
37 -1 28 -1 -2	82	1
19 -1 27 -1 118 -1 -2	59	1
26 -1 5 -1 -2	134	1
1 -1 103 -1 50 -1 257 -1 -2	1	1
18 -1 21 -1 23 -1 58 -1 59 -1 -2	1	1
27 -1 11 -1 253 -1 -2	115	1
35 -1 39 -1 7 -1 -2	32	1
5 -1 89 -1 68 -1 -2	5	1
37 -1 9 -1 -2	51	1
98 -1 17 -1 110 -1 7 -1 143 -1 -2	2	1
8 -1 22 -1 17 -1 86 -1 -2	5	1
9 -1 63 -1 70 -1 17 -1 -2	1	1
8 -1 31 -1 146 -1 280 -1 -2	2	1
10 -1 1 -1 52 -1 -2	33	1
5 -1 9 -1 70 -1 41 -1 187 -1 -2	1	1
32 -1 65 -1 -2	44	1
110 -1 53 -1 259 -1 -2	10	1
150 -1 76 -1 -2	7	1
28 -1 110 -1 -2	168	1
73 -1 22 -1 -2	46	2
46 -1 133 -1 144 -1 -2	65	1
44 -1 70 -1 -2	48	1
44 -1 41 -1 5 -1 -2	8	1
50 -1 246 -1 -2	156	1
17 -1 150 -1 66 -1 75 -1 255 -1 -2	1	1
1 -1 84 -1 35 -1 -2	23	1
9 -1 39 -1 15 -1 18 -1 44 -1 6 -1 139 -1 163 -1 -2	1	1
77 -1 132 -1 25 -1 22 -1 41 -1 -2	1	1
7 -1 2 -1 245 -1 -2	33	1
37 -1 74 -1 113 -1 132 -1 53 -1 -2	1	1
1 -1 70 -1 94 -1 30 -1 -2	2	1
85 -1 67 -1 -2	14	1
133 -1 144 -1 -2	170	1
9 -1 37 -1 30 -1 212 -1 -2	3	1
118 -1 144 -1 256 -1 -2	28	1
2 -1 25 -1 -2	144	1
86 -1 68 -1 95 -1 120 -1 60 -1 76 -1 82 -1 -2	1	1
33 -1 255 -1 -2	70	1
12 -1 18 -1 50 -1 61 -1 143 -1 256 -1 -2	1	1
59 -1 35 -1 13 -1 265 -1 -2	1	1
45 -1 33 -1 34 -1 32 -1 -2	2	1
67 -1 111 -1 7 -1 -2	2	1
36 -1 253 -1 -2	459	2
34 -1 32 -1 143 -1 77 -1 -2	1	1
45 -1 62 -1 80 -1 255 -1 -2	2	1
80 -1 69 -1 -2	22	1
36 -1 20 -1 134 -1 143 -1 42 -1 -2	1	1
9 -1 13 -1 22 -1 10 -1 139 -1 23 -1 -2	3	1
14 -1 17 -1 54 -1 26 -1 47 -1 85 -1 20 -1 261 -1 -2	1	1
28 -1 45 -1 -2	124	1
58 -1 17 -1 -2	62	1
79 -1 73 -1 110 -1 10 -1 -2	1	1
110 -1 246 -1 6 -1 -2	17	1
22 -1 73 -1 257 -1 -2	9	1
1 -1 110 -1 35 -1 147 -1 209 -1 -2	1	1
10 -1 79 -1 110 -1 -2	105	1
47 -1 5 -1 -2	49	1
72 -1 54 -1 68 -1 85 -1 -2	1	1
1 -1 46 -1 14 -1 87 -1 21 -1 47 -1 258 -1 -2	1	1
12 -1 146 -1 -2	66	1
24 -1 11 -1 70 -1 41 -1 -2	2	1
63 -1 74 -1 1 -1 4 -1 -2	1	1
10 -1 11 -1 73 -1 -2	34	1
8 -1 246 -1 -2	365	1
35 -1 31 -1 -2	129	1
1 -1 23 -1 37 -1 39 -1 -2	13	1
22 -1 46 -1 253 -1 -2	108	1
2 -1 52 -1 44 -1 -2	14	1
24 -1 26 -1 41 -1 -2	48	1
33 -1 34 -1 -2	92	1
83 -1 79 -1 76 -1 120 -1 91 -1 -2	1	1
5 -1 255 -1 -2	78	1
1 -1 5 -1 139 -1 247 -1 -2	26	1
52 -1 3 -1 33 -1 149 -1 16 -1 38 -1 -2	1	1
5 -1 19 -1 -2	121	1
49 -1 70 -1 -2	41	1
20 -1 35 -1 57 -1 -2	31	1
37 -1 21 -1 48 -1 -2	18	1
112 -1 2 -1 51 -1 246 -1 -2	2	1
73 -1 18 -1 105 -1 69 -1 15 -1 -2	1	1
2 -1 10 -1 17 -1 111 -1 28 -1 25 -1 -2	1	1
40 -1 42 -1 79 -1 149 -1 189 -1 261 -1 -2	1	1
64 -1 199 -1 -2	10	1
77 -1 117 -1 118 -1 247 -1 66 -1 289 -1 -2	1	1
2 -1 139 -1 182 -1 33 -1 -2	1	1
35 -1 56 -1 -2	128	1
23 -1 12 -1 110 -1 -2	21	1
49 -1 82 -1 -2	21	1
2 -1 14 -1 51 -1 20 -1 253 -1 -2	4	1
10 -1 49 -1 59 -1 144 -1 52 -1 202 -1 -2	1	1
70 -1 29 -1 -2	54	1
35 -1 96 -1 -2	11	1
18 -1 57 -1 139 -1 141 -1 -2	6	1
50 -1 132 -1 133 -1 37 -1 -2	9	1
18 -1 26 -1 109 -1 1 -1 246 -1 -2	6	1
82 -1 101 -1 -2	10	1
18 -1 5 -1 210 -1 32 -1 -2	2	1
72 -1 26 -1 24 -1 246 -1 -2	9	1
49 -1 41 -1 246 -1 -2	36	1
109 -1 61 -1 -2	15	1
32 -1 109 -1 1 -1 -2	9	1
74 -1 134 -1 -2	22	1
40 -1 50 -1 141 -1 153 -1 -2	1	1
13 -1 110 -1 58 -1 57 -1 262 -1 -2	2	1
46 -1 13 -1 39 -1 23 -1 -2	5	1
40 -1 97 -1 -2	9	1
68 -1 136 -1 17 -1 -2	1	1
21 -1 10 -1 120 -1 133 -1 -2	5	1
253 -1 281 -1 -2	8	1
31 -1 117 -1 -2	242	1
11 -1 90 -1 36 -1 117 -1 144 -1 -2	2	1
39 -1 1 -1 79 -1 -2	13	1
44 -1 45 -1 195 -1 250 -1 -2	14	1
25 -1 8 -1 81 -1 248 -1 -2	1	1
54 -1 58 -1 59 -1 246 -1 5 -1 -2	1	1
28 -1 34 -1 26 -1 -2	10	1
17 -1 23 -1 -2	313	2
42 -1 245 -1 33 -1 -2	16	1
50 -1 43 -1 22 -1 40 -1 -2	2	1
33 -1 -2	317	15
45 -1 52 -1 85 -1 143 -1 42 -1 246 -1 -2	1	1
5 -1 39 -1 8 -1 20 -1 23 -1 -2	1	1
36 -1 55 -1 -2	93	1
49 -1 47 -1 76 -1 25 -1 -2	1	1
6 -1 143 -1 -2	205	1
139 -1 143 -1 34 -1 64 -1 -2	3	1
5 -1 13 -1 -2	122	1
52 -1 12 -1 179 -1 -2	3	1
63 -1 55 -1 45 -1 38 -1 144 -1 -2	1	1
17 -1 28 -1 143 -1 69 -1 -2	11	1
23 -1 34 -1 -2	130	2
20 -1 13 -1 -2	104	1
11 -1 40 -1 21 -1 -2	38	1
42 -1 26 -1 53 -1 65 -1 117 -1 118 -1 83 -1 -2	1	1
118 -1 132 -1 71 -1 -2	20	1
77 -1 34 -1 12 -1 110 -1 195 -1 -2	1	1
53 -1 14 -1 36 -1 -2	14	1
82 -1 139 -1 146 -1 -2	11	1
47 -1 92 -1 245 -1 -2	8	1
15 -1 9 -1 18 -1 35 -1 144 -1 -2	16	1
38 -1 81 -1 -2	29	1
118 -1 1 -1 -2	10	1
8 -1 31 -1 30 -1 -2	73	1
40 -1 5 -1 -2	46	1
23 -1 5 -1 139 -1 -2	25	1
27 -1 150 -1 254 -1 -2	14	1
41 -1 118 -1 -2	176	2
37 -1 22 -1 184 -1 245 -1 -2	8	1
9 -1 71 -1 133 -1 245 -1 27 -1 -2	4	1
2 -1 8 -1 3 -1 24 -1 246 -1 -2	3	1
17 -1 51 -1 -2	187	1
75 -1 79 -1 -2	51	1
3 -1 63 -1 210 -1 -2	3	1
5 -1 9 -1 41 -1 36 -1 26 -1 63 -1 143 -1 168 -1 246 -1 -2	1	1
32 -1 30 -1 -2	88	1
28 -1 33 -1 -2	129	1
29 -1 36 -1 -2	125	1
9 -1 68 -1 99 -1 65 -1 246 -1 253 -1 260 -1 -2	1	1
22 -1 47 -1 -2	132	1
40 -1 65 -1 -2	44	1
4 -1 13 -1 10 -1 33 -1 117 -1 2 -1 34 -1 44 -1 -2	1	1
27 -1 180 -1 32 -1 -2	7	1
52 -1 245 -1 -2	157	1
30 -1 110 -1 -2	94	1
2 -1 23 -1 24 -1 51 -1 35 -1 59 -1 72 -1 141 -1 177 -1 37 -1 21 -1 259 -1 -2	1	1
78 -1 -2	382	17
36 -1 101 -1 6 -1 -2	5	1
17 -1 42 -1 93 -1 120 -1 134 -1 37 -1 150 -1 -2	1	1
150 -1 246 -1 -2	111	1
29 -1 108 -1 31 -1 63 -1 1 -1 175 -1 245 -1 -2	1	1
26 -1 99 -1 78 -1 -2	8	1
44 -1 46 -1 28 -1 -2	9	1
7 -1 58 -1 117 -1 140 -1 25 -1 -2	1	1
1 -1 69 -1 79 -1 250 -1 -2	38	1
81 -1 35 -1 70 -1 -2	9	1
78 -1 51 -1 60 -1 149 -1 97 -1 -2	1	1
49 -1 6 -1 50 -1 10 -1 27 -1 48 -1 117 -1 254 -1 -2	1	1
68 -1 14 -1 149 -1 46 -1 -2	4	1
13 -1 118 -1 -2	217	1
69 -1 18 -1 253 -1 -2	39	1
66 -1 27 -1 149 -1 23 -1 -2	2	1
117 -1 119 -1 20 -1 -2	14	1
2 -1 245 -1 -2	278	1
3 -1 43 -1 31 -1 78 -1 52 -1 -2	1	1
85 -1 80 -1 37 -1 64 -1 139 -1 -2	1	1
117 -1 147 -1 15 -1 -2	9	1
80 -1 4 -1 117 -1 61 -1 255 -1 -2	2	1
4 -1 18 -1 -2	183	1
245 -1 22 -1 250 -1 -2	3	1
26 -1 33 -1 -2	202	1
20 -1 133 -1 -2	141	1
10 -1 74 -1 41 -1 31 -1 30 -1 29 -1 149 -1 11 -1 -2	1	1
2 -1 10 -1 11 -1 28 -1 49 -1 146 -1 16 -1 -2	1	1
84 -1 246 -1 253 -1 262 -1 -2	4	1
20 -1 11 -1 13 -1 33 -1 50 -1 136 -1 141 -1 -2	1	1
12 -1 190 -1 -2	40	1
27 -1 6 -1 -2	139	1
122 -1 17 -1 35 -1 100 -1 56 -1 39 -1 -2	1	1
67 -1 7 -1 209 -1 -2	3	1
143 -1 170 -1 -2	16	1
18 -1 53 -1 41 -1 30 -1 -2	6	1
25 -1 55 -1 246 -1 -2	16	1
46 -1 245 -1 246 -1 -2	103	1
38 -1 20 -1 32 -1 35 -1 -2	5	1
46 -1 43 -1 41 -1 -2	17	1
1 -1 58 -1 15 -1 48 -1 -2	6	1
49 -1 67 -1 -2	35	1
145 -1 -2	84	4
139 -1 8 -1 253 -1 26 -1 -2	1	1
58 -1 190 -1 23 -1 34 -1 -2	1	1
82 -1 17 -1 133 -1 -2	12	1
82 -1 17 -1 247 -1 -2	15	1
9 -1 11 -1 57 -1 144 -1 45 -1 -2	3	1
55 -1 87 -1 97 -1 110 -1 38 -1 -2	1	1
3 -1 310 -1 -2	8	1
10 -1 61 -1 246 -1 264 -1 -2	1	1
2 -1 38 -1 120 -1 133 -1 -2	10	1
21 -1 40 -1 266 -1 -2	6	1
120 -1 113 -1 56 -1 127 -1 71 -1 -2	1	1
38 -1 46 -1 71 -1 150 -1 67 -1 -2	1	1
4 -1 101 -1 110 -1 -2	9	1
68 -1 63 -1 54 -1 -2	4	1
47 -1 33 -1 -2	67	1
9 -1 31 -1 78 -1 39 -1 113 -1 -2	1	1
19 -1 31 -1 28 -1 25 -1 -2	4	1
107 -1 83 -1 102 -1 39 -1 253 -1 -2	1	1
25 -1 7 -1 9 -1 6 -1 20 -1 73 -1 57 -1 72 -1 -2	1	1
13 -1 95 -1 58 -1 133 -1 92 -1 -2	1	1
9 -1 33 -1 -2	198	2
34 -1 29 -1 32 -1 245 -1 -2	9	1
18 -1 11 -1 -2	154	1
63 -1 31 -1 12 -1 -2	17	1
52 -1 74 -1 27 -1 69 -1 120 -1 147 -1 71 -1 -2	1	1
28 -1 76 -1 -2	39	1
115 -1 -2	22	1
69 -1 246 -1 -2	97	1
41 -1 143 -1 -2	259	1
18 -1 74 -1 117 -1 59 -1 -2	10	1
5 -1 20 -1 253 -1 -2	103	1
267 -1 -2	3	1
59 -1 62 -1 9 -1 72 -1 177 -1 -2	1	1
7 -1 9 -1 36 -1 42 -1 143 -1 -2	4	1
63 -1 38 -1 -2	47	1
54 -1 134 -1 52 -1 -2	3	1
28 -1 23 -1 -2	133	1
15 -1 150 -1 245 -1 63 -1 -2	6	1
73 -1 44 -1 24 -1 -2	5	1
28 -1 17 -1 143 -1 -2	62	1
79 -1 58 -1 14 -1 72 -1 -2	2	1
20 -1 213 -1 253 -1 -2	7	1
29 -1 117 -1 34 -1 16 -1 38 -1 -2	1	1
33 -1 117 -1 34 -1 162 -1 260 -1 -2	1	1
71 -1 61 -1 -2	31	1
26 -1 49 -1 51 -1 44 -1 -2	2	1
13 -1 71 -1 48 -1 120 -1 132 -1 52 -1 175 -1 -2	1	1
41 -1 79 -1 19 -1 -2	15	1
14 -1 133 -1 253 -1 -2	140	1
1 -1 17 -1 65 -1 69 -1 113 -1 47 -1 -2	2	1
22 -1 53 -1 15 -1 -2	27	1
5 -1 18 -1 12 -1 133 -1 19 -1 82 -1 209 -1 -2	1	1
78 -1 14 -1 102 -1 -2	1	1
45 -1 109 -1 168 -1 -2	1	1
1 -1 83 -1 109 -1 36 -1 182 -1 -2	1	1
39 -1 133 -1 254 -1 -2	10	1
18 -1 139 -1 166 -1 -2	4	1
36 -1 4 -1 -2	99	1
78 -1 53 -1 133 -1 250 -1 263 -1 -2	1	1
17 -1 26 -1 45 -1 25 -1 179 -1 -2	2	1
2 -1 54 -1 1 -1 23 -1 55 -1 -2	2	1
6 -1 73 -1 136 -1 39 -1 32 -1 -2	1	1
17 -1 73 -1 57 -1 179 -1 252 -1 -2	1	1
135 -1 -2	77	3
5 -1 31 -1 9 -1 253 -1 -2	13	1
12 -1 40 -1 64 -1 -2	9	1
10 -1 36 -1 110 -1 54 -1 64 -1 -2	2	1
5 -1 8 -1 -2	154	1
25 -1 88 -1 53 -1 82 -1 -2	1	1
61 -1 8 -1 -2	30	1
175 -1 21 -1 -2	8	1
35 -1 34 -1 77 -1 197 -1 -2	1	1
23 -1 246 -1 248 -1 -2	22	1
18 -1 43 -1 -2	160	1
26 -1 149 -1 -2	196	1
143 -1 150 -1 -2	191	1
113 -1 143 -1 259 -1 -2	39	1
8 -1 51 -1 64 -1 -2	29	1
5 -1 18 -1 11 -1 191 -1 -2	3	1
62 -1 44 -1 -2	44	1
17 -1 2 -1 -2	94	2
8 -1 101 -1 41 -1 127 -1 91 -1 -2	1	1
36 -1 8 -1 -2	67	1
139 -1 149 -1 -2	114	1
30 -1 147 -1 170 -1 18 -1 -2	1	1
8 -1 38 -1 182 -1 -2	2	1
148 -1 147 -1 122 -1 245 -1 259 -1 -2	1	1
97 -1 253 -1 -2	48	1
41 -1 55 -1 27 -1 38 -1 195 -1 50 -1 -2	1	1
54 -1 81 -1 16 -1 34 -1 -2	1	1
6 -1 1 -1 84 -1 187 -1 -2	1	1
36 -1 25 -1 45 -1 -2	15	1
18 -1 62 -1 81 -1 -2	8	1
37 -1 52 -1 -2	67	1
78 -1 43 -1 250 -1 -2	17	1
60 -1 47 -1 29 -1 245 -1 -2	6	1
39 -1 121 -1 143 -1 84 -1 246 -1 -2	1	1
310 -1 -2	25	1
11 -1 36 -1 -2	212	1
86 -1 -2	67	3
17 -1 110 -1 -2	310	1
2 -1 5 -1 246 -1 -2	74	1
23 -1 54 -1 28 -1 78 -1 120 -1 133 -1 12 -1 151 -1 -2	1	1
80 -1 78 -1 132 -1 65 -1 219 -1 25 -1 -2	1	1
82 -1 75 -1 -2	21	1
57 -1 253 -1 -2	195	1
23 -1 119 -1 86 -1 83 -1 -2	1	1
88 -1 250 -1 50 -1 53 -1 -2	1	1
26 -1 13 -1 191 -1 -2	14	1
91 -1 149 -1 -2	10	1
24 -1 30 -1 -2	91	1
15 -1 14 -1 35 -1 -2	36	1
27 -1 26 -1 250 -1 -2	12	1
8 -1 80 -1 10 -1 25 -1 -2	4	1
17 -1 18 -1 59 -1 -2	100	1
14 -1 31 -1 144 -1 -2	71	1
64 -1 133 -1 253 -1 -2	50	1
53 -1 63 -1 173 -1 -2	2	1
8 -1 11 -1 22 -1 143 -1 21 -1 -2	13	1
97 -1 136 -1 141 -1 -2	2	1
24 -1 27 -1 82 -1 31 -1 -2	3	1
67 -1 212 -1 48 -1 -2	1	1
79 -1 41 -1 57 -1 40 -1 -2	1	1
54 -1 25 -1 -2	58	1
29 -1 23 -1 67 -1 32 -1 143 -1 -2	1	1
22 -1 62 -1 117 -1 143 -1 32 -1 -2	4	1
23 -1 46 -1 -2	101	1
18 -1 15 -1 145 -1 -2	16	1
86 -1 12 -1 18 -1 58 -1 26 -1 250 -1 51 -1 -2	1	1
143 -1 262 -1 59 -1 -2	5	1
35 -1 62 -1 -2	91	1
45 -1 76 -1 141 -1 -2	8	1
19 -1 20 -1 -2	134	1
58 -1 55 -1 -2	51	1
53 -1 55 -1 247 -1 -2	11	1
11 -1 40 -1 143 -1 50 -1 -2	11	1
42 -1 57 -1 195 -1 -2	7	1
66 -1 26 -1 55 -1 -2	12	1
33 -1 119 -1 4 -1 -2	3	1
9 -1 253 -1 28 -1 32 -1 -2	3	1
36 -1 97 -1 195 -1 197 -1 105 -1 -2	1	1
30 -1 62 -1 21 -1 -2	10	1
51 -1 58 -1 -2	44	1
14 -1 82 -1 113 -1 -2	10	1
8 -1 13 -1 138 -1 83 -1 147 -1 104 -1 -2	1	1
53 -1 41 -1 45 -1 19 -1 -2	4	1
99 -1 110 -1 31 -1 94 -1 52 -1 -2	1	1
35 -1 48 -1 21 -1 145 -1 -2	3	1
100 -1 10 -1 -2	6	1
70 -1 22 -1 28 -1 31 -1 48 -1 -2	1	1
4 -1 51 -1 10 -1 40 -1 180 -1 -2	1	1
8 -1 72 -1 44 -1 110 -1 246 -1 -2	9	1
36 -1 139 -1 143 -1 146 -1 49 -1 262 -1 -2	3	1
133 -1 40 -1 -2	47	1
97 -1 54 -1 113 -1 -2	4	1
9 -1 74 -1 39 -1 57 -1 -2	3	1
68 -1 36 -1 -2	64	1
76 -1 133 -1 32 -1 284 -1 310 -1 -2	1	1
4 -1 27 -1 -2	174	1
22 -1 26 -1 -2	292	2
3 -1 245 -1 -2	161	1
19 -1 255 -1 -2	110	1
65 -1 40 -1 59 -1 53 -1 -2	1	1
52 -1 118 -1 132 -1 -2	47	1
113 -1 163 -1 180 -1 -2	2	1
9 -1 48 -1 38 -1 39 -1 40 -1 210 -1 -2	1	1
32 -1 26 -1 253 -1 -2	86	1
26 -1 145 -1 -2	54	1
67 -1 69 -1 15 -1 22 -1 45 -1 209 -1 247 -1 -2	1	1
39 -1 143 -1 -2	203	2
84 -1 26 -1 82 -1 34 -1 67 -1 309 -1 -2	1	1
48 -1 8 -1 56 -1 -2	6	1
76 -1 25 -1 -2	41	1
2 -1 20 -1 47 -1 -2	40	1
31 -1 181 -1 -2	12	1
13 -1 153 -1 -2	20	1
89 -1 55 -1 -2	14	1
17 -1 114 -1 281 -1 -2	5	1
1 -1 79 -1 -2	250	2
79 -1 198 -1 -2	28	1
124 -1 78 -1 170 -1 91 -1 -2	1	1
84 -1 79 -1 187 -1 37 -1 247 -1 261 -1 -2	1	1
39 -1 118 -1 125 -1 248 -1 -2	2	1
90 -1 15 -1 82 -1 45 -1 -2	1	1
53 -1 84 -1 170 -1 141 -1 150 -1 -2	1	1
57 -1 195 -1 54 -1 -2	3	1
37 -1 113 -1 -2	89	1
117 -1 49 -1 -2	92	2
117 -1 4 -1 33 -1 -2	16	1
3 -1 31 -1 63 -1 -2	10	1
11 -1 96 -1 14 -1 23 -1 1 -1 76 -1 -2	1	1
77 -1 256 -1 -2	12	1
56 -1 35 -1 28 -1 12 -1 114 -1 60 -1 3 -1 -2	1	1
35 -1 37 -1 28 -1 114 -1 255 -1 -2	1	1
2 -1 9 -1 61 -1 37 -1 -2	11	1
61 -1 245 -1 -2	130	1
2 -1 18 -1 92 -1 -2	12	1
136 -1 -2	104	4
14 -1 21 -1 51 -1 -2	17	1
28 -1 79 -1 76 -1 48 -1 -2	3	1
55 -1 20 -1 -2	64	1
56 -1 54 -1 -2	56	1
36 -1 19 -1 137 -1 144 -1 -2	2	1
6 -1 117 -1 54 -1 66 -1 -2	2	1
91 -1 70 -1 -2	9	1
7 -1 1 -1 55 -1 -2	6	1
35 -1 40 -1 -2	159	1
40 -1 253 -1 -2	251	2
13 -1 53 -1 11 -1 -2	35	1
118 -1 139 -1 17 -1 20 -1 39 -1 -2	1	1
50 -1 82 -1 70 -1 254 -1 16 -1 -2	1	1
117 -1 143 -1 252 -1 -2	49	1
36 -1 32 -1 -2	157	2
95 -1 41 -1 135 -1 55 -1 -2	1	1
1 -1 13 -1 62 -1 -2	54	1
86 -1 145 -1 -2	5	1
4 -1 9 -1 117 -1 179 -1 -2	15	1
5 -1 3 -1 56 -1 121 -1 -2	1	1
22 -1 14 -1 -2	119	2
129 -1 24 -1 176 -1 245 -1 81 -1 -2	1	1
76 -1 20 -1 24 -1 37 -1 59 -1 33 -1 73 -1 -2	1	1
8 -1 18 -1 103 -1 31 -1 -2	6	1
32 -1 79 -1 23 -1 -2	18	1
68 -1 63 -1 -2	37	1
27 -1 8 -1 144 -1 -2	41	1
51 -1 56 -1 40 -1 36 -1 42 -1 -2	1	1
85 -1 133 -1 137 -1 14 -1 296 -1 -2	1	1
2 -1 17 -1 30 -1 -2	88	1
11 -1 18 -1 25 -1 147 -1 -2	4	1
12 -1 20 -1 56 -1 38 -1 14 -1 -2	1	1
8 -1 25 -1 139 -1 -2	62	1
69 -1 78 -1 54 -1 -2	10	1
58 -1 22 -1 46 -1 110 -1 45 -1 254 -1 -2	1	1
4 -1 33 -1 59 -1 -2	13	1
67 -1 174 -1 -2	8	1
32 -1 83 -1 35 -1 15 -1 67 -1 -2	1	1
42 -1 33 -1 -2	60	1
35 -1 25 -1 9 -1 58 -1 55 -1 -2	1	1
68 -1 57 -1 195 -1 -2	3	1
75 -1 36 -1 245 -1 67 -1 -2	4	1
9 -1 17 -1 71 -1 145 -1 -2	4	1
46 -1 79 -1 118 -1 76 -1 -2	3	1
16 -1 60 -1 27 -1 133 -1 44 -1 -2	1	1
67 -1 31 -1 14 -1 199 -1 245 -1 -2	1	1
4 -1 33 -1 133 -1 13 -1 -2	3	1
53 -1 30 -1 60 -1 78 -1 139 -1 66 -1 -2	1	1
63 -1 120 -1 144 -1 31 -1 56 -1 -2	1	1
36 -1 40 -1 28 -1 209 -1 -2	5	1
9 -1 79 -1 84 -1 65 -1 7 -1 150 -1 -2	2	1
1 -1 20 -1 59 -1 -2	51	1
78 -1 20 -1 58 -1 57 -1 -2	1	1
6 -1 12 -1 -2	71	1
26 -1 35 -1 117 -1 -2	271	1
8 -1 108 -1 105 -1 103 -1 247 -1 -2	1	1
18 -1 52 -1 47 -1 119 -1 245 -1 -2	2	1
22 -1 253 -1 -2	414	1
62 -1 37 -1 143 -1 146 -1 -2	5	1
175 -1 245 -1 58 -1 -2	2	1
53 -1 17 -1 93 -1 132 -1 139 -1 75 -1 -2	2	1
45 -1 24 -1 -2	74	1
10 -1 51 -1 109 -1 -2	8	1
83 -1 95 -1 113 -1 133 -1 32 -1 -2	1	1
4 -1 143 -1 -2	292	2
81 -1 125 -1 156 -1 25 -1 113 -1 58 -1 76 -1 -2	1	1
79 -1 108 -1 -2	43	1
78 -1 113 -1 143 -1 -2	165	1
9 -1 149 -1 -2	211	1
78 -1 54 -1 246 -1 -2	20	1
90 -1 -2	56	1
26 -1 110 -1 245 -1 -2	237	1
71 -1 110 -1 134 -1 -2	6	1
1 -1 69 -1 41 -1 44 -1 144 -1 258 -1 -2	1	1
24 -1 86 -1 246 -1 55 -1 -2	1	1
149 -1 34 -1 -2	38	2
42 -1 78 -1 -2	87	1
82 -1 247 -1 -2	39	1
51 -1 57 -1 99 -1 53 -1 -2	1	1
84 -1 113 -1 144 -1 -2	17	1
40 -1 22 -1 110 -1 41 -1 39 -1 -2	2	1
10 -1 86 -1 246 -1 -2	18	1
37 -1 26 -1 113 -1 -2	38	1
144 -1 23 -1 47 -1 -2	4	1
9 -1 100 -1 99 -1 70 -1 131 -1 132 -1 -2	1	1
20 -1 44 -1 4 -1 81 -1 21 -1 253 -1 -2	1	1
55 -1 84 -1 31 -1 73 -1 33 -1 79 -1 75 -1 -2	1	1
13 -1 31 -1 39 -1 253 -1 -2	40	1
117 -1 39 -1 30 -1 -2	9	1
23 -1 96 -1 57 -1 -2	2	1
55 -1 79 -1 -2	55	1
1 -1 15 -1 83 -1 22 -1 12 -1 65 -1 46 -1 -2	1	1
29 -1 24 -1 251 -1 71 -1 -2	1	1
13 -1 26 -1 65 -1 114 -1 139 -1 143 -1 69 -1 150 -1 72 -1 -2	1	1
96 -1 56 -1 -2	12	1
9 -1 96 -1 -2	21	1
6 -1 35 -1 146 -1 -2	21	1
1 -1 108 -1 -2	67	1
25 -1 26 -1 28 -1 29 -1 78 -1 40 -1 179 -1 -2	1	1
11 -1 47 -1 37 -1 -2	20	1
11 -1 19 -1 -2	159	1
36 -1 26 -1 10 -1 -2	17	1
40 -1 48 -1 101 -1 49 -1 133 -1 -2	1	1
136 -1 49 -1 -2	13	1
65 -1 246 -1 271 -1 43 -1 -2	1	1
21 -1 20 -1 -2	68	1
143 -1 149 -1 -2	246	2
80 -1 17 -1 7 -1 -2	5	1
4 -1 36 -1 48 -1 -2	47	1
17 -1 18 -1 104 -1 35 -1 60 -1 6 -1 -2	1	1
35 -1 40 -1 56 -1 -2	16	1
51 -1 105 -1 95 -1 153 -1 59 -1 -2	1	1
36 -1 41 -1 -2	178	2
1 -1 4 -1 32 -1 250 -1 43 -1 -2	3	1
38 -1 96 -1 119 -1 16 -1 97 -1 139 -1 144 -1 49 -1 85 -1 -2	1	1
34 -1 32 -1 -2	91	2
15 -1 147 -1 -2	41	1
7 -1 50 -1 -2	63	1
53 -1 1 -1 199 -1 19 -1 -2	1	1
17 -1 36 -1 -2	373	1
17 -1 55 -1 8 -1 1 -1 132 -1 50 -1 4 -1 184 -1 253 -1 30 -1 -2	1	1
53 -1 23 -1 259 -1 -2	12	1
10 -1 35 -1 77 -1 52 -1 -2	3	1
12 -1 18 -1 26 -1 -2	57	1
10 -1 179 -1 -2	48	1
60 -1 14 -1 32 -1 -2	10	1
29 -1 44 -1 16 -1 -2	12	1
60 -1 35 -1 48 -1 2 -1 15 -1 203 -1 -2	1	1
43 -1 90 -1 261 -1 -2	2	1
83 -1 11 -1 100 -1 147 -1 71 -1 81 -1 286 -1 -2	1	1
16 -1 56 -1 255 -1 -2	22	1
32 -1 90 -1 85 -1 59 -1 -2	1	1
53 -1 33 -1 35 -1 253 -1 -2	11	1
144 -1 149 -1 -2	147	1
69 -1 55 -1 19 -1 -2	10	1
53 -1 117 -1 -2	198	2
19 -1 117 -1 33 -1 -2	44	1
50 -1 11 -1 35 -1 49 -1 144 -1 190 -1 94 -1 245 -1 -2	1	1
111 -1 252 -1 -2	8	1
5 -1 17 -1 35 -1 4 -1 -2	16	1
14 -1 143 -1 4 -1 -2	28	1
18 -1 54 -1 35 -1 -2	33	1
80 -1 149 -1 46 -1 15 -1 42 -1 -2	1	1
73 -1 -2	189	7
66 -1 78 -1 84 -1 79 -1 25 -1 191 -1 -2	1	1
5 -1 13 -1 163 -1 245 -1 59 -1 50 -1 -2	1	1
70 -1 112 -1 143 -1 144 -1 -2	2	1
12 -1 45 -1 253 -1 -2	73	1
6 -1 5 -1 24 -1 22 -1 15 -1 51 -1 -2	1	1
17 -1 76 -1 -2	93	1
36 -1 53 -1 23 -1 -2	37	1
38 -1 53 -1 28 -1 118 -1 63 -1 139 -1 179 -1 -2	1	1
15 -1 41 -1 -2	116	1
33 -1 144 -1 -2	129	1
19 -1 26 -1 16 -1 -2	58	1
16 -1 27 -1 114 -1 21 -1 37 -1 18 -1 -2	1	1
8 -1 24 -1 30 -1 78 -1 -2	13	1
10 -1 144 -1 255 -1 -2	65	1
67 -1 33 -1 61 -1 -2	7	1
10 -1 59 -1 -2	116	1
24 -1 26 -1 35 -1 246 -1 -2	50	1
29 -1 245 -1 -2	219	1
117 -1 118 -1 143 -1 -2	351	1
10 -1 12 -1 71 -1 -2	17	1
53 -1 51 -1 -2	68	1
25 -1 84 -1 65 -1 -2	3	1
83 -1 17 -1 78 -1 65 -1 6 -1 245 -1 -2	1	1
30 -1 108 -1 24 -1 -2	4	1
87 -1 -2	51	5
26 -1 24 -1 117 -1 28 -1 246 -1 -2	4	1
21 -1 143 -1 180 -1 -2	18	1
24 -1 309 -1 -2	20	1
87 -1 22 -1 26 -1 68 -1 -2	4	1
17 -1 31 -1 149 -1 -2	97	1
8 -1 17 -1 18 -1 61 -1 258 -1 -2	4	1
1 -1 8 -1 59 -1 153 -1 -2	7	1
15 -1 110 -1 253 -1 -2	120	1
8 -1 35 -1 133 -1 250 -1 253 -1 24 -1 -2	6	1
52 -1 164 -1 -2	7	1
1 -1 13 -1 15 -1 55 -1 20 -1 47 -1 -2	2	1
82 -1 40 -1 6 -1 56 -1 16 -1 179 -1 71 -1 -2	1	1
70 -1 20 -1 -2	39	1
127 -1 58 -1 271 -1 -2	1	1
74 -1 72 -1 248 -1 -2	7	1
117 -1 110 -1 63 -1 -2	3	1
18 -1 145 -1 -2	68	1
13 -1 82 -1 6 -1 -2	11	1
111 -1 31 -1 7 -1 20 -1 68 -1 -2	1	1
2 -1 93 -1 46 -1 113 -1 72 -1 -2	1	1
16 -1 63 -1 57 -1 164 -1 29 -1 -2	1	1
19 -1 1 -1 -2	85	1
32 -1 17 -1 71 -1 120 -1 72 -1 -2	1	1
26 -1 22 -1 -2	129	2
1 -1 44 -1 -2	229	1
24 -1 85 -1 281 -1 -2	1	1
13 -1 86 -1 118 -1 60 -1 -2	2	1
89 -1 63 -1 74 -1 117 -1 -2	1	1
35 -1 45 -1 69 -1 -2	16	1
36 -1 35 -1 144 -1 -2	55	1
10 -1 35 -1 22 -1 197 -1 198 -1 -2	1	1
27 -1 10 -1 -2	117	1
8 -1 9 -1 10 -1 35 -1 150 -1 195 -1 -2	19	1
52 -1 117 -1 149 -1 -2	52	1
45 -1 47 -1 246 -1 -2	39	1
11 -1 23 -1 65 -1 -2	21	1
26 -1 117 -1 133 -1 54 -1 16 -1 -2	5	1
25 -1 43 -1 -2	70	1
9 -1 34 -1 11 -1 35 -1 77 -1 69 -1 -2	1	1
1 -1 4 -1 190 -1 -2	20	1
26 -1 55 -1 262 -1 -2	15	1
8 -1 42 -1 -2	225	1
101 -1 60 -1 253 -1 -2	8	1
9 -1 41 -1 30 -1 70 -1 120 -1 21 -1 73 -1 -2	1	1
103 -1 245 -1 -2	20	1
17 -1 3 -1 37 -1 -2	28	1
17 -1 55 -1 46 -1 -2	19	1
10 -1 80 -1 53 -1 43 -1 -2	3	1
256 -1 30 -1 -2	6	1
163 -1 -2	27	2
78 -1 69 -1 149 -1 33 -1 -2	2	1
16 -1 53 -1 70 -1 56 -1 144 -1 -2	1	1
7 -1 15 -1 -2	72	1
23 -1 7 -1 67 -1 -2	9	1
19 -1 149 -1 -2	116	1
14 -1 132 -1 54 -1 70 -1 252 -1 -2	1	1
8 -1 19 -1 189 -1 -2	32	1
8 -1 26 -1 10 -1 173 -1 -2	3	1
21 -1 27 -1 79 -1 209 -1 247 -1 -2	2	1
50 -1 72 -1 -2	34	1
17 -1 23 -1 41 -1 12 -1 -2	11	1
41 -1 59 -1 38 -1 143 -1 6 -1 37 -1 272 -1 -2	1	1
30 -1 179 -1 -2	28	1
120 -1 146 -1 64 -1 -2	4	1
24 -1 98 -1 82 -1 86 -1 73 -1 -2	1	1
36 -1 46 -1 21 -1 191 -1 -2	5	1
30 -1 60 -1 58 -1 48 -1 52 -1 -2	1	1
21 -1 1 -1 190 -1 -2	4	1
17 -1 27 -1 78 -1 -2	114	1
53 -1 67 -1 -2	50	1
143 -1 65 -1 7 -1 -2	4	1
9 -1 21 -1 58 -1 49 -1 -2	6	1
50 -1 252 -1 -2	27	1
10 -1 58 -1 139 -1 143 -1 245 -1 -2	32	1
2 -1 38 -1 13 -1 16 -1 32 -1 134 -1 66 -1 -2	1	1
31 -1 11 -1 143 -1 199 -1 247 -1 -2	2	1
59 -1 39 -1 20 -1 23 -1 30 -1 45 -1 143 -1 -2	1	1
41 -1 15 -1 20 -1 -2	18	1
63 -1 79 -1 47 -1 143 -1 250 -1 50 -1 -2	1	1
1 -1 130 -1 40 -1 -2	1	1
75 -1 245 -1 -2	83	1
118 -1 139 -1 -2	263	1
81 -1 34 -1 84 -1 -2	5	1
75 -1 117 -1 143 -1 -2	67	1
19 -1 27 -1 29 -1 48 -1 60 -1 23 -1 119 -1 -2	1	1
139 -1 245 -1 -2	265	2
1 -1 58 -1 15 -1 18 -1 -2	8	1
113 -1 60 -1 62 -1 133 -1 81 -1 -2	1	1
66 -1 14 -1 -2	36	1
29 -1 38 -1 41 -1 -2	13	1
99 -1 78 -1 62 -1 57 -1 55 -1 -2	1	1
9 -1 19 -1 53 -1 36 -1 50 -1 -2	5	1
13 -1 197 -1 -2	34	1
61 -1 32 -1 22 -1 41 -1 146 -1 -2	1	1
8 -1 26 -1 60 -1 -2	84	1
5 -1 32 -1 50 -1 18 -1 63 -1 -2	1	1
35 -1 133 -1 147 -1 161 -1 -2	2	1
18 -1 37 -1 250 -1 253 -1 -2	27	1
8 -1 137 -1 257 -1 -2	3	1
20 -1 63 -1 132 -1 245 -1 -2	9	1
4 -1 30 -1 123 -1 21 -1 210 -1 -2	1	1
11 -1 37 -1 47 -1 -2	26	1
64 -1 143 -1 68 -1 9 -1 -2	1	1
80 -1 18 -1 79 -1 -2	5	1
14 -1 43 -1 -2	130	1
9 -1 59 -1 260 -1 -2	7	1
22 -1 36 -1 13 -1 -2	32	1
18 -1 53 -1 120 -1 146 -1 168 -1 24 -1 -2	1	1
16 -1 70 -1 112 -1 65 -1 41 -1 99 -1 63 -1 -2	1	1
11 -1 110 -1 109 -1 88 -1 -2	1	1
46 -1 22 -1 40 -1 163 -1 245 -1 252 -1 253 -1 -2	1	1
26 -1 9 -1 -2	96	1
14 -1 175 -1 13 -1 -2	1	1
17 -1 38 -1 -2	242	1
31 -1 8 -1 28 -1 7 -1 -2	2	1
23 -1 132 -1 2 -1 -2	10	1
37 -1 139 -1 -2	122	1
1 -1 20 -1 -2	292	2
34 -1 42 -1 205 -1 245 -1 -2	1	1
77 -1 246 -1 -2	51	1
22 -1 110 -1 62 -1 246 -1 -2	12	1
184 -1 -2	48	1
27 -1 75 -1 35 -1 12 -1 21 -1 195 -1 253 -1 -2	1	1
22 -1 6 -1 7 -1 -2	30	1
2 -1 46 -1 27 -1 28 -1 21 -1 -2	1	1
31 -1 46 -1 53 -1 -2	15	1
13 -1 35 -1 -2	267	1
43 -1 79 -1 -2	51	1
48 -1 118 -1 26 -1 -2	10	1
5 -1 79 -1 248 -1 -2	8	1
86 -1 96 -1 13 -1 53 -1 85 -1 184 -1 -2	1	1
5 -1 1 -1 22 -1 69 -1 -2	15	1
18 -1 195 -1 -2	115	1
33 -1 53 -1 -2	64	1
74 -1 246 -1 -2	113	1
82 -1 7 -1 120 -1 191 -1 -2	2	1
29 -1 253 -1 -2	291	2
1 -1 27 -1 133 -1 281 -1 -2	1	1
14 -1 35 -1 12 -1 -2	64	1
117 -1 245 -1 247 -1 -2	123	1
30 -1 149 -1 -2	112	2
20 -1 35 -1 -2	204	2
39 -1 47 -1 149 -1 -2	22	1
41 -1 120 -1 139 -1 266 -1 -2	3	1
23 -1 43 -1 57 -1 -2	11	1
24 -1 51 -1 -2	64	1
132 -1 31 -1 -2	59	1
5 -1 1 -1 -2	131	1
101 -1 186 -1 189 -1 254 -1 -2	1	1
67 -1 86 -1 54 -1 82 -1 117 -1 118 -1 144 -1 180 -1 227 -1 -2	1	1
121 -1 190 -1 -2	8	1
9 -1 32 -1 35 -1 34 -1 38 -1 143 -1 -2	1	1
35 -1 117 -1 123 -1 20 -1 -2	5	1
2 -1 245 -1 116 -1 -2	3	1
75 -1 117 -1 257 -1 -2	3	1
79 -1 66 -1 171 -1 253 -1 -2	1	1
50 -1 257 -1 -2	23	1
53 -1 38 -1 -2	88	1
13 -1 24 -1 26 -1 114 -1 143 -1 -2	6	1
45 -1 46 -1 7 -1 -2	19	1
61 -1 20 -1 45 -1 110 -1 117 -1 -2	2	1
1 -1 49 -1 147 -1 -2	14	1
11 -1 23 -1 -2	194	2
8 -1 62 -1 35 -1 69 -1 254 -1 -2	2	1
8 -1 16 -1 26 -1 31 -1 144 -1 195 -1 -2	2	1
63 -1 110 -1 47 -1 150 -1 23 -1 -2	2	1
23 -1 24 -1 36 -1 13 -1 143 -1 68 -1 -2	1	1
13 -1 118 -1 144 -1 55 -1 173 -1 30 -1 -2	1	1
46 -1 122 -1 -2	7	1
12 -1 49 -1 81 -1 253 -1 -2	5	1
60 -1 74 -1 48 -1 -2	5	1
15 -1 70 -1 10 -1 -2	8	1
113 -1 143 -1 245 -1 -2	208	1
62 -1 43 -1 -2	45	1
4 -1 22 -1 26 -1 54 -1 -2	29	1
117 -1 144 -1 23 -1 -2	46	1
8 -1 48 -1 34 -1 179 -1 -2	5	1
24 -1 35 -1 79 -1 -2	57	1
11 -1 125 -1 68 -1 58 -1 106 -1 -2	1	1
40 -1 35 -1 136 -1 -2	13	1
9 -1 20 -1 44 -1 171 -1 -2	3	1
31 -1 117 -1 89 -1 -2	7	1
8 -1 121 -1 139 -1 53 -1 32 -1 41 -1 -2	1	1
46 -1 310 -1 -2	14	1
9 -1 37 -1 -2	217	2
78 -1 54 -1 39 -1 -2	9	1
4 -1 81 -1 84 -1 149 -1 -2	5	1
253 -1 270 -1 -2	1	1
28 -1 51 -1 71 -1 253 -1 -2	7	1
54 -1 62 -1 -2	36	1
117 -1 69 -1 120 -1 46 -1 -2	1	1
18 -1 117 -1 28 -1 -2	48	1
1 -1 65 -1 54 -1 -2	33	1
33 -1 191 -1 59 -1 -2	3	1
22 -1 36 -1 44 -1 -2	49	1
8 -1 34 -1 46 -1 51 -1 32 -1 4 -1 -2	1	1
17 -1 86 -1 -2	50	1
29 -1 21 -1 28 -1 145 -1 262 -1 -2	1	1
9 -1 83 -1 10 -1 56 -1 84 -1 171 -1 -2	1	1
21 -1 135 -1 -2	16	1
110 -1 168 -1 167 -1 79 -1 92 -1 94 -1 29 -1 -2	1	1
2 -1 59 -1 79 -1 139 -1 246 -1 -2	8	1
58 -1 55 -1 245 -1 252 -1 -2	4	1
44 -1 55 -1 179 -1 -2	4	1
2 -1 5 -1 26 -1 132 -1 -2	15	1
8 -1 42 -1 117 -1 27 -1 13 -1 -2	2	1
61 -1 187 -1 -2	12	1
31 -1 51 -1 79 -1 253 -1 -2	18	1
72 -1 139 -1 -2	64	1
75 -1 30 -1 -2	35	1
31 -1 114 -1 132 -1 253 -1 -2	23	1
27 -1 45 -1 -2	152	1
51 -1 123 -1 144 -1 247 -1 259 -1 -2	1	1
175 -1 -2	17	2
68 -1 75 -1 -2	20	1
50 -1 21 -1 -2	61	1
14 -1 39 -1 132 -1 -2	30	1
5 -1 10 -1 246 -1 55 -1 -2	4	1
44 -1 40 -1 11 -1 -2	14	1
24 -1 36 -1 -2	126	1
11 -1 9 -1 -2	72	1
1 -1 62 -1 30 -1 -2	38	1
143 -1 247 -1 -2	185	1
2 -1 9 -1 36 -1 117 -1 195 -1 253 -1 -2	12	1
33 -1 12 -1 9 -1 46 -1 245 -1 247 -1 47 -1 -2	1	1
2 -1 38 -1 173 -1 246 -1 -2	2	1
68 -1 103 -1 246 -1 -2	2	1
40 -1 68 -1 53 -1 -2	4	1
31 -1 7 -1 -2	131	1
35 -1 33 -1 141 -1 71 -1 -2	1	1
13 -1 28 -1 111 -1 -2	7	1
120 -1 144 -1 53 -1 -2	12	1
26 -1 57 -1 113 -1 20 -1 246 -1 255 -1 -2	1	1
38 -1 9 -1 -2	58	1
138 -1 149 -1 245 -1 -2	3	1
133 -1 39 -1 245 -1 -2	14	1
41 -1 8 -1 40 -1 -2	13	1
46 -1 37 -1 45 -1 139 -1 203 -1 -2	1	1
52 -1 6 -1 -2	53	1
60 -1 90 -1 172 -1 102 -1 -2	1	1
165 -1 -2	21	2
9 -1 52 -1 34 -1 -2	47	1
53 -1 30 -1 15 -1 -2	8	1
2 -1 18 -1 46 -1 245 -1 -2	36	1
38 -1 12 -1 24 -1 54 -1 110 -1 133 -1 55 -1 253 -1 -2	1	1
13 -1 42 -1 -2	143	2
13 -1 59 -1 22 -1 52 -1 -2	3	1
117 -1 45 -1 -2	103	1
18 -1 17 -1 1 -1 56 -1 -2	9	1
83 -1 247 -1 252 -1 -2	4	1
4 -1 9 -1 70 -1 150 -1 198 -1 -2	4	1
78 -1 79 -1 115 -1 -2	4	1
11 -1 41 -1 27 -1 51 -1 247 -1 -2	2	1
10 -1 9 -1 17 -1 -2	31	1
51 -1 67 -1 62 -1 81 -1 79 -1 102 -1 -2	1	1
15 -1 118 -1 246 -1 -2	97	1
14 -1 17 -1 35 -1 41 -1 113 -1 143 -1 256 -1 -2	1	1
9 -1 45 -1 13 -1 246 -1 253 -1 -2	15	1
66 -1 1 -1 3 -1 -2	6	1
48 -1 26 -1 68 -1 133 -1 30 -1 -2	1	1
55 -1 7 -1 56 -1 -2	11	1
28 -1 171 -1 -2	11	1
49 -1 245 -1 33 -1 19 -1 -2	1	1
17 -1 92 -1 -2	36	1
47 -1 51 -1 -2	66	1
17 -1 12 -1 19 -1 -2	42	1
48 -1 58 -1 139 -1 -2	16	1
26 -1 9 -1 118 -1 -2	35	1
16 -1 74 -1 107 -1 79 -1 143 -1 -2	1	1
4 -1 22 -1 -2	171	1
108 -1 139 -1 143 -1 -2	46	1
45 -1 69 -1 144 -1 247 -1 -2	9	1
35 -1 17 -1 114 -1 139 -1 149 -1 31 -1 -2	1	1
67 -1 20 -1 99 -1 -2	2	1
31 -1 143 -1 -2	288	1
45 -1 33 -1 39 -1 -2	12	1
29 -1 34 -1 250 -1 -2	16	1
9 -1 21 -1 -2	211	2
45 -1 117 -1 101 -1 255 -1 -2	1	1
36 -1 121 -1 139 -1 261 -1 -2	1	1
7 -1 137 -1 172 -1 -2	1	1
103 -1 41 -1 -2	8	1
7 -1 52 -1 210 -1 245 -1 -2	3	1
55 -1 139 -1 245 -1 -2	72	1
12 -1 58 -1 39 -1 -2	18	1
55 -1 118 -1 -2	102	1
112 -1 185 -1 248 -1 -2	1	1
8 -1 26 -1 -2	458	1
98 -1 144 -1 -2	21	1
40 -1 125 -1 17 -1 133 -1 99 -1 -2	1	1
50 -1 150 -1 44 -1 253 -1 -2	3	1
15 -1 47 -1 59 -1 280 -1 45 -1 56 -1 -2	1	1
151 -1 -2	16	2
57 -1 133 -1 29 -1 -2	11	1
43 -1 20 -1 -2	57	1
89 -1 82 -1 39 -1 85 -1 255 -1 -2	1	1
77 -1 66 -1 13 -1 10 -1 110 -1 -2	1	1
98 -1 -2	38	3
1 -1 138 -1 19 -1 31 -1 144 -1 150 -1 -2	1	1
36 -1 118 -1 27 -1 -2	25	1
1 -1 51 -1 -2	197	2
44 -1 79 -1 -2	91	1
12 -1 43 -1 114 -1 49 -1 5 -1 190 -1 -2	1	1
2 -1 9 -1 56 -1 44 -1 53 -1 120 -1 210 -1 -2	1	1
20 -1 135 -1 64 -1 -2	4	1
18 -1 143 -1 209 -1 -2	54	1
78 -1 144 -1 209 -1 245 -1 27 -1 -2	1	1
40 -1 42 -1 99 -1 59 -1 -2	1	1
154 -1 22 -1 83 -1 -2	1	1
74 -1 82 -1 -2	15	1
18 -1 35 -1 -2	327	1
34 -1 110 -1 71 -1 85 -1 91 -1 -2	1	1
8 -1 17 -1 26 -1 38 -1 21 -1 -2	23	1
13 -1 72 -1 104 -1 117 -1 146 -1 -2	1	1
133 -1 44 -1 -2	35	1
42 -1 60 -1 47 -1 -2	9	1
17 -1 20 -1 11 -1 135 -1 -2	6	1
59 -1 22 -1 48 -1 139 -1 15 -1 -2	1	1
4 -1 8 -1 26 -1 110 -1 -2	78	1
69 -1 26 -1 79 -1 32 -1 247 -1 -2	1	1
30 -1 48 -1 136 -1 57 -1 -2	2	1
110 -1 19 -1 73 -1 33 -1 -2	1	1
45 -1 15 -1 23 -1 31 -1 -2	6	1
7 -1 70 -1 -2	35	1
133 -1 6 -1 143 -1 -2	9	1
68 -1 146 -1 166 -1 -2	2	1
1 -1 76 -1 24 -1 153 -1 73 -1 191 -1 134 -1 266 -1 -2	1	1
132 -1 280 -1 309 -1 -2	6	1
75 -1 135 -1 -2	14	1
18 -1 69 -1 -2	115	1
23 -1 61 -1 84 -1 51 -1 52 -1 -2	1	1
14 -1 32 -1 -2	139	2
47 -1 253 -1 -2	253	1
4 -1 16 -1 -2	137	1
110 -1 130 -1 118 -1 245 -1 254 -1 -2	1	1
62 -1 22 -1 103 -1 143 -1 254 -1 -2	1	1
32 -1 6 -1 -2	76	1
51 -1 1 -1 54 -1 53 -1 -2	3	1
20 -1 118 -1 253 -1 -2	168	1
72 -1 26 -1 -2	48	1
29 -1 35 -1 113 -1 -2	66	1
70 -1 27 -1 22 -1 45 -1 -2	2	1
15 -1 37 -1 74 -1 134 -1 4 -1 247 -1 -2	1	1
26 -1 30 -1 -2	201	1
2 -1 32 -1 33 -1 91 -1 -2	1	1
14 -1 30 -1 78 -1 53 -1 12 -1 -2	2	1
46 -1 147 -1 -2	30	1
36 -1 52 -1 -2	115	2
74 -1 27 -1 69 -1 107 -1 117 -1 -2	1	1
22 -1 37 -1 -2	123	1
3 -1 69 -1 113 -1 -2	13	1
7 -1 149 -1 -2	105	1
20 -1 210 -1 -2	17	1
55 -1 19 -1 42 -1 65 -1 -2	1	1
69 -1 79 -1 23 -1 27 -1 56 -1 93 -1 133 -1 245 -1 246 -1 260 -1 -2	1	1
8 -1 9 -1 100 -1 26 -1 -2	5	1
41 -1 61 -1 133 -1 245 -1 -2	4	1
35 -1 92 -1 43 -1 -2	5	1
10 -1 61 -1 119 -1 245 -1 -2	6	1
86 -1 118 -1 -2	26	1
1 -1 27 -1 -2	395	2
16 -1 1 -1 255 -1 -2	15	1
110 -1 139 -1 -2	303	1
42 -1 20 -1 37 -1 179 -1 253 -1 22 -1 -2	1	1
32 -1 51 -1 -2	70	1
84 -1 53 -1 -2	20	1
30 -1 39 -1 -2	88	1
103 -1 245 -1 52 -1 -2	3	1
34 -1 10 -1 17 -1 72 -1 -2	3	1
53 -1 36 -1 33 -1 81 -1 28 -1 189 -1 253 -1 -2	1	1
16 -1 49 -1 93 -1 7 -1 -2	2	1
77 -1 117 -1 44 -1 245 -1 250 -1 22 -1 -2	1	1
133 -1 245 -1 -2	237	2
2 -1 14 -1 71 -1 25 -1 -2	3	1
7 -1 18 -1 36 -1 39 -1 139 -1 -2	1	1
62 -1 309 -1 -2	5	1
27 -1 33 -1 -2	164	1
74 -1 245 -1 -2	134	1
50 -1 92 -1 65 -1 45 -1 11 -1 64 -1 261 -1 -2	1	1
25 -1 246 -1 250 -1 40 -1 -2	2	1
60 -1 36 -1 118 -1 -2	40	1
132 -1 309 -1 -2	26	1
29 -1 149 -1 245 -1 -2	67	1
13 -1 27 -1 75 -1 10 -1 73 -1 119 -1 -2	1	1
128 -1 13 -1 94 -1 95 -1 116 -1 7 -1 -2	1	1
20 -1 146 -1 4 -1 -2	7	1
141 -1 143 -1 40 -1 -2	17	1
189 -1 -2	83	3
22 -1 49 -1 44 -1 245 -1 -2	13	1
9 -1 78 -1 53 -1 6 -1 254 -1 23 -1 -2	1	1
35 -1 245 -1 -2	407	2
49 -1 139 -1 23 -1 -2	17	1
4 -1 14 -1 16 -1 53 -1 -2	3	1
22 -1 3 -1 247 -1 -2	26	1
26 -1 81 -1 25 -1 -2	13	1
78 -1 82 -1 141 -1 100 -1 -2	1	1
98 -1 69 -1 -2	8	1
47 -1 54 -1 31 -1 113 -1 -2	2	1
19 -1 31 -1 97 -1 16 -1 -2	3	1
31 -1 54 -1 -2	76	1
19 -1 43 -1 134 -1 258 -1 -2	1	1
17 -1 46 -1 136 -1 252 -1 -2	8	1
28 -1 253 -1 -2	368	2
19 -1 76 -1 245 -1 -2	32	1
75 -1 72 -1 43 -1 133 -1 47 -1 -2	1	1
22 -1 60 -1 252 -1 -2	7	1
8 -1 55 -1 53 -1 -2	53	1
8 -1 70 -1 18 -1 7 -1 -2	7	1
36 -1 117 -1 246 -1 265 -1 -2	3	1
29 -1 41 -1 110 -1 125 -1 150 -1 7 -1 -2	1	1
44 -1 66 -1 191 -1 -2	3	1
21 -1 62 -1 68 -1 -2	4	1
39 -1 41 -1 50 -1 -2	22	1
46 -1 62 -1 67 -1 260 -1 -2	1	1
79 -1 117 -1 127 -1 59 -1 150 -1 262 -1 -2	1	1
119 -1 201 -1 -2	3	1
53 -1 49 -1 133 -1 -2	18	1
10 -1 28 -1 64 -1 143 -1 -2	12	1
53 -1 31 -1 117 -1 118 -1 -2	24	1
61 -1 45 -1 246 -1 -2	24	1
14 -1 60 -1 62 -1 -2	15	1
133 -1 184 -1 -2	30	1
19 -1 149 -1 20 -1 255 -1 44 -1 -2	1	1
24 -1 32 -1 53 -1 -2	13	1
20 -1 78 -1 38 -1 -2	22	1
4 -1 46 -1 113 -1 195 -1 -2	38	1
31 -1 76 -1 134 -1 150 -1 -2	1	1
37 -1 149 -1 -2	98	1
23 -1 35 -1 -2	203	1
46 -1 10 -1 24 -1 -2	14	1
11 -1 50 -1 -2	122	1
9 -1 40 -1 -2	217	1
41 -1 16 -1 64 -1 149 -1 6 -1 -2	1	1
4 -1 15 -1 63 -1 -2	18	1
280 -1 -2	16	1
19 -1 33 -1 -2	110	1
8 -1 80 -1 176 -1 195 -1 255 -1 -2	1	1
11 -1 27 -1 35 -1 133 -1 179 -1 -2	4	1
79 -1 77 -1 89 -1 141 -1 -2	1	1
1 -1 12 -1 3 -1 266 -1 -2	3	1
15 -1 32 -1 -2	115	1
17 -1 37 -1 34 -1 -2	52	1
22 -1 118 -1 18 -1 250 -1 61 -1 257 -1 33 -1 -2	1	1
9 -1 76 -1 60 -1 -2	23	1
13 -1 246 -1 -2	240	1
12 -1 93 -1 110 -1 246 -1 -2	5	1
189 -1 247 -1 -2	23	1
40 -1 49 -1 133 -1 -2	14	1
14 -1 29 -1 -2	141	1
139 -1 246 -1 71 -1 -2	4	1
67 -1 150 -1 -2	35	1
2 -1 57 -1 39 -1 117 -1 -2	5	1
17 -1 145 -1 252 -1 -2	13	1
2 -1 13 -1 20 -1 252 -1 -2	8	1
34 -1 143 -1 245 -1 -2	125	1
78 -1 16 -1 -2	84	2
27 -1 139 -1 -2	214	2
110 -1 113 -1 253 -1 -2	118	1
27 -1 117 -1 139 -1 24 -1 -2	30	1
10 -1 113 -1 144 -1 258 -1 -2	5	1
18 -1 117 -1 -2	376	1
10 -1 110 -1 45 -1 -2	42	1
13 -1 41 -1 62 -1 54 -1 144 -1 -2	4	1
4 -1 17 -1 5 -1 60 -1 48 -1 -2	1	1
5 -1 111 -1 35 -1 132 -1 258 -1 -2	2	1
30 -1 23 -1 262 -1 -2	8	1
22 -1 113 -1 9 -1 -2	14	1
7 -1 27 -1 181 -1 -2	2	1
10 -1 20 -1 218 -1 43 -1 -2	2	1
54 -1 108 -1 145 -1 57 -1 245 -1 21 -1 -2	1	1
54 -1 149 -1 -2	84	1
23 -1 12 -1 79 -1 120 -1 136 -1 146 -1 -2	1	1
108 -1 35 -1 101 -1 67 -1 262 -1 135 -1 -2	1	1
37 -1 59 -1 -2	57	1
68 -1 73 -1 118 -1 -2	13	1
37 -1 35 -1 7 -1 118 -1 -2	16	1
49 -1 18 -1 58 -1 118 -1 132 -1 245 -1 89 -1 -2	1	1
63 -1 62 -1 58 -1 139 -1 245 -1 -2	2	1
35 -1 118 -1 255 -1 -2	94	1
50 -1 79 -1 20 -1 -2	15	1
17 -1 39 -1 9 -1 -2	20	1
113 -1 50 -1 147 -1 -2	4	1
9 -1 44 -1 1 -1 -2	26	1
60 -1 8 -1 133 -1 62 -1 67 -1 -2	1	1
6 -1 53 -1 -2	62	1
18 -1 49 -1 66 -1 248 -1 -2	5	1
1 -1 110 -1 113 -1 32 -1 -2	30	1
21 -1 9 -1 113 -1 51 -1 191 -1 7 -1 -2	1	1
27 -1 110 -1 64 -1 24 -1 -2	3	1
59 -1 11 -1 2 -1 -2	2	1
35 -1 22 -1 -2	141	1
10 -1 31 -1 56 -1 113 -1 133 -1 -2	5	1
76 -1 118 -1 133 -1 143 -1 48 -1 255 -1 262 -1 -2	1	1
32 -1 118 -1 70 -1 67 -1 -2	3	1
11 -1 257 -1 -2	35	1
11 -1 21 -1 -2	147	1
52 -1 13 -1 59 -1 61 -1 -2	2	1
1 -1 150 -1 -2	189	1
18 -1 20 -1 -2	204	1
79 -1 245 -1 -2	226	1
77 -1 20 -1 50 -1 -2	8	1
22 -1 39 -1 253 -1 -2	114	1
27 -1 49 -1 139 -1 219 -1 -2	1	1
18 -1 72 -1 5 -1 -2	10	1
1 -1 3 -1 100 -1 -2	3	1
48 -1 27 -1 -2	75	1
26 -1 74 -1 -2	113	1
15 -1 71 -1 77 -1 6 -1 -2	1	1
28 -1 35 -1 91 -1 -2	5	1
44 -1 15 -1 38 -1 82 -1 165 -1 -2	1	1
120 -1 253 -1 -2	138	1
11 -1 112 -1 120 -1 245 -1 246 -1 -2	4	1
144 -1 34 -1 -2	62	2
115 -1 256 -1 -2	2	1
27 -1 133 -1 -2	188	1
22 -1 47 -1 38 -1 -2	28	1
76 -1 36 -1 37 -1 253 -1 -2	10	1
45 -1 23 -1 259 -1 -2	10	1
52 -1 61 -1 110 -1 38 -1 247 -1 -2	1	1
44 -1 35 -1 245 -1 48 -1 -2	8	1
96 -1 38 -1 -2	10	1
35 -1 168 -1 -2	21	1
56 -1 118 -1 61 -1 253 -1 -2	8	1
13 -1 10 -1 -2	118	1
94 -1 44 -1 10 -1 74 -1 -2	1	1
47 -1 118 -1 -2	112	1
25 -1 61 -1 117 -1 -2	10	1
33 -1 118 -1 43 -1 270 -1 -2	1	1
18 -1 30 -1 -2	181	1
23 -1 5 -1 38 -1 20 -1 61 -1 -2	1	1
2 -1 68 -1 -2	78	1
119 -1 79 -1 173 -1 256 -1 -2	1	1
44 -1 16 -1 78 -1 53 -1 246 -1 -2	1	1
122 -1 23 -1 123 -1 6 -1 37 -1 58 -1 70 -1 21 -1 29 -1 -2	1	1
37 -1 8 -1 77 -1 113 -1 -2	2	1
15 -1 245 -1 21 -1 -2	34	1
18 -1 52 -1 117 -1 -2	49	1
26 -1 27 -1 46 -1 -2	103	1
24 -1 2 -1 -2	36	1
27 -1 10 -1 12 -1 -2	22	1
97 -1 17 -1 133 -1 145 -1 -2	1	1
43 -1 69 -1 -2	27	1
62 -1 133 -1 163 -1 -2	6	1
23 -1 151 -1 -2	5	1
191 -1 246 -1 -2	55	1
27 -1 46 -1 59 -1 55 -1 179 -1 247 -1 -2	1	1
29 -1 109 -1 139 -1 -2	12	1
8 -1 7 -1 -2	249	1
117 -1 53 -1 45 -1 20 -1 -2	3	1
11 -1 20 -1 27 -1 184 -1 237 -1 -2	1	1
22 -1 39 -1 286 -1 -2	4	1
60 -1 104 -1 53 -1 66 -1 186 -1 -2	1	1
22 -1 49 -1 33 -1 -2	32	1
12 -1 64 -1 107 -1 35 -1 113 -1 82 -1 253 -1 -2	1	1
2 -1 51 -1 100 -1 147 -1 189 -1 101 -1 258 -1 -2	1	1
77 -1 44 -1 253 -1 -2	14	1
17 -1 49 -1 47 -1 247 -1 62 -1 -2	1	1
1 -1 80 -1 253 -1 -2	58	1
46 -1 43 -1 118 -1 77 -1 163 -1 80 -1 -2	1	1
23 -1 31 -1 53 -1 51 -1 79 -1 -2	2	1
58 -1 43 -1 132 -1 59 -1 146 -1 -2	1	1
56 -1 13 -1 253 -1 -2	35	1
8 -1 15 -1 253 -1 -2	237	1
13 -1 210 -1 -2	21	1
117 -1 179 -1 190 -1 281 -1 -2	1	1
40 -1 19 -1 42 -1 73 -1 110 -1 18 -1 -2	1	1
14 -1 17 -1 -2	217	1
2 -1 10 -1 18 -1 40 -1 55 -1 -2	3	1
20 -1 10 -1 -2	81	1
41 -1 55 -1 120 -1 16 -1 284 -1 -2	1	1
17 -1 23 -1 24 -1 28 -1 134 -1 -2	2	1
113 -1 143 -1 23 -1 -2	47	1
73 -1 36 -1 118 -1 15 -1 254 -1 -2	3	1
184 -1 245 -1 22 -1 -2	2	1
60 -1 12 -1 35 -1 145 -1 -2	2	1
42 -1 47 -1 254 -1 -2	7	1
108 -1 133 -1 -2	46	1
1 -1 17 -1 26 -1 117 -1 -2	175	1
35 -1 55 -1 1 -1 133 -1 -2	7	1
16 -1 136 -1 253 -1 56 -1 -2	2	1
4 -1 134 -1 143 -1 7 -1 -2	3	1
1 -1 78 -1 245 -1 246 -1 -2	82	1
11 -1 32 -1 62 -1 139 -1 30 -1 56 -1 -2	1	1
23 -1 79 -1 -2	122	2
1 -1 108 -1 29 -1 248 -1 -2	6	1
12 -1 23 -1 -2	108	1
59 -1 4 -1 -2	26	1
20 -1 114 -1 66 -1 -2	5	1
48 -1 55 -1 143 -1 40 -1 -2	3	1
10 -1 42 -1 117 -1 175 -1 180 -1 -2	1	1
1 -1 22 -1 245 -1 7 -1 46 -1 -2	1	1
18 -1 36 -1 63 -1 245 -1 39 -1 -2	6	1
17 -1 108 -1 136 -1 -2	13	1
37 -1 144 -1 34 -1 -2	23	1
84 -1 94 -1 246 -1 -2	4	1
47 -1 246 -1 -2	158	2
20 -1 21 -1 -2	129	1
202 -1 -2	9	1
109 -1 35 -1 110 -1 133 -1 -2	2	1
77 -1 45 -1 246 -1 -2	10	1
23 -1 41 -1 78 -1 117 -1 1 -1 245 -1 -2	4	1
52 -1 71 -1 59 -1 -2	7	1
10 -1 63 -1 50 -1 143 -1 -2	6	1
56 -1 54 -1 48 -1 41 -1 -2	2	1
49 -1 143 -1 144 -1 6 -1 -2	9	1
92 -1 22 -1 26 -1 143 -1 247 -1 -2	3	1
56 -1 40 -1 79 -1 55 -1 189 -1 190 -1 58 -1 -2	1	1
35 -1 72 -1 261 -1 -2	4	1
53 -1 133 -1 -2	141	1
72 -1 69 -1 52 -1 -2	8	1
146 -1 253 -1 271 -1 -2	2	1
12 -1 54 -1 65 -1 -2	8	1
26 -1 35 -1 42 -1 4 -1 245 -1 -2	10	1
193 -1 -2	13	1
46 -1 11 -1 33 -1 -2	18	1
18 -1 94 -1 -2	27	1
47 -1 16 -1 133 -1 -2	8	1
5 -1 1 -1 64 -1 117 -1 13 -1 -2	1	1
22 -1 48 -1 -2	116	1
49 -1 255 -1 -2	69	1
26 -1 14 -1 -2	154	2
70 -1 41 -1 19 -1 117 -1 -2	5	1
246 -1 30 -1 81 -1 -2	1	1
41 -1 78 -1 24 -1 69 -1 232 -1 -2	1	1
247 -1 15 -1 256 -1 259 -1 -2	1	1
117 -1 46 -1 -2	71	1
103 -1 89 -1 134 -1 139 -1 -2	1	1
118 -1 132 -1 145 -1 310 -1 -2	4	1
26 -1 74 -1 161 -1 -2	3	1
36 -1 247 -1 -2	152	2
10 -1 60 -1 117 -1 -2	53	1
71 -1 119 -1 6 -1 -2	3	1
9 -1 38 -1 70 -1 150 -1 -2	9	1
1 -1 8 -1 117 -1 -2	209	1
9 -1 1 -1 10 -1 22 -1 13 -1 23 -1 110 -1 69 -1 -2	1	1
27 -1 26 -1 108 -1 133 -1 -2	9	1
9 -1 48 -1 110 -1 40 -1 -2	8	1
5 -1 17 -1 41 -1 104 -1 147 -1 31 -1 59 -1 -2	1	1
2 -1 5 -1 12 -1 36 -1 54 -1 133 -1 -2	1	1
1 -1 23 -1 35 -1 32 -1 -2	31	1
8 -1 32 -1 31 -1 189 -1 -2	12	1
75 -1 28 -1 -2	27	1
2 -1 11 -1 153 -1 191 -1 -2	3	1
34 -1 20 -1 -2	74	1
22 -1 136 -1 51 -1 -2	12	1
55 -1 139 -1 -2	91	1
34 -1 51 -1 117 -1 75 -1 -2	2	1
45 -1 26 -1 1 -1 -2	15	1
143 -1 46 -1 -2	63	1
97 -1 32 -1 -2	16	1
79 -1 94 -1 -2	24	1
8 -1 10 -1 11 -1 67 -1 52 -1 43 -1 -2	3	1
17 -1 3 -1 -2	141	1
8 -1 42 -1 181 -1 261 -1 -2	1	1
54 -1 52 -1 -2	53	1
13 -1 31 -1 -2	211	1
22 -1 113 -1 -2	169	1
23 -1 45 -1 -2	122	2
27 -1 30 -1 -2	162	1
9 -1 30 -1 144 -1 262 -1 -2	8	1
15 -1 143 -1 20 -1 32 -1 -2	5	1
68 -1 30 -1 250 -1 -2	11	1
18 -1 22 -1 29 -1 52 -1 48 -1 -2	3	1
13 -1 110 -1 24 -1 -2	30	1
80 -1 4 -1 93 -1 83 -1 -2	1	1
41 -1 67 -1 97 -1 92 -1 -2	1	1
23 -1 81 -1 63 -1 245 -1 58 -1 -2	3	1
22 -1 40 -1 51 -1 144 -1 57 -1 -2	1	1
82 -1 80 -1 74 -1 144 -1 175 -1 -2	1	1
17 -1 122 -1 77 -1 85 -1 -2	1	1
10 -1 17 -1 65 -1 71 -1 23 -1 21 -1 32 -1 -2	1	1
38 -1 78 -1 139 -1 143 -1 191 -1 68 -1 -2	1	1
46 -1 14 -1 67 -1 52 -1 139 -1 85 -1 205 -1 253 -1 72 -1 -2	1	1
38 -1 54 -1 -2	55	1
4 -1 56 -1 -2	107	1
37 -1 30 -1 -2	87	1
110 -1 12 -1 -2	83	1
9 -1 32 -1 245 -1 -2	133	1
4 -1 10 -1 189 -1 31 -1 -2	4	1
13 -1 38 -1 -2	152	2
11 -1 28 -1 263 -1 -2	2	1
65 -1 31 -1 133 -1 189 -1 190 -1 -2	1	1
1 -1 11 -1 32 -1 18 -1 38 -1 189 -1 -2	1	1
4 -1 10 -1 61 -1 247 -1 -2	11	1
26 -1 43 -1 41 -1 32 -1 -2	9	1
62 -1 49 -1 -2	44	1
84 -1 146 -1 245 -1 51 -1 -2	6	1
51 -1 59 -1 118 -1 -2	9	1
2 -1 4 -1 122 -1 135 -1 245 -1 -2	2	1
76 -1 23 -1 248 -1 -2	2	1
10 -1 143 -1 47 -1 -2	50	1
52 -1 133 -1 143 -1 198 -1 -2	4	1
37 -1 71 -1 253 -1 -2	32	1
78 -1 262 -1 -2	46	1
78 -1 195 -1 -2	104	1
70 -1 80 -1 49 -1 -2	4	1
14 -1 154 -1 195 -1 -2	1	1
118 -1 246 -1 -2	255	1
75 -1 10 -1 108 -1 -2	1	1
17 -1 19 -1 74 -1 -2	58	1
5 -1 70 -1 23 -1 -2	16	1
9 -1 73 -1 66 -1 139 -1 -2	7	1
50 -1 117 -1 -2	125	1
59 -1 56 -1 45 -1 -2	14	1
78 -1 110 -1 57 -1 -2	36	1
110 -1 143 -1 149 -1 259 -1 38 -1 -2	2	1
8 -1 117 -1 17 -1 -2	20	1
12 -1 249 -1 68 -1 -2	1	1
27 -1 48 -1 24 -1 33 -1 153 -1 -2	1	1
72 -1 26 -1 35 -1 36 -1 -2	17	1
39 -1 245 -1 246 -1 -2	88	1
41 -1 113 -1 50 -1 -2	11	1
81 -1 108 -1 117 -1 38 -1 -2	1	1
18 -1 61 -1 135 -1 255 -1 -2	4	1
78 -1 105 -1 171 -1 43 -1 -2	1	1
85 -1 78 -1 18 -1 52 -1 44 -1 66 -1 139 -1 -2	1	1
72 -1 70 -1 -2	30	1
38 -1 31 -1 36 -1 -2	30	1
82 -1 3 -1 41 -1 135 -1 51 -1 25 -1 -2	1	1
9 -1 41 -1 26 -1 43 -1 53 -1 10 -1 -2	1	1
134 -1 33 -1 -2	19	1
108 -1 53 -1 143 -1 256 -1 -2	3	1
28 -1 179 -1 -2	39	2
5 -1 135 -1 -2	27	1
79 -1 16 -1 -2	82	2
63 -1 45 -1 149 -1 198 -1 -2	3	1
7 -1 61 -1 45 -1 -2	5	1
1 -1 113 -1 50 -1 -2	44	1
36 -1 89 -1 47 -1 -2	5	1
117 -1 43 -1 259 -1 -2	15	1
62 -1 252 -1 -2	19	1
1 -1 22 -1 48 -1 291 -1 -2	1	1
28 -1 69 -1 75 -1 66 -1 -2	1	1
20 -1 258 -1 -2	29	1
57 -1 50 -1 -2	42	1
15 -1 20 -1 81 -1 149 -1 41 -1 61 -1 -2	1	1
27 -1 5 -1 58 -1 -2	13	1
53 -1 118 -1 33 -1 -2	34	1
10 -1 4 -1 33 -1 35 -1 7 -1 -2	2	1
4 -1 18 -1 45 -1 93 -1 149 -1 -2	1	1
70 -1 26 -1 44 -1 83 -1 246 -1 -2	1	1
2 -1 79 -1 24 -1 114 -1 120 -1 -2	1	1
47 -1 73 -1 -2	48	1
55 -1 81 -1 195 -1 -2	4	1
51 -1 143 -1 -2	167	1
19 -1 80 -1 199 -1 -2	2	1
11 -1 146 -1 -2	89	1
9 -1 52 -1 -2	185	1
139 -1 37 -1 184 -1 -2	2	1
84 -1 21 -1 44 -1 11 -1 -2	1	1
8 -1 26 -1 35 -1 13 -1 7 -1 -2	8	1
1 -1 72 -1 48 -1 42 -1 28 -1 144 -1 57 -1 245 -1 101 -1 -2	1	1
134 -1 117 -1 92 -1 147 -1 254 -1 -2	1	1
97 -1 4 -1 62 -1 108 -1 87 -1 253 -1 -2	1	1
1 -1 13 -1 44 -1 17 -1 77 -1 111 -1 255 -1 -2	1	1
26 -1 24 -1 -2	175	2
36 -1 7 -1 119 -1 58 -1 195 -1 269 -1 -2	1	1
7 -1 55 -1 -2	33	1
18 -1 110 -1 11 -1 -2	44	1
110 -1 61 -1 -2	62	2
35 -1 6 -1 -2	173	2
46 -1 39 -1 62 -1 181 -1 -2	1	1
9 -1 139 -1 245 -1 -2	204	1
1 -1 189 -1 191 -1 -2	7	1
4 -1 70 -1 11 -1 -2	18	1
20 -1 31 -1 149 -1 -2	46	1
134 -1 153 -1 53 -1 109 -1 100 -1 92 -1 94 -1 178 -1 -2	1	1
1 -1 63 -1 82 -1 247 -1 -2	2	1
1 -1 17 -1 52 -1 133 -1 -2	24	1
36 -1 23 -1 61 -1 -2	14	1
29 -1 96 -1 -2	6	1
12 -1 31 -1 182 -1 -2	2	1
1 -1 144 -1 -2	405	2
22 -1 26 -1 46 -1 245 -1 -2	49	1
10 -1 22 -1 117 -1 -2	116	1
2 -1 56 -1 45 -1 -2	21	1
27 -1 181 -1 -2	27	2
19 -1 63 -1 16 -1 46 -1 -2	2	1
135 -1 30 -1 245 -1 -2	2	1
57 -1 247 -1 -2	70	1
24 -1 7 -1 26 -1 106 -1 52 -1 121 -1 60 -1 85 -1 28 -1 -2	1	1
63 -1 17 -1 32 -1 -2	21	1
25 -1 35 -1 113 -1 39 -1 29 -1 47 -1 -2	1	1
35 -1 44 -1 167 -1 248 -1 -2	2	1
50 -1 22 -1 135 -1 -2	4	1
18 -1 76 -1 71 -1 133 -1 -2	3	1
17 -1 74 -1 -2	137	1
8 -1 28 -1 -2	320	1
35 -1 22 -1 163 -1 -2	5	1
13 -1 14 -1 119 -1 133 -1 62 -1 -2	3	1
52 -1 10 -1 94 -1 6 -1 25 -1 -2	1	1
78 -1 10 -1 30 -1 250 -1 -2	4	1
35 -1 49 -1 150 -1 187 -1 -2	6	1
66 -1 26 -1 27 -1 53 -1 -2	12	1
50 -1 60 -1 18 -1 83 -1 -2	1	1
6 -1 11 -1 17 -1 132 -1 -2	2	1
18 -1 83 -1 249 -1 -2	4	1
1 -1 100 -1 58 -1 187 -1 49 -1 259 -1 -2	1	1
33 -1 5 -1 22 -1 283 -1 -2	3	1
44 -1 19 -1 17 -1 60 -1 -2	1	1
143 -1 56 -1 -2	64	1
8 -1 29 -1 11 -1 -2	49	1
13 -1 26 -1 163 -1 252 -1 -2	4	1
169 -1 180 -1 -2	2	1
18 -1 146 -1 189 -1 -2	11	1
14 -1 12 -1 64 -1 65 -1 209 -1 69 -1 -2	1	1
75 -1 36 -1 30 -1 218 -1 -2	1	1
4 -1 72 -1 117 -1 -2	25	1
40 -1 73 -1 -2	44	1
13 -1 70 -1 256 -1 -2	9	1
103 -1 20 -1 107 -1 117 -1 143 -1 -2	1	1
1 -1 86 -1 48 -1 261 -1 -2	2	1
10 -1 11 -1 37 -1 13 -1 -2	6	1
3 -1 65 -1 7 -1 -2	7	1
7 -1 12 -1 9 -1 -2	6	1
14 -1 5 -1 144 -1 -2	47	1
16 -1 19 -1 245 -1 -2	48	1
19 -1 40 -1 60 -1 -2	10	1
8 -1 26 -1 5 -1 36 -1 37 -1 -2	3	1
27 -1 84 -1 118 -1 -2	13	1
66 -1 22 -1 135 -1 139 -1 247 -1 51 -1 -2	1	1
84 -1 3 -1 56 -1 -2	2	1
9 -1 26 -1 195 -1 -2	70	1
22 -1 19 -1 136 -1 141 -1 38 -1 -2	1	1
55 -1 15 -1 14 -1 -2	10	1
19 -1 9 -1 104 -1 110 -1 98 -1 -2	1	1
8 -1 83 -1 38 -1 -2	14	1
79 -1 111 -1 64 -1 113 -1 146 -1 30 -1 49 -1 -2	1	1
121 -1 132 -1 133 -1 153 -1 -2	2	1
16 -1 23 -1 51 -1 -2	17	1
11 -1 145 -1 149 -1 -2	37	1
90 -1 17 -1 85 -1 253 -1 255 -1 -2	1	1
96 -1 75 -1 80 -1 -2	1	1
8 -1 33 -1 71 -1 -2	22	1
11 -1 44 -1 -2	112	1
26 -1 113 -1 144 -1 -2	106	1
62 -1 3 -1 16 -1 -2	7	1
56 -1 19 -1 24 -1 9 -1 -2	1	1
13 -1 58 -1 71 -1 14 -1 26 -1 27 -1 149 -1 54 -1 260 -1 -2	1	1
66 -1 132 -1 65 -1 203 -1 -2	1	1
24 -1 14 -1 32 -1 90 -1 -2	1	1
48 -1 3 -1 30 -1 -2	5	1
180 -1 22 -1 83 -1 100 -1 170 -1 178 -1 247 -1 11 -1 -2	1	1
46 -1 40 -1 -2	75	1
43 -1 123 -1 -2	6	1
10 -1 88 -1 84 -1 33 -1 195 -1 -2	1	1
20 -1 39 -1 199 -1 -2	6	1
19 -1 55 -1 -2	64	1
