#subsequence (s \in Sample : s ~ D)	freq(s,D)	freq(s,Sample)

1 -1 -2	680	118
31 -1 -2	417	81
59 -1 247 -1 -2	60	1
17 -1 -2	652	139
253 -1 -2	664	121
49 -1 -2	269	45
35 -1 -2	595	129
46 -1 -2	318	60
97 -1 -2	52	11
44 -1 144 -1 -2	178	1
25 -1 69 -1 -2	34	1
30 -1 -2	344	57
27 -1 -2	513	90
252 -1 -2	68	18
9 -1 -2	590	128
110 -1 139 -1 22 -1 -2	33	1
132 -1 -2	313	65
63 -1 -2	193	35
10 -1 -2	507	93
55 -1 -2	234	55
50 -1 -2	288	53
11 -1 117 -1 -2	282	1
8 -1 -2	638	116
78 -1 144 -1 -2	204	2
139 -1 -2	329	65
48 -1 -2	294	54
110 -1 139 -1 256 -1 -2	28	1
245 -1 -2	549	116
44 -1 258 -1 -2	23	1
78 -1 -2	382	81
13 -1 -2	476	104
69 -1 -2	204	45
3 -1 -2	219	36
60 -1 255 -1 -2	36	1
18 -1 32 -1 -2	190	1
258 -1 -2	49	12
73 -1 132 -1 -2	52	1
60 -1 -2	209	39
75 -1 -2	118	32
71 -1 -2	144	27
6 -1 -2	324	67
19 -1 91 -1 -2	13	1
11 -1 137 -1 -2	14	1
42 -1 -2	289	60
53 -1 -2	330	63
117 -1 -2	575	120
105 -1 -2	25	6
246 -1 -2	420	92
118 -1 -2	439	78
3 -1 149 -1 -2	61	1
209 -1 -2	76	13
25 -1 -2	318	49
38 -1 24 -1 -2	69	1
89 -1 -2	55	7
173 -1 -2	41	10
125 -1 132 -1 -2	14	1
23 -1 -2	442	81
58 -1 -2	239	57
43 -1 121 -1 -2	13	1
36 -1 -2	528	108
56 -1 -2	245	37
13 -1 106 -1 -2	7	1
73 -1 -2	189	42
2 -1 -2	363	72
149 -1 -2	267	52
29 -1 -2	369	79
15 -1 -2	394	95
54 -1 17 -1 -2	51	1
23 -1 33 -1 -2	123	3
110 -1 -2	376	84
13 -1 38 -1 -2	152	1
57 -1 -2	222	39
22 -1 118 -1 -2	222	1
26 -1 38 -1 -2	202	1
8 -1 117 -1 -2	473	1
31 -1 48 -1 -2	89	1
248 -1 -2	83	16
59 -1 -2	217	50
79 -1 -2	346	73
17 -1 7 -1 -2	237	3
5 -1 11 -1 -2	118	1
22 -1 147 -1 -2	56	1
75 -1 258 -1 -2	9	1
37 -1 -2	330	72
100 -1 79 -1 -2	15	1
5 -1 -2	352	58
143 -1 -2	626	129
33 -1 -2	317	66
195 -1 -2	157	34
135 -1 -2	77	13
143 -1 283 -1 -2	17	1
36 -1 13 -1 114 -1 117 -1 -2	11	1
9 -1 57 -1 -2	152	1
2 -1 21 -1 -2	146	1
40 -1 28 -1 -2	70	1
42 -1 141 -1 -2	27	1
55 -1 176 -1 -2	1	1
245 -1 253 -1 -2	486	3
76 -1 -2	129	32
10 -1 69 -1 -2	112	1
47 -1 -2	302	57
77 -1 -2	100	16
67 -1 -2	182	37
54 -1 -2	264	64
40 -1 -2	317	55
55 -1 61 -1 48 -1 -2	12	1
74 -1 -2	186	40
32 -1 -2	371	71
102 -1 141 -1 -2	1	1
23 -1 27 -1 -2	193	1
20 -1 -2	428	86
144 -1 -2	440	101
64 -1 -2	174	39
1 -1 37 -1 -2	234	3
110 -1 30 -1 -2	89	2
1 -1 185 -1 -2	13	1
52 -1 -2	267	49
114 -1 -2	199	38
136 -1 129 -1 -2	1	1
96 -1 143 -1 253 -1 -2	20	1
17 -1 257 -1 -2	47	1
31 -1 10 -1 246 -1 -2	39	1
4 -1 -2	384	80
46 -1 53 -1 -2	105	1
218 -1 -2	17	7
83 -1 -2	69	25
63 -1 21 -1 -2	42	1
119 -1 143 -1 -2	65	1
143 -1 253 -1 -2	569	4
254 -1 -2	69	12
57 -1 74 -1 -2	21	1
58 -1 39 -1 -2	68	1
20 -1 190 -1 -2	43	1
65 -1 245 -1 -2	119	1
250 -1 -2	159	32
1 -1 57 -1 30 -1 -2	39	1
148 -1 73 -1 84 -1 -2	1	1
23 -1 179 -1 -2	33	1
150 -1 -2	208	32
51 -1 50 -1 -2	61	1
112 -1 43 -1 -2	11	1
39 -1 -2	340	63
256 -1 -2	68	9
35 -1 25 -1 -2	165	1
26 -1 -2	601	117
47 -1 9 -1 -2	48	1
28 -1 -2	425	80
18 -1 -2	552	139
36 -1 189 -1 -2	58	2
112 -1 -2	37	11
12 -1 -2	353	77
284 -1 -2	18	4
70 -1 137 -1 -2	8	1
26 -1 269 -1 -2	5	1
191 -1 -2	87	12
15 -1 48 -1 -2	112	2
40 -1 246 -1 -2	155	2
61 -1 -2	212	40
110 -1 246 -1 -2	208	2
27 -1 23 -1 -2	143	2
7 -1 -2	336	50
10 -1 44 -1 256 -1 -2	11	1
74 -1 118 -1 -2	94	1
22 -1 -2	474	96
108 -1 -2	100	19
36 -1 101 -1 51 -1 -2	4	1
255 -1 -2	181	45
4 -1 245 -1 -2	273	4
45 -1 -2	329	77
16 -1 -2	358	69
62 -1 -2	197	36
1 -1 16 -1 -2	264	3
109 -1 -2	92	23
261 -1 -2	25	5
41 -1 -2	366	78
72 -1 144 -1 -2	83	2
40 -1 25 -1 -2	94	1
7 -1 30 -1 -2	79	1
1 -1 47 -1 -2	234	1
18 -1 147 -1 -2	54	1
45 -1 16 -1 -2	77	1
44 -1 56 -1 -2	62	1
11 -1 -2	455	85
36 -1 113 -1 -2	224	3
61 -1 13 -1 -2	45	2
125 -1 -2	21	7
108 -1 31 -1 -2	22	1
7 -1 33 -1 -2	76	1
133 -1 -2	338	79
14 -1 -2	420	79
34 -1 -2	324	70
21 -1 -2	317	62
60 -1 18 -1 262 -1 -2	10	1
17 -1 44 -1 -2	210	1
19 -1 -2	423	70
255 -1 27 -1 -2	2	1
111 -1 -2	73	14
66 -1 -2	170	39
1 -1 78 -1 -2	277	2
138 -1 -2	6	2
110 -1 136 -1 -2	51	1
72 -1 -2	153	33
18 -1 51 -1 -2	153	1
4 -1 29 -1 245 -1 -2	78	1
8 -1 118 -1 -2	361	1
10 -1 247 -1 -2	158	1
113 -1 -2	341	78
120 -1 133 -1 -2	68	1
44 -1 -2	315	74
30 -1 46 -1 -2	66	1
2 -1 28 -1 -2	143	1
68 -1 32 -1 -2	54	2
136 -1 -2	104	23
36 -1 114 -1 -2	119	1
34 -1 6 -1 -2	57	1
8 -1 35 -1 118 -1 132 -1 -2	116	1
17 -1 16 -1 -2	240	1
199 -1 253 -1 -2	37	1
9 -1 27 -1 -2	333	2
11 -1 31 -1 -2	171	1
110 -1 199 -1 -2	39	1
260 -1 -2	24	4
88 -1 -2	62	12
45 -1 15 -1 -2	69	1
76 -1 149 -1 -2	39	1
19 -1 27 -1 -2	155	1
68 -1 -2	190	27
89 -1 252 -1 -2	6	1
119 -1 -2	75	17
5 -1 246 -1 -2	187	1
95 -1 -2	37	11
35 -1 18 -1 -2	126	1
88 -1 246 -1 -2	35	1
54 -1 9 -1 -2	41	1
198 -1 -2	37	5
9 -1 73 -1 34 -1 -2	33	1
114 -1 12 -1 -2	44	1
174 -1 -2	12	2
24 -1 -2	357	78
13 -1 139 -1 37 -1 -2	26	1
27 -1 117 -1 70 -1 58 -1 -2	4	1
58 -1 246 -1 261 -1 -2	3	1
133 -1 107 -1 47 -1 -2	1	1
247 -1 -2	202	41
13 -1 53 -1 -2	154	2
118 -1 19 -1 -2	72	1
50 -1 146 -1 -2	49	1
61 -1 117 -1 -2	105	1
166 -1 -2	22	8
1 -1 49 -1 45 -1 -2	45	1
259 -1 -2	93	16
94 -1 18 -1 -2	12	1
65 -1 -2	180	27
28 -1 253 -1 -2	368	3
68 -1 254 -1 -2	12	1
32 -1 19 -1 -2	77	1
58 -1 49 -1 -2	54	1
21 -1 150 -1 -2	57	1
43 -1 64 -1 -2	36	2
58 -1 2 -1 54 -1 -2	4	1
13 -1 40 -1 -2	157	1
1 -1 28 -1 -2	317	2
141 -1 -2	104	14
286 -1 -2	19	4
11 -1 26 -1 -2	224	1
84 -1 -2	94	21
78 -1 68 -1 -2	52	1
35 -1 36 -1 -2	377	2
189 -1 -2	83	18
117 -1 25 -1 -2	122	2
30 -1 132 -1 -2	99	1
8 -1 21 -1 -2	238	1
8 -1 54 -1 132 -1 -2	59	1
10 -1 136 -1 -2	58	1
34 -1 121 -1 -2	12	1
39 -1 209 -1 -2	33	1
126 -1 -2	7	1
27 -1 15 -1 -2	127	1
112 -1 36 -1 -2	14	1
2 -1 65 -1 -2	65	2
26 -1 31 -1 -2	276	1
40 -1 295 -1 -2	5	1
74 -1 98 -1 -2	9	1
117 -1 246 -1 -2	321	3
18 -1 253 -1 -2	478	2
70 -1 -2	200	35
50 -1 48 -1 143 -1 -2	38	1
15 -1 79 -1 66 -1 133 -1 250 -1 -2	2	1
12 -1 22 -1 74 -1 -2	10	1
51 -1 -2	262	52
137 -1 -2	26	7
93 -1 -2	32	9
70 -1 143 -1 -2	161	1
103 -1 -2	25	3
38 -1 253 -1 -2	270	2
41 -1 246 -1 -2	193	2
13 -1 29 -1 -2	172	1
20 -1 120 -1 -2	62	1
114 -1 59 -1 -2	29	1
13 -1 28 -1 26 -1 -2	25	1
44 -1 247 -1 -2	78	2
72 -1 256 -1 -2	18	1
181 -1 245 -1 -2	30	1
79 -1 38 -1 -2	70	1
113 -1 56 -1 -2	54	1
213 -1 -2	10	1
41 -1 141 -1 -2	55	1
28 -1 38 -1 -2	124	1
13 -1 136 -1 -2	60	1
1 -1 18 -1 -2	369	2
79 -1 52 -1 -2	65	1
283 -1 -2	17	4
262 -1 -2	96	24
43 -1 -2	285	57
46 -1 132 -1 191 -1 -2	21	1
16 -1 35 -1 -2	116	2
86 -1 -2	67	12
80 -1 42 -1 -2	21	1
8 -1 69 -1 -2	168	1
90 -1 -2	56	7
23 -1 144 -1 -2	217	1
30 -1 22 -1 -2	80	1
28 -1 110 -1 -2	168	1
41 -1 245 -1 -2	240	1
72 -1 71 -1 -2	34	1
20 -1 62 -1 -2	65	1
24 -1 85 -1 -2	15	1
113 -1 86 -1 -2	18	1
6 -1 78 -1 -2	72	1
3 -1 257 -1 -2	11	1
10 -1 51 -1 -2	136	1
270 -1 -2	1	2
35 -1 66 -1 37 -1 -2	11	1
197 -1 -2	51	15
55 -1 59 -1 -2	43	1
25 -1 63 -1 -2	36	1
35 -1 117 -1 -2	431	3
8 -1 10 -1 32 -1 246 -1 -2	52	1
56 -1 62 -1 -2	40	1
143 -1 246 -1 -2	349	1
22 -1 4 -1 -2	75	1
36 -1 32 -1 -2	157	1
64 -1 25 -1 -2	43	1
43 -1 245 -1 -2	166	1
69 -1 39 -1 -2	68	1
84 -1 253 -1 -2	75	1
2 -1 11 -1 -2	176	1
96 -1 -2	31	6
18 -1 143 -1 -2	433	1
79 -1 16 -1 -2	82	1
32 -1 41 -1 -2	90	2
176 -1 -2	6	1
193 -1 -2	13	5
39 -1 250 -1 -2	53	1
59 -1 43 -1 -2	52	1
27 -1 17 -1 -2	93	1
153 -1 -2	35	5
7 -1 12 -1 65 -1 -2	6	1
8 -1 32 -1 -2	291	1
43 -1 27 -1 16 -1 -2	15	1
1 -1 7 -1 253 -1 27 -1 -2	10	1
61 -1 69 -1 -2	36	1
17 -1 52 -1 -2	181	1
97 -1 38 -1 -2	12	1
18 -1 41 -1 -2	203	3
38 -1 -2	336	52
40 -1 78 -1 143 -1 -2	75	1
28 -1 117 -1 58 -1 -2	33	1
190 -1 -2	75	9
53 -1 28 -1 309 -1 -2	3	1
46 -1 114 -1 -2	62	1
27 -1 255 -1 -2	123	1
179 -1 -2	72	14
13 -1 195 -1 -2	74	3
13 -1 9 -1 -2	94	1
250 -1 38 -1 -2	9	1
144 -1 146 -1 -2	71	1
58 -1 16 -1 -2	55	1
24 -1 68 -1 -2	44	1
23 -1 18 -1 36 -1 147 -1 -2	5	1
199 -1 -2	46	8
10 -1 14 -1 38 -1 -2	47	1
40 -1 147 -1 -2	36	1
79 -1 132 -1 -2	104	1
4 -1 253 -1 -2	354	1
10 -1 26 -1 -2	280	1
10 -1 164 -1 -2	18	1
53 -1 72 -1 -2	43	1
189 -1 61 -1 -2	5	1
22 -1 13 -1 -2	94	1
92 -1 -2	45	10
10 -1 11 -1 5 -1 -2	36	1
45 -1 11 -1 -2	75	1
17 -1 19 -1 -2	305	1
132 -1 150 -1 -2	81	1
134 -1 -2	68	10
23 -1 46 -1 -2	101	1
17 -1 89 -1 -2	39	1
32 -1 60 -1 -2	40	1
8 -1 253 -1 -2	583	1
10 -1 18 -1 -2	239	2
14 -1 189 -1 45 -1 -2	4	1
1 -1 65 -1 63 -1 -2	36	1
28 -1 246 -1 -2	216	1
8 -1 33 -1 -2	238	2
37 -1 139 -1 -2	122	1
43 -1 108 -1 -2	21	1
187 -1 -2	37	4
139 -1 209 -1 -2	61	1
83 -1 132 -1 -2	27	1
118 -1 309 -1 -2	18	1
84 -1 86 -1 -2	11	1
25 -1 46 -1 -2	51	1
39 -1 62 -1 150 -1 -2	10	1
180 -1 -2	65	12
110 -1 144 -1 -2	261	1
102 -1 -2	22	5
52 -1 54 -1 -2	64	1
1 -1 57 -1 -2	176	1
7 -1 209 -1 -2	27	1
70 -1 163 -1 -2	8	1
8 -1 150 -1 -2	175	1
19 -1 6 -1 -2	103	1
118 -1 119 -1 -2	38	1
101 -1 149 -1 -2	19	1
28 -1 124 -1 -2	10	1
28 -1 117 -1 -2	267	1
26 -1 88 -1 -2	38	1
19 -1 245 -1 -2	261	1
67 -1 66 -1 -2	38	1
63 -1 10 -1 -2	34	1
54 -1 58 -1 -2	49	1
49 -1 144 -1 -2	120	1
163 -1 -2	27	7
27 -1 28 -1 -2	201	1
26 -1 29 -1 -2	219	1
1 -1 36 -1 -2	381	1
36 -1 262 -1 -2	71	1
2 -1 245 -1 -2	278	2
26 -1 11 -1 -2	154	1
35 -1 237 -1 -2	2	1
31 -1 34 -1 -2	107	1
99 -1 -2	44	16
7 -1 56 -1 -2	52	1
3 -1 14 -1 146 -1 -2	3	1
121 -1 -2	43	7
17 -1 23 -1 -2	313	1
35 -1 54 -1 -2	136	1
281 -1 -2	9	4
51 -1 139 -1 -2	100	1
66 -1 25 -1 -2	50	1
19 -1 46 -1 -2	107	1
35 -1 113 -1 -2	256	1
55 -1 10 -1 -2	58	1
35 -1 22 -1 -2	141	1
48 -1 16 -1 -2	71	1
18 -1 22 -1 -2	255	1
1 -1 246 -1 -2	378	2
74 -1 47 -1 52 -1 -2	8	1
79 -1 255 -1 -2	98	1
111 -1 36 -1 -2	13	1
13 -1 2 -1 -2	68	1
88 -1 85 -1 -2	10	1
29 -1 49 -1 -2	61	1
253 -1 262 -1 -2	82	2
59 -1 57 -1 -2	38	1
11 -1 39 -1 9 -1 253 -1 -2	7	1
68 -1 12 -1 -2	41	1
53 -1 258 -1 -2	31	1
3 -1 256 -1 -2	15	1
94 -1 -2	49	9
120 -1 -2	155	21
119 -1 245 -1 -2	65	1
46 -1 55 -1 -2	66	1
135 -1 48 -1 -2	12	1
10 -1 46 -1 23 -1 118 -1 -2	7	1
35 -1 90 -1 -2	19	1
143 -1 28 -1 -2	62	1
24 -1 71 -1 -2	36	1
257 -1 -2	51	10
113 -1 5 -1 -2	49	1
147 -1 -2	88	16
64 -1 134 -1 -2	9	1
28 -1 16 -1 -2	133	2
268 -1 -2	12	1
12 -1 133 -1 -2	118	2
7 -1 133 -1 150 -1 -2	28	1
4 -1 210 -1 -2	27	1
130 -1 -2	6	5
29 -1 26 -1 -2	94	1
97 -1 256 -1 -2	9	1
14 -1 117 -1 -2	250	1
11 -1 43 -1 49 -1 -2	18	1
45 -1 132 -1 20 -1 -2	15	1
9 -1 98 -1 25 -1 -2	10	1
117 -1 137 -1 33 -1 -2	4	1
41 -1 72 -1 253 -1 -2	33	1
36 -1 110 -1 32 -1 65 -1 -2	5	1
57 -1 65 -1 -2	28	1
10 -1 5 -1 18 -1 -2	21	1
60 -1 58 -1 -2	47	2
94 -1 260 -1 -2	3	1
170 -1 -2	19	5
27 -1 4 -1 -2	93	1
30 -1 23 -1 -2	98	1
20 -1 40 -1 143 -1 -2	64	1
245 -1 42 -1 -2	58	1
18 -1 34 -1 -2	174	1
1 -1 38 -1 -2	254	2
142 -1 54 -1 132 -1 -2	1	1
22 -1 64 -1 -2	82	2
3 -1 118 -1 -2	79	1
113 -1 150 -1 246 -1 -2	61	1
35 -1 143 -1 -2	484	2
47 -1 133 -1 -2	108	1
145 -1 -2	84	14
2 -1 117 -1 92 -1 -2	11	1
15 -1 3 -1 118 -1 -2	17	1
17 -1 26 -1 -2	453	2
39 -1 257 -1 -2	27	1
17 -1 83 -1 -2	46	1
28 -1 1 -1 -2	78	3
27 -1 97 -1 -2	20	1
133 -1 250 -1 -2	115	2
80 -1 -2	85	17
44 -1 23 -1 -2	81	1
8 -1 66 -1 -2	129	1
117 -1 66 -1 -2	62	1
18 -1 139 -1 -2	224	3
1 -1 74 -1 -2	136	1
12 -1 209 -1 -2	37	1
123 -1 25 -1 -2	3	1
5 -1 21 -1 -2	129	1
74 -1 98 -1 149 -1 209 -1 -2	2	1
25 -1 218 -1 -2	10	1
310 -1 -2	25	2
46 -1 253 -1 -2	272	2
68 -1 79 -1 23 -1 -2	14	1
2 -1 26 -1 24 -1 -2	65	1
4 -1 39 -1 -2	143	2
165 -1 -2	21	5
3 -1 24 -1 -2	51	1
87 -1 -2	51	7
92 -1 62 -1 -2	14	1
108 -1 153 -1 -2	7	1
24 -1 12 -1 -2	89	1
117 -1 17 -1 -2	30	1
55 -1 74 -1 68 -1 -2	4	1
111 -1 118 -1 -2	44	1
78 -1 50 -1 -2	73	1
144 -1 64 -1 -2	22	1
63 -1 26 -1 113 -1 -2	19	1
41 -1 115 -1 117 -1 70 -1 -2	1	1
133 -1 52 -1 -2	38	1
10 -1 15 -1 -2	178	1
56 -1 248 -1 -2	28	1
21 -1 144 -1 245 -1 -2	94	1
4 -1 2 -1 -2	69	1
61 -1 259 -1 -2	24	1
12 -1 53 -1 -2	71	1
10 -1 114 -1 28 -1 -2	15	1
123 -1 17 -1 -2	2	1
4 -1 19 -1 -2	151	1
50 -1 257 -1 84 -1 -2	2	1
2 -1 46 -1 110 -1 -2	45	1
70 -1 1 -1 -2	33	1
15 -1 5 -1 -2	88	1
62 -1 246 -1 -2	101	1
70 -1 55 -1 -2	36	1
133 -1 170 -1 -2	11	1
32 -1 247 -1 -2	93	1
143 -1 46 -1 -2	63	1
154 -1 52 -1 253 -1 -2	1	1
249 -1 -2	28	3
12 -1 54 -1 -2	76	1
49 -1 4 -1 48 -1 69 -1 -2	1	1
152 -1 -2	5	1
35 -1 67 -1 -2	96	1
10 -1 56 -1 -2	125	1
85 -1 -2	61	8
146 -1 -2	162	36
135 -1 150 -1 -2	32	1
12 -1 32 -1 197 -1 -2	4	1
13 -1 32 -1 255 -1 -2	39	1
14 -1 57 -1 -2	78	2
5 -1 25 -1 245 -1 -2	51	1
74 -1 3 -1 -2	28	1
121 -1 33 -1 -2	14	1
61 -1 88 -1 -2	17	1
11 -1 253 -1 -2	391	3
247 -1 254 -1 -2	20	1
23 -1 37 -1 -2	120	2
53 -1 259 -1 -2	42	1
146 -1 15 -1 -2	27	1
37 -1 133 -1 -2	93	1
104 -1 -2	21	5
20 -1 16 -1 -2	123	1
76 -1 81 -1 -2	23	1
49 -1 149 -1 -2	82	1
8 -1 23 -1 -2	331	2
110 -1 143 -1 -2	347	2
37 -1 92 -1 -2	10	1
53 -1 255 -1 -2	67	2
108 -1 50 -1 -2	29	1
38 -1 9 -1 -2	58	1
14 -1 70 -1 -2	65	1
100 -1 68 -1 -2	7	1
40 -1 81 -1 6 -1 -2	2	1
75 -1 246 -1 -2	51	1
21 -1 246 -1 -2	140	1
12 -1 246 -1 -2	158	1
64 -1 118 -1 -2	64	2
23 -1 143 -1 -2	289	1
105 -1 57 -1 149 -1 -2	2	1
26 -1 218 -1 -2	17	1
139 -1 174 -1 102 -1 -2	1	1
27 -1 246 -1 -2	276	1
30 -1 37 -1 -2	75	1
74 -1 108 -1 245 -1 9 -1 -2	1	1
68 -1 143 -1 76 -1 -2	12	1
59 -1 253 -1 -2	177	1
37 -1 66 -1 -2	54	2
96 -1 147 -1 -2	4	1
15 -1 250 -1 -2	62	1
60 -1 28 -1 -2	54	1
33 -1 64 -1 139 -1 -2	14	1
79 -1 47 -1 -2	66	2
28 -1 114 -1 -2	76	1
20 -1 78 -1 -2	142	1
96 -1 16 -1 -2	11	1
253 -1 33 -1 -2	32	1
14 -1 72 -1 -2	51	1
19 -1 79 -1 -2	137	2
7 -1 23 -1 -2	79	2
62 -1 9 -1 -2	22	1
31 -1 36 -1 -2	182	1
146 -1 250 -1 17 -1 -2	1	1
27 -1 58 -1 -2	105	1
40 -1 168 -1 -2	9	1
12 -1 30 -1 -2	101	1
17 -1 117 -1 -2	488	1
81 -1 -2	92	18
144 -1 250 -1 -2	78	1
18 -1 14 -1 -2	138	2
73 -1 255 -1 -2	52	1
13 -1 16 -1 -2	180	2
125 -1 84 -1 -2	3	1
73 -1 78 -1 -2	113	2
121 -1 179 -1 -2	8	1
60 -1 27 -1 117 -1 -2	43	1
10 -1 143 -1 -2	390	2
17 -1 144 -1 245 -1 -2	282	1
17 -1 36 -1 -2	373	2
8 -1 69 -1 67 -1 -2	33	1
18 -1 17 -1 257 -1 -2	5	1
35 -1 149 -1 16 -1 -2	27	1
53 -1 1 -1 -2	63	1
1 -1 64 -1 -2	140	1
46 -1 144 -1 -2	154	2
9 -1 5 -1 16 -1 -2	27	1
19 -1 71 -1 -2	50	1
64 -1 33 -1 -2	37	1
9 -1 23 -1 -2	283	1
18 -1 144 -1 44 -1 -2	26	1
8 -1 18 -1 -2	393	2
11 -1 81 -1 -2	37	1
147 -1 150 -1 -2	61	1
195 -1 198 -1 -2	37	1
63 -1 61 -1 -2	48	1
40 -1 73 -1 -2	44	1
36 -1 22 -1 63 -1 82 -1 248 -1 -2	1	1
2 -1 50 -1 -2	129	1
219 -1 -2	11	2
114 -1 146 -1 -2	47	1
245 -1 46 -1 -2	37	2
11 -1 247 -1 -2	130	1
1 -1 23 -1 -2	317	1
23 -1 45 -1 -2	122	1
23 -1 1 -1 -2	94	2
5 -1 133 -1 -2	130	1
11 -1 27 -1 -2	196	1
88 -1 117 -1 143 -1 -2	32	1
9 -1 117 -1 -2	434	1
36 -1 195 -1 -2	122	3
8 -1 108 -1 109 -1 -2	59	1
8 -1 86 -1 -2	56	1
50 -1 65 -1 262 -1 -2	9	1
8 -1 144 -1 -2	376	2
82 -1 -2	93	14
1 -1 165 -1 -2	21	1
10 -1 111 -1 -2	43	1
31 -1 21 -1 -2	109	1
11 -1 144 -1 -2	238	2
46 -1 111 -1 -2	28	1
71 -1 38 -1 -2	39	1
1 -1 77 -1 3 -1 -2	13	1
9 -1 6 -1 -2	190	1
34 -1 9 -1 177 -1 -2	2	1
133 -1 144 -1 195 -1 -2	45	1
44 -1 32 -1 -2	88	1
3 -1 144 -1 -2	118	2
18 -1 117 -1 -2	376	3
6 -1 14 -1 -2	67	2
36 -1 133 -1 30 -1 -2	38	1
26 -1 143 -1 -2	486	2
23 -1 84 -1 -2	40	1
210 -1 -2	36	8
23 -1 39 -1 -2	129	1
65 -1 26 -1 -2	56	1
117 -1 2 -1 -2	59	1
57 -1 259 -1 -2	38	1
25 -1 11 -1 -2	65	2
128 -1 -2	3	2
32 -1 8 -1 -2	41	1
97 -1 113 -1 -2	21	1
50 -1 24 -1 -2	65	1
263 -1 -2	9	3
27 -1 7 -1 143 -1 -2	83	1
1 -1 49 -1 -2	201	2
70 -1 83 -1 86 -1 -2	3	1
266 -1 -2	35	5
195 -1 247 -1 -2	38	1
13 -1 31 -1 76 -1 -2	21	1
56 -1 13 -1 -2	45	1
53 -1 30 -1 -2	80	1
55 -1 15 -1 -2	48	1
7 -1 135 -1 -2	26	2
56 -1 65 -1 -2	35	1
202 -1 -2	9	2
8 -1 23 -1 245 -1 -2	197	1
60 -1 74 -1 -2	28	1
61 -1 103 -1 -2	7	1
36 -1 54 -1 -2	123	1
58 -1 253 -1 -2	210	1
51 -1 146 -1 -2	54	1
7 -1 42 -1 -2	71	1
19 -1 45 -1 -2	112	2
309 -1 -2	32	3
17 -1 245 -1 -2	478	3
100 -1 -2	25	2
52 -1 252 -1 -2	27	1
2 -1 87 -1 -2	25	1
79 -1 113 -1 195 -1 -2	72	1
108 -1 27 -1 -2	19	1
24 -1 7 -1 -2	84	1
31 -1 144 -1 -2	213	1
9 -1 246 -1 -2	338	2
141 -1 144 -1 -2	46	1
9 -1 63 -1 -2	137	1
122 -1 69 -1 -2	3	1
18 -1 248 -1 -2	62	2
143 -1 166 -1 -2	19	1
33 -1 38 -1 256 -1 -2	7	1
11 -1 12 -1 -2	141	1
18 -1 37 -1 -2	167	2
31 -1 6 -1 -2	100	1
2 -1 71 -1 184 -1 -2	3	1
9 -1 37 -1 -2	217	1
7 -1 143 -1 -2	220	1
48 -1 118 -1 -2	117	1
144 -1 48 -1 -2	45	1
132 -1 29 -1 -2	61	1
10 -1 61 -1 246 -1 -2	40	1
1 -1 50 -1 -2	217	1
5 -1 245 -1 -2	239	1
29 -1 66 -1 -2	46	1
8 -1 50 -1 -2	212	1
43 -1 144 -1 -2	131	1
89 -1 20 -1 -2	15	1
49 -1 245 -1 -2	168	1
2 -1 72 -1 256 -1 -2	10	1
14 -1 149 -1 -2	147	1
4 -1 37 -1 24 -1 -2	22	1
121 -1 139 -1 -2	33	1
61 -1 187 -1 253 -1 -2	10	1
184 -1 -2	48	13
42 -1 266 -1 -2	12	1
73 -1 17 -1 43 -1 -2	7	1
168 -1 -2	33	3
16 -1 71 -1 246 -1 -2	18	1
82 -1 106 -1 -2	4	1
50 -1 13 -1 -2	51	1
47 -1 36 -1 1 -1 53 -1 -2	1	1
66 -1 22 -1 118 -1 -2	23	1
11 -1 46 -1 -2	129	3
16 -1 118 -1 -2	136	1
55 -1 187 -1 -2	7	1
25 -1 254 -1 -2	23	1
39 -1 61 -1 -2	47	1
74 -1 37 -1 139 -1 250 -1 -2	3	1
38 -1 39 -1 -2	104	1
36 -1 110 -1 -2	256	3
114 -1 13 -1 -2	21	1
20 -1 22 -1 -2	148	1
2 -1 56 -1 -2	105	1
82 -1 53 -1 70 -1 -2	5	1
1 -1 144 -1 -2	405	2
29 -1 19 -1 -2	90	1
33 -1 146 -1 51 -1 -2	4	1
77 -1 6 -1 -2	17	1
51 -1 143 -1 -2	167	1
35 -1 145 -1 -2	71	2
10 -1 16 -1 -2	183	1
58 -1 53 -1 -2	59	1
38 -1 22 -1 -2	78	1
120 -1 27 -1 -2	10	1
59 -1 17 -1 -2	42	1
17 -1 50 -1 -2	199	1
10 -1 78 -1 -2	220	1
22 -1 117 -1 -2	287	3
36 -1 108 -1 149 -1 -2	36	1
27 -1 113 -1 -2	172	1
10 -1 21 -1 209 -1 -2	10	1
26 -1 72 -1 -2	82	1
7 -1 118 -1 -2	130	1
22 -1 26 -1 70 -1 189 -1 -2	7	1
14 -1 16 -1 -2	132	1
111 -1 47 -1 -2	18	1
133 -1 44 -1 -2	35	1
1 -1 65 -1 -2	147	1
78 -1 120 -1 -2	71	1
79 -1 50 -1 -2	69	1
25 -1 256 -1 -2	31	1
13 -1 98 -1 -2	23	1
9 -1 248 -1 -2	69	1
39 -1 70 -1 149 -1 -2	14	1
62 -1 53 -1 -2	49	2
24 -1 33 -1 -2	92	1
66 -1 69 -1 -2	30	1
72 -1 17 -1 -2	36	1
44 -1 38 -1 -2	79	2
42 -1 96 -1 38 -1 -2	3	1
103 -1 144 -1 -2	8	1
32 -1 190 -1 86 -1 -2	3	1
99 -1 75 -1 -2	9	1
11 -1 45 -1 33 -1 -2	25	1
134 -1 250 -1 -2	16	1
8 -1 44 -1 -2	234	1
59 -1 18 -1 -2	47	1
136 -1 143 -1 -2	91	1
18 -1 78 -1 -2	207	1
53 -1 110 -1 -2	107	1
167 -1 -2	11	1
17 -1 149 -1 -2	244	3
55 -1 164 -1 -2	5	1
145 -1 250 -1 -2	27	1
49 -1 139 -1 260 -1 -2	5	1
42 -1 10 -1 -2	53	1
43 -1 51 -1 -2	51	1
11 -1 119 -1 -2	36	1
190 -1 256 -1 -2	7	1
72 -1 75 -1 -2	21	1
101 -1 -2	39	9
70 -1 21 -1 -2	49	1
16 -1 150 -1 167 -1 -2	2	1
5 -1 139 -1 -2	134	1
81 -1 45 -1 -2	23	1
23 -1 80 -1 6 -1 -2	7	1
70 -1 253 -1 -2	181	1
20 -1 54 -1 -2	93	1
35 -1 195 -1 -2	133	1
42 -1 182 -1 -2	2	1
1 -1 8 -1 -2	308	2
10 -1 20 -1 75 -1 -2	27	1
21 -1 266 -1 -2	14	1
61 -1 150 -1 -2	46	1
83 -1 114 -1 117 -1 -2	8	1
40 -1 118 -1 -2	126	1
18 -1 35 -1 -2	327	1
31 -1 35 -1 -2	229	2
144 -1 246 -1 -2	255	1
132 -1 34 -1 -2	55	1
149 -1 197 -1 253 -1 -2	31	1
26 -1 32 -1 -2	215	1
132 -1 253 -1 -2	291	2
32 -1 33 -1 -2	101	1
16 -1 20 -1 -2	99	2
1 -1 44 -1 -2	229	2
60 -1 13 -1 -2	48	1
52 -1 19 -1 26 -1 -2	16	1
29 -1 262 -1 -2	46	1
37 -1 48 -1 35 -1 246 -1 -2	3	1
185 -1 -2	13	2
31 -1 253 -1 -2	348	1
123 -1 -2	20	2
140 -1 57 -1 -2	4	1
8 -1 143 -1 -2	524	4
26 -1 42 -1 -2	172	1
61 -1 198 -1 -2	13	1
66 -1 7 -1 52 -1 -2	5	1
2 -1 114 -1 258 -1 -2	11	1
79 -1 133 -1 -2	156	1
26 -1 36 -1 -2	322	1
59 -1 50 -1 -2	42	1
67 -1 6 -1 -2	33	1
47 -1 23 -1 -2	87	1
44 -1 117 -1 67 -1 -2	12	1
43 -1 85 -1 37 -1 -2	1	1
31 -1 119 -1 -2	37	1
17 -1 189 -1 -2	73	1
17 -1 45 -1 -2	224	1
16 -1 310 -1 -2	17	1
110 -1 59 -1 246 -1 -2	17	1
78 -1 255 -1 -2	106	2
1 -1 9 -1 -2	374	2
48 -1 52 -1 -2	67	1
117 -1 65 -1 -2	66	1
31 -1 41 -1 -2	119	1
117 -1 262 -1 -2	78	1
17 -1 32 -1 -2	259	3
8 -1 13 -1 -2	346	2
16 -1 46 -1 -2	74	1
40 -1 57 -1 -2	47	1
81 -1 9 -1 -2	14	1
68 -1 2 -1 -2	17	1
29 -1 144 -1 -2	171	3
23 -1 35 -1 -2	203	1
247 -1 15 -1 -2	14	1
1 -1 27 -1 -2	395	1
66 -1 9 -1 26 -1 57 -1 190 -1 -2	1	1
5 -1 1 -1 26 -1 -2	59	1
73 -1 253 -1 -2	164	1
22 -1 59 -1 -2	105	1
57 -1 143 -1 -2	138	1
13 -1 144 -1 150 -1 -2	93	1
31 -1 12 -1 -2	113	2
1 -1 253 -1 -2	616	1
23 -1 22 -1 -2	104	1
56 -1 149 -1 -2	68	1
56 -1 143 -1 253 -1 -2	143	1
199 -1 246 -1 -2	18	1
147 -1 166 -1 -2	5	1
24 -1 80 -1 -2	24	1
89 -1 117 -1 -2	33	1
245 -1 22 -1 -2	42	1
8 -1 36 -1 -2	403	3
27 -1 45 -1 50 -1 -2	33	1
55 -1 47 -1 -2	55	1
59 -1 139 -1 -2	69	1
15 -1 14 -1 -2	98	1
37 -1 1 -1 -2	65	1
36 -1 253 -1 -2	459	1
164 -1 -2	22	2
37 -1 149 -1 -2	98	1
17 -1 110 -1 -2	310	1
45 -1 72 -1 -2	33	1
70 -1 80 -1 -2	21	1
201 -1 46 -1 -2	2	1
26 -1 43 -1 -2	194	1
19 -1 110 -1 2 -1 -2	15	1
61 -1 195 -1 -2	43	1
212 -1 -2	7	3
48 -1 78 -1 59 -1 -2	11	1
20 -1 34 -1 -2	119	2
133 -1 150 -1 -2	130	2
70 -1 144 -1 -2	100	1
21 -1 27 -1 -2	87	1
33 -1 144 -1 -2	129	1
2 -1 57 -1 113 -1 -2	22	1
55 -1 118 -1 23 -1 -2	21	1
114 -1 31 -1 -2	32	1
63 -1 246 -1 -2	99	1
31 -1 75 -1 -2	40	2
79 -1 144 -1 -2	191	3
89 -1 60 -1 -2	14	1
44 -1 40 -1 -2	81	1
27 -1 253 -1 -2	443	2
76 -1 69 -1 33 -1 -2	9	1
28 -1 47 -1 -2	102	2
19 -1 38 -1 8 -1 -2	12	1
7 -1 280 -1 -2	8	1
9 -1 20 -1 -2	271	3
66 -1 22 -1 -2	51	1
17 -1 35 -1 -2	459	1
90 -1 144 -1 -2	25	1
51 -1 60 -1 -2	40	1
12 -1 79 -1 110 -1 -2	42	1
154 -1 -2	10	3
107 -1 177 -1 -2	1	1
56 -1 95 -1 -2	7	1
2 -1 132 -1 -2	121	1
49 -1 85 -1 -2	15	1
109 -1 253 -1 -2	84	2
97 -1 51 -1 3 -1 -2	2	1
10 -1 12 -1 -2	163	1
63 -1 68 -1 -2	33	1
140 -1 78 -1 -2	2	1
42 -1 149 -1 -2	91	1
20 -1 144 -1 -2	215	1
110 -1 114 -1 -2	66	1
110 -1 81 -1 -2	23	1
133 -1 3 -1 22 -1 -2	4	1
49 -1 20 -1 -2	61	1
13 -1 34 -1 -2	150	1
90 -1 16 -1 -2	13	1
146 -1 54 -1 -2	16	1
9 -1 74 -1 121 -1 -2	8	1
12 -1 90 -1 -2	13	1
181 -1 -2	31	9
17 -1 66 -1 34 -1 -2	23	1
22 -1 65 -1 -2	77	1
9 -1 90 -1 -2	44	1
65 -1 62 -1 -2	46	1
25 -1 6 -1 -2	53	2
36 -1 39 -1 -2	158	1
171 -1 -2	31	5
37 -1 16 -1 -2	77	1
19 -1 23 -1 -2	154	1
14 -1 245 -1 -2	282	1
24 -1 9 -1 -2	69	2
39 -1 16 -1 -2	80	1
34 -1 24 -1 -2	68	1
21 -1 253 -1 53 -1 -2	3	1
114 -1 28 -1 -2	32	1
12 -1 79 -1 -2	82	1
44 -1 245 -1 -2	207	1
42 -1 283 -1 -2	5	1
1 -1 118 -1 -2	403	1
29 -1 32 -1 171 -1 24 -1 -2	2	1
48 -1 263 -1 -2	1	1
10 -1 246 -1 -2	261	1
25 -1 34 -1 -2	71	1
15 -1 310 -1 -2	19	1
5 -1 33 -1 -2	118	1
28 -1 34 -1 -2	120	1
90 -1 56 -1 -2	15	1
9 -1 45 -1 -2	229	1
91 -1 94 -1 -2	5	1
19 -1 191 -1 -2	51	1
14 -1 133 -1 29 -1 -2	17	1
13 -1 189 -1 -2	57	1
47 -1 245 -1 254 -1 -2	18	1
100 -1 88 -1 -2	6	1
23 -1 27 -1 61 -1 -2	33	1
143 -1 27 -1 -2	55	1
1 -1 79 -1 -2	250	1
44 -1 11 -1 -2	80	1
180 -1 250 -1 -2	19	1
113 -1 195 -1 -2	140	1
28 -1 41 -1 37 -1 -2	22	1
77 -1 3 -1 -2	14	1
22 -1 266 -1 -2	19	1
117 -1 29 -1 -2	113	1
93 -1 149 -1 -2	12	1
72 -1 162 -1 -2	5	1
245 -1 21 -1 -2	69	1
253 -1 16 -1 -2	36	1
10 -1 245 -1 -2	356	1
97 -1 64 -1 40 -1 -2	2	1
56 -1 36 -1 -2	56	1
44 -1 58 -1 -2	50	2
191 -1 250 -1 256 -1 -2	1	1
33 -1 266 -1 -2	17	1
186 -1 -2	8	4
46 -1 246 -1 -2	163	1
35 -1 262 -1 -2	84	1
27 -1 42 -1 21 -1 -2	28	1
2 -1 86 -1 27 -1 -2	10	1
1 -1 91 -1 -2	33	1
63 -1 195 -1 -2	40	1
50 -1 85 -1 253 -1 -2	10	1
17 -1 113 -1 42 -1 -2	44	1
29 -1 47 -1 45 -1 -2	13	1
54 -1 110 -1 -2	88	1
33 -1 79 -1 -2	67	1
105 -1 26 -1 -2	10	1
32 -1 139 -1 -2	111	1
17 -1 110 -1 57 -1 -2	58	1
22 -1 78 -1 -2	187	1
12 -1 67 -1 -2	44	1
128 -1 80 -1 79 -1 71 -1 -2	1	1
60 -1 52 -1 -2	49	1
59 -1 113 -1 48 -1 39 -1 -2	3	1
139 -1 173 -1 -2	17	1
14 -1 90 -1 -2	21	1
60 -1 62 -1 149 -1 -2	9	1
8 -1 119 -1 -2	62	2
44 -1 26 -1 -2	77	1
143 -1 167 -1 -2	10	1
54 -1 253 -1 -2	221	1
27 -1 25 -1 -2	145	2
47 -1 46 -1 53 -1 -2	11	1
117 -1 50 -1 -2	98	1
121 -1 6 -1 -2	8	1
17 -1 10 -1 -2	172	1
70 -1 64 -1 -2	43	1
28 -1 36 -1 147 -1 -2	27	1
37 -1 46 -1 -2	86	1
2 -1 41 -1 21 -1 -2	41	1
80 -1 15 -1 -2	25	1
35 -1 22 -1 253 -1 -2	111	1
39 -1 179 -1 58 -1 -2	3	1
9 -1 20 -1 19 -1 -2	67	1
145 -1 253 -1 -2	69	1
15 -1 257 -1 -2	23	1
36 -1 37 -1 -2	161	1
22 -1 133 -1 -2	176	2
15 -1 144 -1 -2	201	1
143 -1 2 -1 -2	25	1
41 -1 50 -1 -2	79	1
117 -1 67 -1 -2	56	2
83 -1 101 -1 -2	9	1
7 -1 11 -1 -2	82	1
173 -1 4 -1 -2	1	1
4 -1 64 -1 -2	69	1
73 -1 110 -1 46 -1 -2	8	1
143 -1 26 -1 -2	33	1
18 -1 39 -1 -2	190	1
132 -1 195 -1 -2	60	2
94 -1 13 -1 18 -1 -2	5	1
4 -1 36 -1 -2	181	1
101 -1 63 -1 -2	11	1
117 -1 261 -1 -2	21	1
36 -1 198 -1 -2	33	1
52 -1 19 -1 -2	67	1
16 -1 3 -1 -2	52	1
24 -1 98 -1 -2	11	1
5 -1 24 -1 44 -1 -2	22	1
9 -1 143 -1 -2	484	3
26 -1 50 -1 -2	173	2
9 -1 29 -1 -2	246	1
9 -1 120 -1 14 -1 -2	18	1
2 -1 245 -1 29 -1 -2	38	1
69 -1 112 -1 -2	8	1
10 -1 31 -1 -2	216	1
36 -1 67 -1 -2	84	1
14 -1 252 -1 -2	42	1
35 -1 30 -1 -2	169	1
28 -1 195 -1 -2	119	1
150 -1 71 -1 247 -1 -2	2	1
62 -1 40 -1 -2	38	1
143 -1 245 -1 -2	462	1
8 -1 39 -1 -2	266	1
110 -1 12 -1 255 -1 -2	24	1
45 -1 253 -1 259 -1 -2	37	1
56 -1 11 -1 55 -1 -2	6	1
102 -1 43 -1 295 -1 -2	1	1
53 -1 144 -1 12 -1 -2	10	1
22 -1 51 -1 -2	108	1
13 -1 144 -1 -2	241	1
2 -1 133 -1 -2	153	1
146 -1 65 -1 -2	14	1
13 -1 111 -1 -2	32	1
34 -1 11 -1 -2	60	1
246 -1 253 -1 -2	392	1
50 -1 54 -1 -2	62	2
65 -1 113 -1 41 -1 -2	12	1
16 -1 144 -1 -2	168	1
23 -1 119 -1 -2	33	1
117 -1 37 -1 59 -1 -2	10	1
243 -1 -2	1	1
52 -1 212 -1 -2	3	1
50 -1 60 -1 -2	47	1
89 -1 10 -1 -2	9	1
1 -1 197 -1 -2	48	1
10 -1 92 -1 -2	27	1
63 -1 118 -1 -2	75	1
117 -1 141 -1 -2	77	1
21 -1 1 -1 -2	48	2
24 -1 143 -1 -2	209	2
136 -1 141 -1 -2	24	1
46 -1 62 -1 -2	61	1
20 -1 252 -1 -2	43	1
210 -1 62 -1 -2	3	1
18 -1 56 -1 -2	142	1
144 -1 63 -1 -2	27	1
48 -1 53 -1 59 -1 -2	12	1
58 -1 117 -1 -2	117	1
132 -1 146 -1 -2	54	1
5 -1 195 -1 -2	67	1
42 -1 7 -1 -2	65	1
76 -1 66 -1 -2	26	1
8 -1 38 -1 14 -1 -2	49	1
5 -1 98 -1 59 -1 -2	4	1
132 -1 219 -1 -2	9	1
35 -1 56 -1 -2	128	1
75 -1 71 -1 -2	27	1
21 -1 218 -1 -2	6	1
8 -1 143 -1 55 -1 59 -1 -2	4	1
13 -1 214 -1 -2	5	1
32 -1 84 -1 137 -1 -2	1	1
118 -1 190 -1 -2	58	2
42 -1 187 -1 -2	12	1
45 -1 246 -1 -2	185	2
74 -1 14 -1 -2	45	1
24 -1 67 -1 -2	54	1
37 -1 245 -1 -2	202	2
136 -1 14 -1 -2	19	1
34 -1 145 -1 255 -1 -2	5	1
81 -1 67 -1 -2	15	1
49 -1 6 -1 -2	50	1
28 -1 35 -1 -2	235	1
22 -1 108 -1 132 -1 144 -1 253 -1 -2	11	1
26 -1 145 -1 -2	54	1
246 -1 271 -1 -2	5	1
4 -1 24 -1 -2	133	1
132 -1 33 -1 -2	58	1
144 -1 38 -1 245 -1 -2	11	1
63 -1 18 -1 -2	47	1
42 -1 43 -1 58 -1 24 -1 -2	1	1
26 -1 46 -1 -2	176	1
35 -1 23 -1 117 -1 -2	55	1
109 -1 119 -1 -2	7	1
75 -1 41 -1 -2	29	1
6 -1 40 -1 33 -1 -2	9	1
113 -1 7 -1 -2	63	1
8 -1 79 -1 -2	285	1
1 -1 47 -1 117 -1 -2	108	1
120 -1 71 -1 -2	14	1
1 -1 245 -1 -2	517	1
14 -1 254 -1 -2	44	1
65 -1 99 -1 -2	10	1
64 -1 79 -1 -2	47	1
253 -1 25 -1 -2	53	1
20 -1 247 -1 -2	102	1
32 -1 39 -1 173 -1 -2	3	1
11 -1 22 -1 -2	171	2
47 -1 143 -1 -2	191	2
99 -1 39 -1 -2	8	1
63 -1 11 -1 83 -1 -2	2	1
8 -1 28 -1 139 -1 47 -1 -2	16	1
26 -1 253 -1 -2	532	3
39 -1 118 -1 50 -1 -2	26	1
35 -1 150 -1 34 -1 -2	20	1
2 -1 78 -1 25 -1 210 -1 -2	3	1
4 -1 23 -1 -2	168	1
144 -1 23 -1 -2	61	1
110 -1 60 -1 209 -1 -2	7	1
58 -1 143 -1 246 -1 -2	102	1
62 -1 60 -1 -2	36	1
23 -1 164 -1 -2	11	1
29 -1 65 -1 38 -1 59 -1 -2	1	1
1 -1 143 -1 -2	574	2
1 -1 42 -1 50 -1 -2	41	1
48 -1 22 -1 -2	82	2
12 -1 119 -1 -2	25	1
139 -1 145 -1 173 -1 -2	8	1
110 -1 7 -1 -2	109	1
16 -1 74 -1 -2	41	1
105 -1 11 -1 -2	6	1
10 -1 14 -1 -2	172	1
110 -1 52 -1 -2	67	1
43 -1 53 -1 -2	66	1
110 -1 210 -1 -2	35	1
201 -1 -2	10	2
132 -1 143 -1 -2	289	1
32 -1 181 -1 -2	12	1
143 -1 247 -1 -2	185	1
107 -1 253 -1 -2	19	1
2 -1 261 -1 -2	16	1
23 -1 3 -1 -2	64	1
71 -1 179 -1 -2	9	1
55 -1 262 -1 -2	36	1
246 -1 12 -1 -2	39	1
2 -1 93 -1 -2	15	1
8 -1 27 -1 64 -1 -2	58	1
64 -1 120 -1 125 -1 -2	1	1
79 -1 37 -1 -2	72	2
110 -1 51 -1 -2	59	1
9 -1 255 -1 -2	143	1
26 -1 139 -1 -2	261	1
36 -1 3 -1 -2	91	1
20 -1 63 -1 -2	63	1
20 -1 110 -1 -2	168	1
133 -1 248 -1 -2	38	1
8 -1 34 -1 -2	252	1
65 -1 46 -1 -2	35	1
89 -1 40 -1 -2	7	1
33 -1 53 -1 -2	64	1
110 -1 173 -1 -2	23	1
11 -1 65 -1 266 -1 -2	4	1
34 -1 120 -1 -2	40	1
36 -1 22 -1 -2	127	1
41 -1 12 -1 -2	82	1
22 -1 26 -1 -2	292	2
143 -1 44 -1 -2	54	1
94 -1 82 -1 -2	6	1
57 -1 20 -1 -2	59	1
42 -1 63 -1 67 -1 -2	3	1
11 -1 14 -1 -2	152	1
12 -1 1 -1 -2	86	1
33 -1 52 -1 -2	58	1
60 -1 34 -1 -2	48	1
1 -1 58 -1 -2	184	1
85 -1 88 -1 -2	8	1
1 -1 63 -1 -2	157	2
246 -1 37 -1 -2	32	1
245 -1 250 -1 -2	78	1
264 -1 -2	10	2
80 -1 79 -1 -2	26	1
49 -1 9 -1 -2	45	1
46 -1 48 -1 -2	82	1
120 -1 45 -1 -2	21	1
58 -1 254 -1 -2	22	1
81 -1 38 -1 -2	21	1
13 -1 79 -1 -2	167	1
40 -1 253 -1 -2	251	2
185 -1 76 -1 -2	1	1
245 -1 32 -1 -2	68	1
53 -1 143 -1 -2	241	1
8 -1 108 -1 -2	76	1
39 -1 32 -1 133 -1 -2	21	1
132 -1 101 -1 -2	4	1
133 -1 32 -1 -2	78	1
13 -1 11 -1 -2	145	1
76 -1 37 -1 -2	36	1
13 -1 247 -1 -2	141	1
16 -1 27 -1 -2	98	1
5 -1 218 -1 -2	11	1
2 -1 36 -1 -2	195	1
38 -1 41 -1 -2	89	1
27 -1 30 -1 -2	162	1
74 -1 108 -1 -2	17	1
257 -1 29 -1 -2	6	1
35 -1 253 -1 -2	527	1
14 -1 8 -1 144 -1 -2	44	1
38 -1 123 -1 -2	8	1
75 -1 20 -1 132 -1 -2	5	1
4 -1 286 -1 -2	8	1
49 -1 32 -1 -2	61	1
66 -1 257 -1 -2	12	1
59 -1 37 -1 -2	42	1
1 -1 47 -1 118 -1 136 -1 246 -1 -2	7	1
51 -1 133 -1 -2	87	1
35 -1 191 -1 -2	58	1
96 -1 166 -1 163 -1 135 -1 -2	1	1
80 -1 190 -1 -2	3	1
24 -1 64 -1 49 -1 -2	9	1
79 -1 112 -1 150 -1 -2	7	1
189 -1 38 -1 -2	7	1
94 -1 78 -1 -2	13	1
14 -1 56 -1 247 -1 -2	27	1
60 -1 28 -1 32 -1 -2	14	1
32 -1 118 -1 3 -1 -2	14	1
117 -1 204 -1 -2	6	1
26 -1 51 -1 -2	153	2
1 -1 31 -1 -2	292	1
50 -1 139 -1 -2	94	1
1 -1 109 -1 -2	62	1
10 -1 39 -1 113 -1 133 -1 -2	27	1
60 -1 18 -1 -2	51	1
36 -1 149 -1 -2	201	2
27 -1 250 -1 -2	86	1
23 -1 50 -1 -2	119	1
1 -1 26 -1 -2	399	1
118 -1 35 -1 -2	32	1
17 -1 40 -1 23 -1 -2	44	1
70 -1 34 -1 -2	49	1
5 -1 27 -1 -2	142	1
59 -1 88 -1 -2	6	1
133 -1 42 -1 -2	59	2
41 -1 162 -1 -2	5	1
28 -1 26 -1 -2	118	1
13 -1 42 -1 16 -1 -2	30	1
26 -1 34 -1 -2	205	1
34 -1 51 -1 49 -1 -2	7	1
49 -1 87 -1 -2	15	1
27 -1 34 -1 11 -1 -2	21	1
13 -1 35 -1 -2	267	1
97 -1 144 -1 -2	24	1
6 -1 118 -1 -2	129	1
8 -1 78 -1 -2	313	1
7 -1 255 -1 -2	77	1
35 -1 114 -1 -2	134	1
146 -1 246 -1 -2	86	1
179 -1 256 -1 -2	10	1
36 -1 15 -1 33 -1 -2	21	1
18 -1 79 -1 -2	195	1
85 -1 19 -1 -2	16	1
47 -1 28 -1 -2	74	1
73 -1 118 -1 -2	79	1
36 -1 74 -1 253 -1 256 -1 -2	10	1
57 -1 178 -1 -2	1	1
1 -1 62 -1 -2	152	1
118 -1 32 -1 -2	94	1
32 -1 257 -1 -2	30	1
8 -1 109 -1 75 -1 -2	6	1
27 -1 7 -1 -2	153	1
23 -1 259 -1 -2	53	1
42 -1 119 -1 -2	21	1
82 -1 110 -1 -2	43	1
36 -1 150 -1 -2	169	1
22 -1 67 -1 20 -1 -2	7	1
61 -1 4 -1 -2	31	1
106 -1 -2	13	3
2 -1 16 -1 46 -1 268 -1 -2	1	1
17 -1 15 -1 -2	219	1
204 -1 -2	6	1
53 -1 133 -1 -2	141	1
76 -1 43 -1 74 -1 -2	3	1
108 -1 113 -1 -2	28	1
6 -1 150 -1 -2	90	1
136 -1 83 -1 -2	2	1
2 -1 113 -1 -2	127	1
30 -1 253 -1 -2	277	2
18 -1 180 -1 69 -1 -2	2	1
4 -1 47 -1 -2	102	1
13 -1 117 -1 -2	287	1
35 -1 80 -1 -2	40	1
39 -1 19 -1 -2	82	1
28 -1 65 -1 -2	62	1
14 -1 8 -1 -2	73	1
44 -1 86 -1 -2	15	1
4 -1 46 -1 -2	139	1
3 -1 252 -1 -2	23	1
27 -1 33 -1 -2	164	1
9 -1 28 -1 -2	290	1
107 -1 141 -1 -2	7	1
18 -1 7 -1 120 -1 -2	23	1
18 -1 79 -1 136 -1 262 -1 -2	1	1
65 -1 3 -1 -2	23	1
22 -1 141 -1 -2	56	1
4 -1 66 -1 -2	66	1
253 -1 254 -1 -2	60	1
42 -1 114 -1 -2	47	1
178 -1 -2	2	1
51 -1 12 -1 119 -1 -2	2	1
36 -1 41 -1 -2	178	1
110 -1 245 -1 -2	302	1
72 -1 150 -1 -2	37	1
62 -1 61 -1 -2	43	1
2 -1 9 -1 -2	222	1
30 -1 149 -1 -2	112	1
113 -1 114 -1 143 -1 -2	72	1
31 -1 259 -1 -2	48	1
56 -1 246 -1 -2	135	1
27 -1 44 -1 -2	147	1
117 -1 143 -1 -2	528	2
16 -1 245 -1 -2	215	1
75 -1 20 -1 -2	34	1
90 -1 26 -1 78 -1 -2	16	1
98 -1 -2	38	4
88 -1 143 -1 -2	42	1
35 -1 78 -1 -2	288	2
50 -1 11 -1 -2	62	1
22 -1 110 -1 -2	184	1
7 -1 90 -1 -2	8	1
117 -1 195 -1 -2	142	1
64 -1 246 -1 -2	88	1
11 -1 18 -1 -2	199	1
64 -1 143 -1 -2	112	1
21 -1 250 -1 -2	44	1
252 -1 33 -1 -2	6	1
51 -1 56 -1 -2	52	1
14 -1 118 -1 -2	186	2
3 -1 10 -1 -2	56	1
19 -1 43 -1 -2	101	2
37 -1 246 -1 -2	164	2
41 -1 143 -1 -2	259	2
246 -1 77 -1 -2	6	1
3 -1 139 -1 -2	84	1
106 -1 269 -1 -2	1	1
74 -1 78 -1 -2	122	1
4 -1 118 -1 21 -1 -2	57	1
36 -1 42 -1 -2	134	1
47 -1 50 -1 67 -1 -2	7	1
22 -1 253 -1 -2	414	1
51 -1 144 -1 -2	116	1
23 -1 180 -1 -2	32	1
15 -1 139 -1 -2	139	2
62 -1 13 -1 132 -1 -2	7	1
22 -1 34 -1 -2	156	1
117 -1 7 -1 -2	103	1
39 -1 245 -1 -2	200	1
113 -1 2 -1 -2	30	1
49 -1 117 -1 190 -1 -2	12	1
10 -1 42 -1 -2	147	1
24 -1 11 -1 -2	81	1
63 -1 255 -1 -2	47	1
1 -1 86 -1 262 -1 -2	5	1
115 -1 -2	22	5
68 -1 179 -1 -2	14	1
19 -1 35 -1 -2	174	1
227 -1 -2	4	1
77 -1 13 -1 -2	13	1
110 -1 31 -1 -2	69	1
46 -1 58 -1 147 -1 -2	5	1
190 -1 30 -1 -2	7	1
14 -1 22 -1 -2	167	2
133 -1 47 -1 -2	42	1
1 -1 19 -1 11 -1 -2	66	1
28 -1 79 -1 -2	154	2
3 -1 48 -1 -2	50	1
103 -1 115 -1 47 -1 -2	1	1
82 -1 145 -1 -2	13	1
100 -1 57 -1 -2	8	1
50 -1 153 -1 -2	18	1
61 -1 110 -1 -2	68	1
68 -1 139 -1 -2	76	1
247 -1 106 -1 -2	1	1
190 -1 259 -1 -2	4	1
26 -1 46 -1 250 -1 -2	38	1
64 -1 253 -1 -2	144	1
1 -1 20 -1 246 -1 253 -1 -2	118	1
74 -1 19 -1 28 -1 -2	4	1
38 -1 246 -1 -2	162	1
31 -1 39 -1 285 -1 -2	1	1
4 -1 43 -1 -2	125	2
45 -1 78 -1 -2	101	1
23 -1 82 -1 -2	24	1
15 -1 78 -1 -2	111	1
49 -1 139 -1 -2	92	1
191 -1 40 -1 -2	5	1
3 -1 246 -1 -2	106	1
64 -1 20 -1 -2	32	1
8 -1 245 -1 247 -1 -2	123	1
44 -1 25 -1 -2	87	1
82 -1 86 -1 -2	13	1
47 -1 8 -1 -2	35	1
8 -1 1 -1 -2	289	1
18 -1 31 -1 -2	212	1
195 -1 197 -1 -2	51	1
38 -1 7 -1 -2	82	1
80 -1 144 -1 -2	38	1
56 -1 24 -1 -2	50	1
114 -1 209 -1 -2	25	1
108 -1 132 -1 -2	41	1
117 -1 89 -1 -2	16	1
35 -1 46 -1 -2	161	2
8 -1 17 -1 -2	486	2
5 -1 139 -1 144 -1 -2	99	1
2 -1 20 -1 -2	181	1
141 -1 22 -1 -2	14	1
251 -1 -2	16	2
123 -1 246 -1 248 -1 -2	3	1
58 -1 69 -1 -2	32	1
2 -1 144 -1 -2	217	1
41 -1 144 -1 -2	195	1
41 -1 32 -1 -2	103	1
137 -1 35 -1 -2	3	1
195 -1 262 -1 -2	29	1
161 -1 -2	11	1
60 -1 247 -1 -2	57	1
9 -1 55 -1 -2	161	1
44 -1 62 -1 -2	49	1
2 -1 47 -1 -2	125	1
6 -1 66 -1 -2	39	1
19 -1 110 -1 -2	149	1
19 -1 95 -1 -2	12	1
41 -1 20 -1 -2	94	1
7 -1 198 -1 -2	18	1
53 -1 54 -1 -2	99	1
147 -1 49 -1 -2	13	1
118 -1 25 -1 -2	92	1
23 -1 253 -1 -2	365	1
4 -1 145 -1 -2	41	1
60 -1 79 -1 51 -1 -2	11	1
9 -1 10 -1 -2	311	2
21 -1 123 -1 -2	6	1
126 -1 107 -1 -2	3	1
13 -1 24 -1 -2	150	2
16 -1 42 -1 -2	75	1
121 -1 250 -1 253 -1 -2	7	1
184 -1 252 -1 -2	10	1
9 -1 12 -1 41 -1 -2	41	1
26 -1 245 -1 -2	432	1
74 -1 23 -1 -2	45	1
32 -1 309 -1 -2	19	1
114 -1 253 -1 -2	180	1
43 -1 149 -1 -2	76	1
164 -1 260 -1 -2	3	1
30 -1 17 -1 -2	70	1
58 -1 48 -1 72 -1 -2	5	1
24 -1 16 -1 -2	83	1
23 -1 18 -1 -2	101	1
11 -1 118 -1 -2	209	1
17 -1 60 -1 -2	136	2
252 -1 259 -1 -2	6	1
20 -1 29 -1 -2	128	1
118 -1 16 -1 -2	94	1
121 -1 66 -1 -2	8	1
69 -1 144 -1 -2	89	1
8 -1 55 -1 -2	183	1
2 -1 49 -1 -2	104	1
151 -1 250 -1 -2	14	1
91 -1 82 -1 -2	7	1
35 -1 310 -1 -2	21	1
101 -1 108 -1 -2	17	1
31 -1 143 -1 -2	288	1
13 -1 18 -1 -2	226	1
203 -1 71 -1 -2	1	1
7 -1 31 -1 49 -1 -2	11	1
99 -1 144 -1 -2	21	1
6 -1 117 -1 -2	150	1
38 -1 11 -1 -2	64	1
31 -1 16 -1 -2	102	1
30 -1 8 -1 35 -1 -2	9	1
48 -1 253 -1 -2	250	1
32 -1 281 -1 -2	6	1
35 -1 16 -1 -2	178	1
10 -1 1 -1 -2	166	1
40 -1 119 -1 -2	17	1
120 -1 246 -1 -2	93	1
67 -1 55 -1 -2	31	1
17 -1 28 -1 -2	297	2
23 -1 40 -1 -2	122	1
28 -1 81 -1 -2	31	1
59 -1 54 -1 -2	51	2
45 -1 52 -1 -2	73	1
35 -1 40 -1 -2	159	2
28 -1 119 -1 -2	33	1
41 -1 24 -1 -2	75	1
63 -1 36 -1 144 -1 -2	28	1
149 -1 245 -1 -2	185	1
146 -1 209 -1 -2	11	1
110 -1 55 -1 -2	56	1
147 -1 253 -1 -2	79	1
12 -1 48 -1 -2	70	1
118 -1 257 -1 -2	27	1
108 -1 109 -1 28 -1 -2	18	1
82 -1 28 -1 -2	23	1
47 -1 79 -1 25 -1 -2	16	1
117 -1 23 -1 -2	106	1
73 -1 144 -1 -2	90	1
114 -1 56 -1 -2	25	1
41 -1 48 -1 -2	89	1
62 -1 35 -1 -2	62	1
182 -1 -2	7	1
21 -1 8 -1 -2	41	1
1 -1 72 -1 -2	124	1
83 -1 190 -1 -2	7	1
68 -1 110 -1 -2	68	1
28 -1 49 -1 -2	100	1
17 -1 20 -1 -2	306	2
67 -1 20 -1 -2	40	1
21 -1 247 -1 -2	59	1
108 -1 245 -1 -2	61	1
26 -1 87 -1 133 -1 -2	9	1
45 -1 61 -1 -2	44	1
17 -1 88 -1 261 -1 -2	2	1
42 -1 109 -1 -2	25	1
10 -1 35 -1 16 -1 22 -1 -2	5	1
6 -1 39 -1 -2	83	1
22 -1 23 -1 -2	194	1
35 -1 52 -1 -2	127	1
15 -1 115 -1 -2	10	1
143 -1 21 -1 -2	102	1
146 -1 47 -1 -2	15	1
118 -1 259 -1 -2	53	1
9 -1 51 -1 -2	188	1
13 -1 66 -1 93 -1 -2	2	1
11 -1 143 -1 -2	324	1
46 -1 78 -1 -2	110	1
54 -1 13 -1 -2	45	1
153 -1 37 -1 -2	2	1
124 -1 -2	21	2
60 -1 117 -1 -2	121	1
107 -1 90 -1 -2	2	1
17 -1 18 -1 -2	429	2
41 -1 1 -1 -2	77	1
55 -1 81 -1 -2	13	1
31 -1 47 -1 -2	96	1
17 -1 78 -1 -2	305	1
120 -1 210 -1 -2	17	1
117 -1 71 -1 -2	46	1
5 -1 118 -1 -2	158	1
245 -1 58 -1 -2	36	1
117 -1 68 -1 -2	56	1
18 -1 7 -1 -2	171	1
45 -1 3 -1 -2	44	1
58 -1 34 -1 48 -1 -2	8	1
21 -1 6 -1 -2	57	1
26 -1 78 -1 150 -1 -2	60	1
31 -1 11 -1 -2	103	1
81 -1 253 -1 -2	78	1
18 -1 57 -1 -2	110	1
69 -1 118 -1 -2	81	1
17 -1 132 -1 -2	248	1
20 -1 26 -1 -2	220	1
51 -1 28 -1 -2	53	1
57 -1 144 -1 -2	109	1
9 -1 69 -1 -2	146	1
71 -1 48 -1 -2	33	1
100 -1 36 -1 74 -1 -2	3	1
13 -1 10 -1 -2	118	1
39 -1 150 -1 -2	81	1
45 -1 59 -1 -2	56	1
117 -1 118 -1 -2	383	1
13 -1 43 -1 36 -1 -2	20	1
45 -1 33 -1 -2	77	2
49 -1 250 -1 -2	53	1
5 -1 29 -1 212 -1 -2	2	1
175 -1 -2	17	4
78 -1 65 -1 -2	59	1
35 -1 164 -1 -2	18	1
28 -1 44 -1 -2	108	1
92 -1 63 -1 -2	6	1
52 -1 4 -1 -2	37	1
9 -1 245 -1 -2	417	2
8 -1 37 -1 -2	255	1
72 -1 245 -1 -2	100	1
22 -1 11 -1 -2	127	1
10 -1 29 -1 -2	189	2
34 -1 63 -1 -2	33	1
28 -1 180 -1 -2	36	1
79 -1 45 -1 -2	77	1
40 -1 27 -1 71 -1 -2	12	1
87 -1 141 -1 -2	7	1
42 -1 26 -1 136 -1 -2	10	1
25 -1 147 -1 -2	31	1
7 -1 10 -1 -2	68	2
25 -1 33 -1 -2	74	1
52 -1 180 -1 -2	16	1
60 -1 78 -1 150 -1 -2	13	1
25 -1 253 -1 -2	231	1
12 -1 16 -1 20 -1 -2	22	1
142 -1 -2	1	1
23 -1 47 -1 -2	98	1
17 -1 191 -1 -2	77	1
144 -1 30 -1 -2	51	1
4 -1 165 -1 -2	12	1
13 -1 114 -1 -2	110	1
4 -1 38 -1 247 -1 -2	33	1
27 -1 110 -1 -2	224	1
14 -1 132 -1 -2	138	1
36 -1 117 -1 33 -1 -2	88	1
45 -1 19 -1 -2	80	1
29 -1 76 -1 -2	34	1
4 -1 264 -1 -2	7	1
41 -1 27 -1 -2	99	1
13 -1 25 -1 209 -1 -2	8	1
38 -1 10 -1 -2	64	1
89 -1 53 -1 -2	15	1
76 -1 3 -1 -2	18	1
30 -1 260 -1 -2	12	1
51 -1 37 -1 -2	62	1
67 -1 34 -1 133 -1 -2	9	1
26 -1 33 -1 -2	202	1
133 -1 41 -1 32 -1 -2	9	1
83 -1 147 -1 -2	10	1
32 -1 13 -1 -2	73	1
60 -1 23 -1 -2	66	1
91 -1 72 -1 84 -1 -2	3	1
46 -1 179 -1 246 -1 -2	13	1
8 -1 114 -1 -2	151	1
37 -1 91 -1 118 -1 -2	2	1
6 -1 16 -1 -2	85	2
32 -1 43 -1 -2	80	1
26 -1 27 -1 -2	377	1
43 -1 14 -1 -2	32	1
49 -1 114 -1 -2	33	1
47 -1 68 -1 -2	42	1
63 -1 123 -1 -2	2	1
90 -1 256 -1 -2	6	1
10 -1 255 -1 -2	116	1
175 -1 179 -1 -2	8	1
32 -1 31 -1 -2	83	1
15 -1 261 -1 -2	14	1
72 -1 133 -1 -2	55	1
91 -1 86 -1 -2	5	1
15 -1 132 -1 -2	131	1
26 -1 56 -1 -2	146	1
16 -1 69 -1 139 -1 -2	18	1
133 -1 11 -1 -2	46	1
114 -1 11 -1 -2	29	1
78 -1 139 -1 -2	168	1
121 -1 249 -1 -2	2	1
58 -1 54 -1 179 -1 -2	3	1
149 -1 191 -1 -2	40	1
17 -1 18 -1 66 -1 -2	76	1
51 -1 16 -1 42 -1 -2	7	1
25 -1 149 -1 -2	87	1
73 -1 5 -1 -2	29	1
55 -1 250 -1 -2	51	1
144 -1 245 -1 -2	334	2
38 -1 50 -1 -2	75	1
151 -1 -2	16	1
85 -1 39 -1 -2	18	1
30 -1 43 -1 -2	62	1
64 -1 31 -1 -2	44	1
15 -1 79 -1 64 -1 -2	12	1
245 -1 85 -1 -2	9	1
3 -1 41 -1 255 -1 -2	13	1
78 -1 41 -1 -2	68	1
57 -1 45 -1 -2	52	1
53 -1 9 -1 -2	50	1
280 -1 -2	16	2
45 -1 56 -1 -2	66	1
5 -1 23 -1 -2	133	1
53 -1 59 -1 -2	54	1
15 -1 25 -1 -2	112	1
3 -1 42 -1 -2	49	1
49 -1 59 -1 -2	50	1
4 -1 1 -1 -2	159	1
8 -1 10 -1 -2	374	2
227 -1 38 -1 -2	1	1
46 -1 34 -1 52 -1 -2	15	1
73 -1 45 -1 -2	45	1
53 -1 35 -1 12 -1 -2	21	1
27 -1 53 -1 -2	154	2
29 -1 110 -1 -2	103	1
12 -1 9 -1 -2	82	1
113 -1 20 -1 -2	69	1
43 -1 27 -1 -2	62	1
108 -1 69 -1 -2	9	1
14 -1 7 -1 117 -1 -2	48	1
2 -1 124 -1 -2	5	1
37 -1 69 -1 -2	45	1
18 -1 76 -1 -2	77	1
5 -1 10 -1 -2	137	1
10 -1 253 -1 -2	448	2
68 -1 108 -1 31 -1 -2	6	1
150 -1 87 -1 -2	5	1
79 -1 10 -1 -2	53	2
60 -1 143 -1 51 -1 -2	16	1
8 -1 91 -1 139 -1 -2	11	1
8 -1 35 -1 -2	460	1
118 -1 72 -1 14 -1 -2	3	1
23 -1 120 -1 -2	71	1
75 -1 6 -1 -2	21	1
3 -1 113 -1 -2	47	1
44 -1 249 -1 -2	7	1
61 -1 48 -1 -2	53	1
15 -1 180 -1 -2	33	1
10 -1 67 -1 -2	91	1
32 -1 144 -1 -2	157	2
22 -1 54 -1 -2	108	2
36 -1 38 -1 -2	162	1
58 -1 73 -1 -2	37	1
132 -1 260 -1 -2	14	1
61 -1 73 -1 -2	33	1
118 -1 85 -1 -2	16	1
10 -1 133 -1 -2	210	1
18 -1 10 -1 -2	145	1
144 -1 190 -1 -2	60	2
132 -1 59 -1 -2	49	1
143 -1 144 -1 -2	408	1
29 -1 8 -1 -2	49	1
153 -1 255 -1 -2	10	1
46 -1 143 -1 -2	214	1
47 -1 98 -1 -2	10	1
153 -1 175 -1 -2	2	1
114 -1 40 -1 25 -1 -2	4	1
37 -1 29 -1 -2	87	1
30 -1 143 -1 -2	210	1
18 -1 22 -1 77 -1 -2	15	1
90 -1 33 -1 -2	12	1
31 -1 51 -1 39 -1 288 -1 -2	2	1
74 -1 13 -1 253 -1 -2	32	1
15 -1 18 -1 21 -1 -2	49	1
117 -1 134 -1 143 -1 67 -1 -2	5	1
6 -1 23 -1 -2	90	1
1 -1 173 -1 -2	32	1
8 -1 117 -1 94 -1 -2	13	1
26 -1 118 -1 -2	336	1
37 -1 53 -1 -2	80	1
24 -1 97 -1 -2	18	1
20 -1 40 -1 -2	120	1
28 -1 52 -1 -2	103	1
53 -1 211 -1 -2	3	1
107 -1 -2	21	1
70 -1 35 -1 -2	54	1
5 -1 6 -1 -2	112	1
118 -1 74 -1 -2	18	1
37 -1 181 -1 -2	17	1
9 -1 253 -1 -2	539	1
41 -1 110 -1 -2	152	1
5 -1 60 -1 -2	60	1
9 -1 57 -1 68 -1 -2	18	1
70 -1 117 -1 -2	126	1
6 -1 32 -1 -2	97	1
22 -1 267 -1 -2	2	1
145 -1 168 -1 -2	12	1
59 -1 115 -1 13 -1 43 -1 -2	1	1
35 -1 7 -1 -2	201	1
117 -1 144 -1 39 -1 -2	55	1
49 -1 139 -1 245 -1 -2	75	1
79 -1 35 -1 31 -1 -2	7	1
146 -1 48 -1 -2	16	1
117 -1 34 -1 -2	115	1
49 -1 30 -1 -2	64	1
13 -1 253 -1 -2	408	1
55 -1 144 -1 -2	113	1
16 -1 117 -1 34 -1 -2	28	1
62 -1 195 -1 -2	33	1
36 -1 40 -1 -2	146	2
31 -1 36 -1 12 -1 165 -1 -2	1	1
21 -1 147 -1 -2	22	1
86 -1 117 -1 -2	33	1
35 -1 209 -1 -2	57	1
118 -1 70 -1 -2	28	2
7 -1 12 -1 -2	78	1
1 -1 33 -1 253 -1 -2	184	1
35 -1 26 -1 252 -1 -2	9	1
110 -1 68 -1 -2	52	1
14 -1 246 -1 -2	199	1
8 -1 6 -1 -2	238	2
78 -1 79 -1 253 -1 -2	258	1
102 -1 66 -1 -2	4	1
107 -1 61 -1 -2	6	1
27 -1 119 -1 -2	45	1
139 -1 24 -1 190 -1 254 -1 -2	1	1
69 -1 139 -1 -2	80	1
98 -1 61 -1 82 -1 -2	1	1
105 -1 259 -1 -2	2	1
26 -1 246 -1 -2	348	1
149 -1 283 -1 -2	8	1
2 -1 62 -1 -2	74	1
30 -1 110 -1 -2	94	1
34 -1 133 -1 -2	88	1
51 -1 27 -1 250 -1 -2	14	1
14 -1 110 -1 111 -1 -2	13	1
80 -1 24 -1 -2	20	1
78 -1 53 -1 -2	63	1
24 -1 18 -1 199 -1 -2	5	1
75 -1 64 -1 -2	24	1
4 -1 110 -1 -2	145	1
58 -1 38 -1 6 -1 -2	7	1
68 -1 27 -1 -2	68	1
10 -1 30 -1 88 -1 -2	5	1
61 -1 253 -1 -2	177	1
12 -1 20 -1 -2	98	1
97 -1 80 -1 -2	12	1
48 -1 133 -1 -2	104	1
20 -1 45 -1 34 -1 -2	20	1
39 -1 38 -1 -2	70	1
54 -1 139 -1 -2	93	1
63 -1 245 -1 -2	124	1
43 -1 77 -1 -2	17	1
29 -1 35 -1 248 -1 -2	15	1
13 -1 58 -1 253 -1 -2	98	1
30 -1 78 -1 -2	90	1
190 -1 213 -1 -2	5	1
9 -1 144 -1 246 -1 253 -1 -2	193	1
29 -1 247 -1 -2	98	1
29 -1 17 -1 59 -1 -2	17	1
4 -1 285 -1 -2	1	1
18 -1 245 -1 -2	390	1
65 -1 114 -1 -2	27	1
17 -1 289 -1 -2	3	1
8 -1 58 -1 -2	186	1
21 -1 11 -1 16 -1 -2	17	1
73 -1 133 -1 81 -1 -2	3	1
6 -1 47 -1 20 -1 -2	11	1
37 -1 5 -1 143 -1 -2	38	1
54 -1 41 -1 -2	73	1
23 -1 191 -1 -2	46	1
10 -1 250 -1 253 -1 -2	110	1
11 -1 48 -1 -2	114	1
49 -1 17 -1 120 -1 7 -1 29 -1 -2	1	1
62 -1 76 -1 -2	24	1
28 -1 73 -1 -2	71	1
37 -1 41 -1 246 -1 -2	51	1
71 -1 185 -1 -2	2	1
14 -1 28 -1 117 -1 -2	75	1
28 -1 53 -1 -2	116	1
53 -1 49 -1 -2	63	1
45 -1 17 -1 170 -1 195 -1 -2	1	1
8 -1 11 -1 -2	343	1
10 -1 146 -1 -2	105	1
12 -1 132 -1 -2	107	1
125 -1 149 -1 -2	7	1
31 -1 246 -1 -2	229	1
11 -1 69 -1 -2	77	1
141 -1 144 -1 253 -1 -2	44	1
39 -1 35 -1 -2	98	1
6 -1 48 -1 -2	68	1
2 -1 42 -1 48 -1 254 -1 -2	5	1
62 -1 14 -1 -2	42	1
180 -1 66 -1 -2	3	1
42 -1 247 -1 -2	82	1
1 -1 11 -1 4 -1 -2	53	1
117 -1 44 -1 310 -1 -2	5	1
184 -1 262 -1 -2	4	1
17 -1 31 -1 54 -1 -2	58	1
92 -1 143 -1 -2	29	1
19 -1 36 -1 79 -1 -2	63	1
173 -1 246 -1 -2	25	1
22 -1 84 -1 -2	43	1
7 -1 70 -1 111 -1 -2	4	1
18 -1 21 -1 -2	173	1
113 -1 145 -1 -2	70	1
17 -1 48 -1 -2	202	1
1 -1 249 -1 -2	26	1
113 -1 44 -1 -2	48	1
120 -1 32 -1 -2	36	1
40 -1 13 -1 -2	60	1
68 -1 40 -1 22 -1 132 -1 -2	2	1
26 -1 52 -1 -2	160	1
81 -1 78 -1 -2	36	1
6 -1 20 -1 -2	91	1
7 -1 134 -1 -2	22	1
52 -1 34 -1 -2	75	1
38 -1 17 -1 253 -1 -2	59	1
265 -1 -2	12	1
83 -1 47 -1 -2	15	1
139 -1 82 -1 246 -1 -2	4	1
56 -1 68 -1 -2	36	1
88 -1 118 -1 29 -1 -2	7	1
44 -1 135 -1 -2	16	1
20 -1 42 -1 28 -1 -2	19	1
72 -1 70 -1 -2	30	1
26 -1 262 -1 -2	69	1
8 -1 56 -1 -2	191	1
74 -1 256 -1 -2	22	1
38 -1 144 -1 -2	154	1
16 -1 62 -1 -2	48	1
117 -1 42 -1 -2	92	1
14 -1 78 -1 -2	141	1
67 -1 59 -1 -2	43	1
6 -1 10 -1 34 -1 -2	17	1
92 -1 36 -1 47 -1 144 -1 -2	2	1
11 -1 60 -1 -2	72	1
26 -1 15 -1 -2	182	1
1 -1 54 -1 -2	209	2
36 -1 78 -1 -2	237	1
89 -1 50 -1 -2	18	1
13 -1 250 -1 -2	82	1
14 -1 46 -1 -2	113	1
27 -1 209 -1 -2	62	1
5 -1 19 -1 -2	121	1
28 -1 255 -1 -2	101	1
21 -1 27 -1 73 -1 -2	11	1
20 -1 12 -1 -2	116	1
1 -1 81 -1 -2	76	2
36 -1 88 -1 -2	28	1
15 -1 42 -1 -2	87	1
77 -1 80 -1 -2	12	1
143 -1 145 -1 34 -1 -2	10	1
6 -1 17 -1 -2	67	1
17 -1 92 -1 -2	36	1
31 -1 150 -1 -2	105	1
26 -1 28 -1 -2	227	1
17 -1 29 -1 -2	264	1
12 -1 120 -1 -2	49	1
113 -1 149 -1 -2	179	1
1 -1 26 -1 149 -1 -2	105	1
49 -1 37 -1 -2	60	2
1 -1 42 -1 -2	223	1
35 -1 150 -1 -2	172	1
46 -1 246 -1 66 -1 -2	4	1
129 -1 82 -1 -2	3	1
120 -1 139 -1 -2	82	1
34 -1 13 -1 -2	57	1
7 -1 117 -1 249 -1 -2	7	1
145 -1 209 -1 -2	16	1
76 -1 195 -1 -2	28	1
61 -1 139 -1 -2	78	1
100 -1 111 -1 -2	4	1
45 -1 155 -1 108 -1 -2	1	1
4 -1 17 -1 118 -1 139 -1 -2	74	1
27 -1 22 -1 -2	122	1
17 -1 63 -1 6 -1 -2	17	1
27 -1 29 -1 -2	169	2
3 -1 41 -1 -2	60	1
71 -1 69 -1 139 -1 -2	10	1
63 -1 253 -1 -2	167	1
59 -1 34 -1 -2	51	1
40 -1 17 -1 -2	68	1
113 -1 117 -1 -2	284	2
169 -1 -2	12	1
7 -1 40 -1 -2	70	1
58 -1 55 -1 146 -1 -2	9	1
39 -1 246 -1 -2	149	1
51 -1 197 -1 -2	14	1
13 -1 88 -1 -2	32	1
6 -1 139 -1 -2	102	1
26 -1 7 -1 39 -1 -2	33	1
17 -1 118 -1 -2	352	1
19 -1 18 -1 -2	96	1
79 -1 42 -1 -2	69	1
122 -1 -2	17	2
3 -1 120 -1 -2	42	1
65 -1 246 -1 -2	93	1
139 -1 34 -1 29 -1 -2	7	1
17 -1 113 -1 45 -1 -2	56	1
85 -1 143 -1 -2	40	1
48 -1 144 -1 -2	134	1
15 -1 54 -1 -2	90	1
27 -1 37 -1 64 -1 -2	16	1
33 -1 14 -1 -2	55	1
28 -1 79 -1 64 -1 -2	22	1
74 -1 253 -1 -2	168	1
17 -1 253 -1 -2	578	1
115 -1 99 -1 -2	1	1
11 -1 47 -1 -2	121	1
74 -1 19 -1 -2	49	1
23 -1 13 -1 -2	95	1
94 -1 89 -1 -2	8	1
20 -1 36 -1 245 -1 -2	127	1
145 -1 5 -1 -2	4	1
40 -1 164 -1 -2	9	1
65 -1 83 -1 -2	19	1
31 -1 33 -1 -2	121	1
49 -1 40 -1 -2	55	1
120 -1 14 -1 132 -1 -2	4	1
63 -1 99 -1 -2	8	1
22 -1 6 -1 36 -1 -2	24	1
22 -1 36 -1 -2	213	1
45 -1 44 -1 -2	74	1
35 -1 5 -1 -2	127	1
13 -1 191 -1 -2	59	1
205 -1 -2	8	1
9 -1 20 -1 110 -1 116 -1 -2	2	1
51 -1 1 -1 -2	49	1
47 -1 253 -1 -2	253	1
68 -1 166 -1 179 -1 -2	3	1
8 -1 255 -1 53 -1 -2	4	1
37 -1 35 -1 -2	115	1
47 -1 46 -1 -2	68	1
72 -1 66 -1 -2	23	1
48 -1 254 -1 -2	24	1
24 -1 38 -1 -2	89	1
144 -1 310 -1 -2	14	1
55 -1 46 -1 -2	47	1
15 -1 37 -1 -2	101	1
120 -1 12 -1 -2	35	1
49 -1 42 -1 -2	63	1
36 -1 108 -1 -2	56	1
1 -1 10 -1 12 -1 -2	85	1
15 -1 11 -1 -2	108	1
18 -1 23 -1 44 -1 -2	52	1
76 -1 90 -1 -2	8	1
113 -1 68 -1 -2	33	1
68 -1 53 -1 -2	37	1
113 -1 3 -1 -2	50	1
46 -1 190 -1 -2	23	1
81 -1 18 -1 -2	15	1
35 -1 3 -1 -2	110	1
26 -1 12 -1 -2	183	1
5 -1 64 -1 -2	54	1
22 -1 41 -1 -2	165	1
64 -1 29 -1 -2	43	1
24 -1 181 -1 246 -1 -2	5	1
3 -1 90 -1 -2	7	1
15 -1 19 -1 -2	128	1
84 -1 69 -1 -2	21	1
11 -1 28 -1 -2	147	1
144 -1 184 -1 -2	30	1
25 -1 47 -1 -2	54	1
1 -1 195 -1 -2	150	1
76 -1 117 -1 -2	77	1
18 -1 27 -1 -2	295	1
63 -1 3 -1 -2	22	1
13 -1 50 -1 -2	138	1
70 -1 24 -1 -2	38	1
47 -1 33 -1 120 -1 -2	6	1
39 -1 141 -1 31 -1 -2	5	1
117 -1 39 -1 12 -1 -2	11	1
62 -1 69 -1 136 -1 -2	4	1
10 -1 19 -1 -2	219	1
77 -1 57 -1 -2	18	1
50 -1 4 -1 -2	46	1
76 -1 281 -1 -2	2	1
22 -1 9 -1 -2	85	1
2 -1 247 -1 -2	110	1
24 -1 144 -1 -2	172	1
19 -1 63 -1 195 -1 -2	13	1
6 -1 149 -1 -2	114	1
143 -1 55 -1 -2	53	1
9 -1 11 -1 -2	301	1
53 -1 63 -1 -2	55	1
162 -1 -2	22	1
32 -1 119 -1 26 -1 -2	3	1
26 -1 41 -1 -2	235	1
195 -1 253 -1 -2	147	1
118 -1 141 -1 -2	49	1
9 -1 41 -1 -2	241	1
75 -1 73 -1 -2	31	1
19 -1 22 -1 5 -1 -2	29	1
106 -1 253 -1 -2	11	1
13 -1 30 -1 -2	172	1
1 -1 29 -1 -2	275	1
17 -1 9 -1 -2	125	1
5 -1 27 -1 110 -1 -2	57	1
27 -1 65 -1 -2	77	1
118 -1 195 -1 -2	87	1
6 -1 94 -1 245 -1 -2	2	1
147 -1 113 -1 -2	1	1
9 -1 52 -1 -2	185	1
13 -1 17 -1 -2	281	1
23 -1 43 -1 -2	105	1
6 -1 144 -1 -2	156	1
73 -1 117 -1 -2	124	1
69 -1 145 -1 247 -1 -2	12	1
139 -1 151 -1 -2	8	1
16 -1 24 -1 -2	81	1
23 -1 153 -1 -2	14	1
38 -1 76 -1 -2	27	1
17 -1 6 -1 -2	219	1
54 -1 132 -1 -2	80	1
118 -1 133 -1 -2	176	1
150 -1 10 -1 -2	10	1
117 -1 62 -1 -2	68	1
39 -1 95 -1 -2	6	1
40 -1 62 -1 -2	37	1
4 -1 13 -1 121 -1 -2	8	1
3 -1 27 -1 -2	68	1
166 -1 253 -1 -2	22	1
65 -1 78 -1 250 -1 -2	13	1
44 -1 137 -1 -2	10	1
152 -1 259 -1 262 -1 -2	1	1
46 -1 49 -1 -2	74	1
40 -1 20 -1 255 -1 310 -1 -2	1	1
49 -1 135 -1 -2	20	1
108 -1 149 -1 -2	44	1
36 -1 30 -1 -2	144	1
24 -1 70 -1 -2	39	1
66 -1 10 -1 34 -1 -2	13	1
117 -1 150 -1 -2	181	1
86 -1 75 -1 -2	11	1
9 -1 31 -1 -2	263	1
5 -1 4 -1 -2	71	1
110 -1 75 -1 -2	29	1
10 -1 64 -1 -2	94	1
37 -1 260 -1 -2	13	1
20 -1 31 -1 -2	150	1
55 -1 141 -1 50 -1 -2	5	1
56 -1 250 -1 -2	56	1
99 -1 29 -1 146 -1 7 -1 -2	1	1
79 -1 31 -1 -2	59	1
8 -1 38 -1 -2	264	1
41 -1 38 -1 -2	90	1
253 -1 52 -1 -2	18	1
195 -1 36 -1 -2	6	1
29 -1 31 -1 -2	102	1
11 -1 113 -1 5 -1 143 -1 -2	8	1
8 -1 259 -1 -2	79	1
64 -1 11 -1 -2	40	1
34 -1 144 -1 -2	141	2
66 -1 134 -1 -2	17	1
2 -1 17 -1 -2	227	1
27 -1 1 -1 -2	83	1
55 -1 33 -1 -2	58	1
26 -1 57 -1 -2	124	1
246 -1 252 -1 -2	42	1
16 -1 13 -1 -2	66	1
13 -1 41 -1 -2	174	1
35 -1 118 -1 -2	332	1
20 -1 42 -1 -2	105	1
42 -1 33 -1 251 -1 -2	1	1
82 -1 24 -1 -2	20	1
9 -1 77 -1 -2	75	1
32 -1 69 -1 36 -1 -2	9	1
1 -1 50 -1 68 -1 -2	19	1
59 -1 76 -1 -2	25	1
18 -1 262 -1 -2	77	1
4 -1 73 -1 50 -1 -2	15	1
42 -1 17 -1 -2	57	1
9 -1 54 -1 -2	186	1
36 -1 261 -1 -2	19	1
79 -1 17 -1 23 -1 -2	16	1
17 -1 14 -1 -2	180	1
22 -1 12 -1 -2	136	1
3 -1 5 -1 144 -1 -2	25	1
17 -1 59 -1 -2	159	1
11 -1 9 -1 24 -1 -2	17	1
32 -1 103 -1 -2	6	1
57 -1 24 -1 -2	53	1
71 -1 62 -1 -2	28	1
43 -1 252 -1 -2	23	1
10 -1 79 -1 -2	194	1
105 -1 45 -1 -2	5	1
78 -1 50 -1 246 -1 -2	38	1
48 -1 36 -1 -2	69	1
55 -1 35 -1 -2	83	1
65 -1 4 -1 -2	22	1
53 -1 78 -1 -2	102	1
35 -1 83 -1 -2	30	1
28 -1 250 -1 -2	120	2
24 -1 41 -1 -2	102	1
115 -1 260 -1 -2	1	1
40 -1 190 -1 -2	31	1
132 -1 136 -1 -2	58	1
5 -1 149 -1 72 -1 -2	5	1
75 -1 33 -1 -2	30	1
118 -1 190 -1 62 -1 -2	3	1
10 -1 78 -1 41 -1 -2	37	1
139 -1 15 -1 -2	43	1
27 -1 31 -1 -2	184	1
27 -1 12 -1 -2	141	1
288 -1 -2	8	1
80 -1 250 -1 -2	22	1
52 -1 118 -1 -2	100	1
4 -1 257 -1 -2	32	1
3 -1 59 -1 143 -1 51 -1 7 -1 -2	1	1
21 -1 12 -1 -2	71	1
28 -1 132 -1 -2	132	1
9 -1 13 -1 -2	284	1
112 -1 132 -1 -2	24	1
10 -1 38 -1 -2	175	1
139 -1 6 -1 -2	48	1
34 -1 149 -1 -2	80	1
113 -1 76 -1 -2	27	1
65 -1 164 -1 -2	6	1
24 -1 190 -1 -2	35	1
72 -1 94 -1 -2	15	1
36 -1 4 -1 83 -1 -2	5	1
94 -1 153 -1 -2	5	1
4 -1 139 -1 -2	161	1
45 -1 28 -1 -2	69	1
16 -1 68 -1 150 -1 -2	5	1
39 -1 50 -1 -2	69	1
9 -1 62 -1 24 -1 253 -1 -2	28	1
45 -1 18 -1 -2	77	1
13 -1 18 -1 25 -1 -2	67	1
42 -1 58 -1 -2	39	1
139 -1 54 -1 -2	42	1
83 -1 55 -1 -2	14	1
5 -1 143 -1 -2	254	1
20 -1 63 -1 114 -1 -2	7	1
46 -1 50 -1 -2	84	1
29 -1 284 -1 -2	11	1
56 -1 172 -1 181 -1 -2	4	1
133 -1 253 -1 -2	308	1
29 -1 184 -1 56 -1 -2	3	1
76 -1 42 -1 -2	25	1
132 -1 53 -1 -2	40	1
28 -1 32 -1 -2	150	1
42 -1 99 -1 198 -1 73 -1 -2	1	1
5 -1 114 -1 -2	68	1
14 -1 210 -1 -2	23	1
27 -1 16 -1 257 -1 -2	15	1
37 -1 72 -1 61 -1 -2	7	1
99 -1 84 -1 -2	5	1
58 -1 144 -1 -2	125	1
40 -1 29 -1 -2	85	1
13 -1 36 -1 -2	243	1
81 -1 147 -1 -2	15	1
78 -1 57 -1 -2	60	1
210 -1 59 -1 -2	6	1
50 -1 25 -1 -2	60	1
34 -1 45 -1 -2	82	1
13 -1 101 -1 213 -1 -2	1	1
48 -1 134 -1 -2	18	1
22 -1 52 -1 -2	111	1
2 -1 63 -1 -2	80	1
15 -1 118 -1 -2	170	1
78 -1 95 -1 -2	11	1
49 -1 209 -1 -2	25	1
25 -1 120 -1 -2	44	1
108 -1 143 -1 -2	88	1
60 -1 70 -1 -2	30	1
18 -1 48 -1 -2	162	1
46 -1 120 -1 -2	57	1
113 -1 134 -1 -2	45	1
13 -1 48 -1 42 -1 143 -1 -2	12	1
132 -1 38 -1 -2	68	1
55 -1 21 -1 -2	57	1
76 -1 44 -1 132 -1 -2	9	1
149 -1 255 -1 -2	67	1
1 -1 53 -1 253 -1 -2	222	1
116 -1 -2	11	1
7 -1 41 -1 -2	68	1
85 -1 18 -1 35 -1 219 -1 -2	1	1
28 -1 50 -1 -2	105	1
6 -1 7 -1 -2	98	1
35 -1 39 -1 256 -1 -2	17	1
34 -1 75 -1 -2	24	1
28 -1 136 -1 -2	37	1
17 -1 58 -1 109 -1 -2	12	1
19 -1 84 -1 -2	38	1
30 -1 87 -1 -2	10	1
13 -1 179 -1 -2	40	1
35 -1 50 -1 -2	152	1
189 -1 246 -1 -2	38	1
1 -1 27 -1 144 -1 -2	223	1
12 -1 6 -1 -2	97	1
7 -1 123 -1 -2	4	1
23 -1 56 -1 175 -1 -2	2	1
49 -1 29 -1 117 -1 -2	15	1
112 -1 92 -1 -2	7	1
15 -1 74 -1 -2	49	1
47 -1 59 -1 -2	51	1
34 -1 78 -1 -2	93	1
17 -1 74 -1 -2	137	1
67 -1 141 -1 13 -1 -2	1	1
13 -1 174 -1 -2	9	1
10 -1 53 -1 -2	164	1
26 -1 123 -1 -2	13	1
32 -1 46 -1 132 -1 2 -1 -2	2	1
65 -1 149 -1 -2	54	1
103 -1 20 -1 -2	9	1
81 -1 132 -1 -2	24	1
36 -1 11 -1 -2	121	1
3 -1 13 -1 -2	55	1
15 -1 16 -1 -2	117	1
36 -1 5 -1 -2	101	1
13 -1 53 -1 42 -1 -2	28	1
79 -1 49 -1 -2	62	1
2 -1 259 -1 -2	49	1
4 -1 31 -1 84 -1 -2	13	1
21 -1 84 -1 -2	20	1
24 -1 40 -1 -2	74	1
21 -1 43 -1 -2	63	1
28 -1 97 -1 34 -1 -2	4	1
74 -1 79 -1 -2	110	1
291 -1 -2	1	1
42 -1 87 -1 -2	10	1
4 -1 25 -1 -2	135	1
1 -1 23 -1 38 -1 -2	80	1
12 -1 37 -1 -2	84	1
28 -1 69 -1 -2	89	1
23 -1 117 -1 -2	249	1
38 -1 36 -1 -2	93	1
27 -1 79 -1 -2	154	1
118 -1 58 -1 -2	61	1
51 -1 44 -1 -2	57	1
13 -1 245 -1 25 -1 -2	38	1
9 -1 67 -1 -2	132	1
69 -1 20 -1 184 -1 -2	4	1
59 -1 198 -1 -2	10	1
61 -1 95 -1 81 -1 -2	1	1
48 -1 3 -1 -2	43	1
28 -1 45 -1 16 -1 262 -1 -2	4	1
63 -1 259 -1 -2	21	1
1 -1 114 -1 -2	160	1
110 -1 253 -1 -2	339	1
59 -1 248 -1 -2	28	1
118 -1 7 -1 -2	89	1
39 -1 32 -1 139 -1 -2	19	1
76 -1 197 -1 -2	14	1
33 -1 55 -1 -2	45	1
59 -1 44 -1 -2	36	1
209 -1 24 -1 -2	10	1
85 -1 95 -1 -2	7	1
66 -1 28 -1 -2	45	1
44 -1 40 -1 121 -1 24 -1 -2	1	1
7 -1 52 -1 -2	56	1
211 -1 -2	5	1
1 -1 139 -1 -2	312	1
12 -1 137 -1 -2	8	1
8 -1 20 -1 -2	315	1
14 -1 47 -1 -2	128	1
12 -1 255 -1 -2	81	1
39 -1 70 -1 -2	42	1
1 -1 52 -1 -2	201	1
271 -1 -2	6	1
52 -1 32 -1 -2	69	1
121 -1 143 -1 -2	41	1
133 -1 143 -1 -2	304	1
88 -1 89 -1 -2	12	1
17 -1 42 -1 -2	200	1
60 -1 59 -1 -2	59	1
118 -1 65 -1 -2	42	1
27 -1 109 -1 75 -1 99 -1 178 -1 -2	1	1
25 -1 56 -1 -2	54	1
117 -1 64 -1 -2	64	1
61 -1 246 -1 -2	105	1
23 -1 133 -1 -2	156	1
133 -1 232 -1 -2	3	1
12 -1 43 -1 -2	82	1
9 -1 18 -1 139 -1 -2	141	1
53 -1 137 -1 -2	8	1
45 -1 143 -1 -2	218	1
44 -1 252 -1 -2	22	1
66 -1 139 -1 -2	62	1
2 -1 13 -1 19 -1 -2	65	1
117 -1 145 -1 -2	80	1
108 -1 146 -1 -2	30	1
139 -1 32 -1 -2	60	1
35 -1 173 -1 -2	29	1
46 -1 38 -1 -2	91	1
182 -1 49 -1 -2	1	1
22 -1 245 -1 -2	318	1
45 -1 65 -1 -2	43	1
30 -1 9 -1 -2	57	1
123 -1 93 -1 -2	1	1
8 -1 23 -1 143 -1 -2	197	1
28 -1 3 -1 -2	73	1
117 -1 134 -1 -2	54	1
57 -1 139 -1 -2	81	1
68 -1 22 -1 -2	51	1
51 -1 117 -1 120 -1 55 -1 -2	5	1
5 -1 34 -1 -2	104	1
35 -1 69 -1 -2	123	1
52 -1 81 -1 -2	19	1
143 -1 181 -1 247 -1 30 -1 -2	4	1
71 -1 16 -1 -2	30	1
11 -1 40 -1 52 -1 -2	20	1
74 -1 41 -1 -2	39	1
17 -1 185 -1 -2	13	1
54 -1 34 -1 -2	67	1
1 -1 46 -1 -2	232	1
27 -1 50 -1 -2	142	1
19 -1 195 -1 -2	51	1
27 -1 54 -1 -2	122	1
91 -1 48 -1 -2	8	1
122 -1 24 -1 -2	4	1
41 -1 37 -1 -2	84	1
38 -1 73 -1 -2	44	1
18 -1 46 -1 -2	175	1
