#subsequence (s \in Sample : s ~ D)	freq(s,D)	freq(s,Sample)

139 -1 158 -1 8 -1 95 -1 176 -1 10 -1 77 -1 17 -1 54 -1 114 -1 18 -1 107 -1 154 -1 167 -1 22 -1 26 -1 116 -1 74 -1 84 -1 100 -1 69 -1 117 -1 70 -1 78 -1 41 -1 82 -1 92 -1 131 -1 118 -1 179 -1 143 -1 108 -1 149 -1 245 -1 104 -1 122 -1 254 -1 -2	1	1
5 -1 47 -1 83 -1 68 -1 11 -1 6 -1 15 -1 23 -1 36 -1 69 -1 56 -1 114 -1 120 -1 72 -1 73 -1 133 -1 63 -1 143 -1 34 -1 144 -1 150 -1 46 -1 171 -1 66 -1 245 -1 25 -1 246 -1 39 -1 262 -1 -2	1	1
2 -1 23 -1 8 -1 107 -1 29 -1 51 -1 17 -1 35 -1 52 -1 65 -1 18 -1 19 -1 71 -1 86 -1 32 -1 108 -1 113 -1 93 -1 94 -1 77 -1 135 -1 54 -1 100 -1 95 -1 106 -1 169 -1 6 -1 185 -1 189 -1 70 -1 62 -1 101 -1 247 -1 253 -1 79 -1 257 -1 -2	1	1
1 -1 110 -1 166 -1 8 -1 95 -1 176 -1 10 -1 153 -1 13 -1 90 -1 19 -1 107 -1 167 -1 129 -1 27 -1 42 -1 75 -1 36 -1 57 -1 79 -1 131 -1 132 -1 143 -1 144 -1 147 -1 141 -1 171 -1 245 -1 122 -1 29 -1 85 -1 -2	1	1
5 -1 83 -1 6 -1 30 -1 18 -1 26 -1 12 -1 69 -1 49 -1 108 -1 37 -1 117 -1 139 -1 1 -1 34 -1 51 -1 144 -1 67 -1 147 -1 149 -1 52 -1 171 -1 66 -1 38 -1 245 -1 25 -1 -2	1	1
2 -1 46 -1 107 -1 83 -1 72 -1 13 -1 17 -1 18 -1 20 -1 19 -1 53 -1 32 -1 110 -1 113 -1 103 -1 133 -1 96 -1 169 -1 33 -1 190 -1 245 -1 247 -1 256 -1 258 -1 -2	1	1
15 -1 107 -1 12 -1 13 -1 35 -1 30 -1 22 -1 19 -1 38 -1 24 -1 99 -1 50 -1 108 -1 67 -1 113 -1 117 -1 94 -1 132 -1 68 -1 115 -1 135 -1 143 -1 106 -1 63 -1 33 -1 79 -1 84 -1 258 -1 -2	1	1
46 -1 23 -1 1 -1 107 -1 9 -1 29 -1 83 -1 10 -1 12 -1 13 -1 20 -1 71 -1 53 -1 38 -1 108 -1 105 -1 113 -1 134 -1 135 -1 95 -1 147 -1 153 -1 106 -1 169 -1 6 -1 182 -1 185 -1 63 -1 189 -1 33 -1 70 -1 59 -1 79 -1 258 -1 -2	1	1
17 -1 24 -1 20 -1 31 -1 44 -1 38 -1 52 -1 37 -1 28 -1 113 -1 114 -1 15 -1 122 -1 14 -1 134 -1 33 -1 139 -1 21 -1 147 -1 66 -1 149 -1 180 -1 189 -1 190 -1 247 -1 253 -1 -2	1	1
2 -1 46 -1 73 -1 15 -1 23 -1 39 -1 29 -1 35 -1 20 -1 109 -1 71 -1 53 -1 86 -1 41 -1 38 -1 50 -1 108 -1 110 -1 93 -1 94 -1 104 -1 133 -1 77 -1 135 -1 143 -1 69 -1 100 -1 96 -1 169 -1 6 -1 31 -1 185 -1 187 -1 33 -1 101 -1 247 -1 59 -1 84 -1 -2	1	1
2 -1 121 -1 107 -1 9 -1 99 -1 10 -1 45 -1 109 -1 66 -1 17 -1 46 -1 26 -1 108 -1 35 -1 25 -1 1 -1 79 -1 49 -1 117 -1 119 -1 70 -1 76 -1 101 -1 146 -1 105 -1 163 -1 168 -1 249 -1 253 -1 91 -1 259 -1 153 -1 262 -1 -2	1	1
5 -1 15 -1 118 -1 10 -1 13 -1 17 -1 35 -1 19 -1 71 -1 86 -1 32 -1 36 -1 38 -1 24 -1 110 -1 93 -1 103 -1 134 -1 115 -1 153 -1 31 -1 190 -1 101 -1 256 -1 -2	1	1
23 -1 39 -1 107 -1 118 -1 29 -1 83 -1 13 -1 42 -1 35 -1 30 -1 109 -1 71 -1 85 -1 32 -1 38 -1 67 -1 105 -1 117 -1 103 -1 104 -1 133 -1 68 -1 145 -1 96 -1 169 -1 185 -1 63 -1 190 -1 247 -1 256 -1 258 -1 -2	1	1
134 -1 9 -1 138 -1 17 -1 114 -1 53 -1 167 -1 58 -1 31 -1 83 -1 84 -1 35 -1 100 -1 36 -1 99 -1 70 -1 41 -1 82 -1 170 -1 131 -1 178 -1 143 -1 147 -1 141 -1 149 -1 245 -1 246 -1 247 -1 29 -1 254 -1 -2	1	1
76 -1 39 -1 18 -1 24 -1 61 -1 82 -1 44 -1 40 -1 98 -1 110 -1 132 -1 4 -1 66 -1 19 -1 143 -1 11 -1 174 -1 83 -1 209 -1 227 -1 230 -1 65 -1 80 -1 247 -1 -2	1	1
73 -1 8 -1 107 -1 118 -1 29 -1 10 -1 12 -1 13 -1 42 -1 51 -1 17 -1 52 -1 71 -1 38 -1 50 -1 108 -1 110 -1 103 -1 77 -1 135 -1 95 -1 149 -1 96 -1 169 -1 6 -1 182 -1 111 -1 185 -1 63 -1 187 -1 189 -1 70 -1 59 -1 256 -1 79 -1 257 -1 84 -1 -2	1	1
13 -1 17 -1 15 -1 44 -1 50 -1 27 -1 28 -1 54 -1 8 -1 36 -1 41 -1 113 -1 57 -1 117 -1 120 -1 70 -1 72 -1 133 -1 136 -1 3 -1 49 -1 144 -1 71 -1 163 -1 190 -1 212 -1 252 -1 48 -1 -2	1	1
46 -1 118 -1 17 -1 35 -1 65 -1 18 -1 30 -1 26 -1 41 -1 36 -1 82 -1 38 -1 24 -1 50 -1 108 -1 110 -1 105 -1 113 -1 93 -1 117 -1 68 -1 135 -1 69 -1 100 -1 95 -1 153 -1 31 -1 63 -1 187 -1 33 -1 253 -1 79 -1 -2	1	1
5 -1 1 -1 107 -1 118 -1 9 -1 10 -1 13 -1 35 -1 65 -1 18 -1 109 -1 22 -1 71 -1 53 -1 86 -1 41 -1 24 -1 108 -1 67 -1 110 -1 94 -1 132 -1 68 -1 134 -1 115 -1 143 -1 54 -1 145 -1 147 -1 106 -1 6 -1 182 -1 189 -1 247 -1 253 -1 257 -1 -2	1	1
46 -1 73 -1 118 -1 29 -1 72 -1 51 -1 17 -1 35 -1 65 -1 71 -1 36 -1 82 -1 99 -1 50 -1 67 -1 110 -1 93 -1 133 -1 54 -1 100 -1 95 -1 153 -1 187 -1 190 -1 70 -1 247 -1 -2	1	1
46 -1 8 -1 1 -1 107 -1 9 -1 29 -1 109 -1 19 -1 36 -1 24 -1 99 -1 108 -1 67 -1 105 -1 113 -1 93 -1 117 -1 103 -1 104 -1 77 -1 135 -1 143 -1 69 -1 95 -1 149 -1 153 -1 182 -1 111 -1 185 -1 189 -1 33 -1 245 -1 62 -1 59 -1 256 -1 -2	1	1
73 -1 23 -1 1 -1 39 -1 29 -1 12 -1 13 -1 52 -1 19 -1 53 -1 36 -1 82 -1 99 -1 105 -1 113 -1 93 -1 103 -1 77 -1 143 -1 54 -1 69 -1 106 -1 6 -1 31 -1 185 -1 63 -1 187 -1 70 -1 101 -1 59 -1 84 -1 258 -1 -2	1	1
15 -1 1 -1 107 -1 9 -1 83 -1 10 -1 42 -1 18 -1 109 -1 26 -1 53 -1 32 -1 41 -1 38 -1 24 -1 67 -1 117 -1 132 -1 103 -1 133 -1 100 -1 145 -1 31 -1 187 -1 189 -1 190 -1 62 -1 258 -1 -2	1	1
2 -1 95 -1 121 -1 186 -1 8 -1 61 -1 99 -1 39 -1 45 -1 110 -1 96 -1 109 -1 13 -1 178 -1 82 -1 125 -1 155 -1 141 -1 156 -1 31 -1 157 -1 35 -1 25 -1 79 -1 49 -1 117 -1 58 -1 119 -1 106 -1 136 -1 137 -1 105 -1 163 -1 168 -1 247 -1 253 -1 91 -1 97 -1 259 -1 145 -1 -2	1	1
1 -1 107 -1 12 -1 72 -1 42 -1 51 -1 35 -1 52 -1 30 -1 53 -1 32 -1 82 -1 38 -1 67 -1 93 -1 68 -1 135 -1 100 -1 95 -1 147 -1 149 -1 106 -1 169 -1 6 -1 31 -1 111 -1 185 -1 63 -1 33 -1 70 -1 245 -1 59 -1 256 -1 84 -1 -2	1	1
2 -1 23 -1 8 -1 12 -1 42 -1 52 -1 30 -1 109 -1 85 -1 26 -1 86 -1 82 -1 24 -1 50 -1 67 -1 105 -1 132 -1 6 -1 31 -1 111 -1 189 -1 245 -1 257 -1 -2	1	1
46 -1 73 -1 5 -1 23 -1 107 -1 12 -1 51 -1 35 -1 52 -1 18 -1 30 -1 86 -1 36 -1 82 -1 38 -1 67 -1 93 -1 133 -1 68 -1 135 -1 143 -1 96 -1 111 -1 189 -1 70 -1 253 -1 59 -1 79 -1 -2	1	1
46 -1 15 -1 23 -1 107 -1 12 -1 35 -1 52 -1 20 -1 22 -1 19 -1 36 -1 24 -1 99 -1 113 -1 93 -1 117 -1 132 -1 115 -1 149 -1 106 -1 169 -1 6 -1 33 -1 245 -1 256 -1 -2	1	1
166 -1 113 -1 40 -1 153 -1 168 -1 13 -1 130 -1 17 -1 54 -1 114 -1 18 -1 19 -1 107 -1 22 -1 109 -1 165 -1 35 -1 100 -1 36 -1 117 -1 79 -1 170 -1 179 -1 94 -1 178 -1 108 -1 -2	1	1
1 -1 120 -1 24 -1 61 -1 17 -1 8 -1 113 -1 9 -1 73 -1 87 -1 69 -1 77 -1 65 -1 107 -1 22 -1 70 -1 80 -1 28 -1 110 -1 143 -1 181 -1 63 -1 39 -1 108 -1 246 -1 -2	1	1
186 -1 99 -1 110 -1 124 -1 109 -1 14 -1 179 -1 82 -1 125 -1 20 -1 23 -1 148 -1 155 -1 31 -1 68 -1 108 -1 157 -1 35 -1 56 -1 73 -1 78 -1 1 -1 79 -1 49 -1 113 -1 94 -1 106 -1 101 -1 120 -1 145 -1 262 -1 135 -1 -2	1	1
110 -1 139 -1 8 -1 95 -1 113 -1 140 -1 10 -1 153 -1 168 -1 89 -1 138 -1 54 -1 90 -1 114 -1 53 -1 107 -1 115 -1 27 -1 31 -1 84 -1 42 -1 99 -1 117 -1 82 -1 119 -1 179 -1 178 -1 108 -1 141 -1 149 -1 150 -1 104 -1 29 -1 -2	1	1
23 -1 83 -1 72 -1 42 -1 52 -1 18 -1 19 -1 41 -1 36 -1 24 -1 99 -1 132 -1 135 -1 69 -1 153 -1 106 -1 169 -1 31 -1 63 -1 33 -1 79 -1 257 -1 258 -1 -2	1	1
5 -1 15 -1 23 -1 8 -1 107 -1 12 -1 72 -1 42 -1 30 -1 20 -1 19 -1 71 -1 26 -1 53 -1 50 -1 105 -1 93 -1 132 -1 68 -1 135 -1 145 -1 149 -1 106 -1 6 -1 111 -1 190 -1 245 -1 101 -1 79 -1 257 -1 84 -1 258 -1 -2	1	1
46 -1 73 -1 1 -1 39 -1 83 -1 10 -1 13 -1 42 -1 35 -1 65 -1 18 -1 30 -1 22 -1 19 -1 82 -1 108 -1 113 -1 117 -1 104 -1 135 -1 145 -1 95 -1 147 -1 169 -1 6 -1 111 -1 189 -1 33 -1 253 -1 257 -1 -2	1	1
2 -1 23 -1 8 -1 83 -1 10 -1 42 -1 35 -1 52 -1 65 -1 22 -1 85 -1 53 -1 86 -1 24 -1 108 -1 67 -1 110 -1 105 -1 93 -1 94 -1 104 -1 133 -1 115 -1 145 -1 169 -1 31 -1 111 -1 33 -1 190 -1 70 -1 101 -1 256 -1 257 -1 84 -1 -2	1	1
2 -1 15 -1 118 -1 13 -1 17 -1 35 -1 65 -1 22 -1 71 -1 32 -1 24 -1 99 -1 50 -1 113 -1 93 -1 103 -1 77 -1 115 -1 143 -1 100 -1 147 -1 153 -1 182 -1 189 -1 33 -1 190 -1 257 -1 -2	1	1
23 -1 83 -1 10 -1 72 -1 13 -1 17 -1 35 -1 30 -1 109 -1 22 -1 85 -1 32 -1 36 -1 82 -1 38 -1 24 -1 99 -1 105 -1 93 -1 117 -1 94 -1 103 -1 133 -1 68 -1 54 -1 100 -1 153 -1 31 -1 111 -1 185 -1 189 -1 33 -1 253 -1 256 -1 -2	1	1
2 -1 8 -1 61 -1 9 -1 39 -1 96 -1 109 -1 13 -1 66 -1 143 -1 17 -1 46 -1 156 -1 31 -1 68 -1 108 -1 35 -1 79 -1 57 -1 113 -1 76 -1 84 -1 94 -1 67 -1 163 -1 249 -1 120 -1 91 -1 145 -1 262 -1 175 -1 268 -1 -2	1	1
5 -1 39 -1 107 -1 118 -1 10 -1 12 -1 72 -1 18 -1 22 -1 19 -1 85 -1 26 -1 41 -1 36 -1 99 -1 108 -1 110 -1 105 -1 94 -1 103 -1 104 -1 133 -1 68 -1 143 -1 100 -1 187 -1 190 -1 70 -1 101 -1 253 -1 256 -1 79 -1 -2	1	1
61 -1 4 -1 7 -1 17 -1 113 -1 10 -1 98 -1 73 -1 76 -1 14 -1 15 -1 69 -1 77 -1 88 -1 65 -1 19 -1 111 -1 99 -1 103 -1 80 -1 117 -1 30 -1 56 -1 127 -1 132 -1 133 -1 68 -1 16 -1 143 -1 102 -1 219 -1 223 -1 108 -1 253 -1 259 -1 -2	1	1
110 -1 112 -1 139 -1 158 -1 176 -1 168 -1 77 -1 14 -1 138 -1 17 -1 53 -1 180 -1 107 -1 22 -1 26 -1 58 -1 42 -1 75 -1 99 -1 69 -1 70 -1 79 -1 170 -1 132 -1 94 -1 144 -1 108 -1 171 -1 149 -1 245 -1 246 -1 104 -1 122 -1 254 -1 85 -1 259 -1 -2	1	1
5 -1 8 -1 39 -1 9 -1 22 -1 82 -1 38 -1 24 -1 67 -1 110 -1 117 -1 94 -1 77 -1 143 -1 95 -1 106 -1 111 -1 189 -1 59 -1 -2	1	1
110 -1 134 -1 166 -1 95 -1 113 -1 176 -1 10 -1 153 -1 168 -1 89 -1 130 -1 138 -1 114 -1 180 -1 22 -1 116 -1 27 -1 109 -1 84 -1 75 -1 99 -1 69 -1 57 -1 78 -1 41 -1 94 -1 141 -1 171 -1 150 -1 104 -1 247 -1 85 -1 259 -1 -2	1	1
110 -1 112 -1 113 -1 153 -1 89 -1 130 -1 17 -1 18 -1 53 -1 180 -1 19 -1 167 -1 22 -1 26 -1 28 -1 74 -1 84 -1 42 -1 36 -1 99 -1 78 -1 41 -1 82 -1 170 -1 143 -1 141 -1 149 -1 122 -1 254 -1 259 -1 -2	1	1
13 -1 67 -1 54 -1 17 -1 22 -1 72 -1 60 -1 45 -1 40 -1 79 -1 47 -1 56 -1 132 -1 4 -1 66 -1 133 -1 139 -1 16 -1 143 -1 20 -1 64 -1 96 -1 163 -1 83 -1 41 -1 227 -1 85 -1 246 -1 247 -1 -2	1	1
17 -1 8 -1 113 -1 67 -1 101 -1 87 -1 15 -1 69 -1 88 -1 107 -1 19 -1 111 -1 13 -1 70 -1 27 -1 117 -1 30 -1 31 -1 114 -1 64 -1 133 -1 68 -1 89 -1 137 -1 95 -1 16 -1 172 -1 63 -1 108 -1 253 -1 71 -1 -2	1	1
46 -1 8 -1 118 -1 9 -1 12 -1 72 -1 35 -1 65 -1 18 -1 109 -1 22 -1 71 -1 85 -1 26 -1 86 -1 67 -1 132 -1 103 -1 134 -1 115 -1 135 -1 54 -1 95 -1 153 -1 106 -1 6 -1 31 -1 189 -1 33 -1 70 -1 247 -1 257 -1 258 -1 -2	1	1
67 -1 39 -1 15 -1 54 -1 17 -1 36 -1 18 -1 72 -1 24 -1 61 -1 53 -1 82 -1 117 -1 6 -1 124 -1 16 -1 19 -1 64 -1 96 -1 180 -1 41 -1 231 -1 232 -1 235 -1 84 -1 -2	1	1
112 -1 134 -1 139 -1 166 -1 9 -1 176 -1 10 -1 153 -1 13 -1 138 -1 90 -1 114 -1 18 -1 180 -1 19 -1 167 -1 22 -1 28 -1 74 -1 109 -1 165 -1 84 -1 100 -1 69 -1 117 -1 57 -1 78 -1 170 -1 108 -1 246 -1 122 -1 29 -1 259 -1 -2	1	1
2 -1 23 -1 1 -1 107 -1 29 -1 12 -1 13 -1 51 -1 52 -1 65 -1 18 -1 30 -1 86 -1 32 -1 41 -1 36 -1 94 -1 132 -1 103 -1 133 -1 68 -1 134 -1 77 -1 143 -1 149 -1 153 -1 31 -1 187 -1 189 -1 33 -1 245 -1 247 -1 253 -1 59 -1 257 -1 258 -1 -2	1	1
8 -1 12 -1 51 -1 85 -1 26 -1 41 -1 38 -1 50 -1 67 -1 117 -1 94 -1 104 -1 133 -1 77 -1 69 -1 100 -1 106 -1 169 -1 70 -1 101 -1 253 -1 -2	1	1
95 -1 121 -1 8 -1 61 -1 9 -1 10 -1 39 -1 110 -1 124 -1 179 -1 46 -1 82 -1 23 -1 26 -1 141 -1 68 -1 35 -1 122 -1 79 -1 57 -1 113 -1 70 -1 76 -1 105 -1 60 -1 259 -1 -2	1	1
2 -1 39 -1 107 -1 9 -1 29 -1 83 -1 12 -1 72 -1 51 -1 35 -1 20 -1 109 -1 22 -1 19 -1 26 -1 32 -1 38 -1 24 -1 113 -1 93 -1 117 -1 132 -1 149 -1 96 -1 106 -1 111 -1 185 -1 63 -1 189 -1 33 -1 70 -1 256 -1 79 -1 257 -1 84 -1 -2	1	1
46 -1 8 -1 118 -1 29 -1 12 -1 72 -1 51 -1 52 -1 65 -1 30 -1 19 -1 36 -1 24 -1 99 -1 113 -1 117 -1 134 -1 135 -1 54 -1 100 -1 145 -1 95 -1 147 -1 153 -1 106 -1 31 -1 111 -1 185 -1 187 -1 189 -1 190 -1 247 -1 59 -1 256 -1 79 -1 257 -1 -2	1	1
13 -1 76 -1 46 -1 40 -1 83 -1 47 -1 53 -1 112 -1 133 -1 145 -1 10 -1 4 -1 163 -1 8 -1 184 -1 9 -1 209 -1 210 -1 245 -1 248 -1 253 -1 57 -1 309 -1 30 -1 -2	1	1
81 -1 9 -1 45 -1 110 -1 109 -1 13 -1 179 -1 20 -1 26 -1 141 -1 68 -1 147 -1 140 -1 1 -1 79 -1 49 -1 84 -1 94 -1 106 -1 105 -1 163 -1 120 -1 60 -1 91 -1 153 -1 268 -1 -2	1	1
2 -1 46 -1 73 -1 39 -1 107 -1 118 -1 9 -1 83 -1 12 -1 17 -1 19 -1 71 -1 32 -1 41 -1 82 -1 108 -1 105 -1 133 -1 115 -1 143 -1 95 -1 106 -1 182 -1 70 -1 247 -1 59 -1 -2	1	1
2 -1 5 -1 39 -1 107 -1 9 -1 29 -1 10 -1 12 -1 13 -1 17 -1 52 -1 65 -1 18 -1 20 -1 22 -1 19 -1 71 -1 86 -1 32 -1 36 -1 108 -1 94 -1 132 -1 103 -1 135 -1 54 -1 153 -1 31 -1 182 -1 111 -1 245 -1 101 -1 257 -1 84 -1 258 -1 -2	1	1
7 -1 17 -1 18 -1 113 -1 98 -1 78 -1 87 -1 99 -1 80 -1 104 -1 28 -1 38 -1 56 -1 93 -1 110 -1 114 -1 97 -1 64 -1 133 -1 68 -1 95 -1 139 -1 83 -1 102 -1 245 -1 39 -1 29 -1 -2	1	1
2 -1 15 -1 8 -1 39 -1 29 -1 83 -1 10 -1 12 -1 13 -1 42 -1 17 -1 52 -1 65 -1 19 -1 71 -1 85 -1 36 -1 82 -1 105 -1 113 -1 93 -1 77 -1 135 -1 54 -1 69 -1 95 -1 106 -1 6 -1 111 -1 185 -1 63 -1 189 -1 190 -1 245 -1 62 -1 253 -1 -2	1	1
15 -1 107 -1 118 -1 10 -1 12 -1 13 -1 17 -1 35 -1 18 -1 30 -1 85 -1 36 -1 38 -1 67 -1 103 -1 68 -1 143 -1 100 -1 147 -1 169 -1 31 -1 182 -1 111 -1 63 -1 245 -1 79 -1 258 -1 -2	1	1
1 -1 112 -1 166 -1 95 -1 176 -1 10 -1 153 -1 168 -1 130 -1 90 -1 154 -1 116 -1 28 -1 74 -1 83 -1 35 -1 42 -1 75 -1 69 -1 70 -1 57 -1 41 -1 82 -1 179 -1 94 -1 171 -1 149 -1 150 -1 11 -1 259 -1 -2	1	1
15 -1 1 -1 9 -1 51 -1 17 -1 65 -1 85 -1 41 -1 38 -1 99 -1 108 -1 117 -1 104 -1 135 -1 95 -1 147 -1 149 -1 96 -1 182 -1 63 -1 187 -1 33 -1 190 -1 245 -1 62 -1 247 -1 253 -1 -2	1	1
73 -1 1 -1 39 -1 9 -1 29 -1 83 -1 12 -1 42 -1 51 -1 17 -1 52 -1 65 -1 22 -1 38 -1 99 -1 50 -1 110 -1 105 -1 113 -1 104 -1 133 -1 68 -1 143 -1 145 -1 147 -1 96 -1 169 -1 31 -1 245 -1 247 -1 253 -1 256 -1 79 -1 -2	1	1
46 -1 23 -1 107 -1 118 -1 9 -1 83 -1 10 -1 72 -1 42 -1 17 -1 18 -1 30 -1 20 -1 19 -1 86 -1 32 -1 82 -1 50 -1 110 -1 93 -1 94 -1 104 -1 54 -1 100 -1 145 -1 95 -1 6 -1 63 -1 62 -1 247 -1 253 -1 59 -1 257 -1 -2	1	1
120 -1 7 -1 17 -1 8 -1 113 -1 11 -1 76 -1 14 -1 78 -1 88 -1 107 -1 91 -1 112 -1 79 -1 23 -1 99 -1 70 -1 92 -1 117 -1 30 -1 38 -1 56 -1 93 -1 60 -1 114 -1 97 -1 132 -1 64 -1 133 -1 68 -1 95 -1 139 -1 83 -1 63 -1 245 -1 39 -1 108 -1 81 -1 -2	1	1
73 -1 15 -1 118 -1 29 -1 83 -1 10 -1 51 -1 35 -1 65 -1 18 -1 19 -1 53 -1 86 -1 41 -1 105 -1 113 -1 117 -1 77 -1 54 -1 95 -1 96 -1 106 -1 169 -1 187 -1 190 -1 253 -1 256 -1 84 -1 -2	1	1
2 -1 46 -1 5 -1 8 -1 13 -1 42 -1 65 -1 19 -1 71 -1 53 -1 32 -1 24 -1 99 -1 113 -1 117 -1 104 -1 115 -1 69 -1 100 -1 147 -1 96 -1 106 -1 182 -1 185 -1 63 -1 187 -1 189 -1 190 -1 245 -1 101 -1 247 -1 253 -1 59 -1 257 -1 84 -1 258 -1 -2	1	1
46 -1 8 -1 107 -1 83 -1 10 -1 12 -1 51 -1 17 -1 52 -1 19 -1 71 -1 26 -1 53 -1 86 -1 32 -1 41 -1 36 -1 82 -1 50 -1 105 -1 94 -1 103 -1 77 -1 54 -1 69 -1 147 -1 6 -1 63 -1 189 -1 101 -1 247 -1 -2	1	1
1 -1 107 -1 83 -1 10 -1 12 -1 51 -1 18 -1 30 -1 19 -1 71 -1 26 -1 53 -1 32 -1 82 -1 50 -1 67 -1 110 -1 93 -1 117 -1 104 -1 134 -1 77 -1 69 -1 153 -1 182 -1 111 -1 62 -1 247 -1 84 -1 -2	1	1
46 -1 39 -1 118 -1 12 -1 13 -1 42 -1 51 -1 17 -1 65 -1 19 -1 85 -1 26 -1 67 -1 110 -1 94 -1 133 -1 77 -1 115 -1 135 -1 100 -1 185 -1 62 -1 256 -1 257 -1 -2	1	1
121 -1 186 -1 61 -1 107 -1 9 -1 10 -1 96 -1 179 -1 16 -1 46 -1 23 -1 141 -1 147 -1 157 -1 122 -1 166 -1 25 -1 79 -1 134 -1 49 -1 70 -1 94 -1 136 -1 67 -1 52 -1 249 -1 91 -1 153 -1 135 -1 -2	1	1
23 -1 118 -1 9 -1 35 -1 52 -1 65 -1 30 -1 19 -1 85 -1 41 -1 36 -1 82 -1 38 -1 99 -1 50 -1 110 -1 94 -1 132 -1 103 -1 77 -1 135 -1 54 -1 96 -1 111 -1 33 -1 62 -1 257 -1 84 -1 -2	1	1
2 -1 95 -1 107 -1 99 -1 39 -1 13 -1 66 -1 143 -1 179 -1 17 -1 82 -1 155 -1 156 -1 147 -1 140 -1 78 -1 1 -1 57 -1 119 -1 136 -1 146 -1 249 -1 60 -1 259 -1 145 -1 262 -1 175 -1 -2	1	1
15 -1 23 -1 9 -1 13 -1 42 -1 35 -1 30 -1 20 -1 109 -1 19 -1 26 -1 86 -1 41 -1 82 -1 67 -1 110 -1 113 -1 94 -1 103 -1 133 -1 68 -1 77 -1 135 -1 69 -1 153 -1 6 -1 31 -1 189 -1 101 -1 79 -1 84 -1 -2	1	1
2 -1 73 -1 15 -1 8 -1 39 -1 9 -1 29 -1 10 -1 17 -1 20 -1 22 -1 71 -1 26 -1 41 -1 50 -1 93 -1 103 -1 133 -1 54 -1 95 -1 106 -1 182 -1 111 -1 187 -1 189 -1 33 -1 253 -1 256 -1 257 -1 -2	1	1
81 -1 61 -1 110 -1 109 -1 178 -1 14 -1 16 -1 46 -1 125 -1 35 -1 122 -1 78 -1 70 -1 101 -1 67 -1 146 -1 245 -1 163 -1 168 -1 246 -1 247 -1 52 -1 249 -1 120 -1 253 -1 60 -1 259 -1 145 -1 153 -1 135 -1 -2	1	1
2 -1 46 -1 107 -1 118 -1 10 -1 72 -1 109 -1 71 -1 85 -1 53 -1 41 -1 50 -1 67 -1 110 -1 113 -1 68 -1 77 -1 115 -1 143 -1 54 -1 95 -1 96 -1 106 -1 169 -1 6 -1 182 -1 189 -1 59 -1 -2	1	1
2 -1 15 -1 8 -1 118 -1 72 -1 42 -1 17 -1 35 -1 18 -1 109 -1 22 -1 71 -1 85 -1 36 -1 82 -1 99 -1 50 -1 113 -1 117 -1 104 -1 115 -1 135 -1 143 -1 54 -1 147 -1 31 -1 63 -1 190 -1 245 -1 101 -1 256 -1 84 -1 -2	1	1
2 -1 73 -1 23 -1 39 -1 107 -1 83 -1 12 -1 13 -1 42 -1 17 -1 65 -1 18 -1 30 -1 109 -1 22 -1 19 -1 71 -1 36 -1 82 -1 38 -1 24 -1 99 -1 110 -1 103 -1 133 -1 134 -1 54 -1 69 -1 95 -1 153 -1 6 -1 187 -1 189 -1 33 -1 70 -1 101 -1 253 -1 59 -1 257 -1 -2	1	1
1 -1 139 -1 158 -1 10 -1 40 -1 153 -1 13 -1 89 -1 14 -1 138 -1 90 -1 114 -1 19 -1 107 -1 129 -1 26 -1 27 -1 28 -1 109 -1 165 -1 42 -1 100 -1 99 -1 117 -1 70 -1 57 -1 78 -1 92 -1 118 -1 119 -1 132 -1 179 -1 141 -1 171 -1 149 -1 122 -1 247 -1 -2	1	1
46 -1 5 -1 15 -1 118 -1 83 -1 10 -1 13 -1 42 -1 22 -1 86 -1 36 -1 82 -1 99 -1 113 -1 117 -1 115 -1 135 -1 69 -1 145 -1 147 -1 106 -1 169 -1 6 -1 182 -1 187 -1 256 -1 257 -1 84 -1 -2	1	1
2 -1 73 -1 23 -1 1 -1 107 -1 12 -1 13 -1 51 -1 71 -1 53 -1 99 -1 110 -1 113 -1 94 -1 132 -1 77 -1 143 -1 95 -1 147 -1 96 -1 169 -1 63 -1 187 -1 245 -1 84 -1 258 -1 -2	1	1
2 -1 73 -1 1 -1 10 -1 12 -1 72 -1 13 -1 35 -1 30 -1 22 -1 85 -1 26 -1 53 -1 86 -1 38 -1 99 -1 110 -1 94 -1 132 -1 104 -1 68 -1 134 -1 77 -1 135 -1 69 -1 100 -1 95 -1 149 -1 96 -1 182 -1 185 -1 63 -1 187 -1 70 -1 256 -1 79 -1 84 -1 -2	1	1
2 -1 73 -1 5 -1 29 -1 83 -1 10 -1 17 -1 35 -1 65 -1 18 -1 20 -1 53 -1 99 -1 50 -1 108 -1 117 -1 94 -1 132 -1 103 -1 133 -1 135 -1 54 -1 147 -1 106 -1 6 -1 31 -1 185 -1 70 -1 245 -1 247 -1 59 -1 256 -1 257 -1 258 -1 -2	1	1
73 -1 15 -1 23 -1 1 -1 118 -1 9 -1 10 -1 42 -1 35 -1 52 -1 20 -1 26 -1 82 -1 38 -1 24 -1 50 -1 93 -1 117 -1 94 -1 103 -1 133 -1 135 -1 54 -1 100 -1 147 -1 149 -1 96 -1 153 -1 169 -1 6 -1 182 -1 187 -1 70 -1 59 -1 84 -1 258 -1 -2	1	1
2 -1 5 -1 23 -1 1 -1 107 -1 118 -1 9 -1 42 -1 17 -1 35 -1 65 -1 18 -1 19 -1 53 -1 32 -1 36 -1 24 -1 94 -1 147 -1 149 -1 106 -1 111 -1 185 -1 63 -1 70 -1 245 -1 -2	1	1
15 -1 39 -1 107 -1 83 -1 72 -1 13 -1 52 -1 18 -1 22 -1 26 -1 53 -1 86 -1 99 -1 50 -1 113 -1 117 -1 104 -1 133 -1 115 -1 143 -1 95 -1 147 -1 96 -1 153 -1 111 -1 185 -1 63 -1 59 -1 256 -1 79 -1 -2	1	1
15 -1 8 -1 107 -1 83 -1 10 -1 18 -1 30 -1 20 -1 109 -1 19 -1 86 -1 36 -1 82 -1 38 -1 113 -1 117 -1 68 -1 115 -1 54 -1 69 -1 95 -1 6 -1 185 -1 63 -1 189 -1 70 -1 62 -1 253 -1 257 -1 -2	1	1
2 -1 73 -1 23 -1 8 -1 1 -1 12 -1 18 -1 20 -1 22 -1 82 -1 99 -1 113 -1 117 -1 68 -1 115 -1 143 -1 69 -1 145 -1 147 -1 149 -1 96 -1 153 -1 106 -1 31 -1 182 -1 187 -1 33 -1 247 -1 256 -1 257 -1 -2	1	1
2 -1 46 -1 8 -1 118 -1 83 -1 42 -1 35 -1 52 -1 65 -1 18 -1 109 -1 22 -1 71 -1 53 -1 82 -1 38 -1 24 -1 105 -1 113 -1 104 -1 133 -1 115 -1 135 -1 143 -1 95 -1 111 -1 63 -1 70 -1 247 -1 257 -1 -2	1	1
5 -1 1 -1 39 -1 107 -1 10 -1 72 -1 13 -1 18 -1 109 -1 19 -1 82 -1 38 -1 105 -1 93 -1 68 -1 77 -1 69 -1 100 -1 145 -1 147 -1 153 -1 106 -1 185 -1 63 -1 189 -1 33 -1 190 -1 62 -1 253 -1 -2	1	1
95 -1 121 -1 61 -1 10 -1 13 -1 66 -1 179 -1 23 -1 31 -1 108 -1 36 -1 166 -1 57 -1 58 -1 70 -1 84 -1 136 -1 101 -1 67 -1 168 -1 246 -1 249 -1 259 -1 262 -1 -2	1	1
2 -1 23 -1 39 -1 107 -1 83 -1 72 -1 52 -1 18 -1 30 -1 109 -1 19 -1 71 -1 53 -1 36 -1 50 -1 110 -1 94 -1 104 -1 68 -1 77 -1 115 -1 100 -1 147 -1 149 -1 96 -1 6 -1 187 -1 33 -1 62 -1 247 -1 79 -1 257 -1 -2	1	1
121 -1 186 -1 61 -1 9 -1 11 -1 109 -1 66 -1 143 -1 179 -1 125 -1 23 -1 148 -1 141 -1 156 -1 56 -1 140 -1 122 -1 166 -1 25 -1 78 -1 1 -1 134 -1 57 -1 70 -1 76 -1 106 -1 101 -1 146 -1 105 -1 245 -1 246 -1 50 -1 253 -1 97 -1 175 -1 135 -1 -2	1	1
2 -1 15 -1 39 -1 118 -1 10 -1 12 -1 13 -1 18 -1 20 -1 22 -1 19 -1 71 -1 85 -1 26 -1 53 -1 32 -1 41 -1 36 -1 99 -1 93 -1 117 -1 103 -1 133 -1 143 -1 54 -1 100 -1 147 -1 182 -1 101 -1 258 -1 -2	1	1
1 -1 120 -1 2 -1 61 -1 4 -1 7 -1 113 -1 9 -1 67 -1 76 -1 14 -1 87 -1 69 -1 65 -1 107 -1 91 -1 13 -1 103 -1 70 -1 80 -1 92 -1 117 -1 28 -1 38 -1 31 -1 97 -1 64 -1 219 -1 39 -1 246 -1 253 -1 -2	1	1
2 -1 5 -1 15 -1 8 -1 9 -1 83 -1 10 -1 72 -1 13 -1 51 -1 18 -1 71 -1 85 -1 26 -1 32 -1 36 -1 82 -1 50 -1 108 -1 67 -1 113 -1 94 -1 132 -1 103 -1 68 -1 134 -1 135 -1 54 -1 100 -1 95 -1 147 -1 245 -1 247 -1 79 -1 84 -1 258 -1 -2	1	1
2 -1 107 -1 39 -1 109 -1 46 -1 82 -1 125 -1 68 -1 147 -1 157 -1 56 -1 140 -1 122 -1 1 -1 79 -1 134 -1 113 -1 58 -1 119 -1 76 -1 84 -1 106 -1 137 -1 101 -1 146 -1 163 -1 168 -1 246 -1 50 -1 253 -1 60 -1 91 -1 97 -1 268 -1 -2	1	1
1 -1 110 -1 158 -1 166 -1 8 -1 95 -1 113 -1 40 -1 130 -1 18 -1 28 -1 109 -1 165 -1 31 -1 84 -1 100 -1 36 -1 117 -1 70 -1 57 -1 79 -1 92 -1 143 -1 108 -1 246 -1 104 -1 122 -1 85 -1 -2	1	1
15 -1 107 -1 118 -1 9 -1 10 -1 51 -1 65 -1 30 -1 109 -1 22 -1 19 -1 53 -1 86 -1 82 -1 24 -1 93 -1 132 -1 103 -1 135 -1 95 -1 169 -1 253 -1 258 -1 -2	1	1
8 -1 36 -1 13 -1 15 -1 64 -1 18 -1 46 -1 65 -1 76 -1 10 -1 60 -1 115 -1 62 -1 120 -1 40 -1 32 -1 133 -1 16 -1 61 -1 86 -1 58 -1 211 -1 231 -1 253 -1 -2	1	1
36 -1 13 -1 54 -1 22 -1 40 -1 83 -1 26 -1 27 -1 28 -1 112 -1 117 -1 118 -1 132 -1 133 -1 139 -1 44 -1 145 -1 163 -1 9 -1 210 -1 248 -1 -2	1	1
58 -1 35 -1 21 -1 39 -1 55 -1 73 -1 78 -1 109 -1 99 -1 36 -1 23 -1 24 -1 144 -1 49 -1 63 -1 72 -1 54 -1 253 -1 255 -1 33 -1 258 -1 60 -1 67 -1 -2	1	1
139 -1 158 -1 95 -1 113 -1 140 -1 9 -1 176 -1 168 -1 13 -1 77 -1 138 -1 107 -1 129 -1 26 -1 74 -1 83 -1 42 -1 75 -1 117 -1 70 -1 78 -1 79 -1 170 -1 92 -1 118 -1 119 -1 147 -1 149 -1 150 -1 246 -1 122 -1 29 -1 85 -1 -2	1	1
81 -1 95 -1 186 -1 61 -1 107 -1 9 -1 10 -1 109 -1 179 -1 16 -1 125 -1 155 -1 68 -1 147 -1 56 -1 140 -1 122 -1 73 -1 78 -1 134 -1 49 -1 57 -1 113 -1 117 -1 76 -1 106 -1 136 -1 102 -1 245 -1 168 -1 246 -1 50 -1 249 -1 120 -1 145 -1 268 -1 -2	1	1
2 -1 18 -1 9 -1 67 -1 10 -1 98 -1 76 -1 87 -1 77 -1 88 -1 107 -1 91 -1 20 -1 79 -1 13 -1 103 -1 70 -1 28 -1 56 -1 114 -1 97 -1 68 -1 95 -1 139 -1 16 -1 143 -1 83 -1 181 -1 102 -1 63 -1 39 -1 12 -1 253 -1 81 -1 -2	1	1
61 -1 107 -1 45 -1 110 -1 96 -1 109 -1 66 -1 178 -1 14 -1 16 -1 82 -1 23 -1 148 -1 26 -1 31 -1 140 -1 1 -1 79 -1 58 -1 70 -1 84 -1 106 -1 102 -1 137 -1 101 -1 67 -1 146 -1 105 -1 168 -1 120 -1 60 -1 -2	1	1
107 -1 45 -1 124 -1 96 -1 109 -1 13 -1 143 -1 82 -1 156 -1 31 -1 68 -1 140 -1 49 -1 117 -1 70 -1 76 -1 94 -1 136 -1 101 -1 163 -1 52 -1 249 -1 145 -1 -2	1	1
73 -1 118 -1 10 -1 42 -1 20 -1 109 -1 71 -1 86 -1 41 -1 99 -1 50 -1 67 -1 110 -1 105 -1 104 -1 77 -1 115 -1 135 -1 149 -1 96 -1 106 -1 185 -1 33 -1 190 -1 70 -1 101 -1 247 -1 59 -1 79 -1 257 -1 258 -1 -2	1	1
112 -1 166 -1 8 -1 153 -1 13 -1 90 -1 107 -1 115 -1 116 -1 27 -1 109 -1 84 -1 35 -1 100 -1 117 -1 78 -1 41 -1 79 -1 131 -1 108 -1 141 -1 149 -1 104 -1 247 -1 11 -1 259 -1 -2	1	1
47 -1 74 -1 15 -1 30 -1 23 -1 26 -1 35 -1 101 -1 108 -1 64 -1 109 -1 2 -1 114 -1 37 -1 117 -1 31 -1 118 -1 59 -1 63 -1 67 -1 150 -1 84 -1 46 -1 171 -1 38 -1 255 -1 39 -1 19 -1 -2	1	1
1 -1 2 -1 17 -1 18 -1 113 -1 67 -1 76 -1 14 -1 87 -1 15 -1 88 -1 65 -1 19 -1 112 -1 23 -1 13 -1 26 -1 70 -1 28 -1 37 -1 38 -1 31 -1 93 -1 110 -1 62 -1 127 -1 97 -1 133 -1 68 -1 89 -1 90 -1 172 -1 219 -1 223 -1 63 -1 108 -1 246 -1 259 -1 71 -1 260 -1 -2	1	1
5 -1 23 -1 107 -1 9 -1 13 -1 65 -1 30 -1 20 -1 22 -1 26 -1 38 -1 113 -1 132 -1 68 -1 115 -1 100 -1 95 -1 147 -1 149 -1 182 -1 111 -1 189 -1 245 -1 101 -1 59 -1 257 -1 84 -1 -2	1	1
110 -1 112 -1 134 -1 158 -1 113 -1 140 -1 9 -1 10 -1 40 -1 168 -1 138 -1 17 -1 53 -1 115 -1 154 -1 167 -1 58 -1 27 -1 28 -1 31 -1 83 -1 35 -1 75 -1 36 -1 82 -1 170 -1 178 -1 108 -1 171 -1 21 -1 -2	1	1
23 -1 107 -1 12 -1 13 -1 51 -1 71 -1 26 -1 82 -1 24 -1 105 -1 93 -1 132 -1 115 -1 143 -1 145 -1 95 -1 147 -1 96 -1 106 -1 169 -1 6 -1 182 -1 111 -1 63 -1 189 -1 62 -1 247 -1 84 -1 -2	1	1
76 -1 8 -1 13 -1 34 -1 67 -1 39 -1 54 -1 36 -1 26 -1 43 -1 61 -1 82 -1 87 -1 79 -1 110 -1 6 -1 56 -1 31 -1 28 -1 16 -1 64 -1 163 -1 174 -1 83 -1 180 -1 209 -1 211 -1 71 -1 232 -1 80 -1 235 -1 -2	1	1
112 -1 8 -1 10 -1 13 -1 89 -1 90 -1 114 -1 18 -1 53 -1 115 -1 154 -1 26 -1 27 -1 74 -1 83 -1 100 -1 36 -1 69 -1 117 -1 57 -1 41 -1 82 -1 92 -1 119 -1 94 -1 178 -1 108 -1 147 -1 171 -1 149 -1 246 -1 122 -1 247 -1 253 -1 29 -1 254 -1 -2	1	1
46 -1 73 -1 5 -1 1 -1 107 -1 118 -1 12 -1 72 -1 51 -1 30 -1 20 -1 53 -1 32 -1 36 -1 99 -1 50 -1 117 -1 132 -1 134 -1 77 -1 54 -1 147 -1 153 -1 106 -1 253 -1 59 -1 256 -1 79 -1 257 -1 258 -1 -2	1	1
46 -1 73 -1 5 -1 8 -1 1 -1 118 -1 12 -1 13 -1 35 -1 52 -1 30 -1 109 -1 22 -1 53 -1 32 -1 82 -1 38 -1 108 -1 67 -1 105 -1 115 -1 135 -1 100 -1 145 -1 6 -1 31 -1 182 -1 187 -1 33 -1 190 -1 62 -1 84 -1 258 -1 -2	1	1
110 -1 113 -1 140 -1 176 -1 10 -1 40 -1 130 -1 138 -1 115 -1 129 -1 28 -1 109 -1 84 -1 42 -1 99 -1 69 -1 117 -1 79 -1 92 -1 132 -1 179 -1 141 -1 245 -1 247 -1 11 -1 259 -1 -2	1	1
61 -1 99 -1 11 -1 66 -1 14 -1 17 -1 16 -1 46 -1 82 -1 125 -1 157 -1 36 -1 122 -1 25 -1 1 -1 49 -1 57 -1 76 -1 102 -1 101 -1 67 -1 146 -1 168 -1 262 -1 175 -1 135 -1 -2	1	1
110 -1 112 -1 134 -1 139 -1 158 -1 8 -1 95 -1 9 -1 40 -1 13 -1 130 -1 138 -1 17 -1 54 -1 90 -1 114 -1 180 -1 115 -1 154 -1 129 -1 26 -1 27 -1 28 -1 74 -1 84 -1 75 -1 99 -1 69 -1 117 -1 57 -1 78 -1 79 -1 82 -1 170 -1 131 -1 118 -1 119 -1 132 -1 178 -1 147 -1 141 -1 171 -1 150 -1 245 -1 246 -1 122 -1 11 -1 253 -1 21 -1 259 -1 -2	1	1
2 -1 15 -1 1 -1 118 -1 35 -1 30 -1 20 -1 22 -1 86 -1 32 -1 82 -1 105 -1 93 -1 103 -1 68 -1 115 -1 135 -1 145 -1 147 -1 182 -1 111 -1 185 -1 33 -1 70 -1 62 -1 247 -1 -2	1	1
121 -1 186 -1 8 -1 107 -1 45 -1 11 -1 143 -1 14 -1 17 -1 82 -1 20 -1 148 -1 155 -1 26 -1 31 -1 36 -1 73 -1 113 -1 117 -1 70 -1 106 -1 246 -1 52 -1 253 -1 259 -1 145 -1 262 -1 175 -1 268 -1 -2	1	1
134 -1 139 -1 166 -1 8 -1 113 -1 10 -1 40 -1 77 -1 14 -1 17 -1 90 -1 180 -1 115 -1 58 -1 35 -1 42 -1 75 -1 70 -1 41 -1 82 -1 119 -1 132 -1 144 -1 108 -1 245 -1 11 -1 21 -1 -2	1	1
2 -1 73 -1 15 -1 118 -1 29 -1 72 -1 51 -1 17 -1 109 -1 19 -1 71 -1 53 -1 32 -1 41 -1 36 -1 38 -1 24 -1 99 -1 110 -1 132 -1 104 -1 100 -1 6 -1 31 -1 33 -1 101 -1 247 -1 253 -1 257 -1 84 -1 -2	1	1
8 -1 9 -1 39 -1 110 -1 109 -1 66 -1 178 -1 16 -1 20 -1 26 -1 141 -1 156 -1 31 -1 147 -1 157 -1 140 -1 36 -1 25 -1 134 -1 49 -1 117 -1 119 -1 76 -1 84 -1 52 -1 120 -1 253 -1 60 -1 97 -1 175 -1 268 -1 -2	1	1
120 -1 121 -1 17 -1 10 -1 98 -1 14 -1 78 -1 15 -1 91 -1 13 -1 99 -1 104 -1 27 -1 37 -1 31 -1 56 -1 93 -1 97 -1 64 -1 68 -1 89 -1 95 -1 143 -1 181 -1 63 -1 39 -1 81 -1 -2	1	1
118 -1 9 -1 10 -1 12 -1 42 -1 51 -1 35 -1 65 -1 18 -1 20 -1 109 -1 19 -1 82 -1 50 -1 113 -1 93 -1 94 -1 68 -1 115 -1 143 -1 149 -1 169 -1 31 -1 111 -1 185 -1 33 -1 247 -1 256 -1 257 -1 -2	1	1
74 -1 13 -1 20 -1 39 -1 50 -1 27 -1 53 -1 45 -1 58 -1 110 -1 118 -1 70 -1 136 -1 3 -1 139 -1 49 -1 143 -1 16 -1 179 -1 184 -1 283 -1 19 -1 310 -1 -2	1	1
46 -1 5 -1 1 -1 118 -1 17 -1 35 -1 22 -1 71 -1 85 -1 32 -1 36 -1 50 -1 105 -1 93 -1 133 -1 68 -1 54 -1 31 -1 63 -1 33 -1 190 -1 62 -1 59 -1 256 -1 -2	1	1
73 -1 8 -1 39 -1 107 -1 9 -1 83 -1 51 -1 52 -1 18 -1 30 -1 20 -1 22 -1 19 -1 71 -1 53 -1 41 -1 36 -1 50 -1 105 -1 93 -1 117 -1 104 -1 135 -1 149 -1 106 -1 31 -1 185 -1 63 -1 189 -1 101 -1 247 -1 79 -1 84 -1 -2	1	1
5 -1 107 -1 10 -1 85 -1 41 -1 24 -1 50 -1 108 -1 67 -1 105 -1 94 -1 103 -1 68 -1 134 -1 54 -1 96 -1 6 -1 182 -1 111 -1 63 -1 33 -1 101 -1 59 -1 84 -1 258 -1 -2	1	1
121 -1 8 -1 107 -1 9 -1 99 -1 39 -1 45 -1 11 -1 178 -1 46 -1 20 -1 23 -1 155 -1 68 -1 108 -1 166 -1 25 -1 79 -1 49 -1 113 -1 136 -1 137 -1 67 -1 105 -1 249 -1 120 -1 259 -1 262 -1 -2	1	1
5 -1 23 -1 39 -1 118 -1 83 -1 10 -1 13 -1 18 -1 30 -1 22 -1 26 -1 67 -1 110 -1 113 -1 93 -1 68 -1 134 -1 135 -1 69 -1 100 -1 95 -1 149 -1 70 -1 245 -1 247 -1 258 -1 -2	1	1
2 -1 46 -1 73 -1 1 -1 39 -1 29 -1 10 -1 13 -1 42 -1 51 -1 17 -1 20 -1 71 -1 32 -1 36 -1 82 -1 24 -1 99 -1 117 -1 94 -1 134 -1 69 -1 147 -1 153 -1 33 -1 245 -1 59 -1 257 -1 258 -1 -2	1	1
15 -1 39 -1 83 -1 12 -1 72 -1 17 -1 65 -1 30 -1 20 -1 22 -1 71 -1 26 -1 32 -1 41 -1 99 -1 108 -1 67 -1 110 -1 93 -1 117 -1 94 -1 103 -1 69 -1 100 -1 95 -1 147 -1 96 -1 169 -1 111 -1 189 -1 190 -1 70 -1 62 -1 258 -1 -2	1	1
73 -1 23 -1 8 -1 1 -1 72 -1 42 -1 30 -1 26 -1 41 -1 82 -1 113 -1 93 -1 117 -1 134 -1 54 -1 100 -1 95 -1 96 -1 6 -1 31 -1 182 -1 111 -1 70 -1 62 -1 79 -1 84 -1 -2	1	1
1 -1 134 -1 139 -1 9 -1 10 -1 168 -1 13 -1 17 -1 54 -1 107 -1 115 -1 129 -1 74 -1 109 -1 83 -1 36 -1 117 -1 70 -1 82 -1 170 -1 118 -1 132 -1 178 -1 246 -1 104 -1 253 -1 259 -1 -2	1	1
2 -1 73 -1 23 -1 1 -1 39 -1 9 -1 12 -1 51 -1 35 -1 52 -1 22 -1 19 -1 38 -1 99 -1 105 -1 113 -1 117 -1 132 -1 68 -1 115 -1 135 -1 54 -1 96 -1 153 -1 185 -1 63 -1 101 -1 253 -1 258 -1 -2	1	1
8 -1 99 -1 10 -1 45 -1 124 -1 109 -1 13 -1 143 -1 178 -1 16 -1 125 -1 23 -1 148 -1 26 -1 141 -1 156 -1 108 -1 57 -1 70 -1 101 -1 105 -1 245 -1 50 -1 52 -1 253 -1 97 -1 175 -1 -2	1	1
2 -1 73 -1 23 -1 8 -1 1 -1 12 -1 51 -1 52 -1 65 -1 109 -1 19 -1 71 -1 85 -1 26 -1 53 -1 32 -1 36 -1 50 -1 67 -1 110 -1 117 -1 94 -1 103 -1 68 -1 100 -1 96 -1 63 -1 189 -1 33 -1 70 -1 62 -1 59 -1 256 -1 -2	1	1
73 -1 9 -1 29 -1 10 -1 72 -1 51 -1 17 -1 20 -1 22 -1 71 -1 85 -1 32 -1 38 -1 99 -1 67 -1 113 -1 132 -1 134 -1 77 -1 115 -1 143 -1 54 -1 100 -1 149 -1 106 -1 169 -1 6 -1 31 -1 111 -1 189 -1 70 -1 245 -1 247 -1 256 -1 -2	1	1
2 -1 81 -1 95 -1 61 -1 107 -1 124 -1 96 -1 109 -1 13 -1 66 -1 17 -1 46 -1 82 -1 20 -1 148 -1 108 -1 147 -1 157 -1 166 -1 78 -1 1 -1 134 -1 113 -1 117 -1 70 -1 76 -1 94 -1 137 -1 105 -1 245 -1 163 -1 249 -1 120 -1 253 -1 145 -1 268 -1 -2	1	1
2 -1 46 -1 5 -1 107 -1 118 -1 10 -1 12 -1 42 -1 17 -1 18 -1 20 -1 22 -1 19 -1 71 -1 26 -1 53 -1 86 -1 41 -1 24 -1 50 -1 110 -1 105 -1 93 -1 117 -1 94 -1 132 -1 133 -1 68 -1 134 -1 135 -1 69 -1 147 -1 153 -1 6 -1 31 -1 111 -1 63 -1 70 -1 84 -1 -2	1	1
2 -1 73 -1 15 -1 1 -1 118 -1 83 -1 12 -1 72 -1 17 -1 65 -1 18 -1 20 -1 22 -1 19 -1 26 -1 53 -1 38 -1 50 -1 105 -1 133 -1 143 -1 100 -1 147 -1 106 -1 189 -1 190 -1 70 -1 62 -1 256 -1 79 -1 257 -1 84 -1 258 -1 -2	1	1
2 -1 61 -1 9 -1 67 -1 10 -1 98 -1 107 -1 112 -1 22 -1 23 -1 26 -1 80 -1 104 -1 27 -1 28 -1 60 -1 127 -1 97 -1 132 -1 64 -1 133 -1 68 -1 139 -1 16 -1 90 -1 181 -1 223 -1 245 -1 39 -1 246 -1 12 -1 259 -1 81 -1 -2	1	1
2 -1 46 -1 107 -1 118 -1 83 -1 51 -1 20 -1 109 -1 22 -1 19 -1 71 -1 32 -1 24 -1 105 -1 133 -1 68 -1 77 -1 69 -1 100 -1 147 -1 149 -1 153 -1 106 -1 182 -1 185 -1 187 -1 70 -1 247 -1 59 -1 256 -1 258 -1 -2	1	1
46 -1 10 -1 42 -1 17 -1 35 -1 52 -1 18 -1 22 -1 53 -1 41 -1 67 -1 110 -1 105 -1 132 -1 133 -1 134 -1 100 -1 95 -1 149 -1 169 -1 6 -1 185 -1 247 -1 257 -1 84 -1 258 -1 -2	1	1
46 -1 15 -1 8 -1 118 -1 9 -1 12 -1 13 -1 17 -1 35 -1 65 -1 20 -1 22 -1 86 -1 38 -1 113 -1 93 -1 117 -1 133 -1 135 -1 69 -1 100 -1 147 -1 149 -1 106 -1 31 -1 182 -1 189 -1 70 -1 245 -1 253 -1 79 -1 -2	1	1
8 -1 39 -1 107 -1 17 -1 65 -1 30 -1 22 -1 71 -1 26 -1 53 -1 86 -1 82 -1 38 -1 99 -1 50 -1 108 -1 67 -1 113 -1 103 -1 134 -1 143 -1 69 -1 95 -1 169 -1 111 -1 187 -1 62 -1 101 -1 247 -1 59 -1 -2	1	1
110 -1 113 -1 140 -1 9 -1 13 -1 89 -1 14 -1 138 -1 54 -1 53 -1 167 -1 22 -1 58 -1 116 -1 28 -1 109 -1 31 -1 100 -1 36 -1 70 -1 41 -1 82 -1 92 -1 131 -1 144 -1 150 -1 246 -1 122 -1 -2	1	1
46 -1 73 -1 15 -1 39 -1 107 -1 29 -1 83 -1 12 -1 13 -1 51 -1 20 -1 109 -1 22 -1 86 -1 41 -1 38 -1 54 -1 69 -1 145 -1 147 -1 96 -1 169 -1 6 -1 31 -1 111 -1 63 -1 189 -1 245 -1 253 -1 257 -1 -2	1	1
8 -1 118 -1 9 -1 10 -1 17 -1 30 -1 22 -1 85 -1 86 -1 41 -1 82 -1 38 -1 24 -1 99 -1 50 -1 132 -1 103 -1 115 -1 100 -1 96 -1 6 -1 31 -1 111 -1 185 -1 187 -1 190 -1 62 -1 247 -1 256 -1 84 -1 258 -1 -2	1	1
2 -1 1 -1 118 -1 42 -1 51 -1 35 -1 52 -1 18 -1 22 -1 19 -1 85 -1 26 -1 38 -1 108 -1 67 -1 110 -1 105 -1 93 -1 117 -1 68 -1 54 -1 145 -1 153 -1 6 -1 63 -1 190 -1 70 -1 62 -1 247 -1 -2	1	1
5 -1 15 -1 39 -1 107 -1 9 -1 13 -1 17 -1 35 -1 52 -1 30 -1 19 -1 85 -1 32 -1 99 -1 110 -1 93 -1 117 -1 68 -1 134 -1 147 -1 169 -1 189 -1 190 -1 101 -1 247 -1 253 -1 256 -1 -2	1	1
46 -1 23 -1 1 -1 29 -1 12 -1 13 -1 42 -1 65 -1 20 -1 19 -1 85 -1 26 -1 86 -1 36 -1 38 -1 108 -1 110 -1 93 -1 132 -1 103 -1 133 -1 68 -1 134 -1 54 -1 95 -1 149 -1 153 -1 70 -1 101 -1 253 -1 256 -1 79 -1 -2	1	1
46 -1 23 -1 118 -1 9 -1 29 -1 10 -1 12 -1 42 -1 30 -1 85 -1 53 -1 86 -1 24 -1 110 -1 105 -1 113 -1 117 -1 135 -1 143 -1 69 -1 147 -1 153 -1 106 -1 31 -1 111 -1 185 -1 63 -1 62 -1 101 -1 256 -1 -2	1	1
46 -1 15 -1 23 -1 107 -1 118 -1 72 -1 51 -1 35 -1 30 -1 22 -1 19 -1 85 -1 41 -1 38 -1 24 -1 50 -1 67 -1 105 -1 104 -1 68 -1 77 -1 69 -1 100 -1 145 -1 95 -1 147 -1 149 -1 96 -1 185 -1 187 -1 101 -1 253 -1 256 -1 -2	1	1
186 -1 8 -1 61 -1 39 -1 13 -1 143 -1 16 -1 82 -1 148 -1 155 -1 108 -1 35 -1 56 -1 73 -1 25 -1 49 -1 113 -1 117 -1 101 -1 67 -1 245 -1 163 -1 246 -1 52 -1 253 -1 175 -1 -2	1	1
73 -1 23 -1 1 -1 39 -1 118 -1 9 -1 83 -1 42 -1 18 -1 109 -1 41 -1 99 -1 50 -1 93 -1 94 -1 77 -1 149 -1 153 -1 31 -1 33 -1 70 -1 79 -1 -2	1	1
32 -1 22 -1 18 -1 83 -1 64 -1 49 -1 26 -1 78 -1 35 -1 47 -1 69 -1 71 -1 112 -1 21 -1 117 -1 12 -1 120 -1 133 -1 139 -1 44 -1 143 -1 85 -1 147 -1 149 -1 163 -1 8 -1 173 -1 184 -1 284 -1 30 -1 -2	1	1
2 -1 73 -1 8 -1 1 -1 83 -1 10 -1 72 -1 13 -1 17 -1 65 -1 18 -1 30 -1 20 -1 22 -1 19 -1 71 -1 26 -1 41 -1 82 -1 110 -1 105 -1 93 -1 117 -1 132 -1 104 -1 69 -1 100 -1 106 -1 182 -1 111 -1 187 -1 70 -1 101 -1 247 -1 79 -1 258 -1 -2	1	1
1 -1 24 -1 2 -1 3 -1 25 -1 9 -1 41 -1 23 -1 58 -1 30 -1 117 -1 42 -1 120 -1 133 -1 144 -1 38 -1 40 -1 184 -1 189 -1 190 -1 210 -1 245 -1 31 -1 246 -1 247 -1 59 -1 50 -1 -2	1	1
2 -1 73 -1 5 -1 23 -1 8 -1 39 -1 29 -1 12 -1 51 -1 35 -1 65 -1 18 -1 30 -1 19 -1 71 -1 85 -1 26 -1 86 -1 41 -1 36 -1 24 -1 50 -1 108 -1 67 -1 132 -1 133 -1 77 -1 95 -1 147 -1 149 -1 169 -1 6 -1 182 -1 185 -1 247 -1 84 -1 258 -1 -2	1	1
2 -1 23 -1 107 -1 29 -1 83 -1 10 -1 13 -1 17 -1 52 -1 20 -1 71 -1 41 -1 38 -1 99 -1 67 -1 93 -1 134 -1 143 -1 145 -1 95 -1 31 -1 111 -1 245 -1 247 -1 253 -1 256 -1 -2	1	1
107 -1 29 -1 12 -1 72 -1 51 -1 18 -1 109 -1 19 -1 26 -1 53 -1 86 -1 32 -1 82 -1 38 -1 24 -1 67 -1 113 -1 132 -1 104 -1 77 -1 100 -1 145 -1 149 -1 96 -1 106 -1 169 -1 6 -1 31 -1 182 -1 187 -1 190 -1 62 -1 253 -1 79 -1 257 -1 -2	1	1
15 -1 8 -1 1 -1 29 -1 12 -1 52 -1 71 -1 86 -1 82 -1 38 -1 113 -1 117 -1 94 -1 103 -1 104 -1 134 -1 143 -1 54 -1 69 -1 149 -1 153 -1 106 -1 6 -1 63 -1 187 -1 62 -1 101 -1 -2	1	1
1 -1 176 -1 89 -1 180 -1 129 -1 58 -1 116 -1 42 -1 100 -1 70 -1 82 -1 118 -1 119 -1 144 -1 147 -1 171 -1 245 -1 122 -1 11 -1 29 -1 85 -1 -2	1	1
46 -1 5 -1 1 -1 83 -1 51 -1 17 -1 18 -1 19 -1 71 -1 26 -1 53 -1 36 -1 82 -1 38 -1 24 -1 108 -1 113 -1 68 -1 77 -1 135 -1 143 -1 54 -1 69 -1 145 -1 149 -1 96 -1 106 -1 169 -1 31 -1 111 -1 185 -1 187 -1 70 -1 59 -1 257 -1 -2	1	1
81 -1 95 -1 121 -1 186 -1 61 -1 99 -1 11 -1 46 -1 141 -1 140 -1 122 -1 73 -1 78 -1 119 -1 136 -1 137 -1 101 -1 105 -1 246 -1 247 -1 50 -1 52 -1 60 -1 91 -1 97 -1 259 -1 153 -1 -2	1	1
8 -1 176 -1 153 -1 13 -1 14 -1 130 -1 138 -1 90 -1 18 -1 53 -1 22 -1 74 -1 69 -1 79 -1 82 -1 131 -1 119 -1 132 -1 143 -1 149 -1 104 -1 11 -1 254 -1 85 -1 -2	1	1
2 -1 81 -1 107 -1 99 -1 11 -1 179 -1 46 -1 23 -1 26 -1 156 -1 166 -1 78 -1 1 -1 57 -1 117 -1 58 -1 70 -1 84 -1 136 -1 67 -1 163 -1 246 -1 247 -1 52 -1 60 -1 175 -1 -2	1	1
81 -1 61 -1 107 -1 9 -1 10 -1 39 -1 143 -1 179 -1 46 -1 155 -1 141 -1 31 -1 68 -1 35 -1 36 -1 78 -1 79 -1 134 -1 49 -1 113 -1 119 -1 101 -1 146 -1 168 -1 247 -1 60 -1 97 -1 145 -1 -2	1	1
2 -1 46 -1 73 -1 15 -1 8 -1 1 -1 39 -1 107 -1 118 -1 9 -1 52 -1 22 -1 71 -1 53 -1 86 -1 32 -1 36 -1 38 -1 99 -1 110 -1 105 -1 93 -1 132 -1 133 -1 68 -1 134 -1 115 -1 135 -1 69 -1 96 -1 153 -1 106 -1 169 -1 6 -1 111 -1 63 -1 187 -1 33 -1 70 -1 245 -1 62 -1 253 -1 79 -1 258 -1 -2	1	1
2 -1 8 -1 107 -1 39 -1 110 -1 143 -1 178 -1 179 -1 82 -1 156 -1 68 -1 108 -1 147 -1 36 -1 122 -1 79 -1 134 -1 94 -1 106 -1 136 -1 102 -1 137 -1 101 -1 245 -1 246 -1 50 -1 52 -1 120 -1 60 -1 91 -1 259 -1 262 -1 -2	1	1
73 -1 5 -1 23 -1 118 -1 29 -1 51 -1 35 -1 20 -1 109 -1 22 -1 19 -1 26 -1 41 -1 82 -1 38 -1 67 -1 105 -1 117 -1 94 -1 103 -1 133 -1 134 -1 77 -1 135 -1 69 -1 100 -1 145 -1 153 -1 169 -1 6 -1 63 -1 33 -1 190 -1 70 -1 253 -1 84 -1 258 -1 -2	1	1
23 -1 1 -1 39 -1 107 -1 12 -1 72 -1 35 -1 18 -1 20 -1 109 -1 19 -1 53 -1 82 -1 24 -1 99 -1 50 -1 110 -1 105 -1 93 -1 117 -1 133 -1 134 -1 115 -1 135 -1 100 -1 147 -1 149 -1 182 -1 111 -1 185 -1 187 -1 190 -1 62 -1 101 -1 247 -1 256 -1 257 -1 -2	1	1
46 -1 5 -1 15 -1 107 -1 118 -1 9 -1 72 -1 13 -1 51 -1 35 -1 18 -1 30 -1 19 -1 26 -1 38 -1 99 -1 50 -1 108 -1 117 -1 94 -1 133 -1 143 -1 100 -1 149 -1 96 -1 169 -1 6 -1 31 -1 182 -1 111 -1 189 -1 245 -1 62 -1 101 -1 253 -1 79 -1 84 -1 -2	1	1
2 -1 15 -1 1 -1 12 -1 17 -1 52 -1 109 -1 53 -1 32 -1 36 -1 82 -1 38 -1 24 -1 108 -1 110 -1 93 -1 133 -1 77 -1 69 -1 153 -1 182 -1 111 -1 185 -1 63 -1 190 -1 101 -1 247 -1 59 -1 84 -1 -2	1	1
2 -1 24 -1 61 -1 4 -1 9 -1 67 -1 76 -1 87 -1 15 -1 69 -1 88 -1 107 -1 19 -1 20 -1 112 -1 70 -1 80 -1 117 -1 37 -1 93 -1 60 -1 97 -1 64 -1 133 -1 137 -1 139 -1 16 -1 223 -1 246 -1 12 -1 253 -1 259 -1 71 -1 260 -1 -2	1	1
2 -1 10 -1 17 -1 65 -1 20 -1 26 -1 86 -1 32 -1 82 -1 24 -1 99 -1 108 -1 105 -1 117 -1 103 -1 68 -1 135 -1 143 -1 96 -1 169 -1 6 -1 189 -1 190 -1 70 -1 245 -1 101 -1 59 -1 -2	1	1
5 -1 25 -1 7 -1 9 -1 65 -1 11 -1 104 -1 110 -1 28 -1 41 -1 6 -1 22 -1 51 -1 33 -1 62 -1 40 -1 27 -1 48 -1 57 -1 44 -1 55 -1 184 -1 72 -1 191 -1 193 -1 218 -1 245 -1 247 -1 252 -1 30 -1 -2	1	1
76 -1 8 -1 67 -1 35 -1 86 -1 15 -1 18 -1 22 -1 53 -1 82 -1 45 -1 40 -1 79 -1 117 -1 6 -1 124 -1 88 -1 19 -1 64 -1 144 -1 96 -1 68 -1 180 -1 209 -1 211 -1 227 -1 230 -1 65 -1 231 -1 85 -1 247 -1 -2	1	1
2 -1 8 -1 99 -1 10 -1 39 -1 110 -1 124 -1 109 -1 13 -1 17 -1 16 -1 156 -1 108 -1 147 -1 157 -1 35 -1 140 -1 36 -1 166 -1 73 -1 134 -1 49 -1 58 -1 106 -1 137 -1 146 -1 105 -1 120 -1 253 -1 97 -1 153 -1 -2	1	1
2 -1 5 -1 23 -1 107 -1 118 -1 29 -1 42 -1 35 -1 52 -1 20 -1 22 -1 19 -1 86 -1 82 -1 38 -1 67 -1 110 -1 105 -1 117 -1 143 -1 69 -1 100 -1 145 -1 95 -1 153 -1 169 -1 182 -1 63 -1 33 -1 70 -1 62 -1 101 -1 253 -1 256 -1 257 -1 258 -1 -2	1	1
2 -1 46 -1 73 -1 1 -1 107 -1 118 -1 9 -1 29 -1 12 -1 51 -1 35 -1 52 -1 65 -1 20 -1 22 -1 19 -1 86 -1 36 -1 24 -1 67 -1 113 -1 93 -1 69 -1 145 -1 111 -1 185 -1 187 -1 189 -1 33 -1 245 -1 247 -1 59 -1 256 -1 79 -1 257 -1 -2	1	1
112 -1 139 -1 158 -1 166 -1 95 -1 113 -1 9 -1 13 -1 138 -1 17 -1 54 -1 180 -1 19 -1 154 -1 167 -1 28 -1 74 -1 109 -1 165 -1 35 -1 75 -1 117 -1 70 -1 41 -1 79 -1 170 -1 92 -1 94 -1 143 -1 108 -1 147 -1 171 -1 149 -1 246 -1 247 -1 11 -1 253 -1 29 -1 254 -1 -2	1	1
5 -1 8 -1 39 -1 107 -1 10 -1 12 -1 72 -1 17 -1 18 -1 71 -1 85 -1 36 -1 38 -1 110 -1 105 -1 103 -1 134 -1 77 -1 149 -1 6 -1 182 -1 111 -1 187 -1 33 -1 62 -1 59 -1 256 -1 79 -1 84 -1 -2	1	1
2 -1 95 -1 9 -1 99 -1 39 -1 96 -1 82 -1 157 -1 56 -1 36 -1 122 -1 25 -1 78 -1 134 -1 117 -1 119 -1 76 -1 94 -1 136 -1 102 -1 101 -1 245 -1 163 -1 249 -1 60 -1 97 -1 153 -1 175 -1 -2	1	1
110 -1 158 -1 8 -1 95 -1 176 -1 40 -1 138 -1 17 -1 90 -1 114 -1 180 -1 19 -1 107 -1 26 -1 27 -1 109 -1 83 -1 69 -1 70 -1 92 -1 131 -1 119 -1 94 -1 178 -1 108 -1 246 -1 104 -1 11 -1 -2	1	1
2 -1 46 -1 5 -1 15 -1 118 -1 83 -1 12 -1 72 -1 17 -1 52 -1 18 -1 19 -1 26 -1 41 -1 36 -1 38 -1 24 -1 99 -1 50 -1 110 -1 117 -1 94 -1 132 -1 103 -1 133 -1 134 -1 77 -1 143 -1 54 -1 96 -1 153 -1 187 -1 62 -1 247 -1 253 -1 59 -1 -2	1	1
2 -1 46 -1 1 -1 118 -1 29 -1 83 -1 10 -1 17 -1 52 -1 20 -1 109 -1 22 -1 53 -1 32 -1 41 -1 36 -1 99 -1 108 -1 113 -1 93 -1 132 -1 103 -1 134 -1 115 -1 135 -1 143 -1 100 -1 145 -1 95 -1 147 -1 149 -1 111 -1 63 -1 187 -1 189 -1 101 -1 59 -1 -2	1	1
112 -1 134 -1 95 -1 10 -1 40 -1 77 -1 90 -1 53 -1 180 -1 19 -1 107 -1 115 -1 154 -1 22 -1 35 -1 42 -1 75 -1 117 -1 70 -1 78 -1 41 -1 82 -1 92 -1 132 -1 144 -1 245 -1 104 -1 247 -1 254 -1 85 -1 -2	1	1
110 -1 134 -1 166 -1 95 -1 77 -1 17 -1 54 -1 114 -1 19 -1 26 -1 28 -1 74 -1 83 -1 36 -1 69 -1 70 -1 57 -1 78 -1 170 -1 118 -1 132 -1 94 -1 143 -1 144 -1 108 -1 147 -1 141 -1 171 -1 245 -1 246 -1 122 -1 253 -1 -2	1	1
61 -1 67 -1 98 -1 11 -1 76 -1 14 -1 15 -1 88 -1 107 -1 20 -1 112 -1 79 -1 26 -1 117 -1 30 -1 137 -1 139 -1 172 -1 102 -1 219 -1 223 -1 63 -1 245 -1 39 -1 29 -1 -2	1	1
112 -1 166 -1 8 -1 95 -1 140 -1 9 -1 14 -1 114 -1 180 -1 19 -1 107 -1 154 -1 167 -1 28 -1 74 -1 31 -1 83 -1 36 -1 70 -1 170 -1 92 -1 131 -1 178 -1 143 -1 108 -1 150 -1 104 -1 122 -1 11 -1 21 -1 254 -1 85 -1 -2	1	1
2 -1 121 -1 186 -1 9 -1 99 -1 39 -1 110 -1 109 -1 13 -1 143 -1 82 -1 23 -1 148 -1 155 -1 108 -1 36 -1 1 -1 134 -1 49 -1 57 -1 113 -1 58 -1 136 -1 101 -1 105 -1 163 -1 246 -1 52 -1 249 -1 -2	1	1
15 -1 8 -1 1 -1 39 -1 13 -1 42 -1 51 -1 65 -1 18 -1 20 -1 22 -1 53 -1 86 -1 105 -1 117 -1 104 -1 68 -1 134 -1 77 -1 115 -1 135 -1 143 -1 69 -1 147 -1 96 -1 153 -1 106 -1 6 -1 31 -1 63 -1 70 -1 62 -1 59 -1 256 -1 79 -1 257 -1 258 -1 -2	1	1
46 -1 73 -1 118 -1 13 -1 42 -1 51 -1 18 -1 20 -1 19 -1 71 -1 85 -1 26 -1 53 -1 38 -1 113 -1 133 -1 115 -1 143 -1 54 -1 145 -1 147 -1 96 -1 169 -1 6 -1 62 -1 59 -1 256 -1 84 -1 -2	1	1
110 -1 112 -1 134 -1 158 -1 113 -1 9 -1 10 -1 77 -1 14 -1 107 -1 115 -1 154 -1 116 -1 31 -1 84 -1 57 -1 79 -1 131 -1 119 -1 178 -1 143 -1 108 -1 171 -1 149 -1 150 -1 246 -1 122 -1 11 -1 253 -1 21 -1 254 -1 -2	1	1
46 -1 9 -1 13 -1 42 -1 17 -1 30 -1 19 -1 85 -1 82 -1 38 -1 99 -1 110 -1 104 -1 68 -1 77 -1 143 -1 69 -1 145 -1 147 -1 106 -1 169 -1 185 -1 63 -1 245 -1 247 -1 253 -1 257 -1 258 -1 -2	1	1
2 -1 9 -1 13 -1 51 -1 65 -1 109 -1 22 -1 19 -1 86 -1 113 -1 94 -1 134 -1 115 -1 69 -1 100 -1 145 -1 149 -1 96 -1 153 -1 169 -1 111 -1 70 -1 247 -1 253 -1 257 -1 84 -1 -2	1	1
73 -1 5 -1 15 -1 23 -1 1 -1 118 -1 10 -1 13 -1 35 -1 52 -1 65 -1 22 -1 71 -1 53 -1 41 -1 82 -1 24 -1 108 -1 105 -1 104 -1 133 -1 149 -1 96 -1 153 -1 187 -1 189 -1 33 -1 190 -1 59 -1 -2	1	1
73 -1 15 -1 23 -1 107 -1 118 -1 29 -1 12 -1 72 -1 35 -1 109 -1 19 -1 71 -1 50 -1 110 -1 113 -1 93 -1 94 -1 132 -1 103 -1 68 -1 115 -1 153 -1 187 -1 33 -1 253 -1 59 -1 256 -1 79 -1 257 -1 84 -1 258 -1 -2	1	1
2 -1 5 -1 1 -1 39 -1 107 -1 29 -1 12 -1 13 -1 52 -1 65 -1 30 -1 20 -1 19 -1 86 -1 36 -1 38 -1 99 -1 108 -1 113 -1 93 -1 68 -1 77 -1 115 -1 54 -1 149 -1 153 -1 106 -1 169 -1 190 -1 247 -1 79 -1 -2	1	1
1 -1 110 -1 112 -1 113 -1 140 -1 9 -1 77 -1 138 -1 17 -1 54 -1 114 -1 180 -1 107 -1 154 -1 35 -1 99 -1 69 -1 57 -1 41 -1 79 -1 92 -1 131 -1 144 -1 108 -1 141 -1 150 -1 245 -1 122 -1 247 -1 11 -1 253 -1 85 -1 -2	1	1
5 -1 15 -1 23 -1 1 -1 39 -1 118 -1 29 -1 83 -1 42 -1 35 -1 18 -1 30 -1 109 -1 22 -1 26 -1 53 -1 86 -1 32 -1 36 -1 50 -1 117 -1 104 -1 134 -1 54 -1 69 -1 100 -1 95 -1 147 -1 189 -1 190 -1 62 -1 256 -1 79 -1 84 -1 -2	1	1
73 -1 107 -1 118 -1 83 -1 10 -1 72 -1 13 -1 42 -1 17 -1 35 -1 52 -1 30 -1 109 -1 22 -1 19 -1 85 -1 26 -1 32 -1 41 -1 110 -1 117 -1 132 -1 135 -1 69 -1 145 -1 95 -1 149 -1 106 -1 6 -1 31 -1 182 -1 62 -1 59 -1 79 -1 -2	1	1
2 -1 186 -1 39 -1 11 -1 109 -1 143 -1 178 -1 16 -1 23 -1 26 -1 156 -1 157 -1 166 -1 25 -1 79 -1 134 -1 57 -1 119 -1 70 -1 101 -1 163 -1 168 -1 247 -1 253 -1 97 -1 268 -1 -2	1	1
112 -1 134 -1 139 -1 158 -1 8 -1 113 -1 140 -1 176 -1 168 -1 77 -1 17 -1 54 -1 114 -1 53 -1 19 -1 167 -1 22 -1 58 -1 116 -1 27 -1 74 -1 109 -1 165 -1 75 -1 117 -1 57 -1 41 -1 131 -1 119 -1 94 -1 108 -1 147 -1 141 -1 150 -1 11 -1 29 -1 254 -1 -2	1	1
1 -1 107 -1 9 -1 12 -1 17 -1 18 -1 85 -1 26 -1 41 -1 82 -1 24 -1 99 -1 67 -1 105 -1 93 -1 117 -1 103 -1 104 -1 77 -1 115 -1 145 -1 149 -1 169 -1 6 -1 182 -1 33 -1 256 -1 258 -1 -2	1	1
120 -1 121 -1 61 -1 7 -1 17 -1 113 -1 11 -1 14 -1 78 -1 87 -1 88 -1 107 -1 111 -1 112 -1 22 -1 79 -1 13 -1 103 -1 26 -1 92 -1 28 -1 37 -1 30 -1 93 -1 127 -1 97 -1 132 -1 139 -1 83 -1 181 -1 219 -1 39 -1 108 -1 246 -1 253 -1 71 -1 81 -1 -2	1	1
2 -1 118 -1 83 -1 12 -1 72 -1 52 -1 65 -1 18 -1 19 -1 71 -1 26 -1 105 -1 117 -1 133 -1 135 -1 143 -1 95 -1 147 -1 153 -1 31 -1 187 -1 253 -1 256 -1 79 -1 258 -1 -2	1	1
1 -1 29 -1 51 -1 17 -1 52 -1 18 -1 22 -1 26 -1 32 -1 82 -1 24 -1 99 -1 108 -1 132 -1 68 -1 69 -1 145 -1 95 -1 147 -1 149 -1 106 -1 6 -1 245 -1 101 -1 253 -1 256 -1 257 -1 258 -1 -2	1	1
61 -1 9 -1 10 -1 39 -1 109 -1 143 -1 179 -1 46 -1 26 -1 141 -1 68 -1 56 -1 140 -1 25 -1 1 -1 58 -1 119 -1 70 -1 101 -1 67 -1 246 -1 50 -1 249 -1 253 -1 97 -1 268 -1 135 -1 -2	1	1
110 -1 166 -1 113 -1 153 -1 14 -1 180 -1 107 -1 22 -1 129 -1 26 -1 58 -1 27 -1 28 -1 74 -1 165 -1 84 -1 75 -1 100 -1 36 -1 117 -1 78 -1 82 -1 170 -1 131 -1 132 -1 178 -1 108 -1 171 -1 150 -1 245 -1 122 -1 247 -1 -2	1	1
186 -1 8 -1 107 -1 96 -1 109 -1 13 -1 66 -1 178 -1 14 -1 17 -1 16 -1 148 -1 26 -1 147 -1 35 -1 166 -1 25 -1 78 -1 79 -1 134 -1 49 -1 57 -1 113 -1 58 -1 70 -1 106 -1 137 -1 146 -1 246 -1 52 -1 -2	1	1
1 -1 110 -1 134 -1 139 -1 158 -1 140 -1 153 -1 13 -1 77 -1 90 -1 114 -1 167 -1 129 -1 27 -1 109 -1 31 -1 84 -1 75 -1 70 -1 57 -1 78 -1 41 -1 92 -1 119 -1 132 -1 179 -1 178 -1 144 -1 108 -1 171 -1 150 -1 122 -1 253 -1 85 -1 -2	1	1
2 -1 95 -1 121 -1 186 -1 8 -1 9 -1 10 -1 45 -1 96 -1 13 -1 66 -1 143 -1 178 -1 82 -1 20 -1 35 -1 140 -1 122 -1 25 -1 134 -1 117 -1 58 -1 102 -1 137 -1 120 -1 253 -1 262 -1 135 -1 -2	1	1
81 -1 186 -1 107 -1 9 -1 39 -1 124 -1 96 -1 143 -1 178 -1 179 -1 17 -1 82 -1 125 -1 23 -1 31 -1 140 -1 122 -1 25 -1 1 -1 79 -1 113 -1 58 -1 119 -1 76 -1 94 -1 101 -1 163 -1 247 -1 50 -1 249 -1 253 -1 60 -1 97 -1 175 -1 135 -1 -2	1	1
15 -1 1 -1 107 -1 29 -1 83 -1 12 -1 42 -1 51 -1 52 -1 30 -1 109 -1 19 -1 85 -1 32 -1 38 -1 24 -1 99 -1 113 -1 93 -1 94 -1 133 -1 68 -1 134 -1 77 -1 115 -1 135 -1 147 -1 96 -1 6 -1 111 -1 185 -1 33 -1 245 -1 256 -1 257 -1 -2	1	1
76 -1 86 -1 69 -1 15 -1 62 -1 18 -1 22 -1 72 -1 53 -1 82 -1 40 -1 78 -1 79 -1 124 -1 132 -1 66 -1 133 -1 139 -1 16 -1 29 -1 163 -1 68 -1 180 -1 211 -1 230 -1 84 -1 -2	1	1
121 -1 186 -1 8 -1 10 -1 45 -1 13 -1 178 -1 17 -1 141 -1 157 -1 56 -1 166 -1 78 -1 1 -1 49 -1 113 -1 119 -1 101 -1 67 -1 245 -1 246 -1 120 -1 253 -1 91 -1 259 -1 145 -1 135 -1 -2	1	1
5 -1 74 -1 10 -1 68 -1 11 -1 22 -1 29 -1 17 -1 26 -1 35 -1 12 -1 69 -1 114 -1 37 -1 31 -1 40 -1 50 -1 59 -1 63 -1 34 -1 67 -1 150 -1 52 -1 171 -1 209 -1 245 -1 58 -1 39 -1 -2	1	1
15 -1 8 -1 39 -1 107 -1 20 -1 53 -1 41 -1 36 -1 82 -1 99 -1 67 -1 110 -1 113 -1 133 -1 134 -1 100 -1 96 -1 153 -1 106 -1 182 -1 185 -1 63 -1 70 -1 256 -1 79 -1 258 -1 -2	1	1
81 -1 8 -1 10 -1 39 -1 45 -1 13 -1 14 -1 179 -1 82 -1 20 -1 148 -1 141 -1 31 -1 108 -1 147 -1 35 -1 56 -1 1 -1 119 -1 70 -1 94 -1 106 -1 146 -1 163 -1 168 -1 247 -1 -2	1	1
4 -1 53 -1 12 -1 19 -1 18 -1 5 -1 28 -1 8 -1 56 -1 30 -1 16 -1 93 -1 35 -1 50 -1 59 -1 72 -1 61 -1 120 -1 47 -1 141 -1 37 -1 245 -1 256 -1 -2	1	1
2 -1 23 -1 107 -1 118 -1 9 -1 10 -1 72 -1 17 -1 52 -1 30 -1 19 -1 86 -1 41 -1 36 -1 82 -1 67 -1 132 -1 54 -1 145 -1 96 -1 153 -1 169 -1 6 -1 31 -1 182 -1 63 -1 245 -1 62 -1 257 -1 258 -1 -2	1	1
2 -1 46 -1 73 -1 15 -1 23 -1 29 -1 83 -1 12 -1 72 -1 51 -1 35 -1 18 -1 30 -1 20 -1 22 -1 19 -1 71 -1 85 -1 26 -1 86 -1 99 -1 105 -1 113 -1 94 -1 68 -1 115 -1 135 -1 54 -1 100 -1 145 -1 147 -1 106 -1 33 -1 70 -1 245 -1 256 -1 258 -1 -2	1	1
1 -1 17 -1 76 -1 15 -1 69 -1 65 -1 91 -1 20 -1 112 -1 26 -1 92 -1 117 -1 37 -1 30 -1 93 -1 60 -1 114 -1 97 -1 68 -1 89 -1 143 -1 90 -1 83 -1 102 -1 223 -1 39 -1 12 -1 71 -1 260 -1 -2	1	1
1 -1 110 -1 139 -1 158 -1 8 -1 95 -1 113 -1 140 -1 176 -1 40 -1 168 -1 13 -1 89 -1 17 -1 54 -1 107 -1 58 -1 27 -1 28 -1 83 -1 84 -1 35 -1 42 -1 99 -1 117 -1 79 -1 92 -1 179 -1 143 -1 144 -1 245 -1 104 -1 11 -1 253 -1 21 -1 29 -1 -2	1	1
2 -1 15 -1 1 -1 107 -1 29 -1 72 -1 42 -1 17 -1 52 -1 65 -1 22 -1 19 -1 26 -1 86 -1 82 -1 24 -1 50 -1 113 -1 93 -1 94 -1 103 -1 115 -1 143 -1 69 -1 147 -1 169 -1 6 -1 111 -1 187 -1 190 -1 253 -1 258 -1 -2	1	1
47 -1 74 -1 8 -1 9 -1 10 -1 13 -1 14 -1 30 -1 18 -1 23 -1 26 -1 27 -1 35 -1 81 -1 64 -1 109 -1 120 -1 133 -1 63 -1 147 -1 149 -1 150 -1 52 -1 43 -1 246 -1 260 -1 262 -1 -2	1	1
1 -1 112 -1 139 -1 166 -1 113 -1 140 -1 9 -1 176 -1 40 -1 77 -1 14 -1 17 -1 107 -1 115 -1 26 -1 116 -1 84 -1 35 -1 75 -1 99 -1 79 -1 132 -1 179 -1 143 -1 171 -1 149 -1 245 -1 246 -1 259 -1 -2	1	1
46 -1 15 -1 1 -1 118 -1 10 -1 42 -1 65 -1 82 -1 105 -1 132 -1 103 -1 104 -1 133 -1 115 -1 69 -1 33 -1 190 -1 84 -1 258 -1 -2	1	1
73 -1 23 -1 8 -1 9 -1 29 -1 83 -1 13 -1 42 -1 51 -1 52 -1 65 -1 22 -1 85 -1 41 -1 36 -1 24 -1 99 -1 108 -1 67 -1 113 -1 117 -1 94 -1 103 -1 104 -1 133 -1 68 -1 143 -1 100 -1 95 -1 106 -1 189 -1 33 -1 70 -1 59 -1 256 -1 257 -1 84 -1 -2	1	1
1 -1 112 -1 158 -1 8 -1 9 -1 176 -1 10 -1 168 -1 138 -1 17 -1 180 -1 115 -1 22 -1 28 -1 109 -1 84 -1 35 -1 42 -1 100 -1 69 -1 70 -1 79 -1 170 -1 178 -1 144 -1 141 -1 149 -1 150 -1 104 -1 259 -1 -2	1	1
46 -1 5 -1 8 -1 118 -1 9 -1 72 -1 13 -1 30 -1 20 -1 26 -1 53 -1 32 -1 82 -1 108 -1 93 -1 94 -1 104 -1 133 -1 68 -1 143 -1 54 -1 69 -1 145 -1 169 -1 111 -1 185 -1 187 -1 62 -1 247 -1 253 -1 257 -1 -2	1	1
120 -1 2 -1 61 -1 8 -1 9 -1 78 -1 87 -1 15 -1 77 -1 19 -1 112 -1 79 -1 23 -1 70 -1 80 -1 92 -1 104 -1 27 -1 30 -1 38 -1 56 -1 93 -1 110 -1 137 -1 95 -1 16 -1 90 -1 83 -1 223 -1 63 -1 108 -1 12 -1 29 -1 71 -1 81 -1 -2	1	1
81 -1 186 -1 61 -1 99 -1 124 -1 109 -1 14 -1 125 -1 26 -1 156 -1 108 -1 25 -1 78 -1 1 -1 79 -1 49 -1 117 -1 102 -1 101 -1 146 -1 246 -1 52 -1 249 -1 60 -1 259 -1 -2	1	1
2 -1 81 -1 121 -1 99 -1 11 -1 96 -1 13 -1 66 -1 14 -1 17 -1 155 -1 31 -1 157 -1 56 -1 140 -1 73 -1 78 -1 134 -1 49 -1 58 -1 70 -1 94 -1 146 -1 247 -1 249 -1 120 -1 253 -1 60 -1 135 -1 -2	1	1
73 -1 5 -1 1 -1 39 -1 107 -1 83 -1 12 -1 51 -1 65 -1 19 -1 53 -1 32 -1 41 -1 36 -1 82 -1 24 -1 99 -1 110 -1 117 -1 133 -1 68 -1 135 -1 143 -1 54 -1 149 -1 153 -1 106 -1 185 -1 253 -1 59 -1 -2	1	1
46 -1 15 -1 9 -1 10 -1 12 -1 72 -1 13 -1 51 -1 18 -1 30 -1 22 -1 26 -1 86 -1 36 -1 24 -1 99 -1 110 -1 117 -1 94 -1 133 -1 115 -1 69 -1 100 -1 95 -1 147 -1 149 -1 169 -1 6 -1 111 -1 63 -1 189 -1 33 -1 190 -1 101 -1 253 -1 257 -1 -2	1	1
61 -1 10 -1 11 -1 13 -1 14 -1 46 -1 68 -1 36 -1 122 -1 166 -1 25 -1 78 -1 117 -1 58 -1 94 -1 101 -1 67 -1 105 -1 120 -1 253 -1 135 -1 -2	1	1
8 -1 1 -1 118 -1 10 -1 12 -1 72 -1 51 -1 52 -1 22 -1 26 -1 53 -1 86 -1 41 -1 99 -1 103 -1 135 -1 143 -1 54 -1 149 -1 169 -1 31 -1 33 -1 62 -1 101 -1 253 -1 59 -1 256 -1 79 -1 258 -1 -2	1	1
23 -1 1 -1 39 -1 72 -1 13 -1 51 -1 17 -1 30 -1 109 -1 99 -1 50 -1 105 -1 133 -1 77 -1 54 -1 100 -1 96 -1 153 -1 185 -1 187 -1 253 -1 59 -1 257 -1 -2	1	1
2 -1 39 -1 13 -1 42 -1 51 -1 52 -1 20 -1 71 -1 53 -1 86 -1 32 -1 41 -1 99 -1 110 -1 117 -1 68 -1 77 -1 69 -1 145 -1 95 -1 147 -1 149 -1 6 -1 31 -1 182 -1 111 -1 185 -1 62 -1 253 -1 -2	1	1
2 -1 73 -1 1 -1 39 -1 13 -1 42 -1 35 -1 65 -1 22 -1 71 -1 26 -1 86 -1 32 -1 36 -1 82 -1 24 -1 99 -1 50 -1 110 -1 105 -1 117 -1 94 -1 68 -1 54 -1 69 -1 95 -1 147 -1 153 -1 106 -1 169 -1 62 -1 79 -1 -2	1	1
2 -1 46 -1 23 -1 1 -1 107 -1 118 -1 9 -1 29 -1 83 -1 42 -1 51 -1 18 -1 30 -1 19 -1 32 -1 24 -1 110 -1 117 -1 103 -1 54 -1 69 -1 100 -1 147 -1 149 -1 96 -1 106 -1 185 -1 63 -1 190 -1 70 -1 245 -1 62 -1 247 -1 256 -1 258 -1 -2	1	1
110 -1 139 -1 8 -1 95 -1 176 -1 40 -1 153 -1 17 -1 54 -1 107 -1 167 -1 129 -1 26 -1 58 -1 27 -1 28 -1 74 -1 75 -1 117 -1 170 -1 118 -1 119 -1 179 -1 108 -1 141 -1 171 -1 150 -1 245 -1 254 -1 85 -1 -2	1	1
10 -1 12 -1 72 -1 52 -1 65 -1 20 -1 19 -1 71 -1 85 -1 26 -1 53 -1 86 -1 24 -1 108 -1 67 -1 113 -1 93 -1 94 -1 68 -1 54 -1 145 -1 95 -1 147 -1 96 -1 153 -1 106 -1 31 -1 111 -1 187 -1 257 -1 84 -1 -2	1	1
2 -1 8 -1 9 -1 12 -1 22 -1 26 -1 53 -1 41 -1 38 -1 99 -1 67 -1 113 -1 117 -1 77 -1 115 -1 143 -1 100 -1 149 -1 106 -1 6 -1 185 -1 190 -1 245 -1 62 -1 247 -1 59 -1 256 -1 79 -1 84 -1 -2	1	1
8 -1 29 -1 83 -1 72 -1 35 -1 18 -1 30 -1 109 -1 22 -1 71 -1 26 -1 41 -1 36 -1 24 -1 67 -1 93 -1 94 -1 103 -1 104 -1 68 -1 54 -1 145 -1 149 -1 153 -1 6 -1 31 -1 182 -1 185 -1 63 -1 187 -1 189 -1 70 -1 245 -1 257 -1 84 -1 258 -1 -2	1	1
121 -1 9 -1 10 -1 98 -1 11 -1 76 -1 78 -1 69 -1 65 -1 91 -1 111 -1 103 -1 26 -1 92 -1 38 -1 31 -1 56 -1 127 -1 97 -1 64 -1 133 -1 89 -1 139 -1 16 -1 143 -1 172 -1 181 -1 223 -1 245 -1 29 -1 71 -1 260 -1 -2	1	1
2 -1 46 -1 15 -1 39 -1 83 -1 12 -1 72 -1 20 -1 109 -1 71 -1 85 -1 26 -1 36 -1 38 -1 93 -1 117 -1 132 -1 133 -1 135 -1 143 -1 54 -1 96 -1 182 -1 187 -1 70 -1 245 -1 101 -1 253 -1 59 -1 79 -1 258 -1 -2	1	1
8 -1 9 -1 10 -1 96 -1 178 -1 14 -1 46 -1 20 -1 148 -1 26 -1 141 -1 156 -1 108 -1 56 -1 122 -1 166 -1 79 -1 134 -1 57 -1 113 -1 117 -1 84 -1 106 -1 67 -1 50 -1 253 -1 60 -1 91 -1 145 -1 153 -1 268 -1 -2	1	1
39 -1 118 -1 9 -1 29 -1 10 -1 72 -1 51 -1 65 -1 30 -1 22 -1 19 -1 26 -1 86 -1 36 -1 67 -1 110 -1 113 -1 117 -1 104 -1 133 -1 143 -1 54 -1 95 -1 96 -1 169 -1 187 -1 33 -1 190 -1 70 -1 59 -1 256 -1 -2	1	1
73 -1 29 -1 10 -1 12 -1 51 -1 65 -1 20 -1 109 -1 85 -1 99 -1 50 -1 110 -1 93 -1 77 -1 135 -1 54 -1 100 -1 145 -1 95 -1 147 -1 149 -1 6 -1 111 -1 185 -1 33 -1 70 -1 101 -1 79 -1 84 -1 258 -1 -2	1	1
2 -1 81 -1 8 -1 61 -1 9 -1 10 -1 11 -1 178 -1 179 -1 82 -1 148 -1 155 -1 26 -1 156 -1 35 -1 122 -1 25 -1 78 -1 79 -1 58 -1 119 -1 137 -1 146 -1 245 -1 60 -1 97 -1 259 -1 145 -1 262 -1 -2	1	1
95 -1 121 -1 61 -1 10 -1 39 -1 45 -1 109 -1 66 -1 178 -1 16 -1 46 -1 20 -1 23 -1 26 -1 36 -1 166 -1 1 -1 79 -1 134 -1 57 -1 113 -1 84 -1 94 -1 137 -1 101 -1 245 -1 168 -1 247 -1 120 -1 253 -1 91 -1 259 -1 262 -1 135 -1 -2	1	1
73 -1 23 -1 1 -1 10 -1 72 -1 13 -1 35 -1 65 -1 19 -1 71 -1 53 -1 86 -1 32 -1 41 -1 36 -1 82 -1 99 -1 108 -1 105 -1 93 -1 117 -1 132 -1 134 -1 115 -1 135 -1 143 -1 54 -1 111 -1 245 -1 101 -1 247 -1 59 -1 79 -1 258 -1 -2	1	1
1 -1 112 -1 8 -1 95 -1 10 -1 77 -1 89 -1 14 -1 53 -1 107 -1 115 -1 154 -1 22 -1 129 -1 26 -1 27 -1 28 -1 35 -1 42 -1 36 -1 99 -1 118 -1 132 -1 179 -1 143 -1 149 -1 122 -1 259 -1 -2	1	1
2 -1 46 -1 5 -1 8 -1 118 -1 29 -1 12 -1 52 -1 65 -1 20 -1 109 -1 85 -1 86 -1 36 -1 24 -1 99 -1 50 -1 110 -1 113 -1 94 -1 132 -1 104 -1 143 -1 100 -1 6 -1 182 -1 111 -1 63 -1 187 -1 33 -1 70 -1 62 -1 247 -1 253 -1 256 -1 84 -1 -2	1	1
73 -1 29 -1 12 -1 42 -1 17 -1 18 -1 20 -1 86 -1 108 -1 67 -1 93 -1 103 -1 134 -1 77 -1 149 -1 169 -1 189 -1 190 -1 70 -1 -2	1	1
95 -1 121 -1 61 -1 10 -1 124 -1 96 -1 13 -1 66 -1 14 -1 179 -1 20 -1 23 -1 148 -1 155 -1 68 -1 56 -1 140 -1 122 -1 73 -1 25 -1 78 -1 1 -1 79 -1 113 -1 58 -1 70 -1 102 -1 137 -1 163 -1 168 -1 52 -1 145 -1 -2	1	1
2 -1 46 -1 1 -1 29 -1 83 -1 10 -1 12 -1 72 -1 51 -1 17 -1 52 -1 65 -1 109 -1 22 -1 53 -1 41 -1 36 -1 82 -1 99 -1 67 -1 94 -1 103 -1 104 -1 77 -1 115 -1 135 -1 143 -1 145 -1 153 -1 106 -1 31 -1 185 -1 189 -1 190 -1 62 -1 101 -1 253 -1 59 -1 256 -1 -2	1	1
61 -1 10 -1 96 -1 143 -1 17 -1 82 -1 20 -1 148 -1 141 -1 31 -1 108 -1 157 -1 56 -1 36 -1 122 -1 78 -1 58 -1 70 -1 76 -1 94 -1 136 -1 102 -1 101 -1 245 -1 163 -1 246 -1 249 -1 262 -1 -2	1	1
2 -1 73 -1 8 -1 1 -1 107 -1 42 -1 52 -1 65 -1 18 -1 109 -1 22 -1 19 -1 110 -1 113 -1 93 -1 117 -1 94 -1 143 -1 54 -1 169 -1 185 -1 189 -1 245 -1 62 -1 101 -1 247 -1 256 -1 257 -1 84 -1 258 -1 -2	1	1
13 -1 77 -1 89 -1 53 -1 115 -1 154 -1 167 -1 129 -1 116 -1 27 -1 31 -1 84 -1 42 -1 100 -1 36 -1 69 -1 41 -1 79 -1 170 -1 131 -1 119 -1 132 -1 179 -1 143 -1 144 -1 108 -1 149 -1 150 -1 104 -1 259 -1 -2	1	1
107 -1 9 -1 83 -1 12 -1 13 -1 51 -1 17 -1 65 -1 22 -1 71 -1 24 -1 105 -1 93 -1 104 -1 133 -1 77 -1 149 -1 169 -1 182 -1 63 -1 190 -1 70 -1 62 -1 256 -1 257 -1 258 -1 -2	1	1
46 -1 73 -1 8 -1 118 -1 83 -1 10 -1 12 -1 72 -1 13 -1 42 -1 65 -1 22 -1 71 -1 26 -1 32 -1 108 -1 110 -1 113 -1 94 -1 143 -1 145 -1 95 -1 106 -1 31 -1 182 -1 185 -1 187 -1 70 -1 101 -1 253 -1 59 -1 257 -1 84 -1 258 -1 -2	1	1
15 -1 23 -1 8 -1 1 -1 83 -1 10 -1 13 -1 51 -1 35 -1 18 -1 30 -1 20 -1 22 -1 53 -1 86 -1 32 -1 82 -1 108 -1 113 -1 117 -1 104 -1 134 -1 100 -1 149 -1 185 -1 187 -1 189 -1 33 -1 247 -1 256 -1 257 -1 84 -1 -2	1	1
2 -1 15 -1 1 -1 107 -1 29 -1 12 -1 13 -1 35 -1 65 -1 18 -1 20 -1 22 -1 71 -1 85 -1 26 -1 53 -1 32 -1 38 -1 99 -1 50 -1 67 -1 93 -1 117 -1 104 -1 77 -1 115 -1 135 -1 100 -1 145 -1 153 -1 169 -1 63 -1 189 -1 256 -1 79 -1 258 -1 -2	1	1
73 -1 1 -1 39 -1 29 -1 83 -1 52 -1 18 -1 22 -1 71 -1 85 -1 53 -1 41 -1 36 -1 67 -1 94 -1 104 -1 68 -1 134 -1 115 -1 69 -1 100 -1 95 -1 147 -1 149 -1 169 -1 31 -1 187 -1 70 -1 59 -1 257 -1 258 -1 -2	1	1
15 -1 23 -1 9 -1 51 -1 35 -1 52 -1 109 -1 22 -1 19 -1 85 -1 32 -1 41 -1 36 -1 38 -1 67 -1 110 -1 93 -1 94 -1 132 -1 104 -1 54 -1 95 -1 149 -1 6 -1 187 -1 190 -1 70 -1 62 -1 101 -1 84 -1 258 -1 -2	1	1
74 -1 76 -1 8 -1 67 -1 39 -1 63 -1 43 -1 53 -1 87 -1 98 -1 117 -1 124 -1 31 -1 143 -1 64 -1 144 -1 179 -1 227 -1 71 -1 231 -1 232 -1 235 -1 247 -1 253 -1 -2	1	1
2 -1 46 -1 5 -1 8 -1 9 -1 83 -1 17 -1 52 -1 18 -1 109 -1 85 -1 26 -1 36 -1 38 -1 24 -1 108 -1 113 -1 93 -1 117 -1 103 -1 68 -1 77 -1 54 -1 69 -1 100 -1 149 -1 96 -1 153 -1 31 -1 185 -1 33 -1 245 -1 -2	1	1
8 -1 10 -1 153 -1 168 -1 89 -1 14 -1 130 -1 138 -1 114 -1 19 -1 115 -1 154 -1 167 -1 26 -1 28 -1 74 -1 109 -1 165 -1 31 -1 35 -1 99 -1 69 -1 117 -1 57 -1 78 -1 41 -1 118 -1 179 -1 147 -1 141 -1 171 -1 149 -1 122 -1 247 -1 21 -1 29 -1 254 -1 85 -1 -2	1	1
73 -1 15 -1 29 -1 10 -1 18 -1 30 -1 22 -1 71 -1 82 -1 38 -1 113 -1 132 -1 103 -1 133 -1 77 -1 143 -1 95 -1 147 -1 149 -1 6 -1 182 -1 111 -1 63 -1 189 -1 33 -1 190 -1 245 -1 253 -1 -2	1	1
2 -1 15 -1 9 -1 42 -1 51 -1 30 -1 85 -1 26 -1 53 -1 32 -1 41 -1 82 -1 67 -1 105 -1 113 -1 117 -1 132 -1 77 -1 115 -1 135 -1 69 -1 95 -1 6 -1 31 -1 247 -1 256 -1 258 -1 -2	1	1
139 -1 158 -1 166 -1 95 -1 140 -1 176 -1 40 -1 153 -1 13 -1 89 -1 138 -1 180 -1 19 -1 107 -1 154 -1 167 -1 22 -1 26 -1 27 -1 28 -1 109 -1 42 -1 75 -1 100 -1 69 -1 78 -1 79 -1 94 -1 141 -1 150 -1 104 -1 253 -1 259 -1 -2	1	1
158 -1 8 -1 95 -1 9 -1 40 -1 168 -1 89 -1 17 -1 54 -1 90 -1 114 -1 18 -1 53 -1 180 -1 19 -1 107 -1 154 -1 167 -1 116 -1 28 -1 74 -1 35 -1 36 -1 70 -1 78 -1 41 -1 79 -1 170 -1 119 -1 94 -1 178 -1 147 -1 141 -1 171 -1 122 -1 21 -1 29 -1 -2	1	1
74 -1 41 -1 13 -1 6 -1 23 -1 69 -1 81 -1 49 -1 101 -1 108 -1 109 -1 37 -1 73 -1 143 -1 51 -1 67 -1 52 -1 171 -1 66 -1 209 -1 25 -1 246 -1 65 -1 255 -1 39 -1 262 -1 -2	1	1
186 -1 8 -1 61 -1 9 -1 10 -1 39 -1 66 -1 143 -1 178 -1 14 -1 125 -1 23 -1 148 -1 56 -1 36 -1 122 -1 166 -1 73 -1 25 -1 57 -1 117 -1 70 -1 245 -1 168 -1 246 -1 52 -1 249 -1 253 -1 97 -1 268 -1 -2	1	1
46 -1 5 -1 118 -1 29 -1 83 -1 17 -1 52 -1 109 -1 71 -1 85 -1 41 -1 38 -1 24 -1 99 -1 93 -1 117 -1 94 -1 132 -1 103 -1 68 -1 134 -1 115 -1 54 -1 69 -1 145 -1 95 -1 147 -1 96 -1 182 -1 63 -1 187 -1 70 -1 62 -1 101 -1 253 -1 256 -1 84 -1 258 -1 -2	1	1
81 -1 121 -1 186 -1 61 -1 99 -1 109 -1 66 -1 179 -1 82 -1 23 -1 31 -1 108 -1 140 -1 36 -1 25 -1 79 -1 76 -1 84 -1 106 -1 245 -1 246 -1 52 -1 249 -1 91 -1 97 -1 268 -1 -2	1	1
2 -1 73 -1 23 -1 107 -1 118 -1 29 -1 83 -1 12 -1 42 -1 51 -1 30 -1 85 -1 53 -1 32 -1 36 -1 82 -1 24 -1 99 -1 50 -1 67 -1 103 -1 115 -1 54 -1 100 -1 149 -1 153 -1 106 -1 185 -1 187 -1 33 -1 101 -1 247 -1 59 -1 256 -1 84 -1 258 -1 -2	1	1
2 -1 5 -1 8 -1 39 -1 12 -1 32 -1 41 -1 36 -1 82 -1 38 -1 132 -1 104 -1 133 -1 135 -1 69 -1 95 -1 147 -1 182 -1 111 -1 185 -1 63 -1 189 -1 101 -1 257 -1 258 -1 -2	1	1
73 -1 5 -1 15 -1 8 -1 39 -1 107 -1 9 -1 83 -1 72 -1 13 -1 51 -1 65 -1 20 -1 109 -1 22 -1 19 -1 85 -1 26 -1 53 -1 24 -1 99 -1 94 -1 103 -1 104 -1 134 -1 77 -1 115 -1 143 -1 54 -1 69 -1 145 -1 95 -1 147 -1 96 -1 31 -1 182 -1 63 -1 187 -1 189 -1 190 -1 70 -1 101 -1 253 -1 258 -1 -2	1	1
74 -1 8 -1 33 -1 41 -1 68 -1 11 -1 13 -1 22 -1 17 -1 18 -1 27 -1 81 -1 56 -1 49 -1 117 -1 31 -1 118 -1 50 -1 139 -1 63 -1 143 -1 146 -1 147 -1 149 -1 175 -1 38 -1 246 -1 248 -1 255 -1 39 -1 262 -1 19 -1 -2	1	1
95 -1 186 -1 8 -1 61 -1 107 -1 99 -1 110 -1 13 -1 66 -1 143 -1 178 -1 14 -1 17 -1 82 -1 20 -1 148 -1 156 -1 147 -1 35 -1 56 -1 36 -1 78 -1 113 -1 84 -1 67 -1 146 -1 105 -1 245 -1 52 -1 249 -1 145 -1 175 -1 268 -1 -2	1	1
2 -1 73 -1 8 -1 83 -1 13 -1 42 -1 65 -1 20 -1 85 -1 41 -1 24 -1 108 -1 132 -1 68 -1 143 -1 145 -1 95 -1 147 -1 153 -1 6 -1 31 -1 182 -1 187 -1 189 -1 62 -1 59 -1 79 -1 84 -1 -2	1	1
140 -1 176 -1 10 -1 13 -1 130 -1 114 -1 19 -1 107 -1 167 -1 58 -1 109 -1 31 -1 84 -1 35 -1 99 -1 131 -1 119 -1 132 -1 179 -1 94 -1 178 -1 144 -1 108 -1 147 -1 141 -1 149 -1 150 -1 -2	1	1
2 -1 15 -1 8 -1 83 -1 10 -1 12 -1 72 -1 42 -1 51 -1 35 -1 52 -1 20 -1 109 -1 22 -1 53 -1 82 -1 24 -1 108 -1 67 -1 105 -1 103 -1 135 -1 143 -1 147 -1 6 -1 182 -1 189 -1 101 -1 79 -1 257 -1 -2	1	1
2 -1 46 -1 23 -1 8 -1 1 -1 118 -1 35 -1 109 -1 19 -1 85 -1 26 -1 41 -1 113 -1 132 -1 103 -1 104 -1 54 -1 100 -1 6 -1 31 -1 189 -1 190 -1 101 -1 79 -1 257 -1 84 -1 -2	1	1
1 -1 8 -1 95 -1 9 -1 10 -1 40 -1 168 -1 89 -1 114 -1 53 -1 107 -1 167 -1 26 -1 116 -1 42 -1 36 -1 57 -1 170 -1 131 -1 94 -1 144 -1 141 -1 245 -1 122 -1 247 -1 11 -1 -2	1	1
110 -1 112 -1 134 -1 158 -1 9 -1 168 -1 13 -1 77 -1 90 -1 53 -1 107 -1 154 -1 167 -1 22 -1 26 -1 116 -1 27 -1 109 -1 165 -1 31 -1 75 -1 36 -1 92 -1 141 -1 149 -1 245 -1 104 -1 253 -1 259 -1 -2	1	1
46 -1 23 -1 107 -1 9 -1 29 -1 13 -1 35 -1 65 -1 71 -1 85 -1 26 -1 53 -1 36 -1 110 -1 105 -1 113 -1 93 -1 117 -1 132 -1 103 -1 133 -1 134 -1 115 -1 135 -1 143 -1 69 -1 95 -1 149 -1 182 -1 187 -1 190 -1 245 -1 62 -1 59 -1 84 -1 -2	1	1
46 -1 73 -1 23 -1 8 -1 9 -1 29 -1 12 -1 72 -1 42 -1 22 -1 82 -1 24 -1 67 -1 110 -1 113 -1 93 -1 132 -1 104 -1 68 -1 143 -1 100 -1 96 -1 189 -1 70 -1 245 -1 253 -1 258 -1 -2	1	1
121 -1 107 -1 9 -1 10 -1 45 -1 11 -1 96 -1 109 -1 143 -1 16 -1 46 -1 20 -1 23 -1 155 -1 147 -1 157 -1 25 -1 79 -1 84 -1 106 -1 245 -1 163 -1 253 -1 259 -1 145 -1 153 -1 175 -1 135 -1 -2	1	1
110 -1 112 -1 8 -1 13 -1 130 -1 54 -1 114 -1 180 -1 115 -1 167 -1 109 -1 31 -1 75 -1 70 -1 57 -1 78 -1 41 -1 79 -1 170 -1 131 -1 143 -1 147 -1 246 -1 247 -1 254 -1 -2	1	1
95 -1 8 -1 39 -1 45 -1 124 -1 11 -1 109 -1 13 -1 143 -1 178 -1 14 -1 17 -1 16 -1 46 -1 125 -1 20 -1 23 -1 155 -1 141 -1 68 -1 108 -1 157 -1 56 -1 140 -1 166 -1 25 -1 1 -1 134 -1 49 -1 58 -1 101 -1 245 -1 168 -1 50 -1 120 -1 97 -1 135 -1 -2	1	1
46 -1 73 -1 1 -1 9 -1 29 -1 10 -1 12 -1 52 -1 65 -1 20 -1 85 -1 53 -1 41 -1 99 -1 50 -1 110 -1 93 -1 117 -1 94 -1 133 -1 77 -1 115 -1 69 -1 147 -1 149 -1 106 -1 182 -1 185 -1 33 -1 101 -1 79 -1 257 -1 -2	1	1
73 -1 15 -1 107 -1 29 -1 52 -1 65 -1 18 -1 71 -1 41 -1 104 -1 133 -1 77 -1 54 -1 145 -1 95 -1 149 -1 96 -1 169 -1 31 -1 189 -1 33 -1 101 -1 -2	1	1
46 -1 73 -1 5 -1 39 -1 10 -1 12 -1 13 -1 65 -1 30 -1 20 -1 22 -1 19 -1 85 -1 53 -1 50 -1 113 -1 104 -1 134 -1 115 -1 135 -1 143 -1 54 -1 95 -1 147 -1 149 -1 31 -1 182 -1 111 -1 185 -1 187 -1 245 -1 62 -1 253 -1 -2	1	1
23 -1 1 -1 51 -1 20 -1 26 -1 53 -1 82 -1 50 -1 67 -1 94 -1 104 -1 133 -1 68 -1 106 -1 169 -1 189 -1 190 -1 245 -1 62 -1 253 -1 79 -1 257 -1 -2	1	1
2 -1 46 -1 5 -1 15 -1 8 -1 1 -1 107 -1 9 -1 12 -1 13 -1 51 -1 17 -1 20 -1 22 -1 71 -1 53 -1 41 -1 36 -1 24 -1 50 -1 108 -1 67 -1 113 -1 94 -1 77 -1 135 -1 54 -1 100 -1 147 -1 96 -1 153 -1 106 -1 187 -1 70 -1 59 -1 257 -1 -2	1	1
81 -1 186 -1 8 -1 107 -1 9 -1 99 -1 10 -1 110 -1 124 -1 141 -1 156 -1 108 -1 147 -1 157 -1 78 -1 79 -1 134 -1 49 -1 117 -1 76 -1 106 -1 102 -1 168 -1 249 -1 120 -1 60 -1 91 -1 262 -1 175 -1 268 -1 135 -1 -2	1	1
1 -1 107 -1 29 -1 12 -1 13 -1 18 -1 30 -1 26 -1 24 -1 113 -1 94 -1 103 -1 134 -1 135 -1 54 -1 147 -1 96 -1 6 -1 185 -1 63 -1 187 -1 189 -1 190 -1 62 -1 247 -1 59 -1 79 -1 258 -1 -2	1	1
158 -1 166 -1 8 -1 176 -1 40 -1 153 -1 13 -1 77 -1 130 -1 17 -1 90 -1 114 -1 107 -1 167 -1 27 -1 28 -1 109 -1 165 -1 83 -1 84 -1 75 -1 69 -1 117 -1 41 -1 170 -1 118 -1 119 -1 179 -1 144 -1 141 -1 150 -1 245 -1 246 -1 21 -1 254 -1 -2	1	1
2 -1 99 -1 10 -1 124 -1 11 -1 66 -1 16 -1 125 -1 20 -1 155 -1 147 -1 35 -1 140 -1 166 -1 73 -1 49 -1 113 -1 117 -1 58 -1 70 -1 76 -1 163 -1 168 -1 246 -1 50 -1 259 -1 145 -1 262 -1 268 -1 135 -1 -2	1	1
158 -1 8 -1 113 -1 140 -1 176 -1 10 -1 153 -1 17 -1 54 -1 114 -1 18 -1 53 -1 22 -1 58 -1 27 -1 28 -1 35 -1 42 -1 99 -1 70 -1 57 -1 41 -1 82 -1 119 -1 179 -1 178 -1 141 -1 171 -1 254 -1 259 -1 -2	1	1
107 -1 29 -1 13 -1 42 -1 52 -1 65 -1 18 -1 19 -1 26 -1 86 -1 32 -1 41 -1 99 -1 108 -1 117 -1 68 -1 143 -1 54 -1 95 -1 147 -1 169 -1 111 -1 63 -1 245 -1 247 -1 59 -1 84 -1 -2	1	1
2 -1 10 -1 45 -1 11 -1 96 -1 13 -1 46 -1 82 -1 125 -1 148 -1 141 -1 68 -1 157 -1 140 -1 36 -1 122 -1 73 -1 79 -1 94 -1 245 -1 163 -1 246 -1 253 -1 60 -1 145 -1 135 -1 -2	1	1
73 -1 5 -1 15 -1 8 -1 1 -1 118 -1 83 -1 10 -1 17 -1 65 -1 18 -1 30 -1 20 -1 36 -1 99 -1 50 -1 108 -1 117 -1 94 -1 135 -1 69 -1 145 -1 96 -1 153 -1 169 -1 63 -1 187 -1 62 -1 59 -1 256 -1 79 -1 -2	1	1
134 -1 158 -1 166 -1 95 -1 176 -1 40 -1 14 -1 138 -1 54 -1 114 -1 107 -1 115 -1 167 -1 27 -1 165 -1 31 -1 83 -1 84 -1 35 -1 75 -1 100 -1 117 -1 70 -1 82 -1 131 -1 119 -1 178 -1 171 -1 11 -1 253 -1 254 -1 259 -1 -2	1	1
2 -1 81 -1 95 -1 186 -1 99 -1 39 -1 45 -1 110 -1 124 -1 109 -1 178 -1 14 -1 17 -1 16 -1 148 -1 156 -1 31 -1 147 -1 35 -1 1 -1 113 -1 117 -1 58 -1 94 -1 101 -1 67 -1 146 -1 163 -1 246 -1 120 -1 60 -1 91 -1 175 -1 268 -1 -2	1	1
81 -1 186 -1 99 -1 39 -1 124 -1 13 -1 178 -1 16 -1 46 -1 82 -1 141 -1 35 -1 36 -1 78 -1 1 -1 134 -1 49 -1 57 -1 70 -1 76 -1 106 -1 137 -1 101 -1 67 -1 163 -1 246 -1 52 -1 253 -1 91 -1 97 -1 145 -1 262 -1 175 -1 268 -1 135 -1 -2	1	1
8 -1 1 -1 39 -1 12 -1 72 -1 42 -1 51 -1 52 -1 65 -1 26 -1 53 -1 86 -1 99 -1 110 -1 132 -1 68 -1 143 -1 69 -1 145 -1 96 -1 6 -1 31 -1 185 -1 190 -1 245 -1 62 -1 101 -1 253 -1 79 -1 84 -1 258 -1 -2	1	1
2 -1 95 -1 107 -1 45 -1 110 -1 66 -1 143 -1 179 -1 16 -1 23 -1 78 -1 76 -1 136 -1 102 -1 67 -1 105 -1 245 -1 168 -1 249 -1 60 -1 97 -1 259 -1 175 -1 -2	1	1
81 -1 121 -1 61 -1 107 -1 99 -1 39 -1 109 -1 14 -1 17 -1 16 -1 155 -1 156 -1 122 -1 73 -1 1 -1 79 -1 134 -1 57 -1 117 -1 58 -1 119 -1 84 -1 94 -1 106 -1 136 -1 137 -1 101 -1 50 -1 120 -1 253 -1 60 -1 262 -1 135 -1 -2	1	1
23 -1 8 -1 107 -1 118 -1 12 -1 52 -1 65 -1 109 -1 41 -1 82 -1 38 -1 24 -1 108 -1 117 -1 103 -1 104 -1 135 -1 69 -1 145 -1 149 -1 111 -1 187 -1 33 -1 70 -1 247 -1 59 -1 256 -1 257 -1 -2	1	1
120 -1 121 -1 24 -1 9 -1 67 -1 98 -1 87 -1 65 -1 111 -1 112 -1 79 -1 23 -1 92 -1 27 -1 117 -1 110 -1 60 -1 127 -1 97 -1 16 -1 143 -1 181 -1 219 -1 63 -1 39 -1 12 -1 259 -1 71 -1 -2	1	1
110 -1 112 -1 95 -1 140 -1 9 -1 40 -1 13 -1 14 -1 90 -1 53 -1 19 -1 115 -1 154 -1 22 -1 26 -1 165 -1 99 -1 70 -1 78 -1 41 -1 79 -1 131 -1 94 -1 178 -1 143 -1 147 -1 141 -1 245 -1 29 -1 259 -1 -2	1	1
2 -1 46 -1 15 -1 23 -1 1 -1 39 -1 118 -1 29 -1 83 -1 42 -1 35 -1 65 -1 22 -1 71 -1 85 -1 53 -1 86 -1 41 -1 50 -1 105 -1 117 -1 94 -1 77 -1 115 -1 54 -1 69 -1 149 -1 31 -1 182 -1 111 -1 185 -1 63 -1 187 -1 189 -1 70 -1 245 -1 101 -1 -2	1	1
2 -1 73 -1 23 -1 8 -1 1 -1 39 -1 107 -1 118 -1 9 -1 12 -1 72 -1 35 -1 18 -1 20 -1 109 -1 32 -1 82 -1 38 -1 50 -1 108 -1 110 -1 105 -1 132 -1 103 -1 104 -1 134 -1 69 -1 147 -1 106 -1 182 -1 111 -1 185 -1 62 -1 247 -1 253 -1 257 -1 -2	1	1
1 -1 76 -1 8 -1 39 -1 62 -1 72 -1 24 -1 60 -1 61 -1 82 -1 87 -1 78 -1 12 -1 117 -1 118 -1 66 -1 88 -1 133 -1 19 -1 143 -1 20 -1 29 -1 68 -1 209 -1 211 -1 230 -1 65 -1 235 -1 247 -1 253 -1 84 -1 -2	1	1
121 -1 61 -1 107 -1 124 -1 11 -1 96 -1 109 -1 13 -1 178 -1 14 -1 16 -1 46 -1 155 -1 140 -1 73 -1 57 -1 113 -1 119 -1 106 -1 137 -1 101 -1 245 -1 168 -1 246 -1 50 -1 60 -1 97 -1 259 -1 262 -1 -2	1	1
2 -1 8 -1 10 -1 12 -1 72 -1 51 -1 17 -1 52 -1 18 -1 20 -1 109 -1 71 -1 85 -1 53 -1 67 -1 105 -1 103 -1 104 -1 134 -1 115 -1 143 -1 54 -1 69 -1 96 -1 169 -1 185 -1 63 -1 187 -1 189 -1 62 -1 253 -1 256 -1 258 -1 -2	1	1
9 -1 29 -1 51 -1 17 -1 65 -1 20 -1 26 -1 53 -1 108 -1 110 -1 105 -1 103 -1 104 -1 68 -1 135 -1 95 -1 147 -1 149 -1 169 -1 6 -1 31 -1 111 -1 63 -1 245 -1 101 -1 -2	1	1
15 -1 23 -1 39 -1 118 -1 83 -1 12 -1 72 -1 13 -1 65 -1 86 -1 36 -1 82 -1 99 -1 67 -1 94 -1 104 -1 68 -1 77 -1 115 -1 135 -1 69 -1 95 -1 149 -1 96 -1 153 -1 106 -1 6 -1 31 -1 182 -1 185 -1 63 -1 187 -1 189 -1 33 -1 190 -1 245 -1 256 -1 258 -1 -2	1	1
73 -1 23 -1 8 -1 29 -1 83 -1 10 -1 72 -1 13 -1 35 -1 30 -1 22 -1 71 -1 26 -1 36 -1 38 -1 99 -1 108 -1 113 -1 93 -1 94 -1 103 -1 54 -1 95 -1 147 -1 106 -1 182 -1 185 -1 189 -1 101 -1 253 -1 59 -1 257 -1 84 -1 258 -1 -2	1	1
46 -1 5 -1 15 -1 8 -1 107 -1 118 -1 13 -1 20 -1 22 -1 19 -1 86 -1 41 -1 38 -1 24 -1 99 -1 113 -1 103 -1 133 -1 77 -1 143 -1 54 -1 69 -1 95 -1 149 -1 96 -1 106 -1 31 -1 187 -1 245 -1 101 -1 247 -1 253 -1 256 -1 257 -1 -2	1	1
46 -1 5 -1 15 -1 107 -1 83 -1 12 -1 72 -1 42 -1 51 -1 35 -1 52 -1 65 -1 30 -1 109 -1 71 -1 85 -1 86 -1 36 -1 38 -1 108 -1 113 -1 115 -1 135 -1 143 -1 145 -1 106 -1 169 -1 31 -1 63 -1 33 -1 245 -1 59 -1 -2	1	1
134 -1 158 -1 8 -1 176 -1 13 -1 130 -1 17 -1 107 -1 115 -1 129 -1 116 -1 27 -1 165 -1 84 -1 36 -1 78 -1 92 -1 131 -1 118 -1 119 -1 132 -1 143 -1 108 -1 150 -1 245 -1 246 -1 122 -1 247 -1 85 -1 259 -1 -2	1	1
46 -1 73 -1 5 -1 15 -1 23 -1 8 -1 118 -1 29 -1 83 -1 72 -1 51 -1 17 -1 52 -1 65 -1 18 -1 109 -1 26 -1 50 -1 110 -1 105 -1 93 -1 94 -1 133 -1 54 -1 182 -1 190 -1 70 -1 62 -1 101 -1 79 -1 84 -1 -2	1	1
5 -1 1 -1 9 -1 72 -1 42 -1 51 -1 52 -1 65 -1 20 -1 109 -1 26 -1 86 -1 32 -1 41 -1 82 -1 24 -1 50 -1 108 -1 67 -1 93 -1 117 -1 94 -1 68 -1 115 -1 135 -1 143 -1 69 -1 145 -1 149 -1 153 -1 33 -1 245 -1 59 -1 257 -1 258 -1 -2	1	1
81 -1 8 -1 61 -1 107 -1 45 -1 110 -1 124 -1 109 -1 13 -1 66 -1 178 -1 14 -1 179 -1 20 -1 23 -1 26 -1 68 -1 56 -1 140 -1 122 -1 134 -1 57 -1 70 -1 136 -1 105 -1 245 -1 163 -1 120 -1 60 -1 91 -1 153 -1 262 -1 -2	1	1
1 -1 8 -1 34 -1 9 -1 35 -1 39 -1 15 -1 54 -1 17 -1 36 -1 18 -1 22 -1 72 -1 53 -1 82 -1 87 -1 110 -1 118 -1 124 -1 4 -1 31 -1 88 -1 133 -1 29 -1 64 -1 144 -1 96 -1 163 -1 179 -1 68 -1 180 -1 209 -1 41 -1 71 -1 230 -1 235 -1 -2	1	1
1 -1 107 -1 9 -1 12 -1 35 -1 52 -1 18 -1 20 -1 22 -1 71 -1 85 -1 53 -1 82 -1 38 -1 110 -1 117 -1 77 -1 115 -1 135 -1 143 -1 100 -1 169 -1 182 -1 111 -1 33 -1 190 -1 253 -1 84 -1 -2	1	1
15 -1 23 -1 1 -1 39 -1 118 -1 9 -1 83 -1 51 -1 35 -1 52 -1 65 -1 32 -1 41 -1 99 -1 108 -1 67 -1 93 -1 68 -1 54 -1 100 -1 95 -1 147 -1 96 -1 31 -1 33 -1 190 -1 70 -1 245 -1 247 -1 84 -1 -2	1	1
95 -1 8 -1 9 -1 99 -1 45 -1 124 -1 109 -1 143 -1 178 -1 179 -1 17 -1 16 -1 125 -1 20 -1 23 -1 26 -1 156 -1 31 -1 68 -1 122 -1 1 -1 79 -1 70 -1 76 -1 249 -1 120 -1 97 -1 259 -1 145 -1 268 -1 -2	1	1
2 -1 81 -1 95 -1 121 -1 9 -1 45 -1 17 -1 125 -1 26 -1 156 -1 108 -1 35 -1 140 -1 166 -1 1 -1 49 -1 113 -1 58 -1 119 -1 84 -1 94 -1 106 -1 137 -1 105 -1 247 -1 50 -1 97 -1 259 -1 262 -1 175 -1 -2	1	1
24 -1 8 -1 18 -1 67 -1 101 -1 73 -1 76 -1 91 -1 20 -1 22 -1 79 -1 23 -1 13 -1 99 -1 26 -1 92 -1 117 -1 38 -1 93 -1 110 -1 114 -1 62 -1 64 -1 89 -1 137 -1 143 -1 172 -1 83 -1 219 -1 223 -1 29 -1 -2	1	1
37 -1 44 -1 25 -1 14 -1 65 -1 62 -1 50 -1 64 -1 21 -1 15 -1 47 -1 123 -1 132 -1 19 -1 81 -1 60 -1 82 -1 145 -1 150 -1 174 -1 59 -1 63 -1 71 -1 -2	1	1
2 -1 5 -1 15 -1 23 -1 1 -1 39 -1 118 -1 29 -1 10 -1 12 -1 72 -1 18 -1 30 -1 20 -1 109 -1 22 -1 19 -1 71 -1 53 -1 32 -1 50 -1 108 -1 67 -1 110 -1 105 -1 117 -1 132 -1 104 -1 133 -1 77 -1 69 -1 100 -1 95 -1 106 -1 169 -1 31 -1 182 -1 111 -1 185 -1 62 -1 253 -1 59 -1 256 -1 -2	1	1
2 -1 46 -1 15 -1 12 -1 13 -1 42 -1 17 -1 65 -1 18 -1 30 -1 20 -1 26 -1 53 -1 110 -1 93 -1 103 -1 104 -1 69 -1 145 -1 147 -1 153 -1 106 -1 169 -1 6 -1 63 -1 70 -1 245 -1 59 -1 256 -1 257 -1 -2	1	1
46 -1 107 -1 83 -1 72 -1 42 -1 51 -1 17 -1 18 -1 30 -1 20 -1 19 -1 71 -1 53 -1 32 -1 41 -1 110 -1 93 -1 117 -1 132 -1 133 -1 100 -1 147 -1 106 -1 185 -1 187 -1 245 -1 79 -1 -2	1	1
46 -1 73 -1 15 -1 8 -1 1 -1 39 -1 118 -1 83 -1 10 -1 12 -1 65 -1 20 -1 109 -1 22 -1 19 -1 71 -1 41 -1 38 -1 50 -1 110 -1 105 -1 133 -1 134 -1 77 -1 115 -1 135 -1 143 -1 54 -1 95 -1 169 -1 31 -1 185 -1 187 -1 189 -1 190 -1 79 -1 257 -1 -2	1	1
2 -1 15 -1 1 -1 118 -1 9 -1 42 -1 52 -1 18 -1 109 -1 71 -1 36 -1 38 -1 24 -1 50 -1 93 -1 94 -1 132 -1 68 -1 77 -1 115 -1 95 -1 153 -1 6 -1 185 -1 63 -1 189 -1 245 -1 62 -1 -2	1	1
2 -1 46 -1 73 -1 23 -1 1 -1 107 -1 9 -1 10 -1 12 -1 72 -1 17 -1 30 -1 20 -1 109 -1 19 -1 71 -1 26 -1 32 -1 41 -1 38 -1 24 -1 99 -1 108 -1 105 -1 93 -1 94 -1 132 -1 104 -1 133 -1 68 -1 77 -1 135 -1 169 -1 111 -1 185 -1 63 -1 258 -1 -2	1	1
121 -1 107 -1 39 -1 124 -1 11 -1 96 -1 13 -1 143 -1 14 -1 179 -1 82 -1 23 -1 155 -1 26 -1 156 -1 31 -1 108 -1 157 -1 35 -1 56 -1 140 -1 166 -1 73 -1 113 -1 117 -1 76 -1 84 -1 102 -1 120 -1 253 -1 91 -1 97 -1 153 -1 262 -1 135 -1 -2	1	1
2 -1 95 -1 61 -1 9 -1 46 -1 125 -1 20 -1 31 -1 157 -1 35 -1 36 -1 73 -1 58 -1 76 -1 102 -1 67 -1 245 -1 163 -1 247 -1 52 -1 253 -1 259 -1 153 -1 262 -1 -2	1	1
2 -1 81 -1 121 -1 61 -1 9 -1 45 -1 124 -1 96 -1 17 -1 46 -1 125 -1 141 -1 31 -1 68 -1 147 -1 35 -1 73 -1 78 -1 1 -1 57 -1 70 -1 84 -1 67 -1 247 -1 52 -1 120 -1 60 -1 91 -1 175 -1 268 -1 -2	1	1
15 -1 107 -1 83 -1 35 -1 109 -1 26 -1 53 -1 86 -1 41 -1 38 -1 99 -1 108 -1 67 -1 110 -1 113 -1 117 -1 103 -1 68 -1 77 -1 135 -1 96 -1 106 -1 111 -1 187 -1 253 -1 257 -1 -2	1	1
2 -1 5 -1 23 -1 1 -1 39 -1 29 -1 72 -1 13 -1 19 -1 38 -1 99 -1 50 -1 117 -1 94 -1 132 -1 134 -1 77 -1 115 -1 135 -1 143 -1 54 -1 100 -1 147 -1 149 -1 106 -1 6 -1 182 -1 111 -1 189 -1 190 -1 70 -1 62 -1 257 -1 -2	1	1
2 -1 95 -1 121 -1 107 -1 10 -1 39 -1 45 -1 110 -1 11 -1 143 -1 16 -1 20 -1 148 -1 141 -1 156 -1 35 -1 73 -1 25 -1 117 -1 119 -1 76 -1 94 -1 106 -1 137 -1 50 -1 52 -1 60 -1 259 -1 145 -1 268 -1 -2	1	1
5 -1 23 -1 8 -1 118 -1 12 -1 72 -1 13 -1 17 -1 35 -1 52 -1 65 -1 22 -1 26 -1 53 -1 82 -1 99 -1 50 -1 108 -1 67 -1 117 -1 132 -1 103 -1 133 -1 115 -1 147 -1 169 -1 31 -1 185 -1 70 -1 62 -1 79 -1 84 -1 258 -1 -2	1	1
2 -1 73 -1 8 -1 107 -1 9 -1 29 -1 12 -1 35 -1 65 -1 109 -1 19 -1 53 -1 86 -1 24 -1 50 -1 108 -1 110 -1 113 -1 94 -1 103 -1 104 -1 134 -1 100 -1 145 -1 96 -1 153 -1 169 -1 6 -1 31 -1 111 -1 185 -1 63 -1 189 -1 62 -1 101 -1 253 -1 257 -1 -2	1	1
46 -1 5 -1 107 -1 10 -1 13 -1 42 -1 17 -1 35 -1 65 -1 19 -1 71 -1 53 -1 36 -1 82 -1 110 -1 94 -1 132 -1 133 -1 68 -1 77 -1 115 -1 54 -1 145 -1 149 -1 185 -1 63 -1 245 -1 62 -1 101 -1 247 -1 257 -1 -2	1	1
5 -1 118 -1 9 -1 29 -1 83 -1 10 -1 13 -1 42 -1 35 -1 65 -1 30 -1 109 -1 53 -1 86 -1 36 -1 24 -1 108 -1 105 -1 93 -1 104 -1 133 -1 77 -1 135 -1 54 -1 100 -1 95 -1 149 -1 106 -1 169 -1 6 -1 185 -1 63 -1 189 -1 101 -1 247 -1 253 -1 84 -1 -2	1	1
95 -1 99 -1 11 -1 143 -1 178 -1 17 -1 16 -1 125 -1 20 -1 141 -1 31 -1 108 -1 147 -1 35 -1 36 -1 78 -1 79 -1 58 -1 70 -1 102 -1 146 -1 245 -1 168 -1 249 -1 120 -1 97 -1 259 -1 262 -1 175 -1 -2	1	1
134 -1 113 -1 176 -1 168 -1 14 -1 130 -1 138 -1 17 -1 90 -1 18 -1 53 -1 22 -1 26 -1 58 -1 27 -1 84 -1 42 -1 117 -1 70 -1 119 -1 132 -1 179 -1 178 -1 144 -1 122 -1 247 -1 21 -1 259 -1 -2	1	1
73 -1 5 -1 15 -1 8 -1 29 -1 83 -1 12 -1 13 -1 17 -1 65 -1 22 -1 19 -1 71 -1 26 -1 32 -1 41 -1 99 -1 50 -1 105 -1 94 -1 104 -1 134 -1 115 -1 135 -1 54 -1 100 -1 147 -1 169 -1 185 -1 63 -1 187 -1 189 -1 70 -1 247 -1 59 -1 256 -1 258 -1 -2	1	1
95 -1 61 -1 107 -1 9 -1 10 -1 39 -1 45 -1 124 -1 96 -1 13 -1 14 -1 82 -1 155 -1 68 -1 35 -1 36 -1 166 -1 25 -1 113 -1 58 -1 76 -1 84 -1 106 -1 105 -1 246 -1 50 -1 249 -1 60 -1 97 -1 268 -1 -2	1	1
46 -1 73 -1 5 -1 1 -1 118 -1 10 -1 72 -1 35 -1 26 -1 36 -1 82 -1 99 -1 67 -1 117 -1 132 -1 103 -1 104 -1 133 -1 69 -1 145 -1 153 -1 111 -1 189 -1 70 -1 101 -1 59 -1 79 -1 257 -1 84 -1 258 -1 -2	1	1
1 -1 158 -1 9 -1 10 -1 40 -1 89 -1 114 -1 53 -1 180 -1 107 -1 167 -1 74 -1 31 -1 84 -1 42 -1 36 -1 78 -1 92 -1 94 -1 143 -1 108 -1 147 -1 141 -1 149 -1 150 -1 246 -1 11 -1 253 -1 21 -1 29 -1 85 -1 -2	1	1
5 -1 47 -1 10 -1 41 -1 14 -1 22 -1 29 -1 23 -1 26 -1 108 -1 109 -1 112 -1 133 -1 50 -1 63 -1 146 -1 147 -1 149 -1 150 -1 84 -1 52 -1 209 -1 245 -1 25 -1 -2	1	1
2 -1 23 -1 1 -1 107 -1 29 -1 17 -1 65 -1 19 -1 86 -1 41 -1 82 -1 24 -1 110 -1 113 -1 134 -1 77 -1 54 -1 95 -1 149 -1 96 -1 106 -1 6 -1 31 -1 182 -1 111 -1 187 -1 33 -1 79 -1 -2	1	1
110 -1 158 -1 166 -1 95 -1 113 -1 140 -1 9 -1 176 -1 10 -1 13 -1 14 -1 90 -1 114 -1 180 -1 167 -1 74 -1 109 -1 165 -1 84 -1 35 -1 100 -1 69 -1 117 -1 57 -1 78 -1 41 -1 170 -1 92 -1 131 -1 118 -1 179 -1 143 -1 108 -1 171 -1 104 -1 247 -1 253 -1 21 -1 85 -1 -2	1	1
2 -1 46 -1 23 -1 8 -1 39 -1 52 -1 22 -1 19 -1 71 -1 32 -1 41 -1 99 -1 105 -1 104 -1 68 -1 143 -1 69 -1 96 -1 169 -1 31 -1 70 -1 245 -1 256 -1 79 -1 258 -1 -2	1	1
46 -1 5 -1 9 -1 83 -1 10 -1 13 -1 42 -1 18 -1 109 -1 85 -1 53 -1 86 -1 32 -1 38 -1 105 -1 113 -1 132 -1 143 -1 147 -1 153 -1 106 -1 63 -1 187 -1 189 -1 70 -1 245 -1 247 -1 253 -1 -2	1	1
5 -1 15 -1 107 -1 72 -1 42 -1 17 -1 52 -1 65 -1 20 -1 71 -1 26 -1 86 -1 32 -1 41 -1 50 -1 108 -1 105 -1 113 -1 132 -1 134 -1 77 -1 54 -1 69 -1 96 -1 31 -1 182 -1 189 -1 70 -1 245 -1 62 -1 247 -1 253 -1 256 -1 79 -1 -2	1	1
95 -1 121 -1 110 -1 11 -1 14 -1 46 -1 125 -1 26 -1 156 -1 108 -1 35 -1 57 -1 113 -1 117 -1 119 -1 136 -1 101 -1 245 -1 163 -1 246 -1 253 -1 153 -1 262 -1 175 -1 -2	1	1
46 -1 8 -1 51 -1 35 -1 65 -1 30 -1 109 -1 22 -1 19 -1 86 -1 41 -1 82 -1 99 -1 110 -1 113 -1 93 -1 132 -1 104 -1 133 -1 68 -1 134 -1 115 -1 135 -1 54 -1 95 -1 96 -1 106 -1 63 -1 187 -1 189 -1 33 -1 247 -1 84 -1 258 -1 -2	1	1
5 -1 33 -1 41 -1 29 -1 6 -1 30 -1 18 -1 23 -1 26 -1 27 -1 35 -1 109 -1 112 -1 37 -1 117 -1 118 -1 50 -1 139 -1 143 -1 1 -1 34 -1 51 -1 67 -1 150 -1 43 -1 245 -1 25 -1 65 -1 248 -1 260 -1 39 -1 262 -1 -2	1	1
9 -1 29 -1 83 -1 10 -1 72 -1 18 -1 109 -1 22 -1 71 -1 85 -1 82 -1 38 -1 24 -1 67 -1 110 -1 105 -1 113 -1 77 -1 54 -1 69 -1 100 -1 96 -1 169 -1 31 -1 111 -1 70 -1 247 -1 253 -1 59 -1 79 -1 257 -1 -2	1	1
74 -1 41 -1 11 -1 22 -1 29 -1 17 -1 18 -1 26 -1 12 -1 69 -1 49 -1 98 -1 75 -1 101 -1 112 -1 37 -1 72 -1 133 -1 50 -1 59 -1 63 -1 144 -1 67 -1 147 -1 46 -1 171 -1 43 -1 209 -1 248 -1 -2	1	1
2 -1 95 -1 186 -1 61 -1 46 -1 82 -1 125 -1 20 -1 148 -1 155 -1 26 -1 68 -1 56 -1 140 -1 166 -1 78 -1 1 -1 57 -1 113 -1 58 -1 70 -1 76 -1 136 -1 101 -1 67 -1 245 -1 163 -1 168 -1 246 -1 50 -1 249 -1 120 -1 253 -1 91 -1 268 -1 135 -1 -2	1	1
15 -1 1 -1 107 -1 9 -1 29 -1 83 -1 72 -1 51 -1 17 -1 65 -1 71 -1 85 -1 53 -1 24 -1 99 -1 50 -1 108 -1 117 -1 132 -1 77 -1 100 -1 145 -1 149 -1 169 -1 111 -1 187 -1 62 -1 79 -1 84 -1 -2	1	1
2 -1 8 -1 107 -1 99 -1 10 -1 110 -1 14 -1 179 -1 26 -1 156 -1 56 -1 122 -1 134 -1 117 -1 58 -1 94 -1 102 -1 168 -1 246 -1 50 -1 52 -1 120 -1 60 -1 91 -1 259 -1 145 -1 268 -1 -2	1	1
1 -1 110 -1 158 -1 8 -1 40 -1 153 -1 130 -1 138 -1 17 -1 114 -1 19 -1 116 -1 74 -1 165 -1 83 -1 75 -1 36 -1 57 -1 82 -1 143 -1 147 -1 141 -1 246 -1 104 -1 253 -1 21 -1 29 -1 85 -1 -2	1	1
2 -1 46 -1 15 -1 8 -1 29 -1 10 -1 12 -1 30 -1 109 -1 71 -1 85 -1 32 -1 36 -1 82 -1 38 -1 24 -1 93 -1 94 -1 134 -1 115 -1 95 -1 149 -1 96 -1 169 -1 6 -1 31 -1 187 -1 189 -1 33 -1 62 -1 253 -1 84 -1 -2	1	1
81 -1 9 -1 11 -1 96 -1 143 -1 16 -1 46 -1 26 -1 156 -1 68 -1 147 -1 122 -1 78 -1 113 -1 84 -1 136 -1 102 -1 67 -1 50 -1 120 -1 253 -1 60 -1 91 -1 97 -1 259 -1 145 -1 262 -1 -2	1	1
95 -1 107 -1 99 -1 10 -1 39 -1 124 -1 11 -1 17 -1 82 -1 125 -1 23 -1 26 -1 141 -1 157 -1 35 -1 56 -1 36 -1 166 -1 1 -1 57 -1 117 -1 119 -1 136 -1 102 -1 163 -1 168 -1 246 -1 52 -1 120 -1 253 -1 -2	1	1
46 -1 23 -1 8 -1 1 -1 29 -1 12 -1 65 -1 18 -1 22 -1 26 -1 32 -1 41 -1 24 -1 50 -1 113 -1 94 -1 103 -1 104 -1 133 -1 115 -1 135 -1 54 -1 147 -1 185 -1 62 -1 247 -1 59 -1 256 -1 79 -1 -2	1	1
5 -1 1 -1 107 -1 29 -1 12 -1 42 -1 17 -1 52 -1 30 -1 19 -1 71 -1 85 -1 53 -1 32 -1 41 -1 24 -1 99 -1 67 -1 117 -1 104 -1 115 -1 135 -1 69 -1 95 -1 149 -1 153 -1 111 -1 185 -1 187 -1 189 -1 190 -1 70 -1 245 -1 101 -1 59 -1 256 -1 84 -1 -2	1	1
46 -1 39 -1 118 -1 12 -1 42 -1 17 -1 65 -1 20 -1 22 -1 26 -1 86 -1 24 -1 99 -1 50 -1 108 -1 67 -1 93 -1 104 -1 134 -1 69 -1 100 -1 95 -1 147 -1 96 -1 153 -1 31 -1 185 -1 63 -1 245 -1 258 -1 -2	1	1
74 -1 76 -1 8 -1 9 -1 54 -1 17 -1 60 -1 82 -1 45 -1 98 -1 110 -1 12 -1 117 -1 6 -1 47 -1 66 -1 28 -1 139 -1 16 -1 19 -1 20 -1 144 -1 11 -1 174 -1 209 -1 41 -1 211 -1 227 -1 71 -1 80 -1 -2	1	1
186 -1 8 -1 61 -1 39 -1 124 -1 13 -1 14 -1 179 -1 17 -1 16 -1 46 -1 23 -1 148 -1 26 -1 157 -1 36 -1 73 -1 78 -1 79 -1 49 -1 113 -1 117 -1 58 -1 70 -1 136 -1 101 -1 247 -1 120 -1 253 -1 60 -1 91 -1 97 -1 262 -1 175 -1 135 -1 -2	1	1
112 -1 134 -1 139 -1 166 -1 95 -1 140 -1 10 -1 14 -1 130 -1 138 -1 17 -1 115 -1 167 -1 129 -1 58 -1 27 -1 74 -1 165 -1 31 -1 75 -1 117 -1 57 -1 78 -1 170 -1 92 -1 132 -1 179 -1 94 -1 178 -1 144 -1 108 -1 141 -1 149 -1 150 -1 104 -1 122 -1 -2	1	1
15 -1 1 -1 39 -1 107 -1 83 -1 42 -1 51 -1 17 -1 52 -1 53 -1 86 -1 32 -1 41 -1 82 -1 99 -1 108 -1 105 -1 113 -1 93 -1 117 -1 103 -1 68 -1 134 -1 77 -1 135 -1 143 -1 54 -1 100 -1 145 -1 95 -1 147 -1 169 -1 6 -1 182 -1 185 -1 63 -1 245 -1 79 -1 -2	1	1
2 -1 46 -1 73 -1 23 -1 8 -1 29 -1 20 -1 109 -1 85 -1 32 -1 41 -1 38 -1 113 -1 54 -1 145 -1 153 -1 189 -1 33 -1 70 -1 253 -1 -2	1	1
121 -1 4 -1 7 -1 8 -1 18 -1 67 -1 10 -1 98 -1 11 -1 78 -1 69 -1 77 -1 91 -1 20 -1 22 -1 79 -1 23 -1 80 -1 92 -1 104 -1 37 -1 30 -1 110 -1 114 -1 62 -1 133 -1 143 -1 90 -1 181 -1 102 -1 219 -1 223 -1 246 -1 12 -1 29 -1 71 -1 260 -1 -2	1	1
15 -1 8 -1 72 -1 42 -1 51 -1 65 -1 18 -1 19 -1 85 -1 26 -1 38 -1 99 -1 103 -1 133 -1 134 -1 115 -1 143 -1 147 -1 96 -1 153 -1 187 -1 62 -1 101 -1 59 -1 256 -1 84 -1 258 -1 -2	1	1
46 -1 5 -1 15 -1 39 -1 118 -1 9 -1 83 -1 52 -1 30 -1 22 -1 86 -1 24 -1 132 -1 133 -1 68 -1 77 -1 115 -1 100 -1 95 -1 31 -1 185 -1 245 -1 62 -1 257 -1 84 -1 258 -1 -2	1	1
2 -1 5 -1 8 -1 1 -1 107 -1 118 -1 9 -1 83 -1 72 -1 42 -1 35 -1 65 -1 30 -1 20 -1 32 -1 50 -1 108 -1 110 -1 117 -1 132 -1 68 -1 134 -1 77 -1 69 -1 100 -1 149 -1 153 -1 182 -1 189 -1 70 -1 245 -1 62 -1 247 -1 258 -1 -2	1	1
121 -1 9 -1 99 -1 10 -1 39 -1 45 -1 143 -1 179 -1 17 -1 16 -1 125 -1 141 -1 140 -1 73 -1 134 -1 113 -1 94 -1 146 -1 163 -1 246 -1 120 -1 253 -1 -2	1	1
46 -1 73 -1 5 -1 8 -1 39 -1 9 -1 29 -1 12 -1 72 -1 35 -1 65 -1 30 -1 71 -1 53 -1 36 -1 82 -1 24 -1 67 -1 117 -1 133 -1 134 -1 77 -1 135 -1 145 -1 96 -1 106 -1 31 -1 185 -1 33 -1 70 -1 245 -1 101 -1 253 -1 59 -1 257 -1 -2	1	1
2 -1 46 -1 73 -1 8 -1 1 -1 52 -1 109 -1 86 -1 41 -1 82 -1 117 -1 132 -1 115 -1 143 -1 54 -1 69 -1 145 -1 96 -1 153 -1 185 -1 63 -1 187 -1 189 -1 33 -1 190 -1 70 -1 253 -1 59 -1 256 -1 257 -1 -2	1	1
8 -1 178 -1 16 -1 46 -1 155 -1 26 -1 141 -1 156 -1 147 -1 56 -1 79 -1 57 -1 117 -1 58 -1 70 -1 146 -1 163 -1 175 -1 -2	1	1
39 -1 107 -1 9 -1 29 -1 13 -1 35 -1 53 -1 105 -1 93 -1 133 -1 77 -1 135 -1 143 -1 54 -1 147 -1 96 -1 153 -1 111 -1 187 -1 70 -1 62 -1 101 -1 247 -1 59 -1 84 -1 -2	1	1
110 -1 134 -1 139 -1 166 -1 113 -1 9 -1 14 -1 138 -1 17 -1 114 -1 107 -1 115 -1 154 -1 129 -1 109 -1 35 -1 70 -1 57 -1 41 -1 82 -1 170 -1 118 -1 119 -1 94 -1 141 -1 171 -1 149 -1 104 -1 254 -1 85 -1 -2	1	1
1 -1 134 -1 139 -1 95 -1 113 -1 176 -1 168 -1 114 -1 19 -1 167 -1 22 -1 129 -1 28 -1 84 -1 100 -1 36 -1 78 -1 79 -1 170 -1 94 -1 171 -1 104 -1 11 -1 253 -1 21 -1 254 -1 85 -1 -2	1	1
18 -1 11 -1 76 -1 78 -1 20 -1 112 -1 22 -1 92 -1 104 -1 117 -1 28 -1 30 -1 38 -1 110 -1 60 -1 114 -1 89 -1 137 -1 95 -1 90 -1 172 -1 102 -1 223 -1 246 -1 259 -1 81 -1 -2	1	1
121 -1 61 -1 124 -1 66 -1 17 -1 16 -1 82 -1 125 -1 23 -1 148 -1 155 -1 26 -1 141 -1 31 -1 147 -1 157 -1 140 -1 36 -1 73 -1 1 -1 113 -1 117 -1 58 -1 94 -1 136 -1 247 -1 120 -1 253 -1 97 -1 259 -1 145 -1 -2	1	1
1 -1 134 -1 158 -1 8 -1 113 -1 140 -1 10 -1 77 -1 14 -1 130 -1 17 -1 18 -1 115 -1 129 -1 116 -1 74 -1 83 -1 84 -1 35 -1 42 -1 75 -1 99 -1 78 -1 79 -1 82 -1 92 -1 131 -1 179 -1 108 -1 147 -1 141 -1 149 -1 245 -1 122 -1 253 -1 21 -1 254 -1 259 -1 -2	1	1
134 -1 8 -1 95 -1 140 -1 10 -1 168 -1 77 -1 14 -1 130 -1 138 -1 90 -1 114 -1 107 -1 115 -1 129 -1 36 -1 69 -1 117 -1 57 -1 131 -1 94 -1 178 -1 143 -1 144 -1 171 -1 21 -1 29 -1 254 -1 259 -1 -2	1	1
2 -1 73 -1 15 -1 8 -1 9 -1 29 -1 83 -1 72 -1 13 -1 42 -1 20 -1 36 -1 38 -1 24 -1 99 -1 108 -1 67 -1 113 -1 117 -1 132 -1 104 -1 134 -1 135 -1 54 -1 147 -1 149 -1 96 -1 153 -1 169 -1 182 -1 111 -1 245 -1 62 -1 253 -1 59 -1 257 -1 -2	1	1
81 -1 121 -1 186 -1 8 -1 107 -1 45 -1 11 -1 96 -1 66 -1 179 -1 17 -1 16 -1 82 -1 148 -1 108 -1 147 -1 122 -1 166 -1 73 -1 57 -1 70 -1 106 -1 102 -1 105 -1 245 -1 246 -1 50 -1 52 -1 249 -1 253 -1 153 -1 268 -1 -2	1	1
8 -1 9 -1 10 -1 45 -1 124 -1 66 -1 178 -1 17 -1 16 -1 46 -1 155 -1 26 -1 141 -1 31 -1 68 -1 108 -1 147 -1 140 -1 78 -1 57 -1 117 -1 119 -1 70 -1 84 -1 94 -1 106 -1 101 -1 67 -1 246 -1 247 -1 91 -1 259 -1 145 -1 153 -1 -2	1	1
15 -1 118 -1 83 -1 52 -1 18 -1 20 -1 53 -1 67 -1 110 -1 113 -1 68 -1 115 -1 100 -1 149 -1 96 -1 169 -1 185 -1 63 -1 62 -1 247 -1 79 -1 84 -1 -2	1	1
2 -1 15 -1 118 -1 9 -1 29 -1 83 -1 10 -1 51 -1 52 -1 18 -1 30 -1 109 -1 22 -1 85 -1 26 -1 53 -1 86 -1 32 -1 41 -1 24 -1 50 -1 110 -1 105 -1 113 -1 94 -1 132 -1 133 -1 68 -1 145 -1 96 -1 169 -1 31 -1 111 -1 63 -1 187 -1 190 -1 245 -1 62 -1 247 -1 253 -1 84 -1 258 -1 -2	1	1
95 -1 186 -1 8 -1 107 -1 110 -1 124 -1 11 -1 13 -1 143 -1 178 -1 179 -1 125 -1 23 -1 155 -1 156 -1 31 -1 68 -1 108 -1 157 -1 56 -1 166 -1 1 -1 134 -1 57 -1 117 -1 58 -1 84 -1 94 -1 102 -1 137 -1 245 -1 163 -1 97 -1 259 -1 135 -1 -2	1	1
2 -1 81 -1 61 -1 107 -1 10 -1 45 -1 179 -1 16 -1 155 -1 157 -1 56 -1 36 -1 78 -1 1 -1 49 -1 113 -1 119 -1 70 -1 84 -1 67 -1 168 -1 246 -1 52 -1 249 -1 120 -1 259 -1 145 -1 175 -1 268 -1 -2	1	1
15 -1 23 -1 39 -1 83 -1 42 -1 35 -1 52 -1 65 -1 71 -1 85 -1 53 -1 32 -1 38 -1 50 -1 113 -1 117 -1 104 -1 115 -1 143 -1 100 -1 147 -1 111 -1 63 -1 33 -1 245 -1 101 -1 247 -1 59 -1 79 -1 258 -1 -2	1	1
2 -1 15 -1 23 -1 10 -1 12 -1 13 -1 52 -1 65 -1 22 -1 19 -1 85 -1 26 -1 36 -1 82 -1 24 -1 99 -1 50 -1 110 -1 77 -1 143 -1 100 -1 153 -1 169 -1 182 -1 63 -1 187 -1 253 -1 256 -1 -2	1	1
46 -1 15 -1 8 -1 39 -1 29 -1 83 -1 72 -1 42 -1 51 -1 17 -1 109 -1 22 -1 85 -1 26 -1 53 -1 32 -1 38 -1 108 -1 105 -1 113 -1 94 -1 103 -1 104 -1 115 -1 135 -1 95 -1 147 -1 96 -1 182 -1 63 -1 187 -1 189 -1 70 -1 101 -1 256 -1 84 -1 -2	1	1
110 -1 139 -1 113 -1 9 -1 153 -1 168 -1 13 -1 138 -1 90 -1 114 -1 167 -1 22 -1 26 -1 100 -1 36 -1 78 -1 41 -1 179 -1 94 -1 147 -1 247 -1 21 -1 85 -1 -2	1	1
1 -1 110 -1 112 -1 134 -1 95 -1 113 -1 140 -1 176 -1 40 -1 89 -1 14 -1 130 -1 138 -1 17 -1 54 -1 19 -1 107 -1 154 -1 22 -1 129 -1 26 -1 27 -1 28 -1 31 -1 35 -1 100 -1 36 -1 99 -1 78 -1 41 -1 118 -1 94 -1 143 -1 171 -1 150 -1 246 -1 122 -1 11 -1 29 -1 85 -1 259 -1 -2	1	1
46 -1 23 -1 83 -1 12 -1 72 -1 35 -1 65 -1 18 -1 32 -1 36 -1 82 -1 50 -1 108 -1 67 -1 110 -1 117 -1 68 -1 134 -1 115 -1 95 -1 106 -1 169 -1 111 -1 62 -1 256 -1 -2	1	1
15 -1 118 -1 30 -1 86 -1 32 -1 93 -1 115 -1 69 -1 95 -1 147 -1 149 -1 63 -1 79 -1 84 -1 -2	1	1
2 -1 23 -1 1 -1 9 -1 10 -1 22 -1 71 -1 36 -1 82 -1 38 -1 67 -1 110 -1 117 -1 103 -1 68 -1 134 -1 77 -1 115 -1 69 -1 100 -1 145 -1 106 -1 182 -1 190 -1 258 -1 -2	1	1
2 -1 15 -1 8 -1 118 -1 83 -1 17 -1 52 -1 18 -1 20 -1 22 -1 71 -1 26 -1 53 -1 86 -1 32 -1 24 -1 93 -1 132 -1 103 -1 115 -1 135 -1 69 -1 100 -1 95 -1 96 -1 153 -1 106 -1 169 -1 6 -1 31 -1 111 -1 185 -1 187 -1 33 -1 190 -1 245 -1 62 -1 101 -1 59 -1 256 -1 79 -1 -2	1	1
95 -1 186 -1 8 -1 110 -1 109 -1 143 -1 14 -1 179 -1 20 -1 155 -1 68 -1 108 -1 36 -1 122 -1 134 -1 76 -1 94 -1 67 -1 146 -1 105 -1 246 -1 247 -1 50 -1 52 -1 91 -1 97 -1 262 -1 175 -1 135 -1 -2	1	1
2 -1 107 -1 99 -1 39 -1 109 -1 14 -1 17 -1 125 -1 26 -1 141 -1 31 -1 147 -1 140 -1 122 -1 79 -1 49 -1 113 -1 58 -1 70 -1 106 -1 137 -1 246 -1 253 -1 97 -1 268 -1 135 -1 -2	1	1
158 -1 8 -1 113 -1 153 -1 89 -1 138 -1 53 -1 26 -1 27 -1 109 -1 165 -1 83 -1 84 -1 36 -1 117 -1 70 -1 82 -1 94 -1 147 -1 247 -1 253 -1 21 -1 254 -1 85 -1 -2	1	1
2 -1 15 -1 118 -1 12 -1 13 -1 42 -1 17 -1 35 -1 52 -1 65 -1 20 -1 109 -1 22 -1 71 -1 53 -1 36 -1 24 -1 50 -1 113 -1 93 -1 103 -1 134 -1 77 -1 135 -1 145 -1 147 -1 96 -1 153 -1 106 -1 169 -1 31 -1 182 -1 111 -1 185 -1 33 -1 253 -1 256 -1 258 -1 -2	1	1
15 -1 8 -1 39 -1 107 -1 29 -1 83 -1 72 -1 13 -1 42 -1 51 -1 52 -1 30 -1 22 -1 53 -1 93 -1 103 -1 104 -1 133 -1 115 -1 135 -1 143 -1 100 -1 149 -1 182 -1 185 -1 187 -1 62 -1 101 -1 256 -1 84 -1 -2	1	1
1 -1 134 -1 158 -1 8 -1 113 -1 9 -1 176 -1 10 -1 77 -1 180 -1 115 -1 154 -1 58 -1 116 -1 31 -1 35 -1 99 -1 170 -1 92 -1 132 -1 179 -1 178 -1 108 -1 171 -1 149 -1 245 -1 104 -1 247 -1 11 -1 21 -1 254 -1 85 -1 -2	1	1
73 -1 5 -1 8 -1 1 -1 39 -1 83 -1 10 -1 13 -1 17 -1 65 -1 18 -1 26 -1 86 -1 99 -1 108 -1 105 -1 93 -1 132 -1 133 -1 134 -1 77 -1 135 -1 145 -1 147 -1 153 -1 106 -1 31 -1 182 -1 185 -1 63 -1 189 -1 190 -1 256 -1 258 -1 -2	1	1
45 -1 96 -1 109 -1 143 -1 178 -1 179 -1 125 -1 148 -1 26 -1 31 -1 68 -1 157 -1 35 -1 140 -1 122 -1 73 -1 1 -1 113 -1 70 -1 94 -1 136 -1 146 -1 163 -1 120 -1 91 -1 -2	1	1
112 -1 139 -1 8 -1 95 -1 113 -1 153 -1 89 -1 17 -1 114 -1 180 -1 26 -1 116 -1 28 -1 31 -1 35 -1 42 -1 100 -1 117 -1 170 -1 131 -1 118 -1 144 -1 108 -1 147 -1 171 -1 104 -1 21 -1 254 -1 -2	1	1
73 -1 23 -1 107 -1 118 -1 12 -1 32 -1 41 -1 99 -1 105 -1 94 -1 103 -1 133 -1 68 -1 77 -1 115 -1 135 -1 153 -1 169 -1 6 -1 182 -1 187 -1 189 -1 62 -1 253 -1 59 -1 256 -1 -2	1	1
120 -1 113 -1 10 -1 101 -1 11 -1 76 -1 15 -1 88 -1 65 -1 19 -1 22 -1 99 -1 80 -1 92 -1 27 -1 56 -1 127 -1 137 -1 172 -1 181 -1 102 -1 219 -1 259 -1 29 -1 -2	1	1
15 -1 107 -1 118 -1 9 -1 83 -1 51 -1 17 -1 35 -1 52 -1 18 -1 19 -1 26 -1 32 -1 36 -1 82 -1 24 -1 50 -1 110 -1 105 -1 113 -1 117 -1 135 -1 149 -1 96 -1 153 -1 169 -1 182 -1 101 -1 253 -1 256 -1 -2	1	1
15 -1 23 -1 39 -1 83 -1 10 -1 12 -1 42 -1 52 -1 71 -1 32 -1 38 -1 108 -1 110 -1 133 -1 68 -1 77 -1 69 -1 95 -1 96 -1 153 -1 106 -1 6 -1 33 -1 190 -1 247 -1 257 -1 258 -1 -2	1	1
46 -1 73 -1 5 -1 1 -1 39 -1 107 -1 29 -1 83 -1 35 -1 71 -1 41 -1 82 -1 99 -1 110 -1 113 -1 93 -1 133 -1 135 -1 54 -1 95 -1 147 -1 31 -1 33 -1 70 -1 245 -1 257 -1 -2	1	1
1 -1 112 -1 134 -1 8 -1 9 -1 168 -1 13 -1 18 -1 154 -1 58 -1 116 -1 27 -1 75 -1 69 -1 78 -1 82 -1 131 -1 143 -1 144 -1 171 -1 149 -1 150 -1 104 -1 122 -1 247 -1 21 -1 259 -1 -2	1	1
74 -1 33 -1 68 -1 13 -1 14 -1 17 -1 30 -1 18 -1 69 -1 56 -1 101 -1 108 -1 112 -1 73 -1 133 -1 143 -1 34 -1 150 -1 84 -1 175 -1 209 -1 246 -1 58 -1 248 -1 54 -1 262 -1 19 -1 -2	1	1
5 -1 1 -1 9 -1 29 -1 13 -1 42 -1 51 -1 17 -1 35 -1 65 -1 30 -1 22 -1 19 -1 41 -1 82 -1 38 -1 99 -1 94 -1 133 -1 134 -1 54 -1 100 -1 145 -1 95 -1 149 -1 6 -1 31 -1 63 -1 70 -1 245 -1 247 -1 253 -1 59 -1 -2	1	1
2 -1 73 -1 9 -1 29 -1 52 -1 30 -1 71 -1 26 -1 86 -1 32 -1 36 -1 82 -1 38 -1 99 -1 50 -1 108 -1 110 -1 132 -1 103 -1 134 -1 145 -1 149 -1 96 -1 153 -1 169 -1 6 -1 182 -1 185 -1 63 -1 187 -1 33 -1 70 -1 62 -1 253 -1 59 -1 84 -1 258 -1 -2	1	1
110 -1 166 -1 95 -1 140 -1 176 -1 168 -1 14 -1 54 -1 115 -1 167 -1 22 -1 26 -1 116 -1 165 -1 31 -1 83 -1 42 -1 75 -1 36 -1 117 -1 57 -1 79 -1 82 -1 131 -1 132 -1 94 -1 144 -1 149 -1 150 -1 246 -1 247 -1 21 -1 -2	1	1
81 -1 121 -1 186 -1 9 -1 99 -1 39 -1 110 -1 11 -1 96 -1 109 -1 179 -1 16 -1 20 -1 156 -1 31 -1 68 -1 108 -1 147 -1 35 -1 140 -1 36 -1 122 -1 73 -1 25 -1 134 -1 117 -1 58 -1 70 -1 94 -1 136 -1 137 -1 101 -1 105 -1 163 -1 247 -1 50 -1 120 -1 259 -1 153 -1 268 -1 -2	1	1
95 -1 121 -1 9 -1 99 -1 39 -1 11 -1 143 -1 20 -1 148 -1 155 -1 156 -1 31 -1 157 -1 122 -1 25 -1 79 -1 49 -1 57 -1 119 -1 84 -1 94 -1 106 -1 67 -1 105 -1 163 -1 246 -1 262 -1 135 -1 -2	1	1
47 -1 74 -1 8 -1 9 -1 83 -1 68 -1 11 -1 15 -1 23 -1 26 -1 36 -1 12 -1 69 -1 81 -1 98 -1 64 -1 37 -1 117 -1 40 -1 34 -1 67 -1 149 -1 43 -1 209 -1 246 -1 65 -1 260 -1 262 -1 -2	1	1
1 -1 166 -1 8 -1 95 -1 176 -1 168 -1 89 -1 14 -1 17 -1 90 -1 180 -1 107 -1 154 -1 167 -1 129 -1 84 -1 35 -1 42 -1 36 -1 131 -1 143 -1 144 -1 141 -1 122 -1 11 -1 253 -1 259 -1 -2	1	1
2 -1 73 -1 8 -1 1 -1 39 -1 107 -1 83 -1 12 -1 52 -1 65 -1 20 -1 85 -1 53 -1 86 -1 82 -1 108 -1 105 -1 93 -1 94 -1 134 -1 100 -1 147 -1 96 -1 153 -1 6 -1 182 -1 111 -1 187 -1 70 -1 245 -1 -2	1	1
2 -1 121 -1 39 -1 110 -1 124 -1 11 -1 109 -1 13 -1 179 -1 17 -1 46 -1 155 -1 156 -1 147 -1 56 -1 166 -1 73 -1 78 -1 79 -1 134 -1 76 -1 84 -1 101 -1 146 -1 246 -1 50 -1 52 -1 60 -1 91 -1 97 -1 153 -1 262 -1 175 -1 -2	1	1
110 -1 166 -1 113 -1 140 -1 13 -1 89 -1 54 -1 90 -1 53 -1 107 -1 115 -1 58 -1 116 -1 28 -1 74 -1 109 -1 35 -1 42 -1 75 -1 100 -1 99 -1 69 -1 170 -1 94 -1 178 -1 143 -1 141 -1 149 -1 150 -1 246 -1 11 -1 29 -1 85 -1 -2	1	1
5 -1 15 -1 118 -1 29 -1 12 -1 72 -1 51 -1 17 -1 18 -1 26 -1 53 -1 36 -1 108 -1 105 -1 113 -1 117 -1 94 -1 68 -1 77 -1 143 -1 100 -1 95 -1 149 -1 96 -1 169 -1 6 -1 182 -1 111 -1 187 -1 33 -1 -2	1	1
1 -1 120 -1 121 -1 2 -1 61 -1 4 -1 7 -1 17 -1 113 -1 9 -1 67 -1 10 -1 101 -1 11 -1 78 -1 69 -1 111 -1 23 -1 80 -1 92 -1 104 -1 30 -1 31 -1 56 -1 60 -1 62 -1 132 -1 133 -1 68 -1 139 -1 16 -1 143 -1 90 -1 172 -1 102 -1 223 -1 63 -1 39 -1 71 -1 81 -1 -2	1	1
73 -1 5 -1 23 -1 1 -1 118 -1 9 -1 29 -1 10 -1 72 -1 13 -1 42 -1 17 -1 30 -1 109 -1 32 -1 41 -1 36 -1 82 -1 110 -1 105 -1 94 -1 103 -1 68 -1 115 -1 143 -1 69 -1 145 -1 95 -1 190 -1 245 -1 247 -1 253 -1 256 -1 -2	1	1
10 -1 82 -1 23 -1 47 -1 26 -1 12 -1 38 -1 46 -1 36 -1 52 -1 97 -1 108 -1 28 -1 114 -1 62 -1 25 -1 121 -1 122 -1 59 -1 30 -1 53 -1 187 -1 247 -1 49 -1 -2	1	1
5 -1 15 -1 23 -1 1 -1 72 -1 42 -1 51 -1 65 -1 18 -1 30 -1 20 -1 109 -1 19 -1 86 -1 94 -1 133 -1 115 -1 145 -1 149 -1 96 -1 111 -1 185 -1 190 -1 253 -1 79 -1 -2	1	1
46 -1 23 -1 1 -1 39 -1 107 -1 9 -1 83 -1 12 -1 72 -1 30 -1 85 -1 32 -1 82 -1 110 -1 105 -1 113 -1 68 -1 77 -1 100 -1 149 -1 96 -1 153 -1 182 -1 185 -1 247 -1 59 -1 79 -1 84 -1 -2	1	1
158 -1 166 -1 95 -1 176 -1 168 -1 13 -1 89 -1 130 -1 114 -1 18 -1 19 -1 107 -1 26 -1 58 -1 116 -1 28 -1 165 -1 31 -1 84 -1 35 -1 42 -1 36 -1 117 -1 92 -1 119 -1 143 -1 147 -1 149 -1 104 -1 247 -1 29 -1 -2	1	1
46 -1 39 -1 107 -1 29 -1 83 -1 10 -1 12 -1 72 -1 52 -1 30 -1 85 -1 41 -1 99 -1 108 -1 67 -1 103 -1 95 -1 147 -1 96 -1 169 -1 6 -1 185 -1 63 -1 245 -1 247 -1 253 -1 59 -1 256 -1 257 -1 -2	1	1
73 -1 5 -1 107 -1 118 -1 12 -1 13 -1 42 -1 51 -1 17 -1 35 -1 30 -1 20 -1 22 -1 19 -1 71 -1 85 -1 53 -1 41 -1 99 -1 110 -1 113 -1 93 -1 117 -1 104 -1 135 -1 143 -1 54 -1 69 -1 100 -1 96 -1 111 -1 187 -1 33 -1 70 -1 59 -1 256 -1 79 -1 258 -1 -2	1	1
2 -1 186 -1 8 -1 61 -1 10 -1 11 -1 109 -1 143 -1 46 -1 125 -1 156 -1 108 -1 157 -1 140 -1 79 -1 84 -1 94 -1 67 -1 105 -1 163 -1 246 -1 268 -1 -2	1	1
95 -1 121 -1 61 -1 10 -1 11 -1 13 -1 66 -1 178 -1 14 -1 20 -1 56 -1 79 -1 49 -1 70 -1 76 -1 84 -1 94 -1 106 -1 137 -1 101 -1 67 -1 168 -1 91 -1 153 -1 -2	1	1
5 -1 1 -1 107 -1 9 -1 29 -1 10 -1 35 -1 109 -1 19 -1 71 -1 82 -1 50 -1 108 -1 94 -1 132 -1 103 -1 104 -1 115 -1 135 -1 147 -1 153 -1 182 -1 62 -1 59 -1 256 -1 -2	1	1
1 -1 61 -1 7 -1 18 -1 113 -1 9 -1 76 -1 69 -1 19 -1 13 -1 99 -1 37 -1 38 -1 31 -1 93 -1 60 -1 132 -1 133 -1 68 -1 89 -1 137 -1 90 -1 172 -1 102 -1 108 -1 253 -1 71 -1 260 -1 -2	1	1
2 -1 42 -1 18 -1 20 -1 22 -1 71 -1 26 -1 32 -1 38 -1 108 -1 67 -1 94 -1 103 -1 133 -1 134 -1 115 -1 100 -1 145 -1 95 -1 106 -1 6 -1 182 -1 185 -1 62 -1 101 -1 247 -1 257 -1 84 -1 258 -1 -2	1	1
68 -1 11 -1 13 -1 12 -1 49 -1 98 -1 37 -1 117 -1 120 -1 132 -1 72 -1 73 -1 139 -1 63 -1 1 -1 34 -1 149 -1 46 -1 171 -1 175 -1 43 -1 245 -1 246 -1 248 -1 48 -1 260 -1 39 -1 -2	1	1
2 -1 46 -1 73 -1 5 -1 23 -1 107 -1 51 -1 52 -1 18 -1 86 -1 82 -1 108 -1 67 -1 105 -1 113 -1 93 -1 117 -1 77 -1 115 -1 54 -1 95 -1 147 -1 149 -1 106 -1 31 -1 182 -1 62 -1 253 -1 79 -1 -2	1	1
35 -1 18 -1 87 -1 70 -1 24 -1 65 -1 98 -1 45 -1 76 -1 117 -1 62 -1 120 -1 31 -1 133 -1 139 -1 29 -1 174 -1 179 -1 41 -1 211 -1 227 -1 230 -1 231 -1 247 -1 253 -1 -2	1	1
39 -1 107 -1 29 -1 51 -1 30 -1 20 -1 22 -1 26 -1 86 -1 36 -1 99 -1 67 -1 132 -1 133 -1 68 -1 135 -1 143 -1 69 -1 145 -1 149 -1 106 -1 6 -1 31 -1 245 -1 62 -1 247 -1 -2	1	1
5 -1 8 -1 83 -1 41 -1 68 -1 11 -1 13 -1 22 -1 27 -1 35 -1 81 -1 114 -1 37 -1 117 -1 132 -1 40 -1 50 -1 139 -1 63 -1 51 -1 144 -1 146 -1 149 -1 150 -1 162 -1 46 -1 52 -1 66 -1 209 -1 58 -1 260 -1 19 -1 -2	1	1
110 -1 112 -1 139 -1 166 -1 8 -1 95 -1 153 -1 168 -1 13 -1 17 -1 18 -1 53 -1 167 -1 26 -1 58 -1 116 -1 27 -1 28 -1 109 -1 35 -1 42 -1 99 -1 69 -1 70 -1 57 -1 78 -1 119 -1 178 -1 147 -1 141 -1 171 -1 149 -1 150 -1 246 -1 104 -1 253 -1 254 -1 259 -1 -2	1	1
2 -1 46 -1 23 -1 8 -1 1 -1 29 -1 83 -1 10 -1 72 -1 42 -1 51 -1 17 -1 35 -1 52 -1 18 -1 30 -1 19 -1 71 -1 26 -1 24 -1 99 -1 108 -1 110 -1 113 -1 117 -1 94 -1 132 -1 104 -1 133 -1 96 -1 6 -1 182 -1 111 -1 187 -1 190 -1 101 -1 79 -1 257 -1 84 -1 -2	1	1
2 -1 5 -1 1 -1 39 -1 107 -1 29 -1 10 -1 42 -1 30 -1 19 -1 36 -1 24 -1 50 -1 108 -1 113 -1 103 -1 68 -1 69 -1 149 -1 96 -1 169 -1 31 -1 189 -1 190 -1 59 -1 256 -1 -2	1	1
2 -1 5 -1 23 -1 39 -1 118 -1 12 -1 72 -1 13 -1 42 -1 35 -1 30 -1 109 -1 22 -1 26 -1 32 -1 82 -1 50 -1 108 -1 110 -1 105 -1 113 -1 103 -1 77 -1 135 -1 149 -1 96 -1 106 -1 6 -1 189 -1 33 -1 245 -1 59 -1 256 -1 258 -1 -2	1	1
5 -1 8 -1 9 -1 29 -1 72 -1 13 -1 42 -1 35 -1 65 -1 19 -1 71 -1 32 -1 24 -1 108 -1 93 -1 117 -1 132 -1 103 -1 135 -1 153 -1 6 -1 31 -1 111 -1 185 -1 189 -1 70 -1 62 -1 101 -1 253 -1 256 -1 257 -1 -2	1	1
2 -1 73 -1 5 -1 15 -1 8 -1 1 -1 39 -1 107 -1 29 -1 35 -1 52 -1 18 -1 109 -1 85 -1 86 -1 32 -1 82 -1 99 -1 93 -1 117 -1 68 -1 77 -1 145 -1 182 -1 189 -1 33 -1 190 -1 62 -1 247 -1 253 -1 256 -1 84 -1 -2	1	1
46 -1 5 -1 83 -1 72 -1 42 -1 51 -1 52 -1 18 -1 20 -1 22 -1 19 -1 71 -1 41 -1 36 -1 82 -1 50 -1 104 -1 133 -1 135 -1 145 -1 96 -1 106 -1 31 -1 33 -1 190 -1 101 -1 247 -1 59 -1 256 -1 84 -1 -2	1	1
15 -1 23 -1 107 -1 118 -1 9 -1 17 -1 35 -1 65 -1 30 -1 53 -1 41 -1 36 -1 108 -1 110 -1 113 -1 117 -1 94 -1 103 -1 134 -1 115 -1 149 -1 153 -1 189 -1 33 -1 70 -1 62 -1 256 -1 257 -1 84 -1 258 -1 -2	1	1
46 -1 5 -1 15 -1 39 -1 118 -1 29 -1 72 -1 42 -1 17 -1 52 -1 71 -1 85 -1 53 -1 86 -1 36 -1 99 -1 110 -1 117 -1 132 -1 133 -1 77 -1 54 -1 96 -1 106 -1 169 -1 6 -1 185 -1 63 -1 190 -1 70 -1 59 -1 256 -1 79 -1 -2	1	1
46 -1 5 -1 15 -1 8 -1 39 -1 118 -1 29 -1 10 -1 12 -1 51 -1 35 -1 18 -1 20 -1 53 -1 32 -1 41 -1 38 -1 24 -1 93 -1 132 -1 103 -1 134 -1 77 -1 54 -1 95 -1 147 -1 96 -1 169 -1 6 -1 31 -1 182 -1 111 -1 187 -1 62 -1 247 -1 79 -1 84 -1 -2	1	1
2 -1 1 -1 107 -1 9 -1 10 -1 12 -1 35 -1 52 -1 18 -1 85 -1 53 -1 86 -1 32 -1 24 -1 99 -1 50 -1 67 -1 117 -1 77 -1 100 -1 95 -1 149 -1 96 -1 169 -1 6 -1 187 -1 189 -1 62 -1 253 -1 79 -1 84 -1 258 -1 -2	1	1
61 -1 67 -1 11 -1 76 -1 69 -1 65 -1 112 -1 22 -1 79 -1 26 -1 28 -1 30 -1 38 -1 31 -1 110 -1 62 -1 127 -1 132 -1 64 -1 89 -1 95 -1 143 -1 181 -1 102 -1 219 -1 223 -1 246 -1 253 -1 -2	1	1
15 -1 8 -1 9 -1 29 -1 83 -1 42 -1 17 -1 30 -1 19 -1 85 -1 26 -1 86 -1 41 -1 36 -1 67 -1 113 -1 117 -1 103 -1 133 -1 134 -1 77 -1 135 -1 96 -1 153 -1 185 -1 33 -1 190 -1 70 -1 62 -1 101 -1 253 -1 257 -1 -2	1	1
73 -1 15 -1 118 -1 9 -1 12 -1 72 -1 13 -1 35 -1 30 -1 109 -1 22 -1 71 -1 85 -1 86 -1 41 -1 36 -1 38 -1 108 -1 67 -1 113 -1 93 -1 68 -1 135 -1 54 -1 69 -1 147 -1 6 -1 31 -1 111 -1 70 -1 253 -1 -2	1	1
121 -1 10 -1 45 -1 110 -1 11 -1 66 -1 179 -1 82 -1 20 -1 156 -1 68 -1 36 -1 166 -1 78 -1 119 -1 76 -1 136 -1 102 -1 137 -1 67 -1 50 -1 91 -1 259 -1 153 -1 262 -1 175 -1 -2	1	1
46 -1 73 -1 5 -1 15 -1 23 -1 39 -1 107 -1 83 -1 42 -1 85 -1 38 -1 24 -1 99 -1 110 -1 113 -1 132 -1 103 -1 133 -1 115 -1 106 -1 6 -1 182 -1 111 -1 185 -1 247 -1 253 -1 84 -1 -2	1	1
73 -1 5 -1 15 -1 107 -1 10 -1 13 -1 35 -1 18 -1 20 -1 22 -1 32 -1 41 -1 24 -1 50 -1 108 -1 110 -1 103 -1 134 -1 135 -1 96 -1 153 -1 106 -1 31 -1 182 -1 185 -1 70 -1 253 -1 257 -1 84 -1 -2	1	1
95 -1 121 -1 8 -1 107 -1 124 -1 11 -1 143 -1 14 -1 179 -1 125 -1 148 -1 68 -1 108 -1 147 -1 73 -1 49 -1 84 -1 146 -1 105 -1 259 -1 -2	1	1
47 -1 33 -1 41 -1 68 -1 11 -1 13 -1 23 -1 27 -1 69 -1 81 -1 75 -1 108 -1 112 -1 118 -1 72 -1 50 -1 139 -1 51 -1 146 -1 149 -1 52 -1 175 -1 38 -1 209 -1 255 -1 54 -1 262 -1 19 -1 -2	1	1
73 -1 15 -1 8 -1 1 -1 39 -1 118 -1 29 -1 13 -1 42 -1 35 -1 52 -1 22 -1 19 -1 71 -1 85 -1 82 -1 38 -1 99 -1 108 -1 105 -1 94 -1 77 -1 147 -1 96 -1 106 -1 111 -1 189 -1 245 -1 62 -1 79 -1 257 -1 -2	1	1
2 -1 17 -1 8 -1 9 -1 10 -1 88 -1 65 -1 91 -1 13 -1 70 -1 80 -1 117 -1 37 -1 38 -1 114 -1 62 -1 127 -1 132 -1 64 -1 133 -1 95 -1 16 -1 143 -1 172 -1 181 -1 245 -1 39 -1 108 -1 246 -1 253 -1 259 -1 29 -1 260 -1 81 -1 -2	1	1
2 -1 46 -1 15 -1 23 -1 1 -1 9 -1 12 -1 72 -1 52 -1 65 -1 109 -1 85 -1 86 -1 41 -1 36 -1 50 -1 93 -1 104 -1 135 -1 54 -1 95 -1 147 -1 96 -1 31 -1 185 -1 187 -1 33 -1 253 -1 256 -1 -2	1	1
2 -1 8 -1 1 -1 107 -1 10 -1 12 -1 13 -1 52 -1 65 -1 19 -1 71 -1 53 -1 32 -1 41 -1 36 -1 82 -1 99 -1 105 -1 113 -1 103 -1 133 -1 77 -1 115 -1 69 -1 153 -1 245 -1 253 -1 256 -1 84 -1 258 -1 -2	1	1
5 -1 23 -1 9 -1 12 -1 17 -1 65 -1 20 -1 19 -1 71 -1 50 -1 108 -1 67 -1 132 -1 133 -1 77 -1 69 -1 95 -1 106 -1 31 -1 185 -1 33 -1 70 -1 84 -1 258 -1 -2	1	1
73 -1 15 -1 39 -1 118 -1 9 -1 12 -1 42 -1 51 -1 65 -1 20 -1 71 -1 26 -1 53 -1 36 -1 38 -1 50 -1 94 -1 104 -1 134 -1 115 -1 54 -1 69 -1 31 -1 185 -1 190 -1 62 -1 247 -1 256 -1 258 -1 -2	1	1
139 -1 113 -1 153 -1 14 -1 54 -1 90 -1 114 -1 107 -1 167 -1 26 -1 36 -1 117 -1 70 -1 82 -1 170 -1 118 -1 132 -1 143 -1 141 -1 149 -1 259 -1 -2	1	1
73 -1 39 -1 83 -1 13 -1 17 -1 52 -1 18 -1 30 -1 22 -1 26 -1 86 -1 36 -1 38 -1 24 -1 110 -1 105 -1 132 -1 104 -1 115 -1 69 -1 95 -1 106 -1 169 -1 31 -1 190 -1 253 -1 79 -1 -2	1	1
