#subsequence (s \in Sample : s ~ D)	freq(s,D)	freq(s,Sample)

7 -1 -2	4886	278
4 5 -1 3 4 -1 -2	202	1
2 -1 1 5 -1 8 -1 5 7 -1 1 5 -1 -2	347	1
8 -1 -2	5894	347
1 -1 1 -1 5 7 -1 1 -1 8 -1 5 9 10 -1 9 -1 -2	67	1
1 -1 3 -1 -2	1581	24
7 -1 3 5 8 -1 1 -1 -2	413	1
1 -1 -2	6728	1225
7 9 -1 -2	3256	15
2 -1 9 -1 9 -1 -2	1881	3
9 -1 8 -1 7 -1 8 -1 -2	1640	1
7 -1 1 -1 8 -1 1 -1 2 9 -1 8 -1 3 -1 -2	63	1
9 -1 1 -1 -2	4773	74
1 -1 1 -1 -2	5966	206
5 6 -1 -2	397	3
5 -1 1 -1 2 -1 1 -1 3 -1 3 -1 6 -1 -2	8	1
8 -1 8 9 -1 9 -1 1 -1 -2	1811	1
2 -1 -2	3157	259
1 7 -1 -2	3112	36
10 -1 10 -1 2 -1 2 -1 -2	208	1
1 -1 5 -1 1 -1 5 8 9 -1 -2	1423	1
1 -1 1 10 -1 -2	854	5
8 -1 3 -1 5 -1 1 -1 1 9 -1 1 3 6 -1 3 -1 2 -1 -2	4	1
6 -1 2 -1 10 -1 1 -1 -2	40	1
1 -1 7 -1 -2	3355	49
7 -1 9 -1 2 8 -1 -2	811	1
5 10 -1 9 -1 5 -1 10 -1 2 -1 -2	131	1
2 4 5 6 -1 1 -1 4 9 -1 -2	13	1
4 -1 8 -1 7 -1 -2	598	1
8 -1 8 -1 -2	5073	22
1 -1 5 -1 2 -1 2 -1 -2	1059	1
7 -1 8 -1 -2	3082	16
1 -1 5 -1 -2	4855	51
5 7 -1 8 -1 1 -1 -2	1650	1
8 9 -1 9 -1 -2	3365	2
8 -1 1 -1 9 -1 5 -1 1 9 -1 3 -1 -2	277	1
7 8 -1 1 -1 -2	2036	5
6 -1 5 -1 -2	418	3
2 8 -1 5 -1 -2	1369	1
1 -1 10 -1 1 -1 -2	919	5
2 8 -1 1 -1 -2	1317	3
4 -1 4 -1 -2	1283	11
5 -1 -2	7217	540
8 -1 1 -1 2 -1 1 -1 -2	1096	2
9 -1 3 -1 2 3 -1 -2	321	1
4 -1 -2	1716	131
5 7 -1 9 -1 -2	2558	1
1 -1 1 2 -1 2 -1 7 -1 -2	619	1
7 -1 9 -1 -2	3558	17
5 -1 1 -1 -2	4870	71
2 -1 7 -1 -2	1673	12
3 9 -1 2 7 -1 7 -1 1 5 7 -1 9 -1 6 -1 -2	12	1
7 -1 1 -1 1 8 -1 5 -1 -2	1281	1
2 9 -1 8 -1 -2	1438	2
5 -1 9 -1 9 -1 5 -1 -2	3305	1
3 -1 2 -1 9 -1 1 -1 8 -1 -2	278	1
5 -1 8 -1 -2	4390	23
5 -1 7 -1 7 -1 -2	2848	1
8 -1 10 -1 1 -1 2 -1 -2	259	1
1 5 9 -1 1 -1 9 -1 9 -1 9 -1 -2	1375	1
1 -1 1 -1 1 -1 2 -1 -2	1465	2
7 -1 1 4 5 -1 9 -1 1 -1 5 -1 1 5 9 -1 -2	135	1
3 9 -1 -2	1450	7
1 -1 1 2 -1 1 -1 -2	1485	1
4 8 -1 9 -1 -2	729	1
3 -1 5 -1 7 -1 1 -1 -2	602	1
3 -1 -2	2203	164
8 -1 1 -1 -2	4103	49
7 -1 5 -1 7 9 -1 -2	1973	1
8 -1 5 -1 -2	4320	23
7 -1 5 -1 10 -1 -2	662	1
1 9 -1 9 -1 -2	3926	10
2 -1 7 -1 6 -1 2 -1 1 -1 1 9 -1 -2	31	1
1 -1 1 5 -1 -2	3994	13
3 8 -1 8 9 -1 1 10 -1 5 -1 5 -1 3 -1 4 7 -1 9 -1 7 -1 -2	3	1
9 10 -1 1 -1 9 -1 5 -1 -2	436	1
1 -1 7 -1 2 -1 1 8 -1 4 7 -1 -2	98	1
1 9 -1 -2	4449	50
4 -1 2 6 8 -1 5 -1 -2	25	1
7 -1 1 -1 10 -1 5 -1 5 -1 -2	343	1
7 -1 8 -1 8 -1 -2	2430	2
1 9 -1 1 -1 1 -1 -2	3272	5
1 2 -1 -2	2046	12
9 -1 -2	6931	401
1 -1 1 5 -1 1 -1 -2	3308	2
5 6 -1 9 -1 2 -1 1 -1 -2	93	1
2 -1 8 -1 4 9 -1 9 -1 2 -1 -2	149	1
4 -1 7 -1 1 -1 -2	670	1
8 -1 9 -1 5 -1 -2	3012	4
2 -1 9 -1 2 -1 9 -1 1 9 -1 -2	614	1
1 -1 1 -1 8 -1 1 4 -1 9 -1 1 4 -1 -2	120	1
7 -1 1 6 7 -1 5 -1 8 -1 1 -1 -2	70	1
2 5 -1 3 5 -1 5 -1 3 -1 -2	277	1
2 -1 4 10 -1 3 -1 3 -1 5 -1 -2	15	1
9 -1 8 -1 -2	4135	18
7 -1 7 -1 5 8 -1 10 -1 10 -1 -2	157	1
1 9 -1 1 7 -1 -2	2044	1
5 -1 4 -1 3 8 -1 5 -1 1 10 -1 -2	39	1
5 9 -1 2 -1 -2	1765	4
1 -1 9 -1 -2	4702	68
1 7 -1 3 8 -1 7 10 -1 1 -1 -2	81	1
5 -1 1 -1 2 -1 7 -1 5 -1 2 -1 -2	332	1
8 -1 7 -1 -2	3029	14
3 -1 4 -1 1 8 -1 -2	241	1
1 2 7 -1 -2	962	2
9 -1 5 8 -1 9 -1 -2	2484	1
1 -1 1 5 -1 1 9 -1 -2	2392	1
1 3 5 -1 8 -1 1 -1 8 -1 -2	438	1
2 -1 1 -1 3 -1 2 -1 1 8 -1 -2	188	1
1 -1 8 -1 4 -1 2 -1 8 -1 -2	204	1
10 -1 -2	1518	87
3 -1 1 3 -1 4 8 -1 1 9 -1 4 -1 5 -1 1 8 -1 6 -1 9 -1 9 -1 -2	1	1
1 -1 4 8 -1 -2	737	2
3 -1 5 -1 3 -1 5 -1 9 -1 1 -1 -2	304	1
2 -1 1 -1 1 -1 1 2 -1 -2	952	1
8 -1 1 -1 5 6 -1 1 9 -1 -2	140	1
2 -1 7 -1 8 -1 6 -1 8 -1 5 -1 1 5 -1 -2	29	1
1 -1 1 -1 2 -1 8 -1 3 -1 -2	263	1
3 8 -1 8 -1 1 -1 5 9 -1 -2	443	1
1 -1 8 -1 -2	4149	53
7 -1 3 9 -1 3 -1 -2	584	1
1 -1 2 -1 -2	2258	36
1 6 -1 1 5 -1 4 5 -1 -2	58	1
9 -1 8 -1 2 -1 1 -1 -2	1049	1
3 -1 9 -1 3 5 -1 -2	814	1
1 9 -1 10 -1 -2	842	1
7 8 -1 8 -1 -2	2343	3
1 -1 4 -1 -2	1256	15
9 -1 1 -1 1 -1 7 8 10 -1 -2	200	1
9 -1 8 -1 7 -1 5 -1 8 -1 -2	1123	1
9 -1 3 9 -1 1 -1 5 8 -1 1 -1 -2	364	1
3 -1 3 -1 8 -1 -2	997	3
4 -1 7 -1 -2	912	6
5 -1 1 5 -1 1 4 -1 1 8 -1 -2	368	1
10 -1 8 -1 1 9 -1 6 -1 -2	58	1
7 -1 1 -1 8 -1 8 -1 1 -1 -2	1105	1
9 -1 1 5 -1 7 9 -1 5 -1 1 -1 5 -1 10 -1 -2	95	1
2 -1 10 -1 7 -1 5 -1 -2	238	1
1 -1 5 -1 1 -1 6 -1 -2	251	1
1 -1 8 -1 5 -1 -2	3026	4
1 -1 1 -1 4 -1 4 -1 -2	638	1
7 -1 1 9 -1 -2	2497	4
8 -1 8 -1 7 9 -1 1 10 -1 -2	243	1
2 -1 8 -1 9 -1 9 -1 -2	1130	1
1 -1 3 5 7 9 -1 3 -1 5 -1 7 -1 -2	155	1
9 -1 4 7 -1 4 -1 9 -1 -2	311	1
1 8 -1 -2	3867	51
1 -1 9 -1 8 -1 1 -1 -2	2253	1
7 10 -1 8 -1 9 -1 2 7 -1 1 9 -1 1 -1 3 -1 -2	26	1
5 7 -1 1 -1 2 -1 9 -1 5 -1 -2	539	1
4 -1 9 -1 3 -1 -2	326	1
10 -1 1 -1 8 -1 -2	722	2
5 -1 2 -1 5 -1 -2	1972	2
1 -1 1 -1 5 8 -1 8 -1 1 9 -1 -2	1010	1
1 -1 2 -1 9 -1 1 -1 1 -1 1 -1 8 10 -1 -2	52	1
3 -1 1 -1 -2	1536	23
5 8 -1 8 -1 2 -1 -2	1259	1
5 -1 3 5 7 -1 1 7 -1 2 -1 7 8 -1 9 -1 5 -1 -2	49	1
4 -1 1 -1 9 -1 9 -1 4 -1 -2	366	1
5 -1 7 -1 -2	3622	26
1 -1 7 8 -1 2 5 -1 7 -1 7 -1 4 5 9 -1 9 -1 9 -1 -2	22	1
5 -1 5 -1 9 -1 -2	4210	5
5 -1 7 9 -1 7 -1 5 -1 -2	1525	1
5 -1 1 -1 1 -1 9 -1 -2	2679	1
5 10 -1 7 -1 9 -1 -2	473	1
9 -1 1 -1 1 7 -1 -2	1976	1
5 -1 3 5 -1 8 -1 -2	904	1
1 5 -1 -2	4507	69
5 8 -1 -2	4141	23
1 -1 1 -1 1 -1 -2	5023	30
9 -1 3 -1 -2	1603	15
2 9 -1 1 -1 -2	1599	4
3 4 -1 5 -1 3 5 -1 -2	167	1
5 8 -1 6 7 -1 2 -1 -2	85	1
8 -1 10 -1 4 7 -1 7 -1 1 -1 4 -1 -2	28	1
3 -1 2 5 -1 -2	627	1
4 -1 4 -1 9 -1 -2	869	1
4 5 7 9 -1 5 8 10 -1 2 -1 4 9 -1 1 5 -1 2 -1 -2	12	1
1 -1 2 9 -1 5 -1 -2	1208	2
2 3 9 -1 -2	429	2
1 -1 5 7 -1 1 -1 -2	2002	1
2 8 -1 9 -1 1 2 -1 2 7 -1 -2	284	1
4 -1 3 -1 -2	445	1
1 -1 2 3 -1 9 -1 2 -1 1 2 -1 -2	146	1
1 8 -1 4 -1 1 -1 3 4 -1 -2	103	1
7 -1 1 7 8 -1 -2	1501	1
2 -1 2 -1 1 -1 -2	1666	2
2 -1 1 5 -1 -2	1669	1
7 -1 4 -1 8 -1 3 7 9 -1 5 -1 1 7 -1 8 -1 9 -1 -2	17	1
9 -1 5 -1 5 -1 -2	4129	3
2 9 -1 3 4 -1 1 8 -1 2 -1 1 -1 9 -1 -2	29	1
5 -1 7 -1 3 -1 10 -1 2 8 -1 1 -1 1 -1 1 5 -1 -2	12	1
6 8 9 -1 9 -1 -2	203	1
5 10 -1 -2	1022	2
9 -1 2 -1 5 -1 6 -1 1 -1 7 -1 -2	47	1
2 5 8 10 -1 1 -1 6 8 -1 -2	18	1
9 -1 7 -1 2 -1 1 5 -1 -2	704	1
1 9 -1 2 -1 1 -1 -2	1337	1
1 10 -1 10 -1 1 -1 9 -1 1 -1 -2	251	1
9 -1 8 -1 1 8 -1 -2	2345	2
1 4 5 8 -1 1 -1 -2	390	2
1 9 -1 2 -1 7 -1 -2	945	1
2 -1 1 2 -1 3 -1 3 -1 10 -1 8 -1 5 -1 9 -1 1 8 -1 -2	4	1
1 4 -1 1 -1 -2	950	3
2 5 -1 8 -1 -2	1495	1
5 8 -1 5 -1 8 -1 10 -1 8 -1 -2	328	1
9 -1 7 -1 -2	3532	19
4 5 -1 -2	1212	4
2 -1 8 -1 5 -1 5 -1 1 3 -1 -2	213	1
1 -1 1 -1 3 -1 -2	1294	4
10 -1 1 8 -1 3 -1 -2	219	1
1 10 -1 -2	959	10
8 -1 3 -1 -2	1353	6
1 -1 1 -1 2 -1 -2	1911	5
7 -1 5 -1 -2	3637	24
2 -1 4 -1 8 -1 -2	422	1
1 -1 10 -1 1 -1 5 -1 1 9 -1 1 9 -1 -2	204	1
3 -1 3 -1 -2	1658	17
2 5 -1 -2	2161	19
4 -1 3 -1 9 -1 1 -1 1 2 -1 8 -1 -2	51	1
9 -1 5 -1 7 -1 -2	2600	4
5 7 10 -1 1 5 8 -1 -2	286	1
3 -1 4 -1 9 -1 -2	323	1
4 10 -1 5 -1 5 -1 4 -1 1 -1 9 -1 10 -1 2 10 -1 -2	2	1
7 9 -1 1 -1 4 -1 -2	527	1
1 -1 1 8 9 -1 5 -1 7 9 -1 3 10 -1 1 2 7 8 -1 -2	14	1
1 -1 8 -1 4 -1 1 -1 -2	617	2
5 7 8 -1 -2	1957	3
2 7 -1 8 -1 10 -1 -2	221	1
3 -1 5 -1 -2	1649	7
3 7 -1 1 3 -1 -2	523	1
2 -1 1 -1 -2	2246	43
1 -1 5 -1 5 -1 -2	4066	7
1 -1 10 -1 8 -1 3 -1 8 -1 -2	117	1
1 -1 1 4 -1 1 -1 5 9 -1 -2	455	1
1 5 -1 4 -1 1 9 -1 -2	605	1
3 -1 5 -1 1 -1 8 -1 1 -1 -2	512	1
7 -1 7 -1 1 3 -1 5 8 -1 -2	335	1
10 -1 1 7 9 -1 1 -1 1 -1 7 8 -1 7 -1 5 -1 2 9 -1 9 -1 -2	11	1
8 -1 3 -1 8 -1 -2	1096	1
1 5 -1 7 -1 4 -1 9 -1 1 7 -1 2 7 -1 4 8 -1 2 3 8 -1 -2	8	1
7 -1 5 -1 6 -1 5 -1 -2	209	1
8 -1 1 9 -1 5 -1 5 -1 2 -1 -2	619	1
3 -1 1 -1 3 -1 -2	1061	2
4 -1 2 9 -1 4 -1 1 -1 1 2 9 -1 8 -1 -2	54	1
1 -1 1 8 -1 -2	3420	12
1 -1 8 -1 3 -1 5 -1 1 8 -1 7 -1 -2	222	1
9 -1 1 -1 2 -1 -2	1678	3
9 -1 5 -1 10 -1 1 -1 1 -1 10 -1 9 10 -1 -2	51	1
4 -1 5 7 -1 -2	706	1
8 -1 7 -1 10 -1 1 -1 1 -1 5 -1 9 -1 5 -1 -2	70	1
1 -1 10 -1 -2	1107	21
4 -1 9 -1 -2	1240	8
9 -1 9 -1 1 -1 5 -1 7 -1 6 -1 -2	83	1
1 8 -1 1 -1 1 -1 -2	2865	2
1 -1 9 -1 9 -1 -2	3960	3
9 -1 1 -1 7 8 -1 -2	1574	1
4 -1 5 -1 9 -1 -2	912	1
8 -1 2 5 -1 -2	1465	3
3 -1 10 -1 3 5 -1 -2	210	1
5 8 -1 2 -1 9 -1 3 5 -1 5 -1 5 -1 9 -1 10 -1 -2	14	1
1 -1 1 -1 8 -1 -2	3501	6
1 -1 1 2 -1 -2	1800	5
1 9 -1 1 -1 1 -1 9 -1 7 -1 3 -1 -2	235	1
1 10 -1 1 -1 3 5 9 -1 -2	158	1
5 -1 2 5 -1 1 9 -1 2 5 -1 9 -1 -2	428	1
5 -1 1 -1 4 -1 1 -1 5 8 -1 2 -1 -2	130	1
7 -1 7 9 -1 1 5 8 9 -1 3 -1 7 -1 -2	168	1
7 -1 5 -1 2 5 -1 1 -1 1 -1 1 9 10 -1 1 -1 -2	44	1
7 -1 9 -1 1 -1 -2	2511	4
4 -1 1 -1 -2	1228	20
2 -1 4 -1 5 8 -1 7 -1 1 2 10 -1 7 8 -1 9 -1 1 -1 7 -1 -2	5	1
8 -1 7 -1 2 -1 1 -1 -2	773	1
4 -1 1 -1 8 -1 8 -1 -2	602	1
3 -1 8 -1 9 -1 -2	1002	1
8 -1 9 -1 1 -1 1 -1 -2	2243	2
9 -1 3 8 -1 5 7 -1 1 -1 -2	318	1
10 -1 1 -1 -2	1096	9
7 -1 1 -1 -2	3422	46
1 -1 7 -1 1 -1 -2	2776	5
8 9 -1 -2	3857	15
8 -1 9 -1 -2	4113	22
4 -1 1 2 -1 5 -1 5 8 -1 -2	205	1
8 -1 5 -1 4 -1 -2	853	1
1 8 -1 1 -1 1 3 9 -1 10 -1 9 -1 1 -1 -2	62	1
9 -1 2 -1 1 3 5 -1 -2	345	1
6 7 -1 1 9 -1 -2	194	1
1 -1 4 8 9 -1 1 -1 -2	403	1
4 -1 1 -1 7 -1 -2	664	1
5 -1 7 -1 5 -1 -2	3055	5
4 -1 5 -1 -2	1287	8
7 -1 2 -1 -2	1736	5
5 -1 1 -1 1 -1 -2	4035	8
1 4 -1 7 -1 -2	640	1
8 -1 9 -1 1 -1 10 -1 5 -1 -2	361	1
5 -1 5 -1 1 -1 1 5 -1 1 -1 -2	1881	1
5 -1 5 -1 7 9 -1 5 -1 -2	1706	1
1 3 8 -1 1 -1 -2	689	1
2 -1 2 -1 -2	2490	21
1 3 -1 6 -1 -2	114	2
1 -1 1 -1 5 10 -1 8 -1 -2	414	1
4 9 -1 -2	1122	2
4 -1 9 -1 9 -1 5 -1 -2	731	1
1 -1 5 -1 5 9 -1 2 -1 1 -1 -2	707	1
4 -1 4 -1 1 5 -1 -2	631	2
1 3 5 9 -1 1 -1 9 -1 10 -1 1 -1 -2	100	1
5 9 -1 3 -1 -2	1214	1
4 -1 5 9 -1 -2	947	2
8 9 -1 5 -1 1 -1 -2	2164	1
5 -1 1 7 -1 1 8 9 -1 7 -1 -2	770	1
1 -1 6 -1 -2	420	9
4 5 -1 3 -1 9 -1 -2	266	1
1 -1 8 -1 3 -1 5 -1 -2	735	1
5 8 -1 5 7 -1 3 -1 5 -1 5 -1 4 -1 2 8 9 -1 1 4 -1 -2	7	1
1 7 10 -1 5 -1 5 -1 1 -1 -2	271	1
2 -1 4 9 -1 9 -1 1 -1 -2	269	1
2 -1 1 -1 1 -1 1 5 -1 2 -1 -2	614	1
5 -1 1 -1 2 -1 9 -1 -2	1171	1
1 -1 2 5 -1 8 -1 -2	1066	1
9 -1 1 -1 1 -1 -2	3944	17
3 5 -1 9 -1 10 -1 -2	240	1
2 -1 3 5 9 -1 10 -1 7 -1 1 9 -1 1 -1 9 -1 -2	15	1
8 -1 3 -1 5 -1 3 -1 5 -1 9 -1 9 -1 3 9 -1 -2	39	1
1 5 -1 8 -1 -2	3027	4
9 -1 1 7 -1 9 -1 4 -1 -2	407	1
1 -1 3 -1 1 5 -1 -2	981	1
1 3 5 -1 -2	978	2
2 -1 5 8 -1 1 -1 2 -1 -2	715	1
2 -1 2 -1 9 -1 8 -1 2 8 -1 -2	430	1
5 -1 9 -1 2 5 -1 1 -1 2 -1 -2	548	1
1 -1 3 7 -1 1 -1 5 8 -1 7 -1 -2	220	1
6 -1 -2	558	33
1 -1 3 -1 4 -1 5 -1 -2	254	1
5 -1 4 -1 5 -1 3 -1 3 -1 1 -1 -2	87	1
2 9 -1 1 -1 9 -1 -2	1338	1
1 5 -1 4 -1 1 2 -1 8 -1 8 -1 2 3 -1 -2	29	1
1 -1 5 -1 1 7 -1 5 -1 8 -1 -2	959	1
3 -1 2 4 -1 1 -1 1 -1 8 -1 9 -1 8 -1 -2	17	1
3 7 -1 -2	950	5
10 -1 7 -1 7 10 -1 1 7 -1 9 10 -1 3 -1 -2	21	1
5 9 -1 3 9 -1 1 -1 2 5 -1 9 10 -1 -2	55	1
2 4 -1 7 -1 -2	279	1
2 -1 8 -1 5 -1 1 9 -1 -2	802	1
9 -1 1 9 -1 -2	3959	4
9 -1 8 -1 7 -1 -2	2222	1
5 -1 3 -1 5 -1 3 -1 -2	883	1
10 -1 5 -1 10 -1 7 10 -1 -2	222	1
7 10 -1 -2	711	3
2 5 -1 2 -1 -2	1685	1
1 10 -1 5 -1 1 -1 10 -1 -2	368	1
1 -1 5 -1 7 -1 -2	2491	3
2 -1 9 -1 1 4 7 -1 1 4 -1 1 -1 8 -1 7 -1 -2	31	1
1 -1 5 -1 6 7 9 -1 2 -1 3 -1 -2	22	1
9 -1 5 -1 -2	4954	32
3 -1 9 -1 -2	1579	8
7 -1 4 -1 -2	920	5
9 -1 9 -1 -2	6200	31
2 -1 7 -1 5 8 -1 -2	869	1
5 -1 7 -1 2 -1 -2	1322	2
1 6 9 -1 -2	259	1
2 -1 5 8 -1 -2	1547	1
10 -1 8 -1 1 2 -1 2 7 -1 4 -1 1 5 -1 -2	22	1
1 8 9 -1 2 -1 9 -1 -2	887	1
2 -1 5 -1 -2	2377	16
5 -1 1 -1 3 -1 3 -1 -2	693	1
5 -1 1 -1 1 -1 1 -1 5 -1 9 -1 -2	1279	1
7 8 -1 5 -1 -2	2142	6
8 -1 1 -1 4 5 7 -1 2 -1 5 -1 -2	110	1
8 -1 5 -1 1 -1 8 -1 9 -1 -2	1437	1
2 -1 9 -1 -2	2280	18
1 -1 1 9 -1 1 -1 -2	3279	3
5 -1 5 -1 -2	6418	57
1 5 -1 5 9 -1 4 -1 1 9 -1 -2	419	1
1 -1 1 -1 4 -1 4 9 -1 9 -1 -2	321	1
1 -1 8 -1 1 8 -1 -2	2749	1
10 -1 8 -1 8 -1 -2	776	1
7 -1 10 -1 1 10 -1 1 -1 10 -1 -2	138	1
9 -1 1 4 -1 4 -1 9 10 -1 1 -1 10 -1 4 9 -1 -2	5	1
9 -1 3 7 -1 -2	734	1
1 -1 5 -1 5 9 -1 3 5 -1 2 -1 1 -1 -2	173	1
2 -1 5 -1 8 -1 1 -1 -2	1020	1
7 -1 2 -1 5 -1 10 -1 -2	230	1
8 -1 8 -1 1 4 -1 4 6 10 -1 5 -1 7 -1 1 5 8 -1 -2	2	1
1 7 -1 3 -1 5 -1 9 -1 -2	473	1
8 9 -1 10 -1 8 -1 -2	599	1
1 3 -1 -2	1388	8
1 3 4 -1 10 -1 9 -1 1 -1 10 -1 -2	23	1
2 -1 1 5 7 -1 1 -1 -2	737	1
9 -1 2 -1 -2	2319	15
5 -1 7 -1 9 -1 2 -1 9 -1 -2	700	1
10 -1 4 -1 5 -1 1 -1 -2	167	1
1 2 -1 1 -1 -2	1776	4
6 7 -1 -2	298	1
1 8 -1 5 -1 2 10 -1 -2	176	1
1 -1 5 9 -1 8 -1 9 -1 5 -1 9 -1 -2	887	1
4 -1 7 -1 1 -1 5 8 -1 -2	363	1
1 10 -1 9 -1 3 9 -1 1 5 -1 -2	118	1
2 -1 9 -1 7 10 -1 8 -1 7 -1 -2	105	1
5 -1 1 -1 1 2 9 -1 -2	936	1
1 -1 5 -1 1 -1 -2	3992	17
5 -1 9 -1 -2	4953	26
1 -1 5 9 -1 2 -1 -2	1275	1
3 -1 5 10 -1 9 -1 -2	231	1
1 4 7 9 -1 8 9 -1 4 -1 1 9 -1 3 7 -1 -2	32	1
2 -1 5 -1 3 -1 1 9 -1 -2	344	1
1 9 -1 10 -1 1 -1 -2	692	1
7 -1 8 10 -1 8 -1 -2	413	1
10 -1 9 -1 5 -1 -2	782	2
7 -1 5 -1 1 -1 -2	2540	4
1 -1 8 -1 10 -1 5 -1 -2	521	1
1 -1 3 -1 1 7 -1 -2	689	1
1 4 7 -1 5 -1 7 -1 1 -1 -2	248	1
1 -1 2 8 -1 -2	1309	4
7 -1 1 -1 5 -1 10 -1 8 -1 10 -1 -2	118	1
7 -1 9 -1 10 -1 7 -1 7 9 -1 3 -1 -2	65	1
2 -1 5 -1 10 -1 5 -1 1 9 -1 -2	174	1
2 -1 5 -1 1 -1 -2	1666	6
8 -1 1 6 -1 -2	275	1
7 -1 1 2 -1 -2	1197	1
1 8 9 -1 1 7 -1 -2	1342	1
10 -1 5 -1 -2	1103	9
1 5 -1 1 5 7 -1 10 -1 7 -1 2 -1 5 -1 9 -1 9 -1 1 -1 -2	20	1
1 3 -1 7 -1 1 -1 2 -1 1 4 8 -1 3 -1 -2	21	1
9 -1 7 -1 2 -1 2 -1 8 -1 8 9 -1 -2	234	1
5 -1 5 7 -1 3 -1 4 -1 4 8 9 -1 -2	52	1
1 7 -1 7 -1 1 9 -1 8 9 -1 3 8 9 -1 7 -1 1 -1 -2	66	1
2 5 -1 1 -1 1 -1 8 9 -1 -2	668	1
5 9 -1 9 -1 -2	4148	2
1 -1 9 -1 1 -1 9 -1 1 5 9 -1 1 -1 -2	903	1
4 -1 1 5 -1 -2	932	2
5 -1 9 -1 1 -1 5 -1 -2	2723	1
1 -1 1 -1 9 -1 1 -1 -2	3093	2
1 -1 1 -1 4 -1 -2	1048	3
7 -1 7 -1 5 9 -1 1 -1 1 -1 8 -1 -2	534	1
5 -1 9 -1 1 -1 8 -1 -2	2095	2
8 9 -1 10 -1 8 -1 2 -1 1 -1 -2	152	1
2 7 -1 -2	1477	7
1 -1 1 7 -1 1 2 -1 -2	847	1
1 -1 3 -1 5 -1 -2	1169	2
5 -1 1 -1 7 -1 -2	2546	3
8 -1 3 -1 2 -1 -2	555	1
6 -1 6 -1 1 -1 5 -1 -2	182	1
1 9 -1 1 -1 -2	3915	12
9 -1 9 -1 5 -1 -2	4187	3
5 -1 8 -1 4 -1 -2	857	1
7 -1 7 9 -1 3 -1 5 -1 -2	486	1
1 -1 1 -1 1 -1 1 9 -1 1 -1 3 4 -1 7 -1 1 4 -1 -2	11	1
10 -1 1 -1 5 -1 -2	794	2
1 -1 2 -1 9 -1 4 5 -1 7 -1 4 9 -1 -2	63	1
10 -1 1 -1 1 7 -1 -2	527	1
9 -1 2 3 9 -1 10 -1 7 -1 4 -1 5 7 -1 1 -1 -2	5	1
1 9 -1 4 -1 1 8 9 -1 1 9 10 -1 3 7 9 -1 5 -1 -2	15	1
4 -1 1 -1 8 -1 2 9 -1 -2	230	1
2 4 5 -1 -2	356	1
4 5 -1 4 8 -1 8 -1 9 -1 5 -1 9 10 -1 5 -1 -2	18	1
4 9 -1 1 2 -1 -2	345	1
5 -1 9 -1 8 -1 3 -1 3 -1 -2	402	1
2 7 -1 2 -1 -2	1140	1
3 10 -1 -2	298	3
9 -1 1 4 5 -1 3 5 7 -1 3 8 -1 4 5 -1 7 -1 9 -1 5 -1 -2	7	1
6 -1 2 8 10 -1 1 -1 3 -1 1 -1 -2	9	1
1 5 -1 6 -1 -2	320	1
8 -1 5 -1 1 -1 1 3 -1 9 -1 -2	394	1
5 -1 6 -1 3 -1 1 -1 2 9 -1 4 -1 -2	13	1
1 -1 8 -1 1 -1 -2	3394	6
2 -1 1 8 -1 7 -1 -2	851	2
7 -1 7 9 -1 7 9 -1 5 -1 7 -1 -2	812	1
3 -1 1 4 -1 2 -1 1 -1 -2	118	1
1 5 7 -1 1 -1 -2	1913	2
1 -1 1 -1 1 -1 1 9 -1 4 9 -1 2 -1 -2	112	1
6 -1 6 -1 8 -1 -2	267	1
9 -1 7 -1 9 -1 -2	2959	2
1 -1 2 -1 7 -1 2 9 -1 -2	576	1
2 -1 1 8 -1 5 7 -1 5 -1 -2	552	1
9 -1 7 -1 7 -1 5 -1 -2	1875	1
1 -1 8 9 -1 -2	2847	1
8 -1 1 -1 1 9 -1 7 9 -1 -2	1066	1
8 -1 10 -1 10 -1 4 -1 1 -1 1 -1 -2	49	1
2 7 -1 1 -1 -2	1103	5
9 -1 1 7 -1 5 9 -1 5 -1 1 -1 9 -1 -2	607	1
2 -1 9 -1 1 -1 2 -1 1 -1 1 -1 -2	442	1
1 5 8 -1 -2	2716	3
1 -1 7 -1 5 7 -1 9 -1 -2	1315	1
5 8 -1 5 -1 -2	3642	2
2 -1 1 -1 1 9 -1 -2	1355	1
3 -1 3 -1 1 -1 5 -1 9 -1 -2	506	1
4 5 -1 1 -1 4 7 -1 5 -1 2 9 -1 -2	77	1
7 -1 1 5 -1 -2	2520	5
1 -1 1 2 4 -1 1 -1 7 -1 -2	146	1
5 -1 5 7 -1 5 -1 2 -1 1 -1 -2	553	1
9 -1 7 -1 9 -1 9 -1 5 -1 8 -1 2 -1 8 -1 2 5 -1 8 9 -1 -2	17	1
1 2 5 -1 1 -1 -2	1204	1
5 -1 1 -1 9 -1 5 7 -1 7 -1 -2	952	1
1 -1 1 -1 2 5 -1 5 9 -1 1 5 -1 -2	536	1
3 5 -1 -2	1524	12
9 -1 7 -1 8 -1 7 -1 -2	1595	2
2 5 7 -1 5 -1 1 9 -1 8 -1 -2	403	1
1 -1 4 -1 2 -1 9 -1 4 7 -1 -2	88	1
5 -1 1 -1 7 -1 3 -1 6 -1 4 -1 -2	18	1
6 9 -1 9 -1 1 2 7 -1 1 -1 2 -1 5 9 -1 9 -1 -2	20	1
1 2 -1 2 -1 4 -1 -2	329	1
2 -1 8 -1 8 -1 -2	1588	2
1 -1 1 -1 7 -1 9 -1 -2	1925	1
1 3 -1 3 4 -1 7 -1 -2	126	1
7 -1 5 -1 2 -1 -2	1347	3
3 -1 2 -1 1 -1 8 -1 -2	398	1
3 -1 3 -1 2 -1 -2	604	1
3 -1 7 -1 3 -1 8 -1 1 -1 2 -1 1 8 -1 -2	53	1
1 9 -1 1 7 -1 8 -1 -2	1387	1
5 -1 9 -1 7 -1 7 -1 -2	1852	2
1 -1 1 7 -1 -2	2696	6
4 7 -1 -2	754	7
5 7 -1 8 -1 9 -1 -2	1697	1
1 5 -1 1 -1 -2	3978	14
5 -1 4 -1 1 -1 -2	920	2
2 10 -1 2 5 -1 -2	239	1
10 -1 1 -1 3 -1 3 -1 9 -1 -2	101	1
2 -1 1 -1 1 4 -1 -2	361	1
2 7 -1 2 -1 9 -1 -2	831	1
4 -1 7 -1 4 -1 -2	608	1
8 -1 3 -1 5 9 -1 3 -1 4 9 -1 4 -1 -2	40	1
2 9 -1 -2	2102	9
1 -1 1 -1 1 5 -1 7 -1 5 -1 8 -1 -2	663	1
5 7 -1 -2	3387	20
5 -1 3 -1 1 8 -1 2 3 7 10 -1 10 -1 2 -1 1 4 -1 -2	1	1
7 -1 7 -1 5 7 9 -1 -2	1488	1
1 -1 5 -1 1 9 -1 1 9 -1 8 -1 4 -1 4 -1 -2	85	1
8 -1 5 7 9 -1 1 -1 5 -1 -2	933	1
1 7 -1 7 -1 1 -1 -2	2100	2
1 -1 7 -1 9 -1 -2	2454	4
7 -1 2 -1 7 -1 -2	1323	1
1 -1 9 -1 8 -1 -2	2949	1
5 8 -1 2 -1 2 -1 5 8 -1 8 -1 -2	461	1
9 -1 1 -1 9 -1 -2	3964	3
1 10 -1 7 -1 5 -1 -2	450	1
9 -1 2 -1 1 -1 9 -1 7 -1 -2	621	1
8 9 -1 8 -1 1 7 -1 -2	1290	1
2 5 8 -1 -2	1223	2
3 -1 9 -1 1 2 -1 -2	447	1
8 -1 1 -1 1 7 8 -1 7 -1 -2	922	1
7 -1 8 -1 3 -1 1 2 -1 7 -1 -2	161	1
4 -1 1 -1 1 3 -1 -2	264	1
1 -1 10 -1 8 -1 8 -1 -2	547	1
5 -1 8 -1 7 -1 9 -1 1 -1 -2	1044	1
1 10 -1 4 -1 4 -1 1 -1 4 8 -1 -2	32	1
5 8 -1 7 -1 1 -1 6 8 9 -1 -2	101	1
5 -1 3 -1 -2	1666	7
8 -1 1 2 -1 1 -1 8 9 -1 -2	633	1
1 -1 6 -1 2 -1 8 -1 10 -1 7 -1 9 -1 -2	11	1
1 -1 8 -1 1 5 -1 8 9 -1 -2	1368	1
4 10 -1 -2	261	3
9 -1 1 8 -1 2 -1 2 9 -1 8 -1 1 -1 -2	241	1
9 -1 4 -1 -2	1262	7
1 5 -1 5 -1 -2	4013	7
3 7 -1 5 -1 3 7 -1 -2	397	1
5 9 -1 -2	4701	19
2 6 -1 1 -1 -2	111	1
3 -1 1 8 -1 -2	1014	2
2 -1 5 7 8 -1 1 -1 -2	606	1
7 -1 2 7 -1 -2	1240	3
1 -1 7 -1 8 9 -1 5 -1 -2	1200	1
3 4 -1 7 -1 2 -1 9 -1 -2	80	1
1 8 -1 1 -1 3 -1 4 -1 -2	211	1
1 -1 4 -1 6 -1 -2	110	1
9 -1 2 -1 5 -1 -2	1710	2
1 -1 8 -1 1 9 -1 -2	2403	1
8 -1 3 -1 1 -1 -2	984	1
3 4 -1 1 -1 -2	273	1
2 -1 9 -1 1 -1 1 -1 1 -1 -2	862	1
1 3 -1 2 -1 -2	583	2
7 -1 1 -1 2 -1 1 2 -1 2 -1 7 -1 5 7 -1 -2	95	1
5 -1 1 5 -1 5 -1 -2	3439	1
5 -1 8 10 -1 1 8 -1 7 -1 1 -1 -2	191	1
5 -1 7 8 -1 -2	2172	4
7 8 -1 2 -1 5 -1 3 -1 8 -1 1 -1 -2	122	1
8 -1 5 8 -1 5 -1 1 -1 -2	1933	1
7 -1 9 -1 3 -1 -2	884	1
5 -1 1 4 -1 1 7 -1 -2	433	1
5 -1 1 8 -1 -2	2979	9
1 -1 8 9 -1 1 7 -1 -2	1305	1
2 -1 1 -1 9 -1 9 -1 9 -1 2 -1 1 -1 1 2 7 8 9 -1 -2	40	1
8 -1 5 -1 9 -1 -2	3013	3
8 -1 7 8 -1 7 -1 5 -1 5 -1 9 -1 9 -1 -2	318	1
8 9 -1 9 -1 3 -1 4 -1 1 -1 8 -1 7 -1 -2	39	1
2 3 -1 -2	642	4
2 5 -1 2 -1 7 -1 5 9 -1 -2	535	1
3 -1 2 -1 5 7 -1 -2	377	1
7 8 -1 8 10 -1 1 -1 3 9 -1 9 -1 9 -1 -2	45	1
1 -1 2 -1 3 -1 -2	589	3
7 -1 1 -1 1 -1 -2	2815	4
7 8 -1 -2	2743	15
1 8 -1 1 -1 3 -1 -2	856	2
1 -1 1 8 -1 1 7 -1 -2	1486	1
4 8 -1 2 8 -1 -2	309	1
4 -1 9 -1 2 -1 2 4 -1 1 -1 -2	111	1
8 -1 8 -1 3 -1 -2	1113	2
3 -1 3 -1 5 -1 -2	1189	2
1 4 -1 2 3 -1 7 -1 7 -1 9 -1 1 -1 -2	33	1
1 -1 2 -1 4 -1 -2	472	1
2 7 10 -1 9 -1 -2	176	1
3 5 -1 8 9 -1 7 -1 1 -1 9 -1 7 -1 4 9 -1 4 7 -1 -2	8	1
3 -1 5 9 -1 1 -1 5 9 -1 -2	632	1
5 -1 1 -1 8 -1 9 -1 3 9 -1 5 -1 -2	282	1
9 -1 1 -1 10 -1 -2	797	1
2 -1 1 9 -1 -2	1653	4
4 -1 10 -1 -2	347	4
5 -1 1 7 8 -1 5 7 -1 7 -1 8 -1 5 9 -1 -2	318	1
1 2 5 -1 9 -1 1 9 -1 1 -1 1 7 -1 1 2 7 -1 -2	121	1
9 -1 8 -1 1 -1 1 -1 -2	2252	1
7 -1 5 -1 8 -1 1 7 -1 -2	1180	1
2 9 -1 9 -1 -2	1831	1
9 -1 8 10 -1 -2	630	1
1 9 -1 1 9 -1 1 -1 -2	2846	1
4 9 -1 3 -1 8 -1 -2	239	1
3 -1 3 5 -1 5 -1 -2	968	1
10 -1 5 -1 9 -1 8 -1 1 -1 10 -1 -2	145	1
1 -1 9 -1 1 5 -1 9 -1 -2	2167	1
7 -1 5 -1 1 -1 8 -1 -2	1625	1
1 -1 5 -1 5 8 -1 -2	2565	1
9 -1 4 7 9 -1 8 -1 7 9 -1 4 -1 4 -1 -2	67	1
5 -1 2 -1 -2	2410	17
9 -1 1 -1 5 6 -1 8 9 -1 -2	141	1
1 2 5 -1 9 -1 7 -1 5 8 -1 9 -1 1 -1 6 -1 -2	19	1
8 -1 1 4 5 -1 8 -1 10 -1 1 -1 8 -1 5 8 -1 -2	41	1
1 -1 9 -1 2 -1 5 -1 -2	1198	2
2 -1 1 -1 9 -1 5 8 -1 -2	820	1
1 5 8 -1 2 9 -1 5 -1 -2	734	1
1 7 -1 1 -1 9 -1 9 -1 9 -1 -2	1113	1
10 -1 1 4 -1 4 8 -1 3 -1 3 7 -1 -2	16	1
8 -1 5 -1 1 -1 8 -1 -2	2263	2
1 -1 7 -1 1 -1 3 -1 -2	660	1
1 7 -1 5 8 -1 10 -1 -2	370	1
8 -1 7 -1 5 -1 8 -1 1 8 -1 -2	882	1
4 -1 8 -1 -2	1113	5
2 -1 2 -1 8 -1 1 2 -1 4 -1 -2	126	1
7 -1 1 -1 2 -1 7 8 -1 2 -1 -2	334	1
5 -1 8 -1 9 10 -1 1 5 -1 10 -1 -2	155	1
8 -1 1 -1 1 -1 -2	3463	5
8 -1 4 -1 1 7 -1 -2	455	1
5 7 -1 1 -1 7 -1 7 -1 5 -1 2 -1 5 -1 -2	205	1
1 -1 3 -1 5 -1 1 -1 1 -1 3 -1 7 -1 -2	115	1
7 -1 7 -1 1 -1 -2	2640	7
7 8 10 -1 7 -1 9 -1 1 -1 1 -1 8 -1 8 -1 5 8 -1 -2	32	1
1 -1 1 3 -1 -2	1218	1
8 -1 5 -1 5 -1 7 -1 5 -1 8 -1 -2	845	1
4 7 -1 1 8 -1 -2	402	1
8 -1 1 -1 2 -1 -2	1468	4
3 -1 2 8 -1 -2	508	1
1 -1 8 10 -1 2 -1 -2	261	1
8 -1 2 7 8 -1 1 5 -1 9 -1 2 7 9 -1 5 -1 -2	107	1
5 10 -1 7 -1 1 -1 9 -1 6 -1 4 7 8 -1 10 -1 1 7 -1 9 -1 2 8 -1 -2	1	1
1 7 -1 1 -1 1 -1 -2	2278	2
10 -1 2 -1 1 2 8 -1 2 -1 -2	122	1
3 -1 9 -1 2 7 8 -1 7 9 -1 7 -1 10 -1 -2	24	1
1 5 -1 8 -1 3 5 -1 5 -1 -2	561	1
8 -1 8 -1 5 -1 -2	3541	1
2 -1 2 7 -1 -2	1138	1
8 9 -1 1 5 -1 9 -1 -2	1791	1
1 -1 9 -1 2 7 -1 5 -1 -2	645	1
1 8 -1 9 -1 7 -1 5 -1 3 -1 2 5 -1 -2	121	1
8 -1 2 -1 9 -1 9 -1 2 5 -1 2 -1 -2	266	1
2 5 -1 7 -1 8 -1 -2	853	1
5 7 -1 8 -1 9 -1 7 8 -1 -2	984	1
5 8 -1 1 5 -1 -2	2608	2
4 8 -1 -2	959	4
8 -1 9 -1 1 4 5 -1 4 -1 -2	257	1
5 -1 9 -1 3 7 -1 -2	581	1
1 -1 1 8 -1 4 -1 5 -1 2 4 -1 1 -1 -2	66	1
8 -1 2 -1 9 -1 -2	1481	2
3 8 -1 7 -1 5 6 -1 1 2 5 -1 1 2 -1 8 -1 -2	9	1
9 -1 2 -1 2 -1 9 -1 7 9 -1 -2	478	1
7 -1 1 -1 1 -1 3 10 -1 -2	118	1
1 -1 2 7 -1 -2	1102	2
7 10 -1 1 -1 7 -1 -2	432	1
1 -1 7 -1 1 4 -1 -2	523	2
4 -1 1 -1 9 -1 6 -1 5 -1 1 5 -1 8 -1 -2	23	1
5 -1 1 5 -1 -2	4023	3
10 -1 2 -1 2 9 -1 -2	263	1
1 -1 1 8 9 -1 -2	2254	1
5 6 -1 2 6 -1 -2	92	1
5 -1 5 7 -1 2 -1 -2	1131	1
8 -1 9 -1 1 -1 -2	2933	2
1 -1 7 8 -1 -2	2049	5
5 -1 5 -1 5 -1 2 -1 -2	1610	1
8 -1 1 2 9 -1 1 -1 -2	825	1
1 8 -1 5 -1 1 -1 1 -1 8 -1 -2	1314	1
7 -1 6 -1 6 -1 1 -1 -2	163	1
2 7 -1 10 -1 1 -1 1 -1 -2	182	1
7 -1 7 -1 3 -1 -2	877	1
2 3 -1 3 -1 1 5 -1 8 -1 -2	203	1
8 -1 1 8 -1 -2	3331	3
7 -1 8 10 -1 -2	507	1
1 9 -1 1 -1 3 -1 7 -1 -2	522	1
7 -1 5 -1 1 -1 9 -1 -2	1808	1
10 -1 1 5 9 -1 1 -1 1 -1 -2	409	1
3 -1 4 -1 -2	433	5
2 7 -1 5 7 8 10 -1 2 -1 3 5 7 8 -1 1 8 -1 7 -1 1 -1 3 -1 -2	3	1
5 -1 4 -1 -2	1307	8
8 -1 1 -1 2 7 10 -1 8 9 -1 1 5 -1 10 -1 7 -1 8 9 -1 -2	7	1
1 -1 5 -1 4 -1 4 -1 -2	565	1
8 -1 9 -1 9 -1 -2	3420	3
7 -1 7 -1 1 8 -1 1 4 5 -1 1 3 5 -1 -2	62	1
7 -1 3 -1 -2	1161	5
3 9 -1 3 -1 8 -1 -2	693	1
1 -1 1 8 -1 1 -1 2 -1 1 -1 -2	681	1
2 -1 10 -1 5 -1 5 -1 -2	318	1
5 7 -1 7 -1 -2	2838	1
3 -1 1 -1 1 4 -1 -2	261	1
1 8 -1 5 -1 8 -1 8 -1 1 -1 3 -1 5 -1 -2	164	1
7 -1 10 -1 -2	879	5
8 -1 2 -1 2 -1 2 -1 7 -1 2 -1 1 -1 -2	116	1
9 -1 8 -1 9 -1 7 10 -1 -2	282	1
8 -1 1 9 -1 -2	2895	5
3 -1 2 -1 8 -1 4 -1 -2	127	1
2 5 -1 9 -1 1 -1 1 -1 9 10 -1 -2	143	1
8 -1 1 5 -1 9 -1 9 -1 -2	1707	1
9 -1 1 -1 5 -1 -2	3422	5
4 9 -1 7 9 -1 -2	564	1
5 -1 5 -1 5 9 -1 -2	3556	1
2 -1 8 -1 1 -1 7 -1 9 -1 -2	521	1
1 8 -1 5 9 -1 8 -1 8 -1 1 -1 7 8 -1 2 5 -1 1 4 -1 5 -1 -2	15	1
9 -1 5 8 -1 7 -1 5 -1 -2	1356	1
8 -1 1 -1 1 -1 3 9 -1 1 3 -1 -2	286	1
9 -1 1 8 -1 7 -1 5 -1 -2	1169	1
4 -1 3 -1 3 -1 -2	294	1
1 -1 5 -1 4 -1 3 7 -1 -2	140	1
1 -1 1 -1 8 -1 7 -1 3 -1 9 -1 -2	250	1
8 -1 5 7 -1 8 -1 1 4 8 -1 7 -1 4 -1 1 8 -1 1 8 -1 2 9 -1 -2	6	1
5 -1 10 -1 -2	1153	6
8 -1 1 -1 2 -1 5 7 -1 -2	629	1
2 -1 10 -1 7 -1 4 7 -1 -2	61	1
4 -1 3 9 -1 -2	327	1
9 -1 2 -1 1 -1 5 -1 2 3 8 -1 -2	112	1
1 8 -1 5 -1 8 -1 -2	2392	1
9 -1 5 6 -1 -2	315	2
9 -1 8 -1 10 -1 9 -1 5 -1 1 8 -1 -2	182	1
2 -1 9 -1 8 -1 7 -1 1 -1 8 -1 5 -1 -2	205	1
9 -1 8 -1 8 -1 2 -1 8 9 10 -1 1 9 -1 -2	68	1
9 -1 3 5 9 -1 1 -1 1 -1 5 -1 1 7 -1 -2	179	1
7 -1 7 -1 -2	4116	18
9 -1 10 -1 2 8 10 -1 1 3 5 8 -1 1 7 -1 7 -1 -2	14	1
1 -1 7 -1 9 -1 1 -1 1 8 -1 1 8 9 -1 8 -1 -2	252	1
7 -1 8 9 -1 7 -1 -2	1673	2
4 -1 1 -1 5 -1 10 -1 9 -1 8 -1 1 -1 -2	45	1
4 -1 9 -1 8 -1 3 9 -1 2 -1 8 -1 8 -1 -2	33	1
1 6 -1 1 5 -1 3 4 8 -1 8 -1 6 -1 4 -1 3 5 -1 5 -1 -2	2	1
6 9 -1 8 -1 7 -1 -2	179	1
1 -1 3 -1 2 -1 3 9 -1 -2	274	1
5 9 -1 10 -1 -2	862	1
2 5 7 -1 -2	1066	1
8 -1 5 8 -1 5 -1 -2	2944	1
10 -1 9 -1 -2	1074	4
1 -1 1 2 5 -1 -2	1212	1
1 5 9 -1 8 -1 2 -1 3 10 -1 -2	53	1
1 9 -1 8 -1 1 -1 -2	2399	1
1 5 7 -1 -2	2176	1
7 -1 1 5 9 -1 1 2 5 -1 1 4 -1 -2	120	1
3 -1 3 -1 8 -1 9 -1 2 -1 5 6 -1 5 -1 1 2 3 -1 5 -1 -2	1	1
3 -1 8 -1 10 -1 4 5 -1 -2	65	1
3 -1 10 -1 1 8 9 -1 -2	183	1
7 -1 8 -1 1 -1 -2	2144	2
2 -1 2 5 -1 8 -1 -2	1052	1
3 -1 5 -1 9 -1 -2	1175	2
8 -1 1 5 -1 8 -1 7 -1 -2	1247	1
1 9 -1 3 -1 -2	1148	2
9 -1 7 -1 10 -1 -2	635	1
3 -1 1 9 -1 -2	1119	1
1 8 -1 5 -1 4 -1 -2	647	1
5 -1 1 -1 8 -1 5 -1 2 -1 -2	760	1
4 -1 5 -1 4 -1 1 -1 9 -1 5 -1 -2	224	1
4 -1 1 -1 2 -1 2 -1 1 -1 3 -1 -2	43	1
1 -1 8 -1 1 -1 9 -1 -2	2257	1
1 7 9 -1 2 -1 -2	947	1
5 9 -1 7 -1 5 -1 -2	2249	1
2 8 -1 -2	1747	16
5 -1 3 -1 3 -1 -2	1137	1
8 -1 4 10 -1 10 -1 8 -1 -2	78	1
5 -1 1 -1 9 -1 1 5 -1 8 -1 1 9 -1 7 -1 -2	310	1
1 -1 8 -1 7 -1 5 7 -1 -2	1146	1
1 7 -1 7 -1 5 -1 7 9 -1 1 -1 -2	712	1
1 -1 3 -1 3 -1 -2	1042	3
1 -1 2 -1 5 8 -1 9 -1 -2	825	1
8 -1 4 -1 1 5 -1 1 4 -1 9 -1 1 3 7 -1 -2	39	1
1 -1 3 -1 8 -1 2 -1 8 -1 5 8 9 -1 -2	130	1
1 7 -1 1 7 -1 9 -1 5 -1 -2	1119	1
1 -1 2 -1 5 -1 5 -1 -2	1289	2
1 7 -1 5 -1 7 -1 1 5 -1 1 3 7 -1 -2	174	1
2 -1 4 -1 -2	615	4
5 -1 1 -1 10 -1 -2	811	1
10 -1 1 9 -1 7 -1 -2	511	1
7 8 -1 8 -1 10 -1 4 -1 8 -1 9 -1 1 -1 3 -1 -2	12	1
2 -1 1 -1 2 -1 1 4 -1 1 -1 2 -1 -2	93	1
7 9 -1 9 -1 -2	2907	2
9 -1 1 5 -1 1 9 -1 2 -1 -2	850	1
1 -1 9 -1 1 -1 -2	3921	6
2 -1 7 -1 7 -1 -2	1281	1
1 -1 2 -1 1 9 -1 -2	1353	2
1 -1 5 -1 8 -1 1 -1 -2	2306	1
3 -1 9 -1 3 8 -1 -2	635	1
8 -1 1 -1 5 -1 -2	3019	3
8 -1 5 -1 7 -1 1 -1 -2	1564	1
2 9 -1 5 -1 8 -1 -2	1091	1
1 -1 1 -1 2 7 -1 -2	934	1
8 -1 1 -1 1 5 -1 -2	2519	1
10 -1 1 -1 3 -1 -2	309	1
3 -1 5 -1 1 5 7 -1 -2	536	1
8 -1 1 -1 1 -1 6 -1 7 9 -1 1 -1 -2	67	1
10 -1 2 5 -1 8 -1 -2	271	1
1 -1 5 7 -1 5 10 -1 -2	407	1
4 9 -1 4 9 -1 -2	700	1
8 9 -1 5 -1 -2	2941	2
1 -1 1 -1 2 -1 2 3 -1 2 -1 1 3 -1 -2	68	1
1 -1 9 -1 1 -1 7 -1 -2	1926	1
10 -1 1 -1 5 -1 1 -1 -2	589	1
2 -1 5 -1 3 7 -1 8 -1 2 -1 9 -1 9 -1 -2	53	1
1 -1 1 2 8 -1 2 -1 -2	704	1
7 -1 5 -1 3 -1 2 7 -1 -2	253	1
2 8 -1 4 -1 -2	402	1
1 5 -1 1 -1 9 -1 -2	2832	1
5 9 -1 3 -1 6 -1 2 -1 1 8 -1 2 5 -1 3 7 -1 -2	7	1
2 5 9 -1 7 -1 8 -1 -2	654	1
1 7 -1 5 7 -1 9 -1 5 9 -1 8 -1 -2	596	1
2 -1 10 -1 1 -1 -2	394	1
5 -1 3 -1 3 -1 3 -1 1 -1 -2	414	1
1 -1 2 5 -1 -2	1601	3
7 -1 3 -1 1 5 7 -1 -2	483	1
3 9 -1 1 -1 5 7 -1 -2	511	1
7 -1 9 -1 4 -1 -2	685	1
8 9 -1 8 9 -1 -2	2834	1
1 -1 1 -1 3 -1 5 -1 -2	891	1
7 -1 1 -1 1 -1 8 -1 8 -1 -2	1142	1
1 -1 5 8 -1 10 -1 -2	555	1
1 8 -1 2 5 10 -1 5 9 -1 -2	126	1
10 -1 5 7 -1 2 -1 3 -1 1 3 -1 -2	38	1
5 -1 1 -1 1 -1 5 -1 2 -1 2 -1 -2	446	1
2 -1 4 7 -1 7 -1 -2	248	1
7 -1 3 -1 7 -1 1 5 -1 9 10 -1 7 -1 -2	39	1
7 -1 2 8 -1 8 -1 1 2 -1 1 -1 7 -1 2 3 -1 -2	30	1
9 -1 5 -1 5 -1 1 5 -1 -2	2293	1
7 9 -1 1 9 -1 8 -1 1 -1 -2	1047	1
8 -1 8 -1 8 -1 1 -1 8 -1 -2	1761	1
8 -1 7 8 -1 5 -1 3 -1 5 7 -1 6 -1 -2	23	1
2 -1 1 8 -1 7 -1 3 -1 -2	249	1
3 5 -1 2 -1 2 -1 1 -1 -2	300	1
5 -1 4 8 -1 -2	763	1
5 6 -1 1 -1 8 9 -1 -2	185	1
7 -1 2 -1 8 -1 -2	1143	1
2 -1 3 -1 3 -1 -2	527	1
3 5 -1 9 -1 2 3 -1 1 2 -1 1 -1 -2	111	1
1 7 -1 4 -1 5 -1 2 -1 -2	217	1
5 7 -1 1 -1 1 9 -1 -2	1566	1
5 9 -1 9 -1 1 -1 -2	2919	1
5 -1 2 8 -1 6 -1 7 -1 -2	74	1
2 9 -1 7 -1 3 -1 1 -1 1 -1 4 5 -1 7 -1 1 -1 -2	10	1
1 5 8 -1 2 7 -1 -2	638	1
5 -1 7 -1 7 -1 1 5 -1 -2	1495	1
8 -1 2 9 -1 -2	1421	2
2 3 -1 1 -1 -2	489	2
9 -1 1 -1 8 -1 2 -1 1 -1 -2	736	1
5 9 -1 5 -1 -2	4193	3
1 8 -1 1 -1 -2	3402	10
1 -1 10 -1 2 -1 7 -1 7 9 -1 7 9 -1 10 -1 -2	31	1
1 -1 1 3 -1 1 -1 -2	1005	1
9 -1 9 -1 1 -1 7 9 -1 -2	1594	1
5 10 -1 7 -1 7 -1 -2	471	1
3 -1 4 7 9 -1 7 -1 1 9 -1 1 -1 -2	67	1
3 4 -1 -2	356	4
2 -1 2 -1 2 -1 9 -1 1 -1 1 -1 4 5 8 -1 -2	46	1
3 -1 7 -1 -2	1139	7
8 9 -1 5 -1 9 -1 -2	2442	1
3 5 9 -1 8 -1 4 -1 1 -1 1 -1 -2	121	1
4 -1 4 -1 9 -1 1 7 -1 -2	316	1
8 -1 2 7 -1 5 -1 -2	791	1
10 -1 4 -1 -2	347	2
1 -1 7 -1 10 -1 8 -1 1 5 -1 4 7 -1 1 5 -1 1 8 -1 10 -1 -2	6	1
3 -1 5 -1 5 -1 -2	1397	1
4 -1 1 -1 2 5 9 -1 5 7 -1 -2	146	1
5 -1 5 9 -1 5 -1 1 -1 -2	2326	1
1 10 -1 7 8 9 -1 -2	333	1
1 -1 9 -1 1 -1 1 -1 -2	3070	1
10 -1 4 -1 5 -1 -2	254	1
9 -1 2 5 -1 8 -1 -2	1084	1
8 9 -1 1 -1 1 -1 -2	2341	2
1 -1 1 9 -1 4 -1 -2	791	1
7 -1 5 9 -1 10 -1 1 7 -1 3 5 8 -1 3 6 -1 -2	6	1
2 7 -1 9 -1 5 -1 2 6 -1 -2	52	1
5 -1 5 -1 1 -1 -2	4145	4
4 -1 5 -1 1 -1 4 -1 1 -1 -2	360	1
2 -1 7 -1 9 -1 -2	1233	1
1 9 -1 10 -1 7 -1 10 -1 5 -1 1 -1 -2	99	1
1 -1 4 8 -1 4 -1 1 -1 1 3 9 -1 -2	62	1
1 -1 4 -1 5 6 9 -1 7 8 -1 -2	42	1
1 7 9 -1 7 9 -1 3 -1 9 -1 1 9 -1 2 -1 -2	94	1
9 -1 2 9 -1 8 -1 1 -1 -2	838	1
7 -1 3 8 -1 1 -1 -2	529	1
2 -1 1 -1 1 -1 9 10 -1 -2	237	1
8 -1 4 -1 1 -1 1 -1 -2	620	1
5 9 -1 1 -1 3 -1 9 -1 -2	672	1
1 6 -1 8 -1 -2	276	1
5 9 -1 2 -1 7 -1 1 -1 2 -1 -2	409	1
5 8 -1 8 10 -1 1 5 8 -1 7 9 -1 -2	175	1
6 -1 5 -1 8 -1 -2	298	1
1 -1 8 -1 5 -1 1 7 -1 -2	1230	1
2 5 -1 5 8 -1 3 -1 3 7 8 -1 -2	115	1
7 8 -1 5 -1 1 -1 -2	1571	1
2 -1 5 -1 9 -1 -2	1673	2
2 6 -1 5 -1 7 8 9 -1 5 -1 6 -1 1 2 7 -1 5 8 -1 2 -1 3 -1 -2	1	1
5 -1 3 -1 5 9 -1 1 -1 -2	721	1
4 -1 3 5 8 -1 5 -1 8 -1 -2	142	1
8 -1 8 -1 2 4 -1 4 -1 5 9 -1 6 7 -1 9 -1 7 -1 -2	3	1
7 8 -1 7 -1 -2	2265	4
7 -1 7 -1 8 -1 -2	2439	3
2 -1 4 -1 1 -1 4 5 -1 -2	214	1
1 -1 2 -1 1 -1 -2	1836	1
3 -1 2 -1 7 -1 1 -1 7 -1 -2	200	1
5 -1 7 8 -1 5 -1 4 8 -1 8 -1 5 -1 1 -1 8 -1 -2	48	1
10 -1 3 -1 -2	419	1
2 -1 1 5 -1 5 -1 6 -1 -2	105	1
5 -1 5 8 -1 -2	3666	4
2 7 -1 7 -1 -2	1202	2
9 -1 6 10 -1 1 -1 1 -1 3 -1 1 -1 -2	10	1
2 -1 9 -1 1 8 -1 2 -1 -2	711	1
5 7 -1 8 -1 -2	2302	2
2 5 7 -1 8 -1 8 -1 6 -1 3 7 -1 1 2 -1 8 -1 1 7 -1 -2	3	1
2 7 8 -1 8 -1 5 -1 9 -1 4 8 -1 -2	98	1
9 -1 1 -1 1 3 8 -1 -2	533	1
7 9 -1 5 -1 -2	2530	3
1 -1 1 -1 2 -1 1 -1 8 -1 -2	808	1
7 -1 7 -1 1 5 -1 -2	1910	1
5 -1 8 -1 5 -1 -2	3636	4
8 -1 1 -1 5 -1 1 -1 1 -1 8 -1 9 -1 -2	540	1
1 -1 9 -1 7 -1 5 -1 -2	1767	2
1 -1 1 -1 9 -1 2 -1 1 -1 1 2 5 -1 -2	296	1
2 3 -1 4 7 -1 1 -1 3 -1 8 -1 6 -1 1 -1 4 8 -1 -2	2	1
9 10 -1 1 8 -1 -2	550	1
1 4 -1 5 -1 9 -1 8 -1 8 -1 -2	310	1
2 -1 5 -1 2 -1 -2	1724	3
1 7 -1 1 7 -1 -2	2196	2
1 -1 2 -1 5 -1 -2	1689	2
9 -1 2 5 9 -1 -2	1274	1
7 -1 2 -1 10 -1 10 -1 1 6 -1 -2	18	1
8 -1 5 -1 5 -1 1 -1 8 -1 8 -1 -2	1029	1
8 -1 9 -1 9 -1 1 -1 1 -1 -2	1597	1
2 -1 9 -1 1 -1 9 -1 9 -1 5 -1 2 5 -1 8 -1 9 -1 -2	58	1
4 -1 1 4 -1 -2	826	1
3 -1 1 3 -1 2 -1 3 -1 2 -1 5 -1 1 -1 3 -1 7 -1 -2	6	1
8 -1 1 -1 9 -1 -2	2916	2
8 -1 7 -1 8 -1 -2	2441	1
1 5 -1 2 9 -1 2 -1 5 -1 -2	688	1
1 -1 8 -1 2 -1 1 -1 -2	1100	1
2 -1 2 7 8 -1 4 -1 -2	152	1
9 -1 9 -1 2 -1 9 -1 2 -1 -2	893	1
8 -1 6 -1 3 -1 8 -1 2 8 -1 8 -1 9 -1 -2	16	1
9 -1 8 -1 3 -1 9 -1 -2	757	1
1 8 -1 9 -1 1 7 9 -1 7 -1 1 -1 3 8 -1 7 10 -1 -2	20	1
1 -1 7 -1 8 -1 -2	2185	3
8 -1 5 -1 2 -1 10 -1 1 -1 1 -1 -2	127	1
1 -1 9 -1 9 -1 5 9 -1 1 -1 -2	1609	1
9 -1 4 -1 4 -1 2 9 -1 9 10 -1 1 -1 5 -1 -2	20	1
7 -1 5 -1 1 2 -1 1 -1 -2	718	1
1 9 -1 4 -1 10 -1 -2	203	1
1 8 -1 7 -1 4 -1 -2	466	3
1 -1 5 -1 9 -1 -2	3421	5
7 -1 3 9 -1 -2	854	1
9 -1 5 -1 1 -1 -2	3420	4
1 -1 1 2 7 -1 7 -1 8 -1 8 -1 -2	298	1
10 -1 1 -1 1 -1 -2	897	4
10 -1 5 -1 4 9 -1 9 -1 4 7 -1 9 -1 1 -1 9 -1 -2	11	1
7 9 -1 1 -1 9 -1 -2	2016	1
3 -1 1 -1 9 -1 -2	1116	4
9 -1 1 2 -1 5 -1 -2	1192	1
9 -1 5 -1 1 9 -1 1 -1 1 5 -1 2 5 -1 -2	372	1
3 9 -1 8 9 -1 5 -1 -2	655	1
8 -1 8 -1 1 -1 -2	3375	1
4 6 -1 -2	90	1
7 8 -1 5 7 -1 7 9 -1 -2	1040	1
1 -1 5 -1 1 -1 5 -1 -2	3142	1
9 -1 8 -1 1 -1 -2	2919	2
8 -1 5 -1 1 -1 -2	3030	6
6 -1 1 -1 1 5 -1 -2	264	1
2 -1 2 3 -1 7 -1 -2	261	1
1 -1 2 -1 2 -1 -2	1597	5
5 8 -1 5 -1 8 -1 -2	2957	1
2 -1 9 -1 5 -1 3 7 -1 5 -1 -2	171	1
3 5 -1 1 -1 5 -1 -2	945	1
1 10 -1 8 -1 1 -1 -2	574	1
1 -1 9 -1 2 -1 -2	1681	2
10 -1 1 -1 2 5 -1 -2	304	1
1 -1 1 -1 5 -1 -2	4089	13
9 -1 10 -1 2 -1 4 -1 -2	102	1
1 -1 7 10 -1 2 -1 1 -1 -2	164	1
5 -1 7 -1 8 -1 -2	2340	1
4 -1 4 -1 4 -1 4 -1 -2	652	1
3 8 -1 1 -1 4 9 -1 7 -1 -2	103	1
8 -1 10 -1 -2	975	3
5 -1 10 -1 1 -1 -2	813	1
2 7 -1 1 4 -1 -2	246	1
7 -1 5 9 -1 -2	2620	2
8 -1 6 -1 7 -1 1 5 -1 5 -1 7 -1 2 8 -1 7 -1 -2	14	1
5 7 -1 1 -1 5 -1 9 -1 1 7 -1 8 -1 -2	453	1
7 -1 1 -1 7 -1 -2	2620	1
1 5 9 -1 -2	3016	2
9 -1 1 5 -1 -2	3348	2
8 -1 9 -1 7 -1 1 -1 3 -1 -2	383	1
1 -1 2 5 -1 2 -1 2 -1 -2	734	1
8 -1 5 -1 5 7 -1 -2	1891	1
1 -1 2 -1 9 -1 1 -1 2 3 -1 -2	172	1
3 5 -1 5 -1 1 5 -1 3 -1 1 -1 1 -1 8 -1 -2	115	1
4 10 -1 10 -1 -2	191	1
1 3 -1 5 -1 8 -1 8 -1 -2	552	1
3 8 -1 1 -1 -2	907	2
7 -1 1 -1 8 -1 4 -1 9 -1 -2	291	1
5 -1 1 5 -1 1 -1 5 10 -1 2 -1 1 -1 1 -1 8 -1 -2	40	1
1 8 -1 1 -1 4 -1 -2	702	1
1 -1 1 10 -1 1 -1 -2	737	1
1 -1 2 -1 10 -1 -2	397	1
5 -1 5 -1 5 6 -1 -2	295	1
5 8 -1 1 -1 3 9 -1 3 -1 -2	387	1
1 -1 2 -1 7 -1 -2	1207	2
7 8 -1 5 -1 9 -1 7 -1 1 7 -1 -2	602	1
1 -1 1 -1 1 -1 10 -1 4 7 -1 1 8 -1 -2	56	1
1 -1 2 4 9 -1 -2	276	1
7 -1 1 5 6 8 -1 9 -1 3 -1 5 9 -1 9 -1 1 -1 7 -1 -2	10	1
1 -1 9 -1 1 -1 6 -1 -2	246	1
10 -1 3 -1 2 -1 5 -1 7 9 -1 -2	61	1
2 -1 10 -1 -2	549	1
6 -1 1 -1 -2	411	3
5 10 -1 3 8 -1 7 -1 2 -1 5 -1 2 9 -1 -2	22	1
1 -1 7 8 -1 2 5 -1 -2	636	1
7 -1 9 -1 8 -1 -2	2276	1
9 -1 5 -1 7 8 -1 1 -1 -2	1143	1
7 -1 9 -1 5 -1 4 -1 1 -1 -2	324	1
1 2 5 -1 -2	1388	2
5 -1 9 -1 5 -1 4 8 -1 -2	465	1
5 -1 8 -1 1 -1 -2	3047	5
5 -1 8 -1 8 -1 -2	3493	2
7 -1 8 -1 5 -1 -2	2269	1
7 -1 4 -1 1 4 7 -1 2 5 -1 1 7 -1 7 -1 7 -1 1 -1 -2	15	1
2 5 8 -1 5 -1 9 -1 -2	826	1
4 -1 7 9 -1 9 -1 5 -1 5 -1 8 9 -1 2 -1 -2	63	1
1 -1 4 -1 5 8 -1 8 -1 7 -1 2 8 -1 -2	81	1
8 -1 1 -1 4 -1 -2	831	2
1 -1 10 -1 6 -1 -2	82	1
9 -1 9 -1 1 -1 9 -1 4 -1 -2	567	1
6 -1 5 -1 5 -1 8 -1 1 -1 1 -1 -2	98	1
5 -1 8 -1 1 -1 9 -1 -2	2078	1
1 8 -1 4 -1 3 5 -1 1 -1 -2	165	1
1 -1 1 5 9 -1 -2	2643	1
6 -1 1 9 -1 6 -1 -2	193	1
7 -1 8 -1 7 -1 -2	2348	2
1 2 -1 1 -1 1 2 -1 1 -1 7 -1 5 -1 -2	238	1
8 -1 8 -1 9 -1 7 -1 5 -1 1 -1 1 -1 1 -1 -2	206	1
3 -1 2 -1 -2	829	3
9 -1 4 -1 1 -1 1 -1 2 -1 2 5 -1 -2	101	1
2 -1 8 -1 9 -1 -2	1474	1
6 -1 2 -1 1 -1 5 -1 5 -1 4 9 -1 2 4 8 -1 1 8 -1 -2	3	1
1 -1 9 -1 5 -1 8 -1 -2	2110	1
3 -1 8 -1 -2	1407	11
1 -1 1 -1 5 -1 7 -1 -2	1953	1
7 -1 4 -1 4 -1 -2	613	1
8 -1 3 -1 5 -1 -2	1045	1
1 7 -1 9 -1 2 -1 -2	969	2
8 10 -1 9 -1 7 -1 2 -1 1 5 -1 4 -1 9 -1 2 5 -1 -2	13	1
1 -1 7 -1 1 6 -1 1 -1 1 -1 10 -1 -2	23	1
1 5 -1 9 -1 4 5 9 -1 8 -1 -2	341	1
9 -1 10 -1 -2	1116	4
1 -1 9 -1 10 -1 4 8 -1 1 8 -1 7 -1 3 4 9 -1 -2	6	1
5 7 -1 1 5 -1 4 9 -1 1 7 10 -1 -2	56	1
4 -1 9 -1 1 3 5 -1 8 -1 4 -1 2 -1 4 7 -1 -2	9	1
8 -1 8 -1 4 -1 2 -1 9 -1 -2	214	1
5 -1 2 -1 8 -1 -2	1552	1
5 -1 3 9 -1 3 -1 -2	786	1
9 -1 1 -1 1 9 -1 -2	3259	2
7 -1 1 -1 10 -1 -2	620	1
7 -1 5 7 -1 5 -1 1 -1 -2	1487	1
1 9 -1 5 -1 4 -1 -2	725	1
1 5 -1 5 9 -1 -2	2899	2
2 -1 2 -1 3 -1 -2	574	1
5 -1 1 -1 1 9 -1 -2	2804	1
7 -1 9 -1 9 -1 9 -1 5 -1 6 -1 -2	99	1
1 -1 2 -1 1 -1 8 -1 -2	1110	1
7 -1 5 -1 9 -1 1 -1 4 -1 -2	325	1
9 -1 1 2 -1 1 6 -1 2 10 -1 3 -1 -2	8	1
9 -1 1 -1 8 -1 -2	2954	3
1 9 -1 5 -1 1 -1 1 -1 1 -1 8 -1 -2	864	1
1 -1 4 -1 1 -1 -2	1013	1
1 -1 3 9 -1 -2	1086	1
7 -1 1 7 -1 6 -1 5 8 -1 6 -1 1 6 -1 -2	17	1
1 8 -1 2 -1 -2	1456	4
5 -1 1 -1 2 -1 -2	1711	2
1 -1 7 9 -1 1 9 -1 -2	1688	1
2 7 -1 5 -1 1 9 -1 -2	687	1
1 7 -1 1 5 -1 5 -1 -2	1717	1
5 -1 1 -1 2 5 -1 2 -1 3 -1 -2	203	1
9 -1 1 5 -1 7 -1 5 -1 -2	1468	1
1 5 8 -1 1 5 10 -1 1 6 -1 1 -1 7 -1 1 -1 -2	16	1
3 -1 3 -1 9 -1 -2	1116	3
8 9 -1 2 -1 4 9 -1 -2	278	1
1 -1 9 -1 8 -1 3 8 10 -1 1 -1 2 -1 8 -1 8 -1 5 -1 -2	6	1
9 -1 1 8 -1 2 8 -1 2 -1 -2	530	1
4 -1 1 8 -1 7 -1 4 -1 4 -1 8 -1 -2	93	1
1 -1 3 -1 1 4 9 -1 9 -1 -2	171	1
5 10 -1 3 4 -1 3 -1 -2	41	1
5 8 -1 9 -1 -2	3015	1
3 9 -1 8 -1 1 -1 2 -1 3 -1 -2	157	1
3 7 9 -1 4 8 9 -1 3 9 -1 1 -1 -2	61	1
1 9 -1 3 8 -1 5 8 -1 2 10 -1 10 -1 -2	22	1
2 -1 5 9 -1 -2	1723	2
5 -1 7 -1 2 -1 9 -1 -2	941	1
4 -1 1 -1 5 -1 -2	932	2
3 -1 4 -1 6 9 -1 -2	39	1
1 -1 9 -1 10 -1 1 9 -1 -2	542	1
2 -1 1 -1 9 -1 -2	1629	4
5 -1 5 7 -1 2 -1 3 -1 1 7 -1 1 -1 -2	115	1
5 -1 1 5 -1 8 -1 -2	2565	1
9 -1 1 2 8 -1 1 -1 10 -1 3 5 -1 -2	50	1
1 5 -1 8 -1 5 9 -1 -2	1915	1
3 -1 7 -1 1 9 -1 5 -1 4 -1 2 7 -1 6 8 -1 -2	7	1
10 -1 4 9 -1 9 -1 4 -1 8 -1 1 8 -1 -2	42	1
3 9 -1 2 -1 -2	593	1
1 -1 5 8 -1 9 -1 -2	2211	1
8 -1 1 -1 1 8 -1 4 -1 -2	516	1
5 -1 5 -1 5 -1 -2	5525	7
1 -1 2 3 -1 -2	485	1
1 8 -1 2 9 -1 -2	1083	1
4 -1 8 -1 1 -1 7 -1 2 7 -1 -2	111	1
5 -1 1 5 -1 2 -1 1 -1 8 9 -1 -2	516	1
7 9 -1 7 9 -1 2 -1 1 -1 1 -1 -2	410	1
1 -1 2 -1 9 -1 7 -1 5 7 9 -1 2 8 -1 5 -1 -2	101	1
2 9 -1 5 -1 2 -1 -2	1197	1
1 5 9 -1 7 -1 2 -1 4 -1 7 10 -1 -2	36	1
1 4 7 -1 -2	483	1
3 -1 9 -1 2 -1 5 7 -1 1 9 -1 6 -1 5 -1 4 8 -1 -2	2	1
1 2 -1 9 -1 -2	1547	5
9 -1 8 10 -1 5 8 9 -1 -2	360	1
9 -1 5 -1 1 -1 1 9 -1 4 8 -1 8 -1 1 8 -1 -2	100	1
3 -1 3 -1 1 -1 -2	1084	4
3 7 -1 4 -1 -2	227	1
2 4 -1 1 -1 9 -1 -2	276	1
7 -1 10 -1 1 -1 5 8 -1 -2	340	1
7 -1 2 8 -1 -2	1030	2
6 -1 1 -1 6 -1 -2	261	1
1 -1 7 -1 9 -1 1 9 -1 9 -1 9 -1 -2	742	1
1 7 8 -1 5 7 -1 5 7 -1 5 -1 1 -1 4 -1 -2	106	1
4 -1 10 -1 5 9 -1 5 -1 1 -1 -2	99	1
9 -1 1 4 9 -1 -2	660	1
8 -1 7 -1 2 -1 2 7 -1 -2	485	1
4 5 -1 4 8 9 -1 9 -1 8 -1 4 -1 -2	127	1
8 -1 8 -1 8 -1 -2	4202	2
1 -1 1 -1 1 -1 9 -1 10 -1 1 -1 -2	302	1
2 4 -1 2 -1 9 -1 -2	278	1
3 -1 9 -1 1 8 -1 8 -1 -2	575	1
1 -1 1 -1 4 5 -1 -2	752	1
1 -1 1 9 -1 -2	3908	7
4 -1 1 -1 8 -1 9 -1 8 -1 1 -1 -2	253	1
5 -1 5 -1 1 5 7 -1 5 -1 -2	1320	1
7 9 -1 2 3 8 -1 7 -1 -2	157	1
1 -1 1 -1 6 7 -1 3 -1 -2	54	1
2 -1 1 -1 3 -1 7 -1 1 9 -1 -2	195	1
8 9 -1 1 -1 1 -1 9 -1 -2	1819	1
1 -1 1 -1 1 -1 1 -1 -2	3904	1
1 3 -1 8 -1 7 -1 1 2 -1 -2	212	1
1 2 3 -1 9 -1 2 5 -1 4 -1 1 -1 1 -1 8 -1 1 -1 1 9 10 -1 -2	2	1
2 5 8 -1 1 4 -1 5 9 -1 1 -1 -2	144	1
3 -1 2 -1 5 -1 -2	629	1
8 -1 1 -1 3 -1 9 -1 -2	683	1
1 -1 1 -1 4 9 -1 -2	710	1
1 7 -1 9 -1 1 9 -1 -2	1691	1
9 -1 1 4 -1 3 -1 4 -1 -2	146	1
7 10 -1 8 -1 9 -1 3 8 -1 9 -1 -2	71	1
1 10 -1 5 -1 9 -1 8 -1 -2	375	1
2 8 -1 7 -1 8 -1 1 -1 -2	550	1
1 -1 10 -1 2 -1 -2	407	1
1 -1 5 -1 2 3 10 -1 4 8 -1 -2	13	1
5 -1 6 -1 1 -1 1 -1 3 5 7 -1 -2	33	1
9 -1 7 9 -1 5 -1 8 -1 -2	1332	1
5 -1 1 -1 9 -1 -2	3403	4
1 -1 1 -1 2 4 -1 5 -1 1 -1 4 -1 5 -1 -2	45	1
8 -1 1 8 -1 8 -1 3 -1 3 -1 5 -1 1 -1 8 -1 -2	57	1
8 -1 2 -1 -2	2049	20
1 -1 3 -1 3 -1 2 -1 -2	403	1
9 -1 5 -1 3 -1 1 10 -1 9 -1 7 -1 -2	50	1
1 -1 8 -1 1 -1 3 -1 -2	782	1
2 -1 9 -1 1 -1 -2	1634	3
3 -1 9 -1 8 -1 9 -1 -2	763	1
1 -1 4 -1 4 -1 -2	845	1
5 -1 3 -1 3 -1 10 -1 -2	185	1
5 -1 2 8 -1 -2	1385	2
8 9 -1 7 -1 7 -1 5 -1 -2	1188	1
1 -1 1 -1 2 8 -1 1 8 -1 8 -1 9 -1 1 5 -1 -2	166	1
2 -1 8 -1 1 -1 2 -1 -2	933	1
7 -1 7 9 -1 2 -1 10 -1 -2	187	1
5 -1 3 5 -1 -2	1372	2
1 -1 9 10 -1 1 -1 1 2 -1 -2	204	1
7 -1 8 -1 9 -1 9 -1 -2	1714	1
8 -1 7 -1 2 -1 2 -1 -2	684	1
1 8 -1 5 -1 2 -1 1 7 -1 1 -1 8 9 -1 -2	211	1
1 -1 9 -1 9 -1 9 -1 -2	3121	1
3 5 -1 1 -1 -2	1110	4
2 -1 5 9 -1 5 -1 5 -1 5 -1 7 -1 -2	396	1
2 -1 5 -1 2 -1 2 5 -1 1 3 -1 -2	150	1
3 5 -1 8 -1 1 -1 -2	742	1
1 8 -1 9 -1 -2	2872	1
9 -1 5 -1 8 -1 2 -1 5 -1 -2	795	1
5 -1 9 -1 10 -1 10 -1 -2	419	1
5 -1 1 -1 1 5 -1 -2	3368	2
2 -1 8 -1 5 10 -1 1 -1 8 -1 -2	134	1
2 -1 1 2 -1 1 5 9 -1 -2	736	1
1 -1 5 10 -1 1 7 -1 -2	405	1
3 8 -1 -2	1189	8
7 -1 9 -1 10 -1 4 -1 1 -1 -2	110	1
9 -1 1 -1 7 -1 -2	2479	3
2 9 -1 2 -1 1 -1 3 -1 2 4 -1 2 -1 -2	24	1
1 -1 8 10 -1 -2	638	2
9 -1 2 3 7 -1 4 -1 4 7 -1 1 -1 2 6 -1 -2	6	1
2 9 -1 5 -1 1 5 -1 -2	1019	1
5 -1 5 10 -1 10 -1 4 -1 9 -1 4 -1 -2	28	1
1 -1 7 -1 1 5 10 -1 5 -1 -2	293	1
4 -1 9 -1 5 -1 4 5 -1 4 9 -1 -2	219	1
7 -1 10 -1 4 -1 5 -1 5 -1 -2	107	1
5 -1 7 -1 9 -1 -2	2620	3
7 -1 3 5 9 -1 7 -1 -2	481	1
4 -1 1 10 -1 -2	237	1
2 -1 7 -1 1 -1 9 -1 -2	854	1
3 8 -1 7 10 -1 2 -1 2 -1 1 -1 1 -1 2 -1 1 -1 -2	10	1
5 -1 5 -1 7 -1 -2	3100	3
9 -1 7 -1 4 -1 1 9 -1 -2	395	1
1 7 -1 4 -1 2 -1 2 -1 3 -1 8 -1 -2	37	1
4 -1 1 -1 5 -1 8 -1 1 -1 1 -1 -2	244	1
1 2 7 -1 9 -1 -2	759	1
5 -1 3 8 -1 8 -1 -2	789	2
8 -1 2 -1 1 -1 1 -1 -2	1066	1
7 -1 1 5 -1 8 -1 2 8 -1 4 5 -1 -2	101	1
9 -1 1 -1 7 -1 1 5 -1 -2	1425	1
1 4 -1 9 -1 -2	847	1
2 -1 9 -1 5 -1 1 -1 -2	1158	1
1 -1 4 -1 4 7 -1 -2	377	1
4 7 -1 5 -1 -2	598	1
1 -1 9 -1 2 -1 7 -1 -2	886	1
3 -1 7 -1 3 -1 2 -1 -2	300	1
4 5 -1 1 5 -1 -2	779	1
7 -1 9 -1 5 -1 9 -1 5 -1 -2	1484	1
1 -1 5 -1 6 -1 3 -1 -2	82	1
9 -1 8 -1 9 -1 -2	3421	3
7 -1 5 -1 3 -1 5 8 -1 -2	503	1
1 -1 2 9 -1 -2	1580	2
8 -1 1 2 -1 4 6 9 -1 2 -1 -2	19	1
1 -1 5 9 -1 3 -1 -2	890	1
8 -1 8 -1 9 -1 -2	3393	3
10 -1 7 8 10 -1 8 -1 1 4 -1 -2	48	1
1 10 -1 1 -1 -2	854	2
3 8 -1 7 8 9 -1 9 -1 7 8 9 -1 2 -1 1 8 -1 1 -1 -2	34	1
2 8 -1 2 -1 9 -1 -2	970	2
1 -1 6 9 -1 -2	296	1
5 -1 5 9 -1 -2	4170	3
3 7 -1 1 9 -1 1 -1 1 6 -1 -2	43	1
4 8 -1 10 -1 4 -1 2 -1 8 10 -1 4 -1 1 4 -1 1 9 -1 3 -1 -2	1	1
2 -1 1 5 -1 3 -1 1 -1 1 -1 3 -1 -2	133	1
1 7 -1 8 -1 -2	2123	2
2 -1 8 9 -1 4 -1 -2	331	2
7 8 -1 4 -1 7 -1 7 8 9 -1 3 8 -1 -2	61	1
2 -1 7 -1 1 -1 -2	1193	2
5 -1 5 7 -1 5 -1 1 -1 -2	1697	1
10 -1 7 -1 -2	883	6
1 8 -1 7 -1 1 -1 4 -1 -2	358	1
7 9 -1 1 2 10 -1 1 7 -1 8 -1 4 -1 9 -1 7 8 -1 1 3 -1 -2	5	1
7 -1 9 -1 1 2 5 -1 5 -1 1 4 -1 -2	108	1
7 -1 9 -1 7 -1 -2	2762	2
5 -1 5 -1 3 -1 -2	1393	1
1 7 -1 1 -1 -2	2743	7
9 -1 5 -1 8 9 -1 -2	2485	1
3 -1 6 8 -1 -2	89	1
1 -1 1 -1 8 -1 8 -1 -2	2530	1
1 9 -1 1 -1 7 -1 5 8 9 -1 -2	880	1
3 7 -1 3 -1 1 3 8 -1 1 -1 -2	195	1
5 -1 7 -1 5 -1 5 8 -1 8 -1 -2	1103	1
9 10 -1 2 -1 4 -1 -2	115	1
10 -1 7 -1 5 -1 -2	645	3
9 -1 1 3 -1 9 -1 -2	872	1
8 -1 1 -1 1 7 -1 5 -1 -2	1232	1
1 9 -1 8 -1 7 -1 7 -1 9 -1 -2	793	1
1 -1 1 -1 5 -1 1 -1 9 -1 -2	1945	1
6 -1 2 -1 1 -1 -2	163	2
8 -1 7 8 -1 7 -1 6 -1 7 -1 -2	111	1
8 -1 8 9 -1 -2	3288	1
3 -1 3 9 -1 3 -1 -2	831	1
7 -1 1 -1 7 -1 5 9 -1 -2	1331	1
5 -1 9 -1 3 -1 -2	1178	1
4 -1 1 7 -1 -2	655	1
5 -1 1 -1 8 -1 -2	3047	1
2 -1 2 -1 8 -1 -2	1477	2
2 -1 1 -1 1 9 -1 1 -1 5 -1 -2	707	1
1 -1 5 10 -1 10 -1 1 9 -1 -2	293	1
5 -1 4 -1 1 -1 9 -1 1 -1 -2	485	1
4 -1 5 -1 10 -1 -2	257	1
8 -1 9 -1 1 2 -1 10 -1 9 -1 1 -1 -2	110	1
1 -1 1 -1 3 -1 8 -1 3 -1 -2	431	1
1 5 -1 8 -1 8 -1 -2	2398	2
10 -1 2 8 9 -1 -2	267	1
5 9 -1 1 -1 5 -1 -2	2905	1
1 -1 3 -1 4 -1 1 -1 -2	251	1
2 -1 9 -1 8 -1 -2	1470	1
8 -1 1 -1 5 -1 7 -1 9 10 -1 9 10 -1 -2	77	1
9 -1 1 -1 5 9 -1 -2	2845	1
7 -1 5 -1 3 -1 -2	902	1
4 8 -1 8 10 -1 -2	168	1
2 -1 2 -1 9 -1 -2	1685	3
9 -1 1 10 -1 -2	741	1
4 -1 7 -1 1 -1 3 -1 3 7 -1 3 5 -1 4 9 -1 -2	8	1
2 6 7 -1 8 -1 1 9 -1 1 2 5 -1 7 -1 1 -1 9 -1 1 9 -1 -2	8	1
7 -1 8 -1 5 8 -1 -2	1833	1
1 -1 2 8 -1 7 -1 -2	753	1
1 -1 1 2 7 -1 6 9 -1 -2	71	1
9 -1 2 10 -1 -2	310	2
1 5 -1 1 9 -1 3 5 -1 1 -1 -2	515	1
10 -1 10 -1 -2	1060	2
10 -1 2 7 -1 2 -1 1 2 -1 -2	112	1
7 -1 5 -1 8 -1 -2	2336	3
2 -1 1 8 -1 6 -1 -2	123	1
2 8 -1 1 -1 2 -1 -2	931	1
1 -1 1 -1 1 -1 8 -1 -2	2734	2
2 5 -1 1 2 7 -1 -2	595	1
2 3 7 -1 1 -1 -2	232	1
1 5 -1 9 -1 8 -1 -2	2233	1
8 -1 1 -1 1 -1 1 2 -1 -2	879	1
8 -1 5 8 -1 -2	3523	1
9 -1 8 9 -1 2 -1 -2	1261	1
2 -1 1 5 -1 5 8 -1 1 -1 -2	751	1
1 -1 5 -1 1 8 -1 10 -1 8 -1 -2	297	1
2 7 -1 10 -1 -2	324	1
5 7 -1 3 9 -1 -2	678	1
6 7 -1 5 8 -1 1 -1 5 8 -1 1 -1 -2	70	1
7 -1 1 -1 9 -1 8 -1 1 5 -1 5 7 -1 -2	449	1
6 -1 5 -1 6 -1 7 -1 -2	120	1
1 -1 8 -1 8 -1 5 -1 9 -1 -2	1406	1
4 7 -1 1 -1 7 -1 1 -1 4 -1 -2	183	1
1 -1 1 -1 9 -1 10 -1 2 -1 1 -1 5 8 -1 1 -1 1 -1 -2	22	1
2 5 9 -1 5 -1 -2	1282	1
7 -1 1 4 -1 9 -1 2 7 8 -1 -2	125	1
8 -1 6 -1 1 -1 1 7 -1 2 -1 -2	60	1
8 -1 1 10 -1 1 2 -1 -2	243	1
1 7 -1 3 -1 6 -1 1 6 -1 6 7 -1 -2	13	1
10 -1 10 -1 4 -1 1 -1 -2	150	1
9 -1 10 -1 9 -1 2 -1 2 7 -1 -2	113	1
8 -1 7 -1 1 -1 -2	2155	2
1 -1 2 5 -1 8 -1 1 -1 -2	786	1
2 -1 3 5 9 -1 -2	441	2
7 9 -1 5 8 -1 8 -1 1 -1 1 -1 7 -1 -2	405	1
2 -1 1 -1 9 -1 1 -1 1 -1 2 -1 -2	468	1
2 -1 9 -1 3 -1 -2	579	2
2 5 -1 10 -1 4 -1 9 -1 1 -1 5 -1 10 -1 3 -1 -2	5	1
1 -1 5 -1 1 8 -1 4 -1 5 -1 -2	353	1
4 -1 4 -1 7 -1 -2	630	2
7 9 -1 1 4 5 8 -1 -2	250	1
2 4 -1 2 9 -1 -2	286	1
9 -1 2 -1 1 -1 -2	1644	1
8 -1 1 -1 1 2 -1 1 2 4 -1 -2	112	1
5 -1 5 8 -1 3 -1 -2	902	1
7 -1 1 10 -1 5 -1 -2	454	1
2 -1 1 -1 1 -1 -2	1839	2
1 -1 7 9 10 -1 2 -1 8 -1 -2	112	1
5 7 -1 10 -1 3 5 -1 -2	169	1
1 -1 8 -1 1 8 -1 3 5 -1 -2	525	1
2 -1 5 -1 7 9 -1 2 7 -1 2 -1 5 -1 -2	187	1
1 -1 7 8 -1 5 -1 2 -1 2 -1 1 2 -1 1 8 -1 10 -1 -2	18	1
9 -1 7 9 -1 1 -1 -2	2017	1
8 9 -1 1 4 7 -1 8 -1 7 -1 1 -1 2 4 -1 -2	42	1
5 -1 9 -1 8 10 -1 2 -1 5 -1 -2	144	1
8 9 -1 1 2 -1 -2	1083	1
3 5 -1 5 10 -1 10 -1 1 6 -1 3 -1 4 -1 1 8 -1 5 -1 -2	2	1
1 -1 2 -1 1 9 -1 7 -1 4 -1 2 -1 -2	80	1
2 -1 4 -1 1 -1 -2	457	2
1 3 7 -1 3 4 8 -1 -2	76	1
4 -1 4 9 -1 -2	836	1
2 -1 5 -1 1 -1 1 7 -1 -2	706	1
5 -1 1 3 -1 -2	1119	1
2 5 10 -1 6 -1 1 9 -1 3 5 -1 -2	12	1
7 9 -1 8 -1 7 -1 2 -1 9 -1 3 4 5 -1 -2	31	1
5 -1 5 9 -1 1 -1 1 -1 -2	2222	1
1 -1 5 9 -1 -2	3376	3
1 10 -1 1 -1 3 -1 3 -1 10 -1 -2	60	1
7 -1 10 -1 2 -1 -2	346	2
1 8 -1 2 -1 7 8 -1 7 -1 -2	486	1
7 -1 7 -1 1 7 -1 -2	2041	1
1 -1 3 -1 5 -1 3 -1 5 -1 -2	523	1
4 5 -1 7 -1 2 9 -1 5 8 -1 5 7 -1 1 8 -1 7 -1 -2	33	1
1 5 -1 4 8 -1 2 -1 5 -1 9 -1 -2	132	1
5 -1 1 -1 1 -1 5 9 -1 8 -1 -2	1324	1
8 -1 8 -1 3 -1 1 -1 5 -1 1 -1 9 -1 2 -1 -2	65	1
5 -1 8 -1 7 -1 5 -1 8 -1 -2	1251	1
2 -1 5 -1 1 8 -1 9 -1 7 -1 4 -1 2 3 -1 -2	20	1
5 7 -1 8 -1 9 -1 8 -1 -2	1290	1
2 -1 1 -1 1 9 -1 2 -1 8 -1 8 -1 -2	286	1
3 9 -1 5 -1 1 -1 -2	841	1
1 -1 2 -1 1 8 -1 -2	1201	1
2 6 -1 2 -1 2 7 -1 1 5 -1 9 -1 9 -1 -2	22	1
7 -1 3 5 10 -1 2 -1 5 -1 7 -1 4 -1 -2	8	1
7 -1 3 5 -1 1 -1 -2	646	1
10 -1 5 10 -1 10 -1 8 9 -1 5 9 -1 -2	126	1
4 -1 3 -1 10 -1 9 -1 1 -1 9 -1 -2	39	1
2 -1 4 -1 2 -1 2 10 -1 2 -1 1 2 -1 -2	29	1
7 8 -1 7 -1 1 -1 7 -1 1 5 -1 -2	650	1
3 -1 5 9 -1 -2	1197	1
1 -1 1 2 8 9 -1 1 -1 -2	604	1
9 -1 8 9 -1 2 -1 7 -1 8 -1 -2	478	1
5 -1 5 7 9 -1 3 -1 1 -1 -2	401	1
1 -1 1 -1 1 2 5 9 -1 3 8 -1 1 5 -1 1 -1 7 9 -1 -2	61	1
8 -1 1 7 -1 7 -1 9 -1 5 -1 5 7 -1 9 -1 8 -1 1 9 -1 -2	57	1
1 4 -1 -2	1096	8
5 6 -1 3 6 -1 3 -1 1 -1 5 -1 8 -1 2 8 -1 3 -1 4 -1 -2	1	1
9 -1 5 -1 1 -1 5 -1 1 -1 -2	1896	1
9 -1 5 -1 2 9 -1 5 -1 -2	1089	1
7 10 -1 5 -1 10 -1 2 -1 -2	143	1
10 -1 5 -1 10 -1 10 -1 -2	434	1
6 -1 9 -1 -2	415	2
1 5 9 10 -1 -2	462	1
2 -1 1 8 -1 -2	1468	2
9 -1 1 7 -1 4 10 -1 4 7 -1 10 -1 1 4 -1 1 7 -1 -2	4	1
4 -1 2 -1 5 -1 -2	470	1
2 -1 3 -1 2 -1 2 7 -1 -2	185	1
1 8 -1 6 -1 -2	301	1
2 -1 3 -1 1 -1 9 -1 -2	423	1
2 9 -1 9 -1 3 -1 -2	485	1
3 5 -1 3 -1 5 -1 -2	959	1
1 9 -1 1 9 -1 1 8 -1 4 9 -1 1 2 4 -1 -2	62	1
2 -1 1 -1 9 -1 8 -1 -2	1020	1
2 -1 7 -1 2 -1 4 7 -1 4 -1 -2	79	1
9 -1 1 -1 9 10 -1 1 -1 -2	495	1
7 8 -1 8 -1 9 -1 -2	1701	1
7 -1 1 -1 2 9 -1 1 -1 -2	721	1
8 -1 4 -1 7 -1 7 -1 -2	419	1
1 7 -1 5 -1 -2	2432	3
1 5 -1 5 8 -1 3 -1 -2	713	1
10 -1 8 -1 5 -1 -2	706	1
1 -1 5 -1 1 -1 5 -1 5 -1 8 -1 2 -1 -2	310	1
1 -1 5 -1 9 -1 2 -1 1 -1 5 -1 -2	553	1
7 -1 1 8 -1 -2	2156	2
7 -1 8 -1 4 7 -1 1 -1 5 -1 2 10 -1 -2	25	1
1 5 -1 2 -1 2 -1 4 5 -1 3 5 -1 1 -1 2 -1 -2	19	1
7 -1 5 -1 1 -1 1 -1 -2	1941	2
7 -1 8 9 -1 -2	2222	1
1 8 -1 1 -1 1 -1 9 -1 1 8 -1 -2	1107	1
9 -1 3 -1 1 -1 8 -1 7 -1 1 -1 8 -1 4 -1 -2	23	1
1 -1 1 4 -1 8 -1 9 -1 -2	460	1
8 -1 8 -1 7 -1 -2	2456	2
4 -1 1 9 -1 5 -1 6 -1 1 -1 -2	51	1
1 2 9 -1 -2	1388	1
1 -1 2 7 -1 1 2 -1 5 -1 7 -1 3 6 -1 -2	6	1
1 -1 9 -1 1 -1 9 -1 1 7 -1 3 -1 1 10 -1 -2	41	1
1 -1 1 -1 1 5 9 -1 7 -1 -2	1212	1
2 -1 8 -1 2 -1 1 4 -1 7 -1 -2	106	1
7 9 -1 1 9 -1 8 -1 -2	1406	1
4 -1 8 -1 3 -1 7 -1 2 -1 -2	71	1
1 -1 7 -1 7 -1 -2	2587	4
5 9 -1 1 -1 8 -1 -2	2245	2
1 -1 4 -1 1 -1 2 -1 -2	353	1
4 5 -1 4 -1 5 -1 1 5 -1 -2	405	1
9 -1 5 7 10 -1 -2	397	1
1 7 -1 7 9 -1 5 -1 -2	1424	1
1 8 -1 1 7 -1 1 -1 9 -1 8 -1 5 -1 -2	462	1
5 9 -1 2 4 -1 2 -1 5 -1 -2	180	1
1 -1 9 -1 7 -1 -2	2459	1
1 -1 5 -1 2 7 -1 -2	861	1
7 -1 5 7 -1 -2	2833	3
5 -1 6 -1 5 -1 8 -1 -2	240	1
9 -1 2 9 -1 -2	1857	1
1 5 7 -1 7 9 -1 5 9 -1 -2	1036	1
1 7 -1 7 -1 7 -1 -2	2028	1
1 -1 1 7 -1 1 -1 -2	2261	1
2 7 -1 7 -1 2 -1 -2	871	1
10 -1 10 -1 1 -1 -2	727	2
1 6 -1 1 7 -1 8 10 -1 4 5 -1 -2	16	1
2 4 -1 -2	487	7
7 -1 7 9 -1 -2	2721	1
1 -1 1 5 -1 1 2 -1 -2	1165	1
1 9 -1 7 -1 1 -1 5 -1 5 -1 8 -1 -2	606	1
4 -1 3 -1 7 -1 2 -1 1 -1 -2	78	1
5 -1 7 -1 9 -1 8 -1 -2	1693	1
3 9 10 -1 -2	209	1
3 7 8 -1 1 -1 3 5 -1 -2	253	1
3 9 -1 3 4 -1 1 -1 1 -1 4 -1 -2	66	1
1 2 -1 7 -1 2 -1 7 -1 -2	567	1
1 -1 6 -1 5 -1 4 -1 -2	74	1
4 10 -1 9 -1 9 -1 -2	163	1
5 -1 4 -1 1 -1 5 -1 -2	723	1
5 -1 5 -1 8 -1 8 -1 -2	2735	1
5 -1 3 7 -1 7 -1 2 8 9 -1 -2	152	1
9 -1 7 -1 9 -1 3 -1 -2	674	1
1 5 -1 8 -1 1 6 8 -1 8 -1 2 -1 -2	55	1
1 -1 3 -1 1 -1 9 -1 -2	885	1
4 7 -1 8 -1 9 -1 5 -1 1 9 -1 1 -1 5 -1 9 -1 -2	45	1
1 -1 2 3 -1 4 5 -1 -2	108	1
2 -1 3 -1 2 -1 9 -1 7 -1 4 7 -1 -2	25	1
9 10 -1 1 9 -1 -2	673	1
2 -1 3 9 -1 -2	578	2
10 -1 8 10 -1 1 -1 -2	408	1
1 5 -1 9 -1 1 8 -1 -2	1857	1
7 -1 1 -1 1 -1 8 -1 8 -1 1 -1 2 -1 7 -1 -2	107	1
1 8 -1 2 -1 4 9 -1 -2	252	1
1 8 -1 5 -1 1 -1 7 -1 9 -1 -2	869	1
9 -1 9 -1 7 -1 -2	3021	2
1 -1 2 9 -1 1 -1 -2	1295	2
1 9 -1 8 -1 2 5 -1 10 -1 9 -1 8 -1 1 5 -1 2 -1 9 -1 -2	12	1
5 -1 4 -1 1 -1 5 -1 1 -1 8 -1 -2	287	1
1 -1 1 -1 8 -1 5 -1 5 8 -1 -2	1304	1
1 3 -1 1 -1 2 -1 -2	489	1
1 -1 8 -1 1 -1 2 8 -1 5 -1 7 -1 1 3 -1 -2	61	1
1 9 -1 1 -1 5 -1 1 -1 -2	2200	1
5 -1 4 -1 5 7 10 -1 1 5 -1 1 7 8 -1 8 9 -1 7 -1 1 -1 8 -1 -2	8	1
7 -1 1 -1 7 -1 2 -1 7 9 10 -1 -2	88	1
1 -1 9 -1 1 -1 8 -1 -2	2308	1
1 -1 10 -1 5 9 -1 9 -1 8 -1 5 -1 -2	185	1
8 -1 7 -1 1 9 -1 7 -1 7 -1 1 5 -1 -2	409	1
5 9 -1 3 -1 1 -1 -2	889	1
7 8 -1 9 -1 8 9 -1 2 -1 -2	560	1
5 -1 4 -1 4 7 -1 1 5 8 -1 -2	173	1
3 -1 1 -1 1 -1 5 -1 3 -1 -2	481	1
3 5 -1 1 -1 7 10 -1 8 -1 3 5 -1 -2	48	1
2 10 -1 5 -1 8 -1 -2	219	1
3 -1 1 -1 1 -1 3 -1 -2	776	1
4 -1 2 8 -1 1 -1 2 -1 9 -1 -2	124	1
3 4 9 -1 9 -1 1 9 -1 5 -1 -2	132	1
5 6 8 -1 1 -1 5 -1 -2	167	1
4 7 -1 7 -1 1 5 -1 1 -1 -2	279	1
1 8 -1 5 -1 -2	2971	4
9 -1 1 9 -1 8 -1 5 -1 -2	1739	1
1 -1 5 -1 5 -1 2 -1 -2	1347	1
1 -1 2 -1 8 -1 8 -1 1 -1 8 -1 1 5 8 -1 5 8 -1 -2	102	1
8 -1 7 -1 1 5 -1 1 -1 -2	1282	1
4 9 -1 1 7 -1 -2	504	1
9 -1 2 -1 2 5 -1 2 5 -1 2 7 -1 1 -1 -2	144	1
9 -1 8 -1 8 -1 7 -1 -2	1654	1
9 -1 4 -1 1 -1 1 -1 -2	708	1
2 5 -1 1 -1 -2	1613	2
1 -1 8 -1 5 -1 7 -1 -2	1541	1
1 -1 4 8 -1 5 9 -1 5 -1 2 -1 2 7 8 -1 2 5 8 -1 2 -1 7 -1 -2	11	1
2 8 -1 2 -1 1 -1 -2	956	1
10 -1 1 7 -1 3 9 -1 -2	159	1
1 -1 8 -1 8 -1 8 -1 -2	2487	1
7 -1 6 -1 1 7 -1 5 -1 7 -1 2 -1 -2	34	1
2 -1 9 -1 1 -1 9 -1 -2	1280	1
1 5 -1 2 -1 4 -1 4 5 -1 -2	191	1
1 -1 8 -1 1 -1 1 -1 3 9 -1 -2	432	1
3 10 -1 3 -1 2 -1 8 -1 6 -1 8 -1 2 -1 1 5 -1 9 -1 -2	2	1
10 -1 1 8 -1 7 -1 -2	453	1
1 -1 1 4 6 -1 1 7 -1 -2	42	1
1 -1 8 -1 4 -1 1 -1 1 4 -1 -2	248	1
5 -1 7 8 -1 1 -1 7 8 -1 3 7 -1 1 -1 1 5 -1 1 7 -1 -2	39	1
10 -1 8 -1 1 -1 1 4 -1 -2	130	1
4 9 -1 3 -1 1 -1 1 4 -1 -2	125	1
4 9 -1 3 -1 5 7 -1 -2	167	1
6 -1 7 -1 7 -1 8 -1 -2	174	1
1 5 -1 7 -1 9 -1 1 9 -1 1 4 -1 -2	194	1
9 -1 4 6 8 -1 7 -1 5 9 -1 -2	26	1
7 -1 1 -1 3 8 -1 -2	554	1
3 4 -1 1 -1 1 -1 -2	226	1
3 -1 5 7 -1 4 -1 -2	213	1
3 -1 1 2 8 9 -1 9 -1 10 -1 -2	61	1
5 -1 5 -1 2 -1 -2	2040	2
7 -1 1 -1 5 -1 -2	2512	6
1 -1 1 6 7 -1 -2	187	1
2 3 -1 8 -1 7 9 -1 -2	228	1
1 -1 5 10 -1 1 -1 1 -1 -2	512	1
1 -1 1 -1 1 2 -1 1 5 -1 -2	893	1
2 -1 1 -1 8 -1 9 -1 5 -1 -2	709	1
1 -1 8 -1 9 -1 -2	2924	2
1 5 -1 1 2 -1 5 6 -1 1 -1 1 -1 1 -1 4 6 -1 -2	2	1
1 5 9 -1 2 -1 1 -1 5 -1 5 -1 -2	630	1
5 -1 5 -1 8 -1 -2	3724	3
8 -1 1 2 -1 3 5 8 10 -1 5 -1 -2	41	1
5 -1 8 -1 1 -1 1 -1 -2	2334	1
1 5 7 -1 1 -1 8 -1 8 -1 -2	996	1
5 9 -1 1 -1 1 -1 4 -1 5 9 -1 -2	369	1
8 -1 5 9 -1 1 -1 -2	2197	2
3 -1 9 -1 2 -1 1 -1 -2	434	1
9 -1 1 5 -1 1 -1 5 8 9 10 -1 7 -1 9 -1 8 -1 -2	61	1
1 -1 8 -1 3 -1 5 -1 5 7 -1 -2	332	1
1 7 -1 7 -1 7 -1 1 -1 -2	1501	1
5 -1 5 -1 5 -1 9 -1 -2	3388	1
2 7 8 10 -1 8 9 -1 3 -1 7 -1 1 10 -1 5 10 -1 1 -1 7 -1 1 -1 -2	4	1
5 -1 7 -1 9 -1 3 4 7 8 -1 7 -1 1 7 -1 -2	24	1
2 -1 1 -1 4 9 -1 -2	332	1
8 -1 10 -1 1 5 -1 -2	567	1
2 7 -1 1 5 -1 2 7 -1 4 7 8 -1 1 5 -1 5 9 -1 2 -1 -2	19	1
1 9 10 -1 5 7 -1 5 -1 9 -1 4 -1 1 2 -1 1 4 5 -1 -2	11	1
5 -1 1 -1 3 -1 1 -1 -2	882	2
1 -1 7 9 -1 9 -1 2 -1 -2	769	1
8 -1 1 -1 5 -1 1 -1 -2	2299	2
7 -1 7 10 -1 7 -1 8 -1 7 -1 4 5 -1 7 -1 -2	20	1
9 -1 3 -1 1 8 -1 -2	768	1
1 9 -1 4 -1 -2	951	1
10 -1 1 -1 1 5 -1 -2	672	1
1 7 -1 1 9 -1 3 -1 -2	594	1
8 -1 1 -1 1 -1 5 -1 -2	2366	1
5 9 -1 1 8 -1 9 -1 -2	1870	1
1 7 -1 9 -1 9 -1 1 7 -1 -2	1173	1
5 -1 5 -1 1 2 5 -1 1 10 -1 -2	184	1
5 10 -1 8 -1 5 -1 10 -1 5 10 -1 -2	167	1
2 5 -1 5 -1 -2	1893	2
9 -1 9 -1 7 -1 8 -1 -2	1798	1
1 -1 2 -1 9 -1 -2	1629	3
6 7 -1 2 10 -1 1 -1 1 2 -1 9 -1 -2	12	1
8 -1 1 -1 1 -1 4 -1 3 9 -1 2 -1 -2	55	1
6 -1 4 -1 2 4 9 -1 2 -1 1 5 7 -1 1 6 -1 -2	3	1
4 7 -1 1 -1 8 -1 -2	399	1
9 -1 7 8 -1 7 10 -1 -2	302	1
2 7 -1 9 -1 7 -1 -2	864	1
8 -1 10 -1 1 8 -1 -2	597	1
10 -1 7 -1 1 7 -1 1 9 10 -1 5 -1 -2	104	1
5 -1 5 -1 8 -1 3 -1 1 4 5 -1 1 -1 5 10 -1 -2	17	1
1 -1 3 -1 8 9 -1 -2	759	1
7 -1 1 5 -1 9 -1 7 -1 3 9 -1 3 -1 7 -1 -2	69	1
1 -1 5 10 -1 5 -1 10 -1 1 -1 8 9 -1 9 -1 -2	70	1
4 9 -1 4 -1 -2	836	1
1 2 7 8 -1 7 9 -1 1 -1 -2	337	1
9 -1 8 9 -1 9 -1 -2	2853	1
7 -1 6 -1 1 -1 7 -1 2 3 -1 -2	21	1
9 -1 1 7 -1 5 7 -1 -2	1411	1
8 -1 1 -1 3 -1 1 -1 5 -1 9 -1 -2	345	1
1 -1 9 -1 1 7 9 -1 -2	1540	1
1 -1 4 10 -1 -2	195	1
8 -1 9 -1 1 -1 4 -1 9 -1 -2	408	1
9 -1 9 -1 9 -1 -2	5278	4
9 -1 1 3 -1 -2	1067	1
1 8 -1 6 7 -1 10 -1 7 -1 -2	30	1
9 -1 9 -1 3 -1 -2	1331	2
1 -1 7 -1 10 -1 4 6 -1 1 -1 2 7 -1 4 -1 -2	2	1
1 10 -1 1 8 -1 1 -1 5 -1 9 -1 -2	249	1
7 -1 7 -1 9 -1 8 10 -1 1 -1 4 8 -1 -2	37	1
4 -1 1 -1 6 -1 1 -1 -2	84	1
9 -1 5 -1 5 7 -1 8 -1 2 -1 -2	490	1
3 -1 1 8 -1 10 -1 1 9 -1 -2	153	1
1 -1 1 2 -1 5 -1 4 -1 7 -1 -2	161	1
1 -1 10 -1 10 -1 -2	663	2
1 9 -1 8 -1 2 -1 -2	1115	1
1 3 -1 3 -1 1 -1 9 -1 -2	574	1
5 8 -1 5 -1 5 -1 1 -1 8 -1 1 -1 -2	891	1
2 9 -1 5 6 -1 7 -1 10 -1 4 -1 8 -1 -2	9	1
1 9 -1 9 -1 1 -1 -2	3291	1
1 4 -1 2 -1 1 -1 9 -1 2 -1 1 2 5 -1 -2	67	1
3 -1 7 -1 1 -1 9 -1 -2	596	1
7 -1 2 10 -1 -2	262	1
7 8 -1 9 -1 -2	2075	2
1 -1 1 8 -1 1 -1 -2	2850	1
1 4 9 -1 2 -1 2 9 -1 1 5 8 -1 4 -1 8 -1 -2	39	1
9 -1 1 -1 2 -1 4 8 -1 2 8 9 -1 1 4 7 -1 8 -1 2 5 7 -1 -2	6	1
1 -1 9 -1 1 3 -1 10 -1 -2	193	1
2 -1 5 9 -1 9 -1 -2	1417	1
1 -1 1 -1 2 -1 8 -1 -2	1133	1
5 -1 8 -1 8 -1 5 -1 -2	2700	1
2 -1 5 -1 1 2 -1 8 -1 4 7 8 -1 -2	75	1
2 -1 8 -1 7 -1 1 -1 7 -1 -2	471	1
1 -1 9 -1 1 -1 8 9 -1 8 -1 -2	1284	1
2 -1 5 -1 1 7 9 -1 -2	693	1
3 -1 1 7 -1 10 -1 1 9 -1 1 -1 2 -1 1 3 -1 8 -1 -2	12	1
4 -1 2 4 -1 -2	354	1
2 3 -1 2 -1 3 -1 -2	348	1
8 -1 2 -1 1 -1 -2	1463	2
5 8 -1 4 -1 5 8 -1 8 -1 9 -1 1 -1 9 -1 -2	113	1
8 -1 1 -1 3 8 -1 1 -1 -2	567	1
7 -1 1 9 10 -1 -2	425	1
1 -1 1 -1 1 5 -1 1 -1 2 -1 -2	802	1
7 -1 5 -1 1 3 -1 5 -1 9 -1 -2	356	1
8 -1 1 5 8 -1 1 -1 -2	1920	1
9 10 -1 1 -1 3 -1 -2	229	1
8 -1 5 -1 7 -1 -2	2280	1
5 7 -1 1 9 -1 4 -1 8 -1 -2	282	1
7 8 -1 5 -1 2 8 -1 2 -1 -2	423	1
7 -1 5 -1 3 -1 10 -1 1 4 -1 -2	41	1
9 -1 8 -1 7 -1 7 -1 1 -1 -2	954	1
7 -1 1 7 -1 4 -1 4 -1 -2	309	1
5 -1 1 7 -1 7 8 -1 -2	1265	1
9 -1 6 9 -1 1 7 9 -1 5 -1 1 7 -1 6 -1 -2	28	1
4 -1 1 -1 1 5 -1 6 -1 2 -1 5 9 -1 4 -1 9 -1 -2	9	1
5 -1 8 -1 7 -1 1 5 -1 1 7 -1 -2	692	1
2 7 8 -1 -2	854	1
1 9 -1 10 -1 8 -1 1 3 -1 -2	129	1
5 -1 8 -1 7 -1 9 -1 -2	1606	1
7 9 -1 1 -1 2 -1 -2	997	1
9 -1 1 -1 1 8 -1 8 -1 9 -1 1 -1 -2	805	1
6 -1 1 10 -1 -2	81	1
1 -1 9 -1 3 -1 -2	1136	1
1 -1 4 -1 5 6 -1 8 -1 -2	60	1
1 3 -1 7 -1 -2	785	2
6 7 -1 1 -1 9 -1 6 -1 -2	104	1
5 -1 9 -1 5 9 -1 -2	3479	1
9 -1 2 -1 1 8 -1 7 -1 1 -1 2 -1 -2	235	1
5 8 -1 1 -1 1 -1 5 -1 1 -1 -2	1382	1
1 -1 8 -1 10 -1 2 4 -1 2 6 7 9 -1 7 -1 9 -1 -2	4	1
10 -1 5 -1 1 4 -1 -2	188	1
5 9 -1 3 9 -1 5 9 -1 1 -1 5 -1 8 -1 -2	250	1
1 5 8 -1 5 -1 9 -1 9 -1 -2	1399	1
8 -1 1 -1 5 -1 8 -1 -2	2241	1
5 -1 8 -1 8 -1 7 -1 7 -1 -2	1063	1
6 -1 8 -1 -2	394	2
8 -1 2 -1 2 -1 1 10 -1 2 -1 1 -1 5 -1 1 -1 -2	22	1
5 7 -1 1 8 -1 1 -1 -2	1370	1
7 -1 1 -1 8 -1 -2	2199	5
9 -1 3 -1 2 9 -1 -2	493	1
1 -1 3 8 -1 1 -1 7 -1 1 -1 2 -1 -2	99	1
1 9 -1 2 7 8 -1 5 -1 3 9 -1 3 5 -1 1 -1 -2	50	1
6 9 -1 -2	376	2
7 -1 6 7 -1 -2	248	1
5 -1 2 4 -1 1 -1 2 -1 1 -1 -2	131	1
5 -1 3 -1 7 -1 1 7 -1 -2	455	1
1 -1 1 5 -1 7 8 -1 -2	1364	1
3 7 9 -1 6 7 -1 1 -1 5 -1 10 -1 -2	10	1
5 7 -1 1 9 -1 -2	1914	1
8 -1 8 -1 9 -1 4 -1 7 -1 3 -1 4 5 -1 -2	18	1
1 2 -1 1 -1 7 -1 1 -1 -2	743	1
3 9 -1 7 -1 1 -1 4 9 -1 1 -1 -2	85	1
1 7 -1 7 9 -1 7 -1 1 -1 3 9 -1 5 -1 -2	150	1
1 5 -1 4 -1 10 -1 1 -1 -2	166	1
5 -1 1 10 -1 1 -1 5 9 -1 8 -1 -2	262	1
1 9 -1 1 -1 2 7 -1 -2	754	1
9 -1 8 -1 6 -1 6 8 -1 1 -1 -2	75	1
3 5 -1 5 -1 -2	1341	3
9 -1 5 -1 1 2 -1 8 10 -1 6 7 -1 3 -1 -2	8	1
3 9 -1 1 -1 -2	1085	2
1 -1 1 9 -1 5 -1 -2	2826	1
2 -1 1 -1 7 -1 -2	1202	2
5 -1 2 -1 8 -1 7 -1 -2	810	1
7 -1 3 -1 3 -1 -2	789	2
1 -1 3 -1 8 -1 8 -1 -2	759	1
2 -1 2 -1 7 8 9 -1 1 -1 -2	408	1
1 2 -1 1 9 -1 -2	1339	1
5 -1 5 9 -1 1 -1 5 9 -1 -2	1993	1
1 -1 10 -1 1 -1 9 -1 7 -1 -2	313	2
2 -1 7 -1 3 8 -1 2 -1 5 -1 8 -1 -2	86	1
2 -1 5 -1 1 -1 9 -1 -2	1179	1
9 -1 5 -1 5 -1 4 -1 3 -1 2 4 -1 -2	33	1
3 -1 5 8 -1 -2	1096	2
9 -1 1 -1 1 9 -1 5 -1 1 -1 -2	1615	1
10 -1 9 -1 9 -1 2 -1 -2	303	1
2 7 -1 5 -1 2 5 -1 5 -1 8 -1 3 7 -1 4 -1 -2	20	1
7 -1 6 -1 5 -1 1 -1 5 9 -1 2 -1 -2	47	1
1 5 -1 5 -1 5 -1 -2	3432	1
1 9 10 -1 1 -1 5 -1 5 7 -1 -2	238	1
5 -1 8 -1 5 8 9 -1 1 -1 7 -1 -2	734	1
10 -1 1 9 -1 9 -1 -2	663	1
9 -1 1 2 -1 -2	1568	2
2 10 -1 1 -1 8 -1 -2	217	1
9 -1 1 -1 3 -1 3 -1 -2	686	1
9 -1 7 10 -1 5 9 -1 4 -1 4 7 -1 1 8 -1 5 -1 -2	18	1
5 -1 2 -1 9 -1 -2	1700	5
2 -1 1 -1 10 -1 10 -1 2 -1 2 4 -1 7 -1 6 -1 -2	2	1
7 -1 1 -1 4 -1 -2	679	1
4 -1 5 -1 7 -1 -2	684	1
1 -1 5 -1 1 -1 1 -1 1 -1 8 9 -1 -2	847	1
9 -1 1 4 8 -1 1 8 -1 10 -1 1 -1 -2	67	1
7 -1 1 -1 3 -1 5 -1 9 -1 -2	437	1
1 -1 4 5 -1 5 -1 -2	762	1
1 7 -1 2 -1 -2	1235	1
5 -1 1 -1 9 -1 1 -1 9 -1 7 8 9 -1 4 -1 -2	88	1
1 -1 9 -1 3 4 -1 5 -1 -2	164	1
4 -1 3 -1 2 -1 4 7 -1 3 8 -1 1 -1 8 -1 -2	12	1
8 -1 1 -1 1 8 -1 -2	2797	2
2 5 -1 2 -1 2 -1 5 9 -1 -2	678	1
5 -1 10 -1 1 8 -1 9 -1 -2	422	1
1 -1 5 -1 8 -1 -2	3058	2
7 -1 2 -1 3 -1 -2	473	1
1 7 -1 1 8 -1 2 7 -1 -2	551	1
7 -1 2 5 -1 2 9 -1 -2	658	1
8 -1 10 -1 1 -1 9 -1 9 -1 -2	347	1
1 -1 1 7 9 -1 1 -1 5 -1 2 -1 -2	443	1
7 8 -1 5 7 -1 1 -1 -2	1251	1
5 -1 3 8 -1 8 9 -1 8 -1 4 -1 -2	113	1
8 -1 1 -1 1 -1 2 9 -1 1 -1 7 -1 -2	290	1
3 -1 7 8 -1 8 -1 10 -1 10 -1 -2	52	1
2 9 -1 1 5 -1 2 -1 -2	901	1
9 -1 2 5 -1 -2	1606	1
1 5 -1 5 -1 8 -1 1 -1 6 -1 7 -1 2 -1 -2	27	1
1 -1 1 -1 1 -1 1 3 5 -1 1 -1 -2	444	1
1 -1 2 -1 7 -1 7 -1 8 -1 -2	482	1
1 3 -1 1 -1 2 8 -1 1 -1 1 -1 -2	193	1
8 -1 9 -1 8 -1 8 -1 -2	2515	1
2 -1 1 3 -1 5 7 -1 4 -1 -2	80	1
8 -1 4 8 -1 1 4 -1 7 -1 7 -1 -2	137	1
9 -1 5 -1 5 -1 9 -1 5 -1 -2	2406	1
5 -1 8 9 -1 7 -1 1 -1 2 5 -1 1 -1 -2	261	1
7 -1 1 9 -1 1 -1 4 -1 10 -1 3 7 -1 9 -1 7 -1 7 -1 1 8 -1 -2	1	1
5 9 -1 5 -1 9 -1 -2	3501	1
5 -1 9 -1 9 -1 1 -1 -2	2706	1
9 -1 5 -1 9 -1 -2	4115	3
3 -1 1 9 -1 10 -1 8 -1 -2	166	1
1 -1 1 -1 9 -1 7 -1 -2	1928	1
5 -1 1 -1 1 -1 5 7 9 -1 5 -1 -2	868	1
8 -1 6 -1 3 5 7 -1 8 -1 4 -1 4 -1 -2	11	1
1 -1 9 -1 9 -1 1 8 -1 1 -1 -2	1357	1
1 7 -1 5 9 -1 -2	1873	1
3 8 -1 10 -1 1 -1 5 9 -1 -2	122	1
1 -1 8 -1 10 -1 6 9 10 -1 1 4 -1 -2	6	1
1 -1 2 10 -1 1 -1 5 7 -1 1 4 5 -1 7 -1 -2	21	1
3 -1 1 -1 5 -1 -2	1168	2
7 -1 1 5 -1 8 -1 1 -1 -2	1273	1
8 -1 10 -1 4 -1 -2	232	1
1 -1 1 -1 5 -1 5 8 -1 -2	1982	1
7 -1 1 -1 10 -1 7 -1 1 -1 1 -1 2 -1 -2	62	1
5 -1 1 -1 5 -1 -2	4073	2
5 -1 4 -1 5 -1 -2	1060	1
5 -1 2 -1 9 -1 1 -1 -2	1179	1
9 -1 3 -1 8 -1 -2	1021	1
3 -1 4 -1 8 -1 -2	301	1
2 9 -1 7 -1 5 7 -1 7 9 -1 7 -1 2 -1 8 -1 5 -1 7 -1 -2	28	1
5 -1 7 -1 1 -1 -2	2545	1
9 -1 5 -1 8 9 -1 1 -1 1 5 9 -1 -2	917	1
9 -1 8 -1 10 -1 4 -1 -2	168	1
1 -1 5 9 -1 1 -1 -2	2769	1
3 7 -1 7 -1 3 7 -1 7 -1 9 -1 5 -1 8 -1 -2	61	1
7 -1 9 -1 3 -1 4 -1 9 -1 -2	132	1
9 -1 1 -1 4 8 -1 -2	553	1
1 5 9 -1 2 -1 8 -1 -2	872	1
1 -1 5 -1 5 -1 1 -1 1 2 -1 -2	742	1
1 5 -1 1 -1 5 8 -1 10 -1 1 -1 10 -1 2 -1 -2	36	1
5 -1 5 -1 1 -1 5 -1 -2	3286	2
5 10 -1 2 -1 10 -1 3 -1 1 -1 -2	43	1
1 5 -1 3 -1 1 5 -1 5 -1 2 -1 -2	260	1
3 4 -1 6 -1 3 6 -1 9 -1 1 4 7 9 -1 9 -1 3 -1 9 -1 -2	1	1
3 -1 3 -1 3 9 -1 -2	820	1
1 -1 5 9 -1 5 -1 8 -1 -2	1769	1
4 -1 4 5 -1 -2	904	1
2 -1 8 -1 -2	2046	10
8 9 -1 9 -1 3 6 -1 -2	60	1
1 -1 5 -1 1 -1 2 7 -1 -2	697	1
7 9 -1 1 -1 -2	2436	3
7 -1 7 -1 4 9 -1 -2	486	1
7 -1 1 -1 1 7 -1 7 -1 5 -1 7 -1 -2	568	1
2 -1 1 -1 1 -1 8 -1 5 -1 -2	724	1
10 -1 1 7 -1 8 -1 -2	454	1
7 8 -1 3 -1 -2	729	1
5 -1 9 -1 9 -1 -2	4139	3
1 -1 2 5 -1 5 -1 -2	1323	1
9 -1 5 -1 1 -1 9 -1 -2	2674	1
4 -1 5 -1 7 -1 9 -1 -2	478	1
2 8 -1 7 -1 1 -1 1 -1 1 -1 -2	409	1
9 -1 2 -1 2 9 -1 2 5 -1 9 -1 -2	451	1
7 8 -1 10 -1 1 5 -1 5 -1 10 -1 2 5 -1 9 10 -1 -2	16	1
3 5 7 -1 -2	682	1
1 -1 9 -1 1 -1 5 -1 -2	2697	1
9 -1 1 9 -1 1 3 -1 8 10 -1 -2	116	1
1 -1 9 -1 7 -1 8 -1 5 8 -1 2 4 -1 -2	78	1
5 -1 2 -1 1 8 -1 5 -1 -2	877	1
5 8 9 -1 2 9 10 -1 7 8 -1 9 10 -1 7 9 -1 5 -1 10 -1 1 -1 -2	5	1
2 -1 1 8 -1 4 -1 1 8 9 -1 6 -1 -2	17	1
7 -1 9 -1 1 -1 7 -1 5 -1 1 -1 5 -1 5 -1 3 -1 -2	50	1
5 7 -1 9 -1 2 10 -1 8 -1 3 -1 2 9 -1 1 -1 2 5 -1 -2	9	1
1 4 -1 2 9 -1 2 5 -1 1 -1 -2	159	1
4 -1 10 -1 10 -1 3 -1 -2	53	1
1 -1 1 -1 4 -1 10 -1 -2	202	1
5 -1 8 9 -1 1 -1 -2	2154	1
1 7 -1 5 -1 2 5 8 -1 8 -1 7 -1 1 9 -1 8 -1 1 2 7 9 -1 -2	36	1
1 -1 1 -1 2 -1 5 9 -1 8 -1 -2	602	1
2 -1 5 7 -1 -2	1288	2
3 -1 1 -1 3 5 8 -1 1 -1 1 9 -1 -2	231	1
5 -1 4 -1 7 -1 -2	691	1
8 -1 7 -1 4 -1 4 7 -1 7 -1 9 -1 -2	101	1
3 5 8 -1 6 -1 3 -1 5 8 -1 1 10 -1 -2	10	1
9 -1 1 -1 8 -1 8 -1 -2	2186	1
8 -1 1 5 -1 -2	2992	2
8 9 -1 1 -1 2 -1 -2	1127	1
3 8 -1 7 -1 1 9 -1 8 -1 1 -1 9 -1 3 -1 -2	72	1
1 -1 9 -1 2 9 -1 3 -1 -2	361	1
1 -1 9 -1 6 -1 -2	326	1
5 9 -1 8 -1 7 -1 8 -1 4 -1 1 -1 5 -1 -2	104	1
8 9 -1 1 5 -1 9 -1 6 -1 9 -1 -2	115	1
1 -1 2 -1 1 5 -1 -2	1372	1
1 -1 1 -1 5 9 -1 -2	2823	1
7 -1 1 8 -1 9 -1 1 5 -1 1 -1 -2	724	1
8 9 -1 1 -1 9 -1 -2	2368	1
8 -1 1 -1 8 -1 -2	3336	1
7 -1 1 -1 8 -1 9 -1 5 -1 -2	1033	1
1 2 10 -1 3 -1 4 7 -1 3 -1 4 -1 1 8 -1 -2	5	1
3 5 8 9 -1 1 5 -1 8 -1 -2	374	1
5 8 -1 9 -1 4 -1 3 -1 9 -1 -2	132	1
3 -1 2 -1 2 3 -1 1 -1 -2	219	1
1 -1 4 -1 3 -1 4 -1 2 -1 2 -1 1 8 -1 2 9 -1 3 -1 -2	2	1
1 -1 1 -1 2 -1 1 -1 5 -1 -2	916	1
1 4 -1 4 -1 9 -1 7 8 -1 7 -1 -2	137	1
7 -1 2 -1 8 -1 7 -1 -2	783	1
1 -1 1 5 -1 3 -1 2 -1 6 7 -1 3 -1 -2	11	1
1 4 9 -1 1 7 -1 5 9 -1 1 8 9 -1 1 8 -1 -2	114	1
1 7 -1 7 -1 -2	2581	3
9 -1 9 -1 7 9 -1 8 -1 2 -1 -2	508	1
1 9 -1 2 -1 1 7 9 -1 4 9 -1 9 -1 1 -1 -2	73	1
8 -1 1 2 -1 5 -1 -2	1060	1
5 -1 2 -1 1 9 -1 -2	1273	1
9 -1 4 -1 5 -1 5 9 -1 5 -1 -2	476	1
6 9 -1 4 10 -1 1 9 -1 8 -1 4 5 -1 -2	9	1
1 2 -1 5 -1 2 5 -1 9 -1 -2	642	1
5 6 -1 6 -1 -2	289	1
10 -1 2 10 -1 4 -1 -2	76	1
7 -1 10 -1 7 8 -1 -2	458	1
1 9 -1 2 7 8 -1 5 8 -1 1 5 -1 8 -1 -2	204	1
2 -1 7 -1 7 10 -1 8 -1 8 -1 1 -1 -2	70	1
3 -1 1 -1 2 -1 3 -1 -2	344	1
7 -1 1 -1 1 -1 1 -1 -2	2149	1
1 8 -1 8 -1 2 5 -1 8 -1 10 -1 1 4 -1 8 -1 7 9 -1 7 -1 -2	7	1
4 -1 1 -1 7 -1 9 -1 -2	460	1
7 -1 4 9 -1 1 -1 3 -1 -2	153	1
1 -1 8 -1 5 -1 1 9 -1 -2	1704	1
4 -1 6 -1 -2	147	1
5 -1 9 -1 4 -1 -2	949	1
10 -1 4 5 -1 7 -1 -2	153	1
5 -1 2 -1 9 -1 9 -1 1 -1 -2	839	1
5 -1 8 -1 7 -1 -2	2306	2
5 9 -1 1 -1 3 -1 7 8 -1 -2	361	1
2 -1 9 -1 6 -1 6 -1 -2	73	1
6 8 -1 9 -1 5 -1 3 -1 7 -1 4 -1 1 8 -1 -2	10	1
3 8 -1 1 -1 1 -1 -2	744	1
10 -1 1 -1 7 -1 2 -1 -2	229	1
8 -1 5 -1 5 -1 9 -1 1 -1 -2	1555	1
9 -1 1 10 -1 4 -1 6 9 -1 7 9 -1 -2	11	1
1 -1 8 -1 6 -1 -2	289	2
5 -1 7 -1 8 -1 7 -1 1 -1 2 -1 5 -1 -2	228	1
9 -1 1 9 -1 2 7 -1 -2	772	1
2 -1 2 10 -1 -2	302	1
2 -1 1 -1 1 -1 1 -1 -2	1395	1
5 -1 1 2 -1 7 -1 -2	911	1
5 -1 7 8 -1 5 -1 8 -1 -2	1380	1
5 8 -1 1 -1 -2	3028	4
1 -1 5 -1 9 -1 1 -1 1 -1 -2	1937	1
1 4 -1 3 -1 5 7 -1 1 -1 1 -1 -2	97	1
4 -1 1 -1 9 -1 7 -1 -2	475	1
5 -1 6 -1 1 -1 -2	300	1
10 -1 10 -1 8 10 -1 -2	374	1
2 8 -1 1 -1 1 -1 -2	1061	1
8 -1 2 -1 1 9 -1 -2	1106	1
9 -1 1 -1 1 -1 1 -1 -2	3036	1
1 -1 1 8 -1 5 -1 8 -1 -2	1811	1
8 9 -1 8 -1 -2	3267	1
2 -1 8 9 -1 -2	1487	1
1 5 -1 1 -1 1 -1 2 -1 -2	1121	1
3 9 -1 10 -1 10 -1 7 -1 -2	106	1
1 7 -1 7 -1 1 5 -1 -2	1581	1
4 8 -1 7 8 -1 7 8 -1 6 -1 1 -1 1 6 9 -1 -2	7	1
5 -1 9 -1 1 5 9 -1 1 -1 1 2 9 -1 3 -1 8 10 -1 2 -1 -2	13	1
4 -1 4 5 9 -1 -2	600	1
7 -1 10 -1 10 -1 5 -1 -2	354	1
1 -1 1 8 10 -1 5 -1 1 5 -1 -2	280	1
1 8 -1 5 -1 1 -1 7 -1 -2	1279	1
1 -1 1 -1 1 2 -1 -2	1521	2
7 8 -1 3 -1 7 -1 -2	564	1
5 -1 5 -1 8 9 -1 1 9 -1 3 -1 4 9 -1 4 -1 5 -1 -2	21	1
1 9 -1 5 9 -1 -2	2899	1
8 -1 1 7 -1 8 -1 -2	1654	2
3 8 -1 4 -1 4 -1 1 8 -1 2 -1 1 9 -1 -2	30	1
1 -1 8 -1 3 -1 1 -1 1 -1 -2	572	1
2 -1 7 8 9 -1 1 2 5 10 -1 5 -1 2 9 -1 -2	45	1
3 6 -1 9 -1 3 -1 1 -1 -2	43	1
1 7 -1 4 -1 6 -1 2 10 -1 7 -1 1 -1 8 -1 10 -1 7 8 -1 -2	3	1
8 9 -1 7 -1 7 -1 -2	1654	1
3 7 -1 1 3 4 -1 -2	105	1
7 10 -1 7 -1 1 -1 10 -1 7 -1 1 10 -1 -2	67	1
1 -1 3 -1 7 8 -1 -2	566	2
1 -1 1 8 -1 9 -1 8 -1 -2	1778	1
5 -1 10 -1 7 -1 -2	685	1
5 9 -1 1 -1 1 -1 -2	2847	1
1 -1 6 -1 4 -1 1 -1 9 -1 -2	56	1
1 -1 9 -1 5 7 10 -1 9 -1 5 -1 4 -1 2 -1 3 7 -1 7 8 -1 -2	2	1
1 9 -1 5 -1 1 10 -1 8 -1 -2	338	1
2 7 -1 9 -1 9 -1 5 -1 10 -1 -2	120	1
1 -1 1 -1 5 -1 2 -1 8 -1 -2	741	1
5 9 -1 1 -1 1 4 9 -1 1 -1 -2	371	1
10 -1 1 -1 7 8 -1 -2	438	1
3 8 -1 8 -1 3 5 -1 7 8 -1 -2	258	1
2 -1 9 -1 10 -1 -2	394	1
2 -1 6 -1 5 -1 2 -1 1 2 -1 1 10 -1 -2	14	1
1 5 -1 4 -1 1 -1 1 7 -1 1 -1 4 5 -1 -2	94	1
8 -1 1 -1 1 8 -1 4 5 -1 2 8 -1 -2	130	1
2 10 -1 7 -1 -2	269	1
7 -1 1 -1 9 -1 -2	2490	2
3 -1 2 -1 1 2 -1 6 -1 8 -1 9 -1 -2	15	1
9 -1 9 -1 7 -1 8 -1 1 -1 -2	1114	1
9 -1 2 -1 7 -1 8 -1 1 -1 -2	506	1
5 -1 7 -1 5 9 -1 -2	2212	1
1 8 10 -1 -2	569	1
8 -1 1 -1 5 -1 2 8 -1 -2	758	1
1 6 -1 1 -1 8 -1 1 -1 -2	184	1
8 9 -1 7 -1 6 -1 7 -1 -2	141	1
1 -1 1 -1 2 -1 5 -1 -2	1318	2
3 -1 1 -1 8 -1 8 -1 8 -1 -2	501	1
7 -1 3 -1 5 -1 -2	876	1
10 -1 9 -1 6 -1 7 -1 2 9 -1 9 -1 3 -1 -2	5	1
9 -1 8 -1 1 -1 8 -1 1 -1 8 -1 4 7 10 -1 -2	16	1
1 3 7 -1 1 5 -1 4 -1 4 -1 1 -1 -2	63	1
5 7 -1 1 -1 1 2 -1 -2	800	1
1 -1 7 -1 2 -1 -2	1235	3
5 8 -1 1 -1 9 -1 -2	2195	1
9 -1 7 -1 1 -1 5 -1 8 -1 -2	1064	1
3 10 -1 2 -1 10 -1 2 10 -1 1 -1 1 2 -1 1 -1 -2	10	1
4 -1 1 -1 2 5 8 -1 9 -1 5 8 -1 -2	116	1
5 -1 5 8 -1 5 -1 -2	3117	1
1 9 -1 5 -1 1 5 -1 1 7 -1 -2	1053	1
7 -1 1 -1 3 -1 -2	872	1
9 -1 1 -1 8 -1 10 -1 -2	510	1
7 -1 1 8 -1 4 8 -1 1 2 5 -1 1 -1 -2	83	1
8 -1 8 -1 3 -1 1 5 -1 -2	611	1
7 -1 8 -1 1 -1 1 -1 -2	1656	1
1 9 -1 7 -1 -2	2482	2
2 -1 8 -1 2 -1 2 -1 -2	958	2
1 -1 5 -1 8 -1 2 8 -1 3 -1 7 -1 4 -1 5 -1 5 -1 2 -1 7 -1 3 -1 -2	1	1
1 7 9 -1 1 -1 -2	1856	1
8 -1 2 -1 5 8 -1 7 -1 9 -1 1 -1 7 -1 1 -1 -2	88	1
5 8 -1 9 -1 5 -1 3 -1 8 -1 5 -1 -2	311	1
1 8 -1 9 -1 5 -1 -2	2173	1
9 -1 2 3 8 -1 4 -1 8 -1 1 5 -1 -2	44	1
1 5 9 -1 4 -1 4 9 -1 -2	400	1
7 9 -1 2 -1 8 -1 -2	880	1
8 -1 1 -1 7 -1 1 5 -1 8 -1 -2	905	1
1 8 -1 1 -1 8 -1 -2	2760	1
5 -1 9 -1 5 -1 2 -1 -2	1362	1
8 -1 2 -1 7 -1 -2	1115	1
3 7 9 -1 1 8 -1 -2	398	1
1 -1 3 5 -1 -2	1149	2
1 10 -1 2 -1 5 -1 -2	303	1
4 -1 1 -1 2 -1 -2	438	1
1 5 -1 10 -1 -2	832	2
8 -1 9 -1 7 -1 3 -1 5 -1 -2	400	1
10 -1 8 -1 5 -1 2 8 -1 -2	211	1
8 -1 7 -1 5 9 -1 5 -1 4 -1 -2	258	1
2 -1 1 -1 5 8 -1 4 7 -1 1 -1 1 -1 10 -1 5 6 7 -1 4 -1 10 -1 5 -1 -2	1	1
3 -1 1 -1 5 8 -1 -2	813	1
1 2 4 -1 9 -1 -2	262	1
6 -1 7 9 -1 1 -1 -2	193	1
5 -1 4 10 -1 4 -1 -2	148	1
5 -1 5 -1 2 -1 8 -1 -2	1226	1
5 8 -1 7 -1 -2	2301	2
2 -1 1 9 -1 8 -1 -2	1114	1
9 -1 3 8 -1 1 -1 -2	683	1
1 -1 1 -1 9 -1 10 -1 1 5 -1 -2	376	1
8 -1 1 -1 1 -1 1 8 -1 -2	2080	2
4 -1 2 -1 5 10 -1 8 -1 -2	79	1
7 -1 7 -1 9 -1 -2	2780	2
5 -1 1 -1 5 -1 1 -1 1 9 -1 -2	1604	1
5 -1 4 6 -1 1 -1 2 -1 4 9 -1 3 9 -1 8 -1 -2	3	1
1 -1 1 5 -1 5 -1 -2	3359	1
3 5 -1 7 -1 7 -1 1 -1 5 -1 7 -1 -2	197	1
1 -1 1 -1 1 9 -1 8 -1 -2	1950	1
1 -1 7 -1 1 2 3 4 9 -1 3 7 8 -1 1 -1 1 3 -1 -2	8	1
1 -1 8 -1 10 -1 1 10 -1 9 -1 -2	205	1
5 7 8 -1 5 10 -1 7 -1 1 10 -1 1 -1 8 -1 -2	55	1
1 5 -1 10 -1 2 -1 7 9 -1 -2	173	1
3 -1 1 -1 2 -1 10 -1 5 -1 9 -1 -2	59	1
1 -1 1 -1 5 -1 7 -1 8 -1 -2	1157	1
1 2 -1 2 3 -1 1 7 -1 -2	189	1
5 -1 3 -1 2 -1 7 8 -1 1 -1 1 -1 -2	119	1
1 8 -1 3 -1 1 -1 1 2 -1 2 5 -1 8 -1 3 5 -1 7 -1 -2	16	1
4 -1 9 -1 5 -1 -2	940	1
1 2 -1 3 -1 9 -1 4 -1 -2	108	1
8 -1 10 -1 9 10 -1 -2	403	1
2 -1 9 -1 2 -1 -2	1680	3
5 7 -1 9 -1 9 -1 1 -1 -2	1471	1
3 -1 6 -1 4 -1 -2	45	1
1 5 -1 5 -1 5 -1 7 -1 -2	1708	1
9 -1 10 -1 1 9 -1 2 -1 -2	261	1
7 -1 8 -1 3 8 10 -1 1 8 -1 7 -1 1 9 -1 -2	35	1
1 10 -1 2 -1 1 -1 -2	313	1
1 -1 8 9 -1 3 -1 2 -1 7 9 -1 -2	151	1
1 -1 4 8 -1 4 -1 -2	488	1
4 5 -1 5 -1 1 -1 9 -1 1 4 -1 -2	232	1
10 -1 5 9 -1 -2	804	1
5 6 -1 3 7 -1 5 8 -1 2 -1 9 -1 1 8 -1 2 -1 -2	10	1
1 -1 4 -1 1 -1 8 -1 9 -1 -2	435	1
10 -1 3 10 -1 1 2 -1 4 8 -1 1 -1 1 -1 2 9 -1 -2	4	1
1 -1 2 -1 8 9 -1 1 -1 7 -1 5 7 -1 -2	214	1
1 -1 8 -1 1 -1 5 -1 -2	2332	1
1 7 -1 7 9 -1 -2	1882	1
7 -1 9 -1 4 9 -1 8 -1 8 -1 -2	257	1
2 -1 9 -1 10 -1 1 -1 4 -1 1 -1 -2	43	1
10 -1 1 -1 1 -1 1 -1 -2	691	1
8 -1 3 -1 9 -1 10 -1 8 -1 3 -1 -2	60	1
5 -1 8 9 -1 -2	2963	2
4 7 -1 2 3 -1 8 -1 1 3 7 -1 -2	33	1
1 -1 7 -1 5 -1 9 -1 1 2 -1 9 -1 1 3 7 8 -1 -2	38	1
10 -1 7 -1 7 -1 1 9 -1 9 -1 9 -1 -2	159	1
1 2 8 -1 2 -1 1 -1 -2	716	1
9 -1 1 -1 7 8 -1 5 -1 -2	1112	1
1 -1 5 9 -1 1 2 8 -1 5 -1 6 -1 -2	48	1
5 -1 7 -1 1 -1 6 9 -1 -2	164	1
1 10 -1 5 -1 1 -1 -2	620	1
1 4 -1 1 -1 1 -1 5 -1 5 -1 8 -1 3 10 -1 -2	11	1
5 -1 1 9 -1 1 -1 1 -1 1 -1 -2	1606	1
9 -1 1 -1 5 7 8 -1 -2	1183	1
1 -1 1 7 -1 1 10 -1 -2	428	1
5 -1 2 -1 2 -1 7 -1 -2	823	1
1 2 -1 5 -1 -2	1603	1
1 -1 5 -1 2 8 -1 2 -1 1 8 -1 7 -1 -2	189	1
5 -1 3 -1 8 -1 5 -1 1 -1 2 -1 9 -1 3 7 -1 1 -1 5 -1 5 -1 -2	4	1
5 -1 1 -1 3 -1 -2	1165	1
7 -1 8 -1 10 -1 10 -1 1 5 -1 1 -1 -2	98	1
3 -1 1 9 -1 2 8 -1 -2	326	1
1 -1 3 -1 1 -1 3 -1 4 -1 2 -1 9 -1 -2	24	1
8 -1 1 -1 1 -1 2 -1 -2	1126	2
5 9 -1 1 -1 -2	3439	4
8 -1 4 -1 4 -1 -2	738	1
5 -1 3 9 -1 8 -1 -2	773	1
5 -1 1 5 -1 10 -1 1 9 -1 -2	446	1
7 -1 4 -1 4 -1 2 5 -1 7 -1 5 8 -1 8 -1 -2	35	1
1 -1 3 8 -1 -2	910	1
1 5 10 -1 3 -1 -2	219	1
1 -1 4 5 -1 1 -1 1 7 9 -1 5 -1 7 10 -1 -2	37	1
5 7 -1 8 -1 8 -1 7 -1 5 -1 -2	901	1
7 -1 3 5 -1 3 -1 1 -1 5 9 -1 -2	265	1
10 -1 5 10 -1 -2	712	2
5 -1 5 -1 7 -1 1 -1 5 -1 -2	1486	1
1 4 10 -1 6 -1 2 -1 9 -1 7 -1 -2	8	1
9 -1 7 -1 5 -1 -2	2608	3
5 -1 9 -1 1 -1 3 10 -1 4 -1 -2	42	1
1 -1 1 -1 7 -1 -2	2832	3
3 -1 2 5 -1 8 -1 10 -1 -2	90	1
1 -1 9 -1 4 -1 -2	919	1
1 -1 2 -1 3 -1 5 9 -1 10 -1 -2	76	1
1 -1 2 8 -1 7 9 -1 -2	620	1
5 -1 4 -1 1 -1 1 2 8 -1 2 9 -1 8 -1 9 -1 -2	43	1
1 -1 8 -1 5 9 -1 6 -1 7 9 -1 1 -1 1 -1 4 8 -1 6 -1 4 5 8 -1 -2	2	1
2 4 -1 4 -1 -2	360	1
5 9 -1 8 -1 6 -1 -2	260	1
3 -1 2 -1 9 -1 -2	589	1
1 9 10 -1 9 -1 -2	584	1
9 -1 7 -1 1 -1 -2	2480	2
1 3 -1 1 -1 -2	1200	4
1 7 8 -1 -2	1801	1
1 -1 8 -1 10 -1 -2	716	1
9 -1 7 -1 8 -1 -2	2257	1
5 -1 9 -1 1 8 -1 1 -1 2 -1 -2	591	1
9 -1 8 -1 4 -1 1 9 -1 7 -1 5 -1 -2	171	1
3 -1 4 5 10 -1 7 -1 -2	46	1
6 8 -1 -2	350	1
5 -1 8 -1 5 -1 3 -1 -2	842	1
5 -1 4 -1 9 -1 4 5 -1 8 9 -1 3 -1 -2	59	1
8 -1 1 8 9 -1 9 -1 5 -1 5 -1 -2	954	1
8 -1 5 7 -1 4 -1 1 -1 1 2 5 -1 9 -1 -2	75	1
2 10 -1 6 9 -1 6 7 -1 1 2 6 -1 9 -1 1 -1 -2	4	1
5 -1 3 8 -1 5 -1 5 -1 8 -1 1 -1 8 -1 -2	160	1
9 -1 10 -1 5 -1 9 -1 10 -1 1 -1 -2	145	1
10 -1 2 9 -1 -2	397	1
5 -1 9 -1 5 9 -1 5 8 -1 -2	1785	1
10 -1 1 5 -1 5 -1 -2	666	1
1 9 -1 3 -1 8 -1 1 -1 3 -1 -2	337	1
1 -1 6 -1 3 -1 6 -1 -2	60	1
1 -1 7 -1 5 9 -1 1 5 -1 -2	1258	1
3 -1 4 -1 1 -1 -2	313	2
7 10 -1 7 -1 -2	603	1
4 7 -1 1 -1 -2	571	2
1 8 -1 4 -1 3 -1 -2	242	1
1 -1 2 8 -1 2 -1 3 -1 9 -1 9 -1 5 -1 -2	75	1
1 8 -1 2 -1 5 -1 1 9 -1 5 -1 9 -1 -2	342	1
1 -1 9 -1 8 -1 5 -1 -2	2078	1
8 -1 1 -1 2 9 -1 -2	1063	1
1 2 -1 2 -1 1 -1 1 -1 -2	936	1
3 -1 9 -1 1 -1 5 -1 -2	839	1
1 -1 4 -1 7 -1 5 -1 1 -1 -2	341	1
1 -1 5 -1 1 9 -1 -2	2795	2
4 8 -1 9 -1 8 -1 3 -1 -2	164	1
1 5 -1 10 -1 9 -1 1 4 7 -1 -2	72	1
1 -1 1 -1 8 -1 4 -1 -2	658	1
2 -1 9 -1 1 -1 7 9 -1 10 -1 7 -1 -2	84	1
3 -1 1 -1 1 8 -1 -2	829	1
10 -1 1 7 -1 3 -1 4 10 -1 1 8 -1 5 -1 -2	10	1
1 -1 9 -1 5 8 -1 2 -1 2 -1 2 -1 -2	254	1
2 -1 9 -1 9 -1 2 -1 9 -1 -2	857	1
1 -1 1 3 8 -1 1 -1 3 -1 -2	376	1
1 4 -1 4 9 -1 8 -1 3 -1 1 -1 2 -1 10 -1 1 -1 -2	5	1
1 -1 8 -1 7 -1 -2	2154	1
9 -1 1 7 9 -1 3 -1 1 -1 -2	411	1
3 5 -1 9 -1 1 5 -1 9 -1 1 -1 1 -1 3 5 -1 -2	107	1
5 8 -1 2 -1 -2	1554	1
8 -1 7 -1 9 -1 5 -1 -2	1614	1
1 -1 6 -1 7 9 -1 6 -1 -2	111	1
1 -1 4 -1 1 -1 5 -1 7 -1 -2	356	1
3 8 -1 7 -1 1 5 -1 9 -1 3 -1 2 -1 5 -1 5 7 -1 -2	25	1
1 3 5 -1 5 -1 2 -1 2 -1 -2	246	1
5 9 -1 7 8 -1 1 -1 3 4 8 -1 4 -1 2 -1 -2	20	1
5 -1 1 7 -1 9 -1 -2	1813	1
1 9 -1 4 7 -1 -2	465	1
8 -1 1 2 -1 7 8 -1 6 -1 1 -1 -2	45	1
4 6 -1 2 -1 4 -1 1 -1 2 10 -1 -2	9	1
7 -1 1 7 -1 2 9 -1 -2	727	1
9 -1 6 -1 4 -1 1 4 -1 1 8 -1 8 -1 -2	21	1
2 5 -1 1 9 -1 1 -1 1 -1 -2	787	1
5 -1 8 -1 3 8 -1 9 -1 3 -1 -2	318	1
2 8 9 -1 -2	1173	1
5 -1 1 -1 5 7 -1 -2	2108	2
3 8 -1 3 5 -1 9 -1 10 -1 3 5 -1 -2	48	1
10 -1 1 -1 1 8 -1 -2	612	1
5 -1 1 -1 1 -1 2 -1 1 3 -1 -2	265	1
7 -1 7 -1 5 7 -1 1 -1 -2	1403	1
7 -1 2 6 -1 1 -1 5 -1 7 -1 -2	44	1
2 -1 1 4 -1 2 -1 7 -1 1 -1 -2	119	1
6 -1 9 -1 8 -1 2 -1 4 -1 8 9 -1 5 -1 -2	16	1
7 -1 1 -1 2 -1 -2	1265	1
5 -1 9 -1 1 4 5 -1 1 -1 -2	415	1
5 -1 10 -1 5 -1 1 2 -1 1 5 -1 4 -1 1 -1 -2	22	1
3 -1 1 7 -1 -2	808	1
1 2 -1 1 5 -1 -2	1359	1
5 -1 8 -1 2 -1 -2	1551	3
1 -1 1 4 5 -1 -2	686	1
7 -1 7 -1 8 -1 1 8 -1 -2	1259	1
7 -1 1 -1 8 -1 9 -1 -2	1528	1
8 9 -1 1 -1 -2	2846	1
2 8 -1 1 -1 7 8 9 -1 -2	516	1
5 8 -1 3 4 -1 -2	211	1
5 10 -1 7 -1 6 -1 2 -1 -2	24	1
8 -1 1 -1 1 2 7 8 -1 1 9 -1 2 5 -1 7 8 -1 5 -1 1 2 -1 1 4 -1 8 -1 7 9 -1 -2	4	1
9 -1 4 -1 5 7 9 -1 3 -1 5 -1 5 -1 -2	79	1
5 -1 1 2 -1 9 -1 7 9 -1 5 9 -1 1 -1 1 -1 2 5 -1 -2	63	1
10 -1 4 6 -1 -2	23	1
4 -1 1 -1 9 -1 9 -1 8 -1 -2	432	1
1 8 -1 2 5 -1 -2	1111	1
1 -1 1 2 7 -1 5 -1 -2	654	1
4 -1 1 7 -1 7 -1 -2	497	1
9 10 -1 -2	966	3
1 -1 1 -1 2 8 -1 -2	1091	1
9 -1 10 -1 1 -1 1 -1 -2	641	1
1 -1 2 -1 4 -1 1 -1 5 -1 2 -1 2 -1 -2	54	1
5 -1 7 -1 8 9 -1 1 -1 -2	1223	1
1 5 -1 10 -1 8 -1 2 -1 1 7 -1 10 -1 7 -1 4 9 -1 8 -1 -2	3	1
5 8 -1 1 -1 3 -1 5 -1 8 -1 8 -1 -2	279	1
1 -1 2 9 -1 9 -1 8 -1 5 -1 -2	582	1
1 5 -1 1 -1 7 -1 -2	2118	2
6 -1 6 -1 3 -1 1 -1 2 -1 6 -1 4 -1 -2	1	1
5 -1 2 5 -1 -2	1910	2
8 -1 5 -1 9 -1 8 -1 -2	2281	1
9 -1 1 -1 9 -1 5 -1 -2	2727	1
9 -1 5 -1 2 -1 -2	1717	2
3 -1 1 5 -1 5 -1 10 -1 9 -1 -2	135	1
3 5 -1 2 -1 1 8 -1 -2	350	1
2 -1 2 5 7 -1 -2	822	1
2 6 8 9 -1 5 7 -1 1 -1 2 -1 2 -1 -2	23	1
8 -1 9 -1 1 7 -1 -2	1586	1
3 5 -1 2 -1 1 5 -1 8 -1 1 -1 -2	209	1
7 9 -1 1 -1 5 -1 1 -1 10 -1 -2	240	1
2 -1 2 7 8 -1 -2	660	1
3 -1 5 9 -1 2 3 5 -1 4 -1 -2	60	1
1 5 -1 1 -1 3 9 -1 -2	712	1
8 -1 7 -1 2 8 -1 1 -1 -2	576	1
1 4 -1 1 -1 5 -1 1 -1 -2	584	1
4 8 -1 4 -1 8 -1 4 -1 -2	366	1
1 -1 5 -1 9 -1 5 -1 2 -1 9 -1 -2	572	1
3 -1 8 -1 3 -1 7 8 -1 -2	378	1
1 -1 4 -1 2 8 9 -1 4 -1 8 -1 5 9 -1 1 5 8 -1 -2	38	1
9 -1 2 -1 9 -1 6 -1 1 -1 -2	80	1
1 -1 1 -1 5 -1 9 -1 -2	2664	1
2 8 -1 2 -1 5 -1 5 9 -1 -2	580	1
9 -1 2 -1 9 -1 -2	1895	2
1 -1 1 5 -1 7 -1 4 10 -1 -2	85	1
1 4 -1 4 -1 8 -1 5 -1 -2	395	1
3 9 -1 1 3 9 -1 5 -1 5 -1 1 -1 5 -1 -2	199	1
9 -1 1 -1 1 -1 9 -1 -2	3046	2
8 -1 2 8 -1 -2	1498	2
1 5 -1 8 -1 1 -1 9 -1 -2	1727	1
1 3 -1 3 7 -1 -2	494	1
7 -1 4 -1 1 -1 8 -1 -2	444	1
2 -1 2 -1 1 8 -1 -2	1029	1
1 7 10 -1 1 -1 -2	428	1
8 -1 6 -1 -2	397	1
3 -1 9 -1 5 -1 1 -1 2 -1 -2	294	1
1 7 -1 1 -1 8 -1 -2	1794	1
8 -1 5 9 -1 -2	2966	1
9 -1 1 -1 1 9 -1 9 -1 8 -1 6 -1 -2	90	1
7 -1 1 9 -1 7 -1 3 -1 -2	485	1
8 9 -1 5 8 -1 9 -1 -2	2035	1
1 -1 5 -1 4 -1 1 5 9 -1 -2	455	1
4 -1 1 6 8 -1 9 -1 5 -1 9 -1 1 -1 5 8 -1 4 7 -1 6 -1 -2	3	1
5 -1 2 -1 7 -1 1 -1 -2	866	1
9 -1 2 -1 2 -1 -2	1651	3
7 -1 4 -1 6 -1 -2	95	1
1 9 -1 1 -1 5 -1 -2	2828	1
1 -1 1 5 -1 1 -1 7 -1 -2	1617	1
5 -1 1 -1 2 6 7 10 -1 2 9 -1 8 -1 5 -1 -2	7	1
2 -1 4 -1 2 -1 1 5 -1 -2	240	1
1 8 -1 8 -1 2 -1 5 -1 -2	848	1
5 -1 9 -1 5 8 -1 -2	2576	1
8 -1 3 -1 1 -1 3 -1 -2	615	1
2 5 7 9 -1 1 3 8 -1 1 5 -1 8 10 -1 -2	37	1
3 8 -1 9 -1 5 -1 1 -1 8 -1 -2	389	1
5 -1 2 -1 1 -1 -2	1686	1
1 -1 1 -1 1 -1 7 9 -1 -2	1522	1
1 -1 3 4 5 -1 6 -1 5 8 -1 -2	27	1
2 -1 8 10 -1 1 -1 7 -1 1 5 -1 -2	93	1
8 -1 3 -1 7 -1 5 -1 -2	556	1
7 8 -1 4 -1 2 -1 8 -1 4 -1 -2	103	1
1 -1 3 10 -1 1 -1 -2	191	1
5 -1 9 -1 1 8 -1 5 -1 5 -1 5 -1 -2	890	1
1 -1 7 10 -1 4 -1 -2	137	1
5 -1 8 -1 9 -1 5 -1 1 -1 -2	1530	1
8 10 -1 -2	812	2
4 -1 6 -1 6 -1 4 -1 8 9 -1 -2	23	1
5 -1 2 -1 2 -1 -2	1707	1
9 -1 7 8 -1 -2	2109	1
2 -1 1 -1 2 5 -1 2 -1 -2	730	1
2 -1 9 -1 9 -1 5 7 9 -1 -2	618	1
8 10 -1 1 -1 5 -1 -2	487	1
3 -1 9 -1 1 4 -1 2 7 -1 -2	71	1
1 7 -1 1 -1 8 -1 6 10 -1 -2	29	1
8 -1 6 -1 2 -1 5 -1 1 -1 -2	84	1
1 5 -1 9 -1 -2	3329	2
1 9 -1 5 -1 7 -1 5 -1 5 8 -1 -2	827	1
9 -1 7 8 -1 1 -1 1 -1 -2	1167	1
2 -1 2 -1 8 -1 1 -1 1 8 -1 1 10 -1 9 -1 2 -1 -2	15	1
1 5 -1 9 -1 1 5 -1 -2	2433	1
2 -1 3 -1 -2	810	7
8 -1 1 -1 5 -1 2 9 -1 1 -1 1 -1 9 10 -1 -2	57	1
2 -1 7 -1 1 -1 7 -1 -2	830	1
5 -1 5 -1 8 -1 1 -1 10 -1 8 -1 8 -1 -2	147	1
1 -1 3 -1 3 -1 1 -1 -2	793	1
2 5 9 -1 5 -1 4 -1 1 -1 -2	235	1
1 6 -1 3 -1 -2	130	1
5 -1 3 -1 8 -1 1 -1 5 -1 -2	559	1
1 9 -1 8 -1 -2	2933	4
5 7 9 -1 9 -1 3 9 -1 -2	474	1
9 -1 3 -1 3 -1 -2	1112	2
7 9 -1 4 -1 2 -1 1 9 -1 -2	195	1
2 9 -1 5 -1 -2	1639	1
6 9 -1 5 -1 1 -1 9 -1 -2	177	1
7 10 -1 8 10 -1 1 -1 1 8 -1 9 -1 7 -1 -2	60	1
1 2 -1 2 -1 1 -1 -2	1281	1
3 -1 1 8 -1 3 9 -1 5 -1 4 -1 -2	101	1
4 -1 1 -1 5 9 -1 -2	708	1
10 -1 4 7 -1 8 10 -1 1 2 -1 8 -1 -2	23	1
9 -1 8 10 -1 3 -1 -2	192	1
1 -1 1 -1 7 -1 1 -1 1 2 -1 1 -1 1 4 -1 4 -1 9 -1 -2	14	1
8 -1 1 -1 9 -1 3 -1 9 -1 2 6 -1 -2	21	1
8 -1 3 7 -1 7 -1 7 -1 4 8 -1 5 -1 -2	42	1
7 9 -1 7 -1 -2	2715	2
10 -1 1 10 -1 -2	680	1
8 -1 5 -1 8 -1 1 -1 9 -1 3 -1 7 -1 -2	141	1
5 -1 1 -1 5 -1 1 -1 -2	3093	1
1 -1 6 -1 1 -1 -2	338	1
3 8 9 -1 5 -1 3 -1 1 -1 -2	331	1
10 -1 9 -1 1 -1 1 5 -1 8 -1 -2	296	1
1 -1 1 -1 2 -1 8 9 -1 5 -1 1 -1 -2	408	1
8 -1 8 -1 1 9 -1 -2	2349	1
8 -1 2 9 -1 4 -1 9 -1 -2	252	1
4 7 8 -1 1 -1 3 4 -1 5 -1 1 -1 -2	50	1
2 8 -1 1 -1 5 -1 9 -1 -2	740	1
1 -1 7 -1 1 -1 1 -1 9 -1 -2	1372	1
9 -1 2 -1 1 -1 5 8 -1 1 -1 -2	565	1
1 7 9 -1 1 -1 9 -1 1 -1 1 7 -1 -2	695	1
9 -1 10 -1 1 -1 5 -1 -2	585	1
5 8 9 -1 -2	2724	1
3 5 -1 2 3 9 -1 1 -1 2 7 -1 -2	90	1
1 -1 6 -1 1 8 -1 4 9 -1 -2	46	1
7 -1 7 -1 5 -1 -2	2850	2
3 -1 4 8 -1 1 -1 9 -1 6 -1 -2	21	1
6 -1 5 6 9 -1 -2	186	1
8 9 -1 3 -1 -2	985	1
5 -1 5 -1 9 -1 1 8 -1 -2	1746	1
7 -1 6 -1 5 -1 1 -1 1 -1 5 8 9 -1 3 5 8 9 -1 3 -1 -2	8	1
1 -1 2 9 -1 7 -1 -2	906	1
1 -1 5 -1 1 9 -1 9 -1 5 -1 -2	1617	1
7 -1 5 -1 5 -1 3 -1 -2	704	1
1 4 -1 4 -1 8 -1 -2	531	1
7 -1 2 3 5 9 -1 3 9 -1 1 9 -1 -2	106	1
2 -1 1 -1 9 -1 1 -1 -2	1234	1
1 -1 5 8 -1 -2	3030	2
2 -1 8 -1 2 5 -1 3 -1 2 7 -1 -2	102	1
1 8 -1 8 -1 5 -1 1 -1 -2	1825	1
1 -1 7 -1 7 -1 9 -1 7 10 -1 -2	200	1
1 -1 4 -1 1 -1 10 -1 9 -1 7 8 9 -1 -2	48	1
5 8 -1 8 -1 1 -1 9 -1 -2	1661	1
7 -1 4 9 -1 6 -1 7 -1 7 9 -1 -2	34	1
3 -1 5 -1 1 5 -1 8 9 -1 -2	516	1
4 -1 7 -1 7 -1 1 -1 -2	456	1
2 10 -1 5 -1 1 -1 2 -1 5 -1 1 -1 -2	78	1
1 6 10 -1 1 8 -1 9 -1 1 -1 -2	31	1
1 2 -1 9 -1 7 8 -1 7 -1 1 -1 -2	307	1
5 -1 10 -1 10 -1 7 -1 -2	348	1
4 7 -1 5 10 -1 2 -1 2 3 -1 -2	21	1
8 -1 8 -1 6 -1 9 -1 8 -1 -2	168	1
2 -1 2 -1 2 8 -1 10 -1 -2	164	1
1 -1 7 8 -1 9 -1 -2	1537	1
1 5 7 -1 1 3 -1 7 -1 8 -1 6 -1 4 7 -1 4 7 -1 7 8 -1 5 -1 -2	2	1
9 -1 1 7 -1 -2	2375	1
1 5 9 -1 3 -1 -2	856	1
2 -1 1 4 5 -1 2 -1 9 -1 -2	168	1
8 9 -1 8 -1 1 8 -1 9 -1 -2	1478	1
4 -1 2 -1 4 9 -1 5 8 -1 1 6 -1 8 9 -1 8 9 -1 -2	7	1
5 9 10 -1 -2	676	1
7 -1 5 7 -1 1 -1 1 -1 -2	1450	1
5 -1 1 -1 1 -1 1 8 -1 -2	1950	1
1 -1 7 -1 1 3 5 -1 5 -1 3 7 -1 -2	151	1
7 9 -1 1 -1 8 -1 3 -1 -2	449	1
1 -1 7 -1 9 -1 1 -1 -2	1896	2
9 -1 1 8 -1 2 -1 -2	1111	1
4 -1 9 -1 9 -1 -2	1014	1
1 -1 1 -1 1 -1 9 -1 -2	3109	2
4 9 -1 2 -1 1 -1 -2	349	1
1 -1 1 6 -1 -2	336	3
8 -1 1 -1 6 -1 -2	295	1
4 -1 3 -1 1 -1 -2	344	1
3 6 9 -1 2 4 -1 2 9 -1 1 -1 3 7 -1 3 -1 -2	2	1
8 9 -1 2 8 -1 -2	1149	1
8 -1 3 -1 5 -1 10 -1 5 -1 5 -1 3 5 -1 -2	33	1
7 -1 8 -1 8 -1 2 8 9 -1 3 -1 9 -1 -2	92	1
3 -1 5 -1 7 -1 -2	879	1
2 3 -1 5 8 -1 5 -1 -2	314	1
1 -1 1 -1 1 8 -1 1 -1 -2	2258	1
8 -1 1 3 -1 -2	928	1
1 -1 5 -1 1 -1 1 -1 5 -1 -2	2237	1
3 -1 4 -1 2 -1 3 8 9 -1 4 -1 9 -1 3 -1 7 -1 7 -1 3 -1 -2	1	1
2 9 -1 1 9 -1 -2	1388	1
1 5 10 -1 7 -1 -2	433	1
1 7 -1 1 8 -1 -2	1807	1
1 6 -1 10 -1 -2	81	1
5 8 -1 9 -1 1 -1 1 -1 -2	1679	1
8 9 -1 9 -1 2 -1 8 -1 8 -1 -2	654	1
10 -1 5 -1 7 -1 -2	651	1
7 -1 5 7 -1 1 9 -1 -2	1458	1
5 -1 3 -1 1 -1 2 -1 -2	449	1
1 -1 1 -1 3 5 -1 -2	935	1
8 -1 1 -1 3 -1 5 8 -1 3 8 -1 4 -1 -2	63	1
10 -1 10 -1 7 -1 -2	556	1
1 -1 2 9 -1 3 9 -1 1 3 -1 -2	186	1
3 -1 2 -1 7 8 -1 1 -1 8 -1 -2	170	1
3 -1 3 -1 7 9 -1 5 10 -1 -2	103	1
5 -1 9 -1 1 -1 -2	3447	3
1 4 -1 1 5 -1 -2	754	1
1 2 5 -1 1 7 -1 2 9 -1 -2	433	1
7 -1 2 -1 7 -1 10 -1 1 10 -1 4 -1 6 8 -1 1 -1 -2	1	1
1 -1 1 -1 7 8 -1 -2	1738	2
4 -1 7 8 -1 1 -1 -2	442	1
2 4 10 -1 2 -1 2 4 -1 9 10 -1 9 -1 10 -1 4 7 -1 3 -1 4 9 -1 -2	1	1
8 -1 1 4 -1 5 10 -1 4 -1 -2	92	1
9 -1 7 -1 2 -1 5 -1 4 8 -1 -2	136	1
1 -1 5 6 -1 7 -1 6 -1 4 -1 -2	23	1
7 8 -1 1 -1 1 -1 5 -1 3 -1 -2	306	1
2 5 8 -1 1 -1 -2	956	1
10 -1 8 -1 -2	981	1
5 -1 5 -1 7 -1 5 -1 -2	2472	1
3 -1 7 -1 5 -1 -2	887	1
1 2 -1 7 9 -1 1 -1 7 -1 -2	524	1
5 9 -1 2 -1 7 -1 5 -1 -2	791	1
9 -1 5 -1 1 8 9 -1 2 -1 2 5 6 -1 7 -1 6 -1 -2	10	1
8 10 -1 7 -1 7 -1 2 7 9 -1 8 -1 1 3 -1 -2	29	1
7 -1 9 -1 7 -1 7 -1 7 -1 1 -1 -2	687	1
2 10 -1 8 9 -1 6 10 -1 1 -1 8 -1 1 -1 -2	7	1
5 -1 8 -1 2 -1 9 -1 -2	1087	1
1 -1 8 -1 1 9 -1 4 -1 6 -1 -2	50	1
2 -1 1 7 10 -1 2 -1 1 7 -1 -2	96	1
1 -1 7 -1 2 7 -1 8 9 -1 5 -1 2 -1 -2	178	1
9 10 -1 3 -1 1 8 -1 5 7 -1 1 8 -1 3 -1 -2	24	1
1 10 -1 10 -1 1 4 10 -1 -2	69	1
5 -1 1 9 -1 -2	3360	2
1 -1 4 5 -1 9 -1 2 -1 1 -1 -2	185	1
1 5 -1 7 -1 2 -1 -2	984	1
9 10 -1 9 -1 1 -1 3 4 5 -1 1 -1 2 3 -1 -2	8	1
1 -1 1 -1 2 7 8 -1 -2	573	1
1 -1 4 -1 9 -1 1 -1 -2	693	1
8 -1 2 9 -1 7 -1 -2	838	1
2 3 -1 1 7 -1 -2	301	1
5 6 -1 7 -1 9 -1 7 -1 9 -1 6 -1 -2	42	1
4 -1 3 -1 4 -1 7 -1 5 7 -1 3 5 -1 4 8 -1 4 8 9 -1 -2	4	1
1 -1 7 -1 5 -1 5 -1 -2	1932	2
4 -1 6 8 -1 1 -1 3 -1 1 8 -1 -2	17	1
1 7 -1 5 -1 5 -1 1 4 -1 -2	316	1
2 -1 3 9 -1 5 10 -1 -2	114	1
8 -1 1 8 -1 1 -1 -2	2768	1
1 -1 8 -1 3 -1 3 -1 -2	607	1
5 -1 7 -1 2 7 -1 -2	944	1
1 -1 1 8 -1 4 -1 7 -1 -2	363	1
1 3 9 -1 10 -1 7 9 -1 8 -1 -2	95	1
9 -1 5 7 9 -1 -2	2004	1
1 2 -1 1 -1 10 -1 -2	326	1
8 -1 9 -1 5 -1 1 5 -1 -2	1732	1
1 -1 4 -1 1 -1 8 -1 -2	650	2
10 -1 1 2 5 -1 1 9 -1 -2	212	1
5 -1 1 -1 3 10 -1 8 -1 1 -1 -2	86	1
5 -1 1 -1 10 -1 4 9 -1 -2	153	1
5 -1 9 -1 10 -1 -2	805	1
1 5 -1 1 -1 5 -1 -2	3377	2
1 -1 9 -1 2 9 -1 7 -1 -2	742	2
3 4 -1 3 -1 -2	257	1
3 4 -1 1 8 -1 1 -1 10 -1 3 -1 -2	32	1
3 9 -1 5 -1 -2	1135	1
8 -1 4 -1 7 -1 8 -1 9 -1 1 7 -1 -2	140	1
1 -1 8 -1 1 5 -1 8 -1 -2	1824	1
3 8 -1 3 9 -1 -2	625	1
1 -1 5 -1 7 8 -1 -2	1591	1
3 5 -1 3 5 -1 2 -1 -2	396	1
1 10 -1 5 8 -1 4 5 -1 1 -1 1 4 -1 -2	36	1
1 -1 1 -1 9 -1 -2	3989	2
1 -1 8 -1 8 -1 9 -1 -2	2183	1
1 -1 8 10 -1 1 -1 9 -1 -2	396	1
1 9 -1 2 -1 1 7 -1 9 -1 -2	605	1
9 -1 1 -1 8 9 -1 1 -1 2 -1 -2	640	1
1 -1 2 5 9 -1 1 5 -1 1 -1 -2	663	1
9 -1 9 -1 8 -1 5 -1 -2	2396	1
1 -1 1 -1 1 -1 7 -1 1 9 -1 5 -1 1 -1 2 -1 5 -1 -2	66	1
1 -1 2 -1 8 -1 -2	1453	3
1 7 -1 1 -1 4 -1 -2	548	1
1 8 -1 9 -1 9 -1 9 -1 -2	1869	1
8 -1 3 -1 1 -1 5 -1 8 -1 7 -1 2 7 -1 8 -1 1 3 -1 -2	7	1
9 -1 1 -1 2 5 -1 5 9 -1 5 -1 1 8 -1 2 3 9 -1 -2	40	1
5 -1 1 5 -1 9 -1 -2	2823	1
1 -1 7 -1 5 -1 1 -1 -2	1901	1
5 9 -1 7 -1 8 -1 5 -1 8 -1 1 -1 9 -1 8 -1 7 10 -1 -2	24	1
7 -1 1 -1 5 -1 1 7 -1 7 -1 -2	921	1
1 5 -1 2 8 -1 3 -1 1 -1 -2	243	1
8 -1 5 -1 5 -1 -2	3587	2
1 9 -1 5 -1 -2	3362	5
3 6 -1 9 -1 2 -1 1 -1 3 5 -1 -2	13	1
1 4 7 -1 3 -1 5 -1 -2	135	1
5 -1 5 -1 1 -1 1 -1 -2	3171	1
4 8 -1 2 -1 -2	378	2
7 -1 9 -1 2 -1 -2	1315	1
10 -1 3 -1 10 -1 9 -1 9 -1 -2	109	1
9 -1 9 -1 8 -1 -2	3532	1
8 -1 7 -1 7 -1 5 -1 -2	1608	1
1 -1 4 -1 5 -1 -2	932	2
1 -1 9 -1 1 -1 4 -1 7 -1 8 -1 5 -1 -2	126	1
1 -1 7 9 -1 -2	2368	1
8 -1 6 9 -1 1 5 -1 -2	170	1
3 7 -1 1 9 -1 8 -1 5 -1 9 -1 1 4 -1 -2	54	1
7 8 -1 3 -1 8 9 -1 8 -1 -2	373	1
5 7 -1 1 -1 1 -1 5 7 -1 -2	1242	1
7 -1 2 -1 1 -1 2 -1 2 -1 9 -1 1 -1 -2	141	1
2 -1 1 -1 8 -1 -2	1447	1
2 -1 1 2 -1 -2	1608	2
2 -1 8 9 -1 9 -1 5 -1 -2	904	1
8 -1 3 -1 3 5 -1 7 -1 5 -1 1 -1 4 9 -1 -2	28	1
1 8 -1 8 -1 -2	3312	2
7 -1 1 2 -1 8 -1 -2	796	1
1 -1 4 9 -1 7 9 -1 10 -1 7 -1 2 7 -1 1 8 -1 1 8 -1 -2	11	1
9 -1 2 -1 7 -1 9 -1 -2	964	1
1 -1 1 4 -1 9 -1 -2	713	1
5 7 -1 7 -1 1 -1 6 -1 9 -1 1 3 -1 -2	28	1
8 -1 7 -1 9 -1 7 -1 -2	1569	1
1 7 -1 1 2 -1 -2	1023	1
9 -1 1 -1 5 -1 1 7 9 -1 -2	1118	1
2 -1 2 4 -1 5 9 -1 4 10 -1 -2	37	1
2 5 -1 2 9 -1 -2	1190	1
1 -1 7 -1 4 -1 -2	667	1
8 -1 10 -1 5 6 -1 3 -1 2 3 9 -1 10 -1 -2	1	1
9 -1 5 8 -1 9 -1 7 -1 -2	1349	1
1 6 -1 -2	376	2
1 3 7 -1 4 -1 4 -1 1 -1 9 -1 9 -1 8 -1 4 8 -1 -2	12	1
1 9 -1 9 -1 5 -1 1 2 -1 2 4 9 -1 -2	94	1
7 8 -1 1 -1 2 -1 1 9 -1 -2	519	1
1 -1 1 -1 1 -1 8 -1 4 -1 3 -1 8 -1 -2	65	1
1 -1 1 5 -1 4 -1 -2	802	1
10 -1 1 -1 1 -1 9 -1 -2	609	1
1 -1 1 -1 7 -1 5 -1 1 -1 -2	1358	1
1 8 -1 7 -1 5 -1 3 -1 9 -1 -2	303	1
2 5 7 -1 2 -1 5 -1 -2	673	1
6 8 -1 4 -1 8 -1 -2	76	1
1 5 -1 1 -1 10 -1 -2	686	1
1 4 -1 9 -1 2 -1 -2	337	1
5 -1 2 -1 1 8 -1 2 8 9 -1 8 -1 1 -1 -2	201	1
1 -1 9 -1 6 -1 5 -1 5 -1 6 -1 -2	73	1
7 9 -1 9 -1 7 -1 -2	2261	1
5 9 -1 5 -1 7 -1 2 9 -1 -2	673	1
1 9 -1 9 -1 8 -1 -2	2488	1
8 -1 9 -1 1 -1 5 8 -1 -2	1647	1
2 7 -1 3 -1 -2	418	1
5 7 -1 5 -1 -2	3007	2
1 -1 7 -1 1 -1 2 -1 1 -1 7 -1 2 -1 5 -1 9 -1 -2	37	1
5 -1 1 -1 7 -1 5 9 -1 9 -1 -2	1086	1
8 9 -1 5 8 -1 8 -1 1 -1 1 7 -1 -2	576	1
10 -1 10 -1 1 4 8 -1 1 -1 2 4 -1 1 -1 4 -1 -2	4	1
5 10 -1 5 -1 1 8 -1 1 9 -1 -2	307	1
9 -1 1 -1 9 -1 5 -1 5 -1 -2	1961	1
2 7 8 -1 9 -1 8 -1 5 -1 7 -1 1 -1 -2	188	1
9 -1 5 -1 8 -1 -2	3039	2
1 8 -1 5 -1 3 -1 3 -1 -2	468	1
1 5 -1 1 -1 1 -1 -2	3348	1
1 7 -1 1 -1 4 -1 3 -1 7 9 -1 1 -1 -2	64	1
1 9 -1 2 -1 1 3 4 -1 6 -1 2 -1 2 -1 -2	6	1
8 -1 1 5 -1 2 8 -1 4 -1 -2	190	1
4 -1 3 -1 10 -1 10 -1 2 -1 1 -1 2 -1 -2	8	1
4 7 -1 1 -1 1 -1 -2	469	1
5 -1 8 -1 2 5 -1 4 -1 4 -1 2 -1 2 -1 5 -1 3 -1 7 9 -1 -2	2	1
5 7 -1 2 -1 -2	1333	2
1 5 -1 8 -1 8 -1 1 8 -1 -2	1511	1
10 -1 1 -1 5 10 -1 1 10 -1 1 -1 1 7 -1 1 2 8 -1 -2	24	1
8 -1 7 -1 8 -1 1 -1 1 4 5 7 9 -1 -2	99	1
9 -1 7 -1 1 4 -1 4 -1 8 -1 -2	187	1
2 7 -1 1 -1 4 -1 -2	242	1
1 2 -1 2 -1 2 7 -1 1 -1 -2	426	1
1 -1 7 -1 5 9 -1 1 -1 -2	1436	1
5 6 -1 1 -1 -2	299	1
9 -1 5 8 10 -1 2 8 -1 -2	175	1
1 9 -1 2 -1 -2	1672	1
7 -1 8 10 -1 5 -1 4 -1 7 -1 4 -1 2 7 -1 -2	12	1
8 -1 9 -1 1 2 -1 4 -1 2 8 9 -1 -2	92	1
8 -1 5 -1 2 9 -1 7 -1 1 -1 -2	426	1
8 -1 6 -1 1 -1 -2	279	1
3 -1 1 -1 1 -1 1 -1 -2	966	2
8 -1 7 8 -1 -2	2365	2
1 5 8 9 -1 2 -1 5 8 -1 7 9 -1 1 8 -1 10 -1 2 -1 -2	26	1
8 -1 1 -1 9 -1 5 -1 1 2 -1 1 -1 1 9 -1 1 -1 1 -1 8 -1 5 -1 6 -1 -2	1	1
1 -1 1 5 9 -1 1 8 -1 -2	1548	1
1 7 -1 7 -1 9 -1 1 -1 1 -1 1 5 -1 -2	522	1
1 -1 5 -1 7 -1 7 -1 -2	1751	2
1 9 -1 4 -1 3 -1 3 -1 4 -1 1 -1 -2	59	1
4 -1 1 -1 8 -1 9 -1 -2	587	1
1 -1 9 -1 1 -1 10 -1 -2	624	1
1 -1 5 -1 8 9 -1 7 -1 -2	1203	1
2 9 -1 7 -1 1 -1 1 -1 -2	679	1
1 -1 1 10 -1 8 -1 -2	589	1
7 8 -1 3 9 -1 -2	561	1
8 -1 6 -1 9 -1 -2	289	1
1 -1 5 -1 7 10 -1 8 -1 -2	286	1
8 -1 5 -1 10 -1 8 -1 -2	547	1
1 -1 1 -1 5 -1 5 6 -1 7 -1 2 7 8 -1 5 -1 6 -1 -2	7	1
1 5 7 -1 2 10 -1 2 10 -1 3 9 10 -1 1 7 -1 5 7 -1 -2	7	1
1 8 -1 1 -1 5 -1 -2	2496	1
3 -1 1 -1 2 4 -1 5 -1 1 -1 -2	68	1
1 6 7 10 -1 3 5 8 -1 7 8 -1 9 -1 3 -1 -2	4	1
1 -1 3 -1 9 -1 -2	1108	2
2 -1 7 -1 2 -1 9 -1 -2	815	1
1 -1 1 5 -1 3 -1 7 8 -1 6 -1 1 -1 8 -1 -2	17	1
8 -1 4 -1 1 2 -1 2 -1 -2	183	1
6 8 -1 1 9 -1 7 -1 9 -1 8 -1 -2	75	1
5 -1 1 2 -1 4 5 -1 -2	321	1
7 -1 1 8 -1 1 -1 -2	1762	2
2 -1 7 -1 1 7 -1 8 -1 1 9 -1 -2	331	1
5 -1 3 -1 9 -1 -2	1173	1
5 -1 1 5 -1 6 -1 1 8 -1 -2	163	1
3 -1 7 -1 1 -1 -2	810	1
1 9 -1 7 -1 1 4 -1 5 -1 -2	324	1
10 -1 5 6 -1 8 -1 -2	57	1
7 -1 2 8 -1 8 -1 1 8 -1 -2	490	1
5 -1 8 -1 6 -1 3 5 9 -1 1 2 -1 5 10 -1 -2	10	1
1 -1 6 -1 8 -1 1 3 -1 -2	68	1
1 -1 8 9 10 -1 1 -1 8 -1 8 -1 6 -1 5 -1 -2	13	1
1 -1 1 8 -1 2 -1 -2	1198	1
5 -1 8 -1 8 -1 8 -1 9 -1 -2	1606	1
2 8 -1 5 7 -1 5 -1 1 -1 -2	475	1
5 -1 7 -1 5 -1 2 -1 7 -1 3 -1 -2	143	1
1 2 5 -1 5 -1 -2	1220	1
1 2 -1 8 -1 -2	1378	2
5 -1 1 8 -1 10 -1 1 -1 1 5 -1 -2	290	1
1 7 -1 6 7 -1 4 5 -1 7 9 -1 10 -1 -2	10	1
2 8 -1 1 -1 2 -1 3 9 -1 -2	198	1
6 10 -1 5 -1 5 10 -1 6 9 -1 6 -1 5 -1 10 -1 9 -1 -2	1	1
2 -1 2 -1 4 -1 -2	450	1
1 4 -1 8 -1 -2	775	1
1 -1 7 -1 7 8 -1 -2	1612	1
5 -1 5 -1 5 -1 1 -1 -2	3298	1
2 -1 2 4 5 -1 -2	285	1
5 8 -1 7 -1 5 -1 5 -1 7 -1 -2	1032	1
5 -1 8 -1 5 -1 5 -1 -2	2891	1
10 -1 5 -1 1 4 9 -1 -2	146	1
1 9 -1 2 -1 3 -1 -2	457	1
1 -1 9 -1 10 -1 1 -1 -2	617	1
1 5 6 -1 -2	267	1
7 9 10 -1 4 -1 -2	148	1
9 -1 8 -1 1 -1 7 -1 -2	1524	1
9 -1 6 -1 5 -1 -2	320	1
1 -1 4 -1 3 -1 10 -1 2 8 -1 -2	31	1
8 9 -1 6 8 -1 -2	235	1
9 -1 8 -1 5 7 -1 -2	1675	1
1 -1 1 5 -1 1 -1 1 -1 3 -1 -2	553	1
10 -1 8 -1 9 -1 7 -1 -2	393	1
5 -1 9 -1 2 -1 1 4 -1 -2	266	1
5 -1 2 8 -1 1 3 -1 10 -1 -2	72	1
1 -1 6 -1 3 -1 8 -1 6 -1 -2	36	1
1 -1 5 7 -1 1 3 -1 1 8 -1 -2	325	1
8 9 -1 8 -1 9 -1 9 -1 10 -1 -2	322	1
9 -1 5 8 -1 -2	3029	1
3 -1 1 -1 5 -1 9 -1 -2	819	1
2 -1 1 -1 2 -1 1 -1 1 4 -1 4 -1 -2	65	1
2 -1 2 -1 2 -1 -2	1893	3
1 -1 5 9 -1 2 8 -1 1 7 -1 -2	403	1
3 9 -1 1 -1 9 10 -1 5 -1 5 -1 7 -1 1 7 -1 -2	33	1
8 -1 8 -1 6 -1 -2	323	1
7 -1 1 9 -1 9 -1 -2	2078	1
7 -1 1 -1 2 -1 5 -1 -2	904	2
6 9 -1 3 -1 5 -1 6 -1 -2	55	1
8 -1 7 -1 1 5 8 9 -1 2 -1 -2	406	1
6 -1 4 -1 1 -1 1 -1 1 -1 -2	54	1
1 -1 7 -1 1 8 -1 1 -1 4 -1 -2	261	1
1 -1 8 -1 5 7 9 -1 1 -1 -2	910	1
1 -1 5 7 -1 1 -1 5 -1 -2	1580	1
1 8 10 -1 4 -1 1 -1 6 -1 7 -1 4 -1 -2	5	1
3 5 8 9 -1 1 -1 -2	478	1
7 -1 1 -1 1 -1 4 -1 -2	521	1
7 8 -1 2 -1 2 -1 4 -1 -2	156	1
1 8 -1 2 -1 1 -1 2 9 -1 8 9 -1 -2	337	1
5 -1 5 -1 7 -1 7 -1 4 -1 5 -1 8 9 -1 1 -1 -2	58	1
7 9 -1 3 -1 -2	890	1
1 3 -1 9 -1 3 -1 9 -1 1 -1 3 -1 8 -1 -2	91	1
1 3 4 -1 9 -1 8 -1 -2	154	1
1 -1 5 10 -1 5 -1 10 -1 -2	354	1
1 3 5 -1 6 -1 3 6 10 -1 8 -1 -2	6	1
1 -1 2 9 -1 1 -1 7 -1 5 -1 2 3 -1 2 9 -1 -2	39	1
1 -1 2 10 -1 1 5 9 -1 6 -1 -2	19	1
1 -1 5 9 -1 1 -1 7 -1 8 -1 8 -1 -2	569	1
4 9 -1 5 -1 -2	880	1
3 -1 1 -1 5 -1 9 -1 1 5 -1 -2	515	1
8 10 -1 2 -1 10 -1 2 -1 5 -1 5 -1 5 -1 -2	33	1
5 8 -1 7 -1 5 -1 1 -1 1 -1 7 -1 -2	574	1
5 -1 1 5 -1 6 7 10 -1 10 -1 7 8 10 -1 3 7 8 -1 -2	3	1
1 4 -1 5 7 -1 5 -1 8 -1 2 -1 -2	119	1
9 -1 3 -1 9 -1 5 -1 5 -1 3 7 -1 -2	163	1
2 -1 2 7 9 -1 3 -1 1 3 -1 3 -1 2 -1 -2	33	1
8 -1 3 9 -1 1 -1 -2	719	1
8 -1 1 7 -1 3 -1 -2	568	1
1 -1 4 -1 9 -1 10 -1 1 -1 5 -1 7 -1 2 -1 2 -1 -2	11	1
9 10 -1 5 9 -1 10 -1 5 -1 -2	320	1
6 -1 1 5 -1 -2	314	1
7 -1 1 7 9 -1 9 -1 1 8 -1 7 -1 -2	514	1
2 3 5 -1 2 5 -1 9 -1 1 -1 -2	188	1
8 -1 1 -1 2 10 -1 1 -1 9 -1 -2	121	1
10 -1 5 -1 1 5 -1 8 10 -1 -2	221	1
3 7 -1 5 -1 7 -1 2 -1 -2	257	1
1 7 -1 2 -1 5 -1 5 -1 1 -1 -2	543	1
9 -1 7 -1 5 7 -1 5 -1 -2	1526	1
8 -1 2 -1 5 -1 -2	1525	2
1 7 -1 1 -1 1 -1 8 -1 -2	1416	1
1 3 -1 5 8 -1 9 -1 2 7 -1 9 -1 5 -1 -2	90	1
8 -1 1 -1 9 -1 5 -1 -2	2100	1
1 3 -1 9 -1 5 -1 -2	856	1
7 -1 3 -1 2 6 -1 -2	40	1
7 -1 1 -1 4 8 -1 1 4 -1 9 -1 8 9 -1 7 -1 -2	46	1
1 -1 8 -1 5 -1 1 8 -1 -2	1821	1
4 8 -1 1 9 -1 1 -1 5 -1 -2	359	1
8 -1 2 5 -1 1 -1 -2	1071	1
2 -1 5 -1 2 -1 2 7 8 -1 4 -1 9 -1 9 -1 9 -1 1 -1 -2	10	1
8 -1 9 -1 3 7 -1 1 8 -1 -2	322	1
8 -1 1 -1 1 -1 9 -1 -2	2271	1
1 -1 3 -1 10 -1 -2	311	1
9 -1 1 8 9 -1 8 -1 7 -1 2 5 -1 -2	319	1
5 -1 5 -1 8 -1 9 -1 -2	2440	1
5 9 -1 7 -1 5 -1 5 -1 1 -1 -2	1155	1
8 -1 1 4 -1 1 7 -1 4 -1 3 -1 -2	66	1
6 -1 2 -1 3 -1 9 -1 9 -1 -2	39	1
2 9 -1 3 -1 9 -1 7 -1 1 -1 -2	186	1
1 -1 9 -1 5 -1 -2	3434	3
5 -1 5 7 9 -1 -2	2012	1
7 -1 3 -1 1 5 -1 7 -1 4 -1 -2	114	1
6 8 -1 2 -1 7 -1 1 -1 -2	74	1
9 -1 4 -1 9 -1 7 8 10 -1 2 4 -1 -2	30	1
2 7 8 -1 1 -1 -2	645	1
9 -1 1 8 -1 -2	2878	4
5 -1 2 -1 3 8 -1 5 -1 3 -1 -2	168	1
3 -1 5 -1 5 10 -1 -2	276	1
5 -1 7 9 -1 -2	2513	1
5 -1 4 5 -1 -2	1066	1
1 5 8 -1 2 -1 3 5 -1 8 -1 5 -1 1 5 -1 -2	119	1
10 -1 1 -1 6 -1 -2	78	1
3 8 -1 1 8 -1 8 -1 -2	627	1
9 -1 9 -1 7 9 -1 7 -1 -2	1755	1
1 5 -1 1 -1 5 -1 1 -1 -2	2587	1
9 -1 1 -1 1 -1 7 -1 -2	1914	1
5 -1 5 9 -1 1 -1 -2	2896	1
5 6 -1 4 8 -1 7 -1 9 -1 -2	42	1
9 -1 9 -1 1 -1 5 -1 2 -1 -2	875	1
5 7 -1 5 -1 5 -1 8 -1 2 7 -1 -2	387	1
2 7 -1 9 -1 -2	1128	1
8 -1 3 8 -1 1 7 -1 9 -1 1 -1 -2	233	1
8 -1 5 -1 1 -1 1 -1 1 -1 -2	1674	1
5 -1 8 -1 2 9 -1 -2	1092	1
4 5 -1 1 -1 -2	907	1
2 9 -1 10 -1 -2	416	1
8 9 -1 6 -1 1 -1 1 6 -1 5 9 -1 -2	61	1
7 -1 1 8 -1 2 6 -1 9 -1 7 -1 -2	39	1
3 -1 5 10 -1 -2	308	1
2 5 -1 1 -1 5 8 -1 2 -1 7 -1 -2	341	1
2 -1 9 -1 5 8 -1 -2	1146	1
5 -1 1 -1 1 7 -1 7 9 -1 1 -1 2 -1 -2	267	1
1 -1 2 7 -1 1 -1 -2	885	2
5 -1 7 -1 8 -1 7 9 -1 2 -1 8 -1 1 -1 1 -1 10 -1 -2	19	1
9 -1 1 9 -1 1 -1 -2	3264	1
10 -1 8 -1 5 -1 8 -1 -2	516	1
10 -1 8 -1 5 -1 2 -1 7 -1 8 9 -1 -2	88	1
4 -1 2 -1 7 -1 3 10 -1 8 -1 9 -1 -2	7	1
8 -1 7 -1 4 -1 9 -1 9 -1 -2	311	1
1 7 -1 9 -1 -2	2385	1
9 -1 10 -1 1 -1 1 -1 3 9 -1 7 -1 5 -1 -2	34	1
1 -1 8 -1 1 -1 1 -1 8 -1 1 -1 -2	1106	1
5 -1 9 -1 8 -1 5 -1 10 -1 2 -1 -2	134	1
1 -1 1 -1 9 -1 1 -1 5 7 -1 -2	1041	1
1 4 -1 8 9 -1 7 -1 5 -1 10 -1 9 -1 8 -1 -2	27	1
7 -1 9 -1 10 -1 2 -1 7 8 -1 5 -1 1 -1 2 9 -1 -2	21	1
4 7 -1 5 -1 9 -1 -2	431	1
7 -1 1 -1 1 8 -1 9 -1 -2	1279	1
5 -1 8 -1 3 -1 1 -1 7 -1 -2	386	1
3 -1 9 -1 1 -1 5 7 9 -1 -2	409	1
5 -1 4 9 -1 8 9 -1 1 5 -1 8 -1 1 -1 -2	165	1
7 -1 3 -1 1 -1 -2	845	1
9 -1 5 -1 3 -1 7 -1 8 -1 -2	397	1
1 8 -1 1 -1 8 9 -1 -2	1935	1
1 8 -1 1 5 -1 5 8 -1 7 -1 -2	946	1
4 5 -1 8 10 -1 1 5 -1 1 -1 1 2 -1 1 9 -1 3 9 -1 9 -1 10 -1 1 5 -1 -2	1	1
1 7 -1 1 4 -1 10 -1 5 -1 8 -1 8 9 -1 -2	45	1
5 -1 8 -1 7 -1 7 -1 1 -1 -2	961	1
7 -1 5 -1 1 -1 9 -1 4 -1 -2	353	1
1 -1 3 -1 8 -1 5 9 -1 1 -1 1 2 4 -1 -2	34	1
3 -1 5 6 -1 1 -1 8 9 -1 -2	59	1
5 -1 1 -1 8 -1 8 9 -1 3 -1 -2	403	1
9 -1 9 -1 9 -1 8 -1 -2	2794	1
8 -1 1 -1 6 -1 1 7 -1 9 -1 -2	110	1
4 -1 3 8 -1 5 6 -1 -2	29	1
4 7 -1 1 7 -1 1 -1 7 -1 5 7 -1 2 -1 -2	63	1
5 -1 8 -1 7 -1 8 -1 1 5 -1 3 -1 5 7 -1 -2	102	1
8 -1 1 7 -1 1 -1 -2	1741	2
1 3 -1 8 -1 4 -1 1 -1 5 -1 8 -1 -2	90	1
9 -1 2 8 -1 2 7 9 -1 -2	443	1
5 -1 1 9 -1 1 5 -1 -2	2357	1
1 8 -1 1 -1 9 -1 -2	2416	1
5 -1 5 -1 2 -1 4 9 -1 -2	271	1
9 10 -1 1 7 -1 1 3 -1 1 2 -1 1 -1 2 -1 -2	27	1
1 3 7 -1 -2	607	1
3 7 -1 7 9 -1 -2	602	1
1 -1 1 5 -1 8 -1 2 9 -1 10 -1 1 -1 -2	85	1
2 -1 5 -1 4 5 -1 1 -1 10 -1 2 4 -1 -2	21	1
1 -1 2 4 -1 5 -1 2 -1 1 7 -1 2 7 -1 5 -1 -2	25	1
1 5 8 -1 10 -1 7 -1 1 -1 8 -1 2 7 -1 3 7 -1 -2	12	1
8 -1 2 4 -1 4 -1 5 -1 -2	162	1
8 9 -1 2 -1 -2	1512	1
1 -1 2 -1 7 -1 5 -1 -2	875	2
2 -1 7 8 -1 -2	1094	1
9 -1 5 7 -1 -2	2569	1
9 10 -1 9 -1 10 -1 -2	539	1
1 -1 2 4 -1 -2	386	2
5 -1 1 3 -1 5 7 -1 8 -1 2 -1 8 -1 1 9 -1 1 -1 -2	32	1
1 -1 1 -1 1 2 -1 7 -1 -2	775	1
5 9 -1 1 2 -1 7 -1 5 -1 7 -1 10 -1 6 7 -1 -2	5	1
1 7 -1 8 -1 3 -1 7 -1 9 -1 4 -1 9 -1 3 -1 -2	16	1
5 -1 8 -1 2 -1 4 5 -1 5 -1 5 -1 7 -1 -2	65	1
4 -1 8 -1 5 -1 1 5 -1 7 -1 1 7 -1 -2	125	1
4 5 -1 2 5 9 -1 2 -1 1 -1 8 -1 9 -1 4 -1 1 -1 2 4 -1 5 7 8 -1 -2	1	1
7 -1 5 -1 3 -1 1 -1 -2	616	1
1 3 5 -1 4 -1 -2	265	1
4 5 -1 7 -1 -2	676	1
1 9 -1 9 -1 5 -1 3 -1 -2	702	1
7 -1 2 9 -1 3 5 -1 8 -1 -2	203	1
3 7 -1 2 -1 10 -1 9 -1 8 -1 -2	54	1
2 5 -1 7 -1 -2	1251	1
4 -1 2 -1 -2	601	1
3 -1 5 -1 3 -1 -2	1135	1
3 -1 1 3 5 -1 -2	756	1
1 3 -1 5 9 -1 7 -1 3 -1 1 -1 -2	224	1
1 -1 2 9 -1 5 -1 4 5 -1 -2	240	1
4 8 -1 1 -1 5 -1 1 -1 -2	444	1
1 9 -1 3 -1 1 4 8 -1 -2	152	1
1 -1 5 -1 8 -1 8 -1 -2	2245	1
8 9 -1 5 9 -1 -2	2522	1
7 -1 5 9 -1 1 -1 -2	1911	1
6 -1 4 -1 1 3 10 -1 2 3 -1 1 10 -1 7 -1 1 -1 -2	1	1
9 -1 2 5 9 -1 7 9 -1 5 9 -1 7 9 -1 5 9 10 -1 9 10 -1 4 8 -1 9 -1 -2	3	1
8 -1 3 9 -1 1 -1 1 8 -1 5 9 -1 -2	305	1
2 -1 9 -1 1 -1 2 -1 7 -1 1 -1 -2	304	1
3 -1 5 7 8 -1 1 -1 3 4 5 -1 -2	66	1
2 -1 6 -1 2 -1 6 -1 5 -1 -2	44	1
9 -1 8 10 -1 1 9 -1 1 5 -1 -2	298	1
8 -1 9 -1 4 -1 -2	807	1
5 -1 4 -1 1 -1 1 2 -1 5 -1 5 7 8 -1 -2	79	1
8 -1 1 -1 4 -1 1 -1 3 -1 9 -1 -2	95	1
5 7 -1 1 -1 -2	2510	2
1 -1 2 -1 9 -1 2 7 -1 1 -1 9 -1 1 -1 1 -1 -2	82	1
2 -1 6 -1 1 -1 5 -1 2 -1 -2	66	1
2 -1 7 -1 5 -1 4 7 -1 4 -1 1 5 -1 -2	63	1
5 -1 5 -1 4 5 8 10 -1 -2	87	1
2 -1 7 -1 2 -1 -2	1188	1
3 4 -1 1 6 7 9 -1 10 -1 -2	12	1
1 -1 8 -1 1 -1 7 -1 7 -1 -2	1002	1
7 8 -1 1 -1 3 -1 7 -1 5 9 -1 9 -1 -2	170	1
1 7 -1 8 -1 1 2 -1 -2	707	1
7 -1 2 3 -1 2 10 -1 1 8 10 -1 1 -1 4 -1 3 -1 -2	5	1
4 -1 2 -1 9 -1 1 9 -1 -2	278	1
6 -1 3 9 -1 1 -1 9 -1 -2	79	1
7 -1 1 -1 3 -1 1 -1 9 -1 -2	447	1
1 5 -1 2 -1 4 -1 9 -1 9 -1 -2	219	1
2 -1 5 -1 5 -1 1 8 -1 4 -1 -2	181	1
1 2 -1 9 -1 1 10 -1 -2	244	1
2 -1 9 -1 5 9 -1 2 7 -1 9 -1 4 5 7 9 -1 2 -1 3 -1 -2	8	1
9 -1 8 -1 5 -1 5 10 -1 1 -1 1 7 -1 10 -1 8 -1 5 9 -1 -2	11	1
9 -1 1 -1 3 -1 8 -1 1 -1 7 -1 1 -1 -2	151	1
7 -1 3 -1 7 -1 1 8 -1 -2	419	1
1 -1 1 2 -1 8 -1 -2	1147	1
2 -1 10 -1 1 -1 1 5 -1 5 -1 1 -1 -2	114	1
5 10 -1 2 -1 9 10 -1 -2	180	1
9 -1 1 -1 8 -1 2 9 -1 1 -1 7 -1 1 -1 -2	183	1
2 -1 7 8 9 -1 -2	818	1
5 -1 5 8 -1 1 -1 -2	2556	1
10 -1 8 -1 9 -1 9 -1 -2	530	1
1 -1 1 -1 7 -1 5 -1 5 -1 -2	1367	1
1 -1 4 -1 2 -1 -2	466	1
5 -1 4 5 -1 9 -1 1 8 -1 1 7 -1 1 -1 1 -1 1 8 -1 -2	46	1
3 8 -1 10 -1 2 -1 1 -1 8 -1 7 -1 8 -1 -2	21	1
7 -1 1 -1 1 -1 3 -1 5 -1 -2	449	1
2 9 -1 9 -1 9 -1 5 7 8 -1 8 -1 5 -1 2 -1 9 -1 -2	70	1
10 -1 3 4 -1 1 -1 10 -1 -2	44	1
5 -1 7 8 -1 1 8 -1 7 -1 4 8 -1 -2	158	1
1 6 -1 1 9 -1 1 5 -1 -2	190	1
1 8 -1 5 -1 3 -1 -2	781	1
7 8 -1 2 9 -1 7 -1 5 9 -1 -2	416	1
1 -1 2 8 9 -1 8 -1 1 3 9 -1 1 -1 -2	122	1
8 9 -1 4 8 -1 5 9 -1 6 9 -1 1 7 -1 -2	24	1
2 -1 1 7 -1 5 10 -1 5 -1 -2	164	1
8 9 -1 3 8 -1 1 5 -1 8 -1 -2	399	1
5 -1 3 -1 6 8 -1 1 9 -1 5 -1 1 8 -1 -2	27	1
2 -1 8 -1 1 -1 1 -1 9 -1 8 -1 -2	422	1
10 -1 2 -1 -2	542	1
4 -1 5 -1 6 -1 -2	118	1
3 -1 3 -1 3 5 -1 -2	854	1
1 8 -1 5 9 -1 -2	2223	2
8 -1 7 -1 8 -1 9 -1 1 2 -1 2 -1 5 -1 -2	139	1
2 -1 2 10 -1 3 -1 1 -1 -2	67	1
6 8 -1 2 7 8 9 -1 2 5 -1 4 -1 4 -1 1 3 -1 -2	6	1
10 -1 3 -1 8 -1 6 7 9 10 -1 2 -1 5 -1 1 7 -1 9 -1 -2	3	1
1 5 -1 9 -1 2 -1 7 9 10 -1 -2	119	1
3 -1 5 9 -1 4 -1 4 -1 4 -1 2 -1 -2	30	1
1 -1 1 8 -1 8 -1 -2	2734	1
1 7 -1 9 -1 8 -1 -2	1616	1
1 2 -1 3 8 -1 8 9 -1 1 9 -1 -2	196	1
7 -1 4 -1 4 -1 2 -1 -2	216	1
7 -1 7 8 -1 -2	2301	1
1 -1 1 5 -1 3 -1 -2	966	1
9 -1 1 -1 5 -1 1 5 -1 -2	2192	1
10 -1 3 -1 4 -1 -2	92	1
3 -1 8 -1 10 -1 1 7 -1 3 5 -1 4 9 -1 5 -1 1 3 -1 -2	5	1
3 -1 8 -1 1 -1 7 8 -1 4 -1 -2	111	1
8 -1 9 -1 2 9 -1 -2	1182	1
1 -1 9 -1 3 -1 1 -1 8 -1 1 -1 -2	356	1
5 9 -1 3 -1 4 -1 5 -1 5 -1 -2	160	1
1 -1 9 -1 1 5 -1 1 2 9 -1 -2	663	1
1 -1 1 -1 10 -1 2 -1 1 10 -1 -2	119	1
8 -1 7 -1 2 -1 -2	1131	1
1 -1 3 8 -1 5 -1 2 -1 -2	297	1
7 -1 9 -1 9 -1 9 -1 8 -1 -2	1288	1
9 -1 1 -1 2 -1 7 -1 -2	888	1
2 4 -1 1 8 -1 -2	264	2
1 -1 1 5 7 -1 -2	1870	1
9 -1 1 9 -1 7 -1 -2	2114	1
2 -1 3 4 -1 1 4 5 -1 -2	68	1
1 -1 9 -1 5 -1 7 -1 2 5 -1 1 9 -1 8 -1 8 -1 -2	89	1
10 -1 9 -1 10 -1 10 -1 -2	410	1
9 -1 7 -1 7 -1 -2	2751	2
1 7 -1 5 -1 1 -1 -2	2001	1
2 -1 9 -1 1 -1 8 -1 1 8 -1 -2	573	1
1 -1 4 7 -1 1 5 -1 7 -1 -2	290	1
8 -1 1 -1 2 5 -1 8 -1 2 10 -1 -2	83	1
8 -1 1 -1 8 -1 1 -1 -2	2508	1
4 -1 7 -1 8 10 -1 2 5 -1 7 10 -1 3 -1 2 -1 7 -1 -2	3	1
2 7 -1 3 9 -1 2 3 -1 1 4 -1 1 -1 -2	26	1
7 -1 9 -1 2 9 -1 -2	1048	1
1 -1 1 10 -1 1 -1 6 -1 2 6 -1 -2	15	1
8 -1 1 5 -1 4 7 -1 8 9 -1 2 9 -1 -2	85	1
9 -1 10 -1 7 -1 1 -1 -2	477	1
1 -1 1 -1 5 -1 1 -1 -2	3099	1
1 -1 5 -1 3 -1 10 -1 -2	213	1
5 -1 1 -1 1 7 -1 -2	2036	1
3 -1 2 8 -1 5 -1 -2	393	1
7 -1 10 -1 7 -1 2 -1 -2	243	1
7 -1 2 5 8 -1 5 8 -1 2 -1 -2	367	1
5 -1 1 -1 2 -1 1 9 -1 -2	963	1
1 -1 5 -1 1 -1 10 -1 1 -1 8 -1 9 -1 5 -1 -2	86	1
1 -1 1 7 8 -1 2 -1 2 5 9 -1 2 5 -1 5 -1 5 -1 2 4 -1 1 7 -1 8 -1 1 2 -1 -2	1	1
10 -1 5 -1 2 -1 -2	411	1
9 -1 8 -1 6 -1 10 -1 7 -1 -2	31	1
5 -1 1 -1 9 -1 9 -1 9 -1 5 -1 -2	1292	1
1 -1 4 -1 9 -1 -2	891	1
7 -1 1 7 -1 -2	2576	2
9 -1 9 -1 1 -1 5 -1 1 -1 8 -1 1 -1 -2	579	1
1 4 -1 8 -1 1 -1 4 9 -1 1 7 -1 7 -1 10 -1 -2	18	1
3 -1 1 9 -1 1 -1 1 3 5 -1 -2	381	1
1 -1 2 7 -1 8 -1 5 8 -1 -2	449	1
1 -1 7 -1 1 7 -1 1 -1 1 -1 -2	1125	1
4 -1 4 -1 3 -1 1 7 -1 8 -1 5 -1 4 -1 9 -1 -2	11	1
4 5 -1 4 -1 6 -1 4 6 -1 3 9 -1 1 9 -1 9 10 -1 -2	1	1
5 -1 3 -1 7 -1 -2	891	1
1 -1 1 -1 10 -1 -2	911	2
3 -1 1 5 -1 9 -1 5 -1 -2	701	1
1 8 -1 1 -1 5 7 -1 3 -1 4 -1 1 8 -1 -2	52	1
8 -1 9 -1 5 -1 7 -1 -2	1606	1
1 -1 3 9 -1 1 -1 3 4 -1 -2	125	1
5 -1 1 -1 8 -1 5 -1 -2	2359	1
5 -1 7 8 9 -1 1 -1 5 -1 3 5 8 -1 1 5 -1 8 9 -1 -2	69	1
7 -1 4 -1 1 2 -1 -2	271	1
5 -1 4 -1 9 -1 -2	930	1
1 5 9 -1 1 8 -1 1 -1 -2	1540	1
1 8 -1 1 -1 2 -1 1 -1 5 -1 2 5 -1 -2	278	1
1 5 -1 1 -1 2 -1 2 -1 9 -1 -2	563	1
7 -1 1 9 -1 9 -1 9 -1 -2	1642	1
2 -1 2 -1 4 7 -1 1 -1 7 -1 5 6 9 -1 -2	7	1
1 8 -1 1 -1 2 -1 -2	1230	1
9 -1 8 -1 1 -1 1 -1 8 -1 -2	1511	1
4 -1 2 -1 3 -1 9 -1 1 4 8 -1 -2	42	1
1 -1 7 -1 5 8 -1 10 -1 -2	330	1
2 -1 2 -1 8 -1 2 -1 8 -1 -2	567	1
8 9 -1 8 -1 2 9 -1 9 -1 7 -1 -2	411	1
10 -1 1 -1 9 -1 1 5 -1 5 -1 5 -1 9 -1 9 -1 -2	92	1
1 -1 1 -1 7 -1 2 -1 8 9 -1 -2	457	1
6 -1 7 -1 2 7 -1 7 -1 1 7 -1 -2	34	1
3 -1 7 8 -1 -2	722	1
4 7 -1 7 8 -1 4 8 -1 -2	221	1
5 -1 8 -1 9 -1 3 -1 1 -1 8 -1 -2	332	1
1 5 8 -1 8 -1 10 -1 1 -1 8 -1 1 -1 -2	175	1
5 -1 4 9 -1 8 -1 8 9 -1 -2	390	1
8 -1 1 -1 1 4 -1 1 5 10 -1 -2	97	1
10 -1 1 8 -1 1 -1 -2	620	1
1 -1 1 -1 2 5 -1 -2	1329	1
7 -1 9 -1 9 -1 9 -1 2 -1 1 -1 8 -1 -2	222	1
2 -1 8 9 -1 5 -1 7 -1 1 -1 9 -1 1 -1 1 2 -1 -2	69	1
1 -1 5 -1 10 -1 4 -1 -2	183	1
9 -1 1 -1 1 5 -1 -2	2804	2
2 3 5 -1 8 -1 2 9 -1 8 -1 1 -1 2 9 -1 -2	67	1
10 -1 1 -1 7 9 -1 -2	472	1
4 -1 5 9 -1 3 5 -1 -2	231	1
7 -1 9 -1 1 8 -1 3 -1 -2	459	1
5 6 -1 1 -1 1 -1 5 8 -1 -2	155	1
1 -1 9 -1 9 -1 1 -1 2 -1 -2	905	1
1 8 -1 1 -1 10 -1 1 -1 -2	486	1
1 -1 2 -1 5 -1 3 -1 9 -1 4 9 -1 -2	53	1
7 8 -1 7 10 -1 -2	397	1
4 7 -1 2 -1 5 9 -1 -2	215	1
1 2 -1 8 -1 2 -1 4 5 7 -1 -2	95	1
9 -1 1 -1 5 -1 1 -1 4 -1 -2	500	1
9 -1 1 10 -1 1 -1 -2	634	1
7 8 -1 7 9 -1 -2	1639	1
1 -1 1 3 9 -1 3 -1 4 -1 4 5 -1 1 5 -1 1 5 -1 -2	26	1
6 -1 8 -1 5 6 9 -1 5 -1 -2	94	1
9 -1 8 -1 9 -1 7 -1 -2	1735	1
5 8 -1 4 -1 5 -1 8 9 -1 1 -1 5 -1 -2	185	1
2 -1 2 -1 10 -1 -2	372	1
1 7 9 -1 8 -1 1 4 -1 -2	296	1
5 8 -1 5 8 -1 -2	3119	1
5 -1 4 -1 1 -1 8 -1 3 -1 4 -1 5 8 -1 -2	40	1
9 -1 3 -1 1 -1 4 -1 3 -1 -2	118	1
3 -1 1 -1 5 -1 1 -1 -2	883	1
9 -1 2 8 -1 -2	1330	1
9 -1 6 -1 8 -1 8 -1 3 -1 -2	55	1
8 -1 3 5 -1 9 -1 1 -1 9 -1 7 8 -1 5 -1 -2	113	1
5 -1 2 -1 8 -1 1 -1 -2	1038	1
3 -1 5 8 -1 7 -1 5 -1 6 9 -1 1 7 -1 3 -1 -2	7	1
1 -1 1 4 -1 3 5 8 -1 4 7 -1 8 -1 1 -1 1 9 -1 9 -1 -2	10	1
3 7 -1 1 -1 -2	724	1
5 -1 1 -1 1 5 -1 7 -1 -2	1655	1
3 8 -1 1 -1 4 8 -1 1 8 -1 9 -1 -2	85	1
5 -1 7 10 -1 9 -1 -2	421	1
1 5 -1 10 -1 2 7 -1 5 9 -1 9 -1 1 -1 9 -1 9 -1 8 -1 5 9 -1 -2	7	1
3 5 -1 3 -1 1 2 -1 -2	331	1
5 -1 1 -1 8 -1 4 -1 9 -1 8 10 -1 5 8 -1 -2	34	1
9 -1 5 -1 8 -1 5 -1 -2	2391	1
2 -1 7 -1 1 -1 1 -1 8 -1 -2	523	1
4 9 -1 2 -1 -2	444	1
5 8 9 -1 1 9 -1 -2	1834	1
5 10 -1 8 -1 -2	697	1
1 -1 1 -1 7 -1 8 -1 3 9 -1 9 -1 9 -1 5 -1 7 -1 2 -1 1 -1 -2	3	1
5 -1 8 -1 5 9 -1 -2	2514	1
1 -1 1 -1 1 -1 1 -1 7 -1 -2	1580	1
1 -1 3 7 8 9 -1 4 -1 5 -1 5 -1 -2	64	1
1 -1 1 3 -1 10 -1 -2	261	1
8 -1 9 -1 8 -1 -2	3327	1
9 -1 7 -1 7 -1 3 7 -1 7 -1 8 -1 1 -1 7 8 9 -1 -2	32	1
1 8 -1 5 -1 8 9 -1 9 -1 9 -1 -2	995	1
3 9 -1 1 -1 10 -1 1 3 8 -1 1 8 -1 -2	49	1
9 -1 5 6 8 -1 5 -1 3 -1 2 5 -1 9 -1 -2	19	1
5 8 9 -1 10 -1 -2	570	1
3 -1 1 5 -1 6 9 -1 4 -1 1 5 -1 4 -1 1 2 7 -1 -2	6	1
10 -1 5 -1 7 -1 2 -1 9 -1 -2	159	1
5 -1 8 -1 7 -1 1 -1 -2	1564	1
5 -1 1 -1 7 -1 3 4 -1 1 -1 -2	98	1
8 -1 5 -1 1 8 -1 -2	2424	1
9 -1 1 -1 9 -1 9 -1 -2	3168	1
1 5 -1 7 -1 7 9 -1 -2	1428	1
1 9 -1 8 -1 9 -1 9 -1 5 -1 -2	1300	1
2 -1 7 -1 2 10 -1 8 -1 8 -1 2 5 -1 -2	49	1
8 -1 8 -1 2 -1 7 10 -1 9 -1 -2	118	1
1 -1 1 8 -1 5 9 -1 -2	1854	1
7 9 -1 9 -1 1 -1 -2	2039	2
1 5 8 -1 1 3 9 -1 -2	501	1
3 5 -1 1 9 -1 -2	843	1
4 5 8 -1 6 8 -1 9 -1 4 -1 -2	27	1
1 5 -1 1 -1 4 -1 3 -1 -2	212	1
7 -1 1 -1 9 -1 8 -1 -2	1567	1
5 -1 1 -1 1 9 -1 5 -1 -2	2215	1
3 7 9 -1 10 -1 -2	188	1
1 9 -1 3 6 -1 9 -1 6 7 -1 -2	25	1
7 10 -1 3 -1 3 -1 -2	136	1
4 -1 1 7 -1 5 -1 7 -1 5 -1 -2	259	1
1 5 -1 3 10 -1 1 -1 -2	158	1
5 9 -1 7 -1 1 -1 2 3 -1 8 -1 6 -1 2 8 9 -1 1 -1 3 -1 -2	2	1
5 -1 3 -1 5 8 -1 1 -1 7 -1 5 10 -1 -2	58	1
3 -1 5 -1 5 -1 1 -1 7 -1 -2	467	1
5 -1 8 -1 5 -1 1 -1 1 -1 -2	1652	1
1 -1 1 -1 1 -1 1 -1 5 -1 -2	2332	1
1 5 -1 2 -1 -2	1709	1
9 -1 4 5 -1 2 10 -1 9 10 -1 8 -1 3 -1 5 7 -1 3 -1 3 -1 -2	1	1
3 -1 1 -1 1 -1 1 5 -1 8 -1 2 -1 -2	155	1
7 -1 10 -1 5 -1 7 8 -1 -2	330	1
