#subsequence (s \in Sample : s ~ D)	freq(s,D)	freq(s,Sample)

1 -1 2 -1 -2	27270	108
3 -1 -2	28139	430
1 -1 -2	78307	3279
2 -1 3 -1 -2	10970	22
5 -1 -2	83671	1270
1 -1 3 -1 -2	21824	73
6 -1 1 -1 -2	6209	25
5 -1 4 -1 5 -1 -2	17163	3
4 -1 -2	24379	345
3 -1 5 -1 -2	22674	43
6 -1 1 3 -1 4 -1 -2	991	1
4 -1 1 -1 -2	18786	56
1 -1 1 -1 -2	70650	509
3 4 -1 3 -1 -2	4842	4
2 -1 -2	35459	678
3 -1 3 -1 -2	22143	38
2 -1 2 3 -1 -2	7009	4
5 -1 1 -1 4 -1 -2	15350	5
2 -1 1 -1 1 -1 -2	22511	15
1 2 -1 1 -1 4 -1 -2	6851	2
1 5 -1 1 5 -1 -2	48120	2
2 -1 5 -1 -2	29118	48
1 5 -1 3 -1 -2	18058	4
1 -1 4 -1 -2	18891	77
5 -1 1 -1 5 -1 -2	53031	10
5 -1 1 -1 -2	61810	192
3 -1 5 -1 3 -1 1 -1 3 -1 1 3 -1 3 4 -1 1 -1 -2	354	1
2 5 -1 -2	27709	34
2 -1 2 -1 4 -1 1 -1 -2	5380	1
1 3 -1 1 2 5 -1 5 -1 -2	5930	1
4 -1 4 5 -1 -2	14038	1
1 -1 6 -1 6 -1 -2	3425	2
1 3 -1 -2	19975	40
3 -1 1 -1 1 -1 -2	17988	12
1 -1 1 -1 1 -1 -2	61214	69
1 2 -1 1 2 -1 1 -1 -2	14309	1
3 -1 2 3 -1 1 -1 3 -1 -2	3692	1
1 -1 1 2 -1 4 -1 -2	6852	2
3 -1 1 -1 -2	21603	75
1 -1 5 -1 5 -1 -2	52799	8
5 -1 2 4 -1 5 -1 1 2 -1 -2	3549	1
1 -1 5 -1 1 -1 1 -1 -2	41670	5
6 -1 -2	7922	86
1 -1 2 -1 1 -1 -2	22807	11
1 -1 1 -1 1 -1 4 -1 -2	13006	2
1 3 5 -1 1 -1 5 -1 -2	12320	1
1 -1 2 -1 5 -1 -2	21922	9
5 -1 5 -1 -2	77235	116
1 -1 1 -1 5 -1 -2	52303	36
2 -1 1 -1 -2	27049	92
1 -1 2 5 -1 2 -1 -2	15886	1
3 -1 1 -1 5 -1 -2	17064	4
1 -1 1 5 -1 -2	52586	28
1 5 -1 -2	58721	159
5 -1 2 -1 1 5 -1 5 -1 -2	16278	1
1 -1 3 -1 1 4 -1 1 -1 -2	4595	1
5 -1 1 5 -1 -2	53537	7
5 -1 1 2 -1 -2	21050	8
2 -1 2 -1 1 -1 -2	20151	8
2 5 -1 5 -1 1 -1 -2	18978	1
1 -1 3 -1 2 -1 -2	8844	2
4 -1 5 -1 -2	19886	23
5 -1 3 -1 -2	22905	32
2 5 -1 2 5 -1 2 -1 -2	14926	1
5 -1 5 -1 5 -1 -2	67993	14
4 -1 1 -1 1 -1 -2	15541	6
4 5 -1 -2	18649	16
5 -1 2 5 -1 -2	25347	2
3 5 -1 3 -1 -2	16819	4
2 -1 5 -1 3 5 -1 1 -1 -2	6333	1
3 -1 4 5 -1 -2	6793	2
3 5 -1 -2	21740	24
1 2 -1 -2	24492	57
5 -1 1 -1 2 -1 3 -1 4 -1 6 -1 -2	359	1
2 3 -1 -2	8927	12
1 -1 5 -1 2 -1 -2	22200	5
1 -1 6 -1 -2	6363	23
1 5 -1 4 -1 -2	16065	5
1 5 -1 1 -1 -2	52736	33
2 -1 2 -1 -2	28506	56
1 -1 1 2 -1 1 -1 1 5 -1 -2	13487	1
1 -1 5 -1 1 -1 -2	51936	25
2 3 -1 2 3 -1 5 -1 -2	3904	1
4 -1 2 -1 1 -1 -2	8106	4
1 5 -1 1 -1 4 -1 2 -1 2 -1 -2	3611	1
1 -1 3 -1 1 -1 -2	18379	7
6 -1 1 -1 1 -1 1 -1 3 -1 -2	1376	1
1 4 -1 -2	17334	25
5 -1 4 -1 -2	20126	25
2 4 -1 1 -1 4 -1 -2	4579	1
5 -1 5 -1 1 -1 -2	53691	9
2 -1 1 3 -1 3 -1 1 -1 -2	4841	1
1 5 6 -1 1 -1 1 -1 6 -1 -2	1996	1
5 -1 1 -1 1 -1 -2	52159	22
1 -1 5 -1 -2	61318	174
2 -1 1 -1 2 -1 2 -1 -2	13005	3
1 -1 3 -1 3 -1 -2	15643	3
4 -1 1 -1 4 -1 -2	12815	5
1 5 -1 3 -1 1 5 -1 -2	14144	1
1 -1 4 -1 1 -1 -2	15765	12
4 -1 1 3 -1 -2	6456	3
5 -1 3 -1 5 -1 -2	19850	3
5 -1 2 -1 -2	29654	42
1 3 -1 1 -1 -2	17784	8
3 -1 1 -1 1 3 -1 -2	13028	1
3 -1 5 -1 1 -1 1 -1 2 5 -1 -2	4888	1
5 -1 2 -1 1 -1 -2	22179	5
5 -1 5 -1 3 -1 -2	20111	2
2 -1 5 -1 3 -1 -2	9085	2
5 -1 1 2 -1 1 -1 -2	18010	1
6 -1 6 -1 -2	5160	7
3 -1 1 -1 5 -1 5 -1 -2	13807	2
3 -1 1 -1 3 -1 6 -1 -2	1497	1
4 -1 4 -1 -2	18570	21
5 -1 5 -1 1 -1 1 4 -1 -2	10451	1
1 -1 4 -1 3 -1 3 -1 1 -1 -2	3058	1
1 -1 1 5 -1 1 -1 3 -1 3 -1 -2	7373	1
4 -1 4 -1 1 -1 -2	13060	3
2 5 -1 1 -1 -2	21778	13
3 -1 5 -1 3 -1 -2	16516	3
1 -1 1 5 -1 5 -1 -2	45429	2
3 -1 2 -1 2 -1 -2	7778	2
1 -1 1 2 -1 -2	22025	11
1 3 -1 1 -1 1 -1 -2	15184	1
3 -1 1 5 -1 2 -1 -2	7813	1
1 5 -1 1 -1 1 -1 -2	45478	4
3 -1 1 -1 1 5 -1 1 -1 6 -1 -2	1296	1
3 -1 1 -1 2 -1 -2	8737	4
1 4 -1 1 5 -1 -2	13406	3
2 -1 2 -1 2 -1 1 -1 4 -1 -2	3291	1
1 -1 1 -1 1 5 -1 -2	45397	3
2 -1 4 -1 -2	9949	12
3 -1 3 -1 4 -1 -2	5643	3
1 -1 5 -1 5 -1 1 -1 5 -1 -2	31055	1
4 6 -1 -2	1703	5
2 -1 1 5 -1 -2	22467	5
3 -1 4 -1 5 -1 2 -1 4 -1 4 -1 -2	944	1
1 -1 1 -1 6 -1 -2	5350	2
3 -1 6 -1 1 -1 1 -1 -2	1740	1
2 -1 2 -1 1 2 -1 1 -1 -2	10908	1
2 6 -1 -2	2439	2
2 -1 5 -1 2 -1 -2	21420	2
4 -1 1 -1 5 -1 -2	14954	5
3 6 -1 2 -1 -2	1021	1
1 2 -1 5 -1 4 -1 2 -1 -2	4617	1
1 -1 4 5 -1 -2	15001	4
4 -1 4 -1 3 -1 -2	5523	2
3 4 -1 -2	6234	11
1 -1 1 -1 3 -1 -2	18760	9
1 5 -1 2 5 -1 -2	20045	3
4 -1 1 3 -1 1 -1 -2	5504	1
3 -1 3 -1 3 5 -1 -2	12369	1
1 -1 4 -1 3 -1 -2	6391	2
4 -1 5 -1 5 -1 -2	16829	3
5 -1 1 4 -1 -2	14820	4
3 -1 2 -1 1 -1 1 -1 5 -1 -2	5257	1
3 -1 4 -1 -2	7941	12
2 -1 1 -1 1 -1 5 -1 -2	17144	1
4 -1 5 -1 2 -1 -2	8358	3
5 -1 4 -1 5 -1 1 -1 -2	12294	1
1 -1 5 -1 6 -1 4 -1 -2	1719	1
1 4 5 -1 1 -1 -2	12352	2
1 5 -1 5 -1 5 -1 -2	46753	2
6 -1 5 -1 -2	6354	11
6 -1 4 -1 -2	2647	2
1 3 -1 4 -1 1 3 -1 -2	4182	2
3 -1 6 -1 -2	2710	3
6 -1 5 -1 4 -1 -2	2156	1
2 5 -1 3 -1 -2	9279	1
5 -1 5 -1 2 -1 1 -1 1 -1 -2	13648	1
1 -1 1 -1 5 -1 1 -1 -2	41831	2
3 -1 2 -1 1 -1 -2	8685	3
1 -1 1 3 -1 -2	18024	8
4 -1 1 5 -1 1 -1 4 -1 -2	8185	1
3 4 -1 2 5 -1 -2	2968	1
1 4 -1 1 -1 -2	15393	7
1 5 -1 1 -1 1 4 5 -1 -2	10199	1
1 -1 2 3 -1 -2	7415	1
1 5 -1 5 -1 1 5 -1 -2	41644	1
2 5 -1 3 -1 2 -1 1 5 -1 -2	4818	1
3 -1 5 -1 2 -1 -2	9100	2
1 2 -1 4 -1 -2	7932	2
1 2 -1 5 -1 2 -1 -2	15306	1
1 -1 1 -1 3 5 -1 1 -1 -2	12134	1
5 -1 3 -1 1 3 -1 1 -1 -2	9575	1
3 -1 3 -1 3 -1 -2	16676	4
1 4 -1 5 -1 1 -1 -2	12363	1
3 -1 1 6 -1 -2	2201	1
1 4 -1 2 -1 2 -1 4 -1 -2	3438	1
2 -1 1 -1 1 -1 1 -1 1 -1 -2	13640	1
5 -1 5 -1 1 4 -1 -2	12866	1
1 -1 2 -1 1 -1 5 -1 -2	17358	3
3 -1 2 -1 1 -1 2 -1 -2	5729	1
1 3 -1 1 -1 1 4 -1 -2	4980	1
1 -1 5 -1 6 -1 -2	4972	5
1 -1 2 5 -1 1 -1 -2	18384	1
2 -1 1 -1 2 -1 -2	19521	2
2 -1 3 5 -1 6 -1 3 -1 -2	812	1
4 -1 4 -1 5 -1 -2	13898	2
2 -1 3 -1 5 -1 1 -1 -2	6856	1
5 -1 1 -1 5 -1 5 -1 -2	43174	2
3 -1 1 -1 3 5 6 -1 2 -1 3 5 -1 -2	426	1
6 -1 2 -1 -2	3241	3
3 -1 1 -1 3 6 -1 3 -1 5 -1 -2	677	1
1 6 -1 1 -1 3 4 -1 -2	751	1
3 5 -1 5 -1 1 -1 -2	14915	1
1 -1 1 2 -1 5 -1 -2	17992	1
3 5 -1 1 -1 -2	17274	11
1 -1 4 5 -1 2 4 -1 1 -1 -2	3310	1
1 -1 5 -1 3 -1 -2	17464	3
5 -1 1 4 -1 5 -1 5 -1 1 6 -1 2 -1 1 -1 -2	374	1
5 -1 1 -1 3 -1 -2	17533	2
3 -1 1 2 -1 1 -1 -2	7397	1
1 5 -1 3 -1 3 -1 -2	12927	1
1 5 -1 2 -1 -2	22882	5
2 -1 2 -1 3 -1 -2	8264	3
1 -1 1 -1 1 -1 5 -1 -2	42097	2
1 5 -1 5 -1 -2	53389	14
1 3 -1 5 -1 -2	16601	3
1 5 -1 4 -1 2 -1 2 -1 1 2 -1 1 -1 -2	1916	1
2 -1 3 -1 1 2 -1 1 -1 3 -1 -2	3024	1
1 2 -1 2 -1 3 -1 -2	6600	1
4 -1 1 -1 3 -1 -2	6323	4
5 -1 4 -1 4 -1 1 -1 1 -1 -2	6871	1
3 5 -1 3 -1 5 -1 -2	14233	1
6 -1 3 -1 -2	2682	4
1 2 -1 2 -1 -2	19396	3
1 -1 4 -1 4 -1 1 -1 -2	9921	1
2 4 -1 -2	7985	8
1 5 -1 2 -1 1 3 -1 -2	6999	1
3 -1 1 -1 2 5 -1 -2	7544	1
2 -1 3 -1 1 -1 2 -1 -2	5758	1
1 -1 1 4 5 -1 -2	12319	1
4 -1 6 -1 2 -1 -2	1210	1
1 -1 2 5 -1 -2	21853	7
1 3 4 -1 3 -1 2 6 -1 -2	382	1
4 -1 3 -1 5 -1 -2	6604	2
1 -1 4 -1 4 -1 4 -1 -2	8260	2
1 5 -1 5 -1 2 -1 1 5 -1 -2	14948	1
4 5 -1 4 -1 1 -1 2 -1 1 -1 1 -1 5 -1 -2	1532	1
3 -1 1 -1 4 -1 1 3 -1 1 -1 -2	2754	1
2 -1 2 5 -1 -2	22115	8
5 -1 1 5 -1 5 -1 -2	46706	2
1 3 -1 3 5 -1 3 5 -1 -2	8400	1
1 -1 2 -1 6 -1 -2	2591	1
1 4 -1 1 -1 5 -1 1 2 -1 2 5 -1 -2	3005	1
1 4 -1 1 -1 4 -1 -2	10650	1
1 5 -1 6 -1 5 -1 -2	4553	1
1 2 -1 1 -1 1 -1 -2	18712	3
1 5 -1 5 -1 1 -1 -2	45651	2
1 4 -1 1 5 -1 2 -1 1 -1 -2	5184	1
2 -1 1 -1 1 5 -1 -2	18973	1
4 -1 4 -1 2 4 -1 -2	4292	1
1 2 -1 2 4 -1 -2	5134	1
2 -1 2 -1 5 -1 -2	21810	5
5 -1 5 -1 5 -1 5 -1 -2	55625	2
5 -1 3 -1 1 -1 -2	17399	6
1 -1 1 -1 4 -1 -2	16021	5
1 2 6 -1 -2	1889	1
3 -1 4 -1 1 -1 -2	6284	2
2 5 -1 2 -1 1 -1 -2	16335	1
2 -1 4 -1 1 -1 -2	7860	1
3 -1 1 5 -1 1 -1 5 -1 4 -1 -2	3642	1
1 -1 1 5 -1 1 -1 -2	45339	1
4 -1 1 -1 5 6 -1 -2	1666	2
1 -1 1 -1 1 2 -1 -2	18995	3
1 -1 2 4 -1 -2	6582	2
1 2 -1 3 -1 5 -1 -2	7323	1
3 -1 4 -1 4 -1 -2	5285	2
1 -1 2 -1 5 -1 1 -1 -2	17394	2
1 -1 5 -1 2 -1 2 -1 -2	14425	1
1 4 5 -1 -2	13831	4
5 -1 2 4 -1 -2	6817	1
1 2 -1 1 -1 -2	21787	11
1 -1 1 -1 1 -1 1 -1 -2	49424	9
4 -1 2 -1 -2	10322	16
1 -1 2 -1 4 6 -1 -2	811	1
1 4 -1 2 6 -1 -2	970	1
3 -1 3 -1 5 -1 5 -1 1 -1 -2	8278	1
2 5 -1 5 -1 -2	25052	3
1 3 -1 1 4 5 -1 2 -1 2 -1 -2	1923	1
1 -1 2 -1 2 -1 -2	19702	3
2 -1 1 2 -1 -2	19395	2
1 -1 5 -1 5 -1 5 -1 -2	42980	1
5 -1 5 -1 3 -1 1 -1 -2	14468	1
3 -1 5 -1 5 -1 1 -1 -2	13970	1
5 -1 5 -1 2 3 -1 -2	6763	1
1 6 -1 1 -1 2 -1 -2	2274	1
4 -1 3 -1 -2	7980	4
2 -1 3 -1 4 -1 -2	3737	1
2 -1 3 -1 3 -1 -2	7660	1
1 4 -1 3 -1 -2	6462	3
5 -1 2 -1 2 5 -1 5 -1 3 -1 -2	4356	1
5 -1 2 -1 5 -1 -2	25519	4
3 -1 1 2 -1 2 -1 1 -1 -2	5012	1
1 5 -1 6 -1 6 -1 6 -1 -2	1792	1
1 -1 1 -1 4 -1 1 -1 -2	12917	1
1 -1 1 -1 2 -1 5 -1 1 -1 3 -1 -2	3954	1
4 6 -1 2 -1 4 -1 4 -1 3 -1 6 -1 3 -1 -2	49	1
1 -1 4 -1 2 -1 -2	8067	4
3 -1 1 5 -1 1 -1 -2	15006	1
4 -1 4 -1 1 -1 5 -1 1 -1 1 -1 -2	4649	1
1 -1 1 4 -1 3 -1 -2	5601	1
1 -1 1 4 -1 -2	15491	4
1 -1 1 -1 2 -1 -2	23030	11
2 -1 1 -1 4 -1 -2	7874	3
3 -1 5 -1 1 -1 -2	17042	2
2 -1 5 -1 1 -1 -2	21703	7
4 -1 5 -1 1 -1 -2	14966	3
3 5 -1 1 -1 2 -1 1 -1 -2	6206	1
4 5 -1 1 -1 1 3 -1 -2	4955	1
1 -1 3 -1 3 -1 1 5 -1 -2	9838	1
4 -1 3 -1 4 -1 2 -1 -2	2416	1
3 -1 1 2 -1 1 5 -1 -2	6810	1
1 2 6 -1 1 -1 4 -1 1 -1 -2	698	1
5 -1 3 -1 4 -1 2 -1 4 -1 1 -1 -2	1208	1
1 3 5 -1 -2	15903	3
2 4 -1 1 -1 2 -1 -2	4854	1
5 -1 2 5 -1 3 -1 5 -1 1 -1 -2	5043	1
5 -1 3 -1 1 -1 1 2 -1 -2	6100	1
5 -1 5 -1 2 -1 4 -1 5 -1 -2	5369	1
5 -1 1 -1 1 -1 3 -1 -2	14351	1
1 2 3 -1 2 -1 -2	5306	1
1 -1 1 -1 1 -1 3 -1 -2	15373	1
3 5 -1 1 -1 1 -1 2 -1 -2	6224	1
1 3 -1 3 -1 -2	15563	2
1 -1 2 5 -1 1 6 -1 -2	1999	1
2 -1 3 5 -1 -2	9368	3
1 5 -1 4 5 -1 4 -1 -2	9536	1
1 -1 3 -1 1 -1 2 -1 1 -1 -2	5405	1
1 5 -1 3 5 -1 1 -1 -2	13573	1
6 -1 5 -1 1 -1 -2	5009	2
1 3 -1 2 -1 1 2 -1 -2	5516	1
1 3 -1 2 -1 -2	8793	2
2 -1 4 -1 4 -1 -2	6559	1
1 -1 1 6 -1 1 -1 -2	4376	1
3 5 -1 2 -1 3 -1 -2	6625	1
5 -1 2 -1 4 -1 3 -1 5 -1 -2	2472	1
3 -1 3 -1 1 -1 -2	15537	5
1 3 -1 4 -1 -2	6471	1
4 -1 5 -1 2 -1 2 -1 -2	5414	1
2 -1 3 -1 1 -1 4 -1 -2	2939	1
1 5 -1 4 6 -1 -2	1392	1
2 -1 1 -1 3 -1 -2	8771	2
5 -1 3 -1 1 -1 1 -1 3 -1 -2	8308	1
1 -1 4 -1 5 -1 3 -1 5 -1 6 -1 -2	506	1
1 -1 3 -1 5 -1 -2	17302	4
1 -1 1 4 -1 5 -1 1 -1 -2	10168	1
4 -1 4 -1 4 -1 -2	13331	2
5 -1 2 -1 1 -1 3 -1 1 -1 3 -1 -2	2905	1
2 -1 5 -1 2 -1 4 -1 -2	5508	1
3 -1 5 -1 5 -1 5 -1 -2	15948	1
5 -1 1 -1 1 3 -1 -2	14585	1
3 -1 3 -1 5 -1 -2	16461	1
5 -1 5 -1 2 -1 -2	25922	4
2 -1 3 -1 4 -1 1 3 -1 6 -1 -2	358	1
5 -1 6 -1 1 -1 -2	5071	1
5 -1 4 -1 1 4 -1 1 2 4 -1 3 -1 -2	1066	1
5 -1 1 -1 2 -1 -2	22153	5
5 -1 1 5 -1 2 -1 -2	19936	2
4 -1 4 -1 6 -1 -2	1583	1
5 -1 1 3 -1 -2	16805	1
1 -1 1 -1 2 -1 1 4 -1 1 5 -1 -2	4153	1
2 -1 1 -1 5 -1 3 -1 -2	7087	1
1 -1 4 -1 1 3 -1 6 -1 -2	778	1
1 -1 1 2 -1 5 -1 5 -1 -2	14661	1
5 6 -1 1 -1 -2	5005	1
3 -1 1 3 -1 5 -1 1 -1 -2	9507	1
1 4 -1 1 3 -1 -2	5781	1
4 -1 2 -1 4 5 -1 -2	5645	1
5 -1 2 3 -1 1 3 -1 -2	4741	1
4 -1 6 -1 -2	2377	4
1 5 -1 4 5 -1 -2	13950	1
2 -1 4 -1 2 5 -1 -2	6105	2
4 -1 2 4 -1 4 -1 6 -1 6 -1 -2	238	1
1 -1 1 3 5 -1 5 -1 1 -1 -2	10239	1
1 -1 2 -1 1 -1 2 -1 -2	14883	1
3 -1 3 -1 2 -1 5 -1 -2	5950	1
1 4 -1 3 -1 1 4 -1 2 4 -1 -2	1343	1
1 -1 1 3 -1 1 -1 -2	15496	1
1 5 -1 1 -1 5 -1 -2	45663	1
3 5 -1 5 -1 1 5 -1 -2	13776	1
4 5 -1 5 -1 -2	16908	1
1 4 -1 5 -1 -2	14693	3
3 -1 6 -1 1 4 5 -1 5 -1 -2	769	1
5 -1 3 -1 1 -1 1 -1 -2	13844	1
2 -1 1 -1 1 -1 1 -1 -2	18106	1
4 -1 5 -1 5 -1 2 -1 -2	6790	1
1 -1 3 -1 1 -1 1 2 -1 4 -1 1 -1 1 -1 -2	1092	1
1 3 -1 5 -1 1 -1 -2	14119	1
1 -1 4 -1 1 5 -1 1 4 -1 -2	7144	1
2 -1 5 -1 2 -1 2 5 -1 -2	12452	1
1 6 -1 6 -1 -2	3702	1
1 5 -1 1 -1 4 -1 4 -1 -2	8337	1
1 6 -1 1 -1 5 -1 1 -1 2 -1 6 -1 5 -1 -2	376	1
2 5 -1 2 -1 1 -1 2 -1 -2	10828	1
3 -1 5 -1 1 3 -1 -2	12151	1
3 5 -1 3 -1 4 -1 -2	4917	1
3 -1 2 -1 -2	11008	10
3 -1 3 -1 2 -1 -2	7859	1
1 -1 1 -1 3 4 -1 1 -1 -2	3672	1
1 -1 5 -1 4 -1 -2	15286	2
5 -1 5 -1 3 5 -1 -2	17308	1
1 -1 1 -1 5 -1 4 -1 -2	12257	1
1 -1 5 6 -1 4 -1 -2	1919	1
1 4 -1 2 -1 -2	8036	3
4 -1 1 -1 1 2 -1 -2	6791	1
1 -1 2 4 -1 4 -1 -2	4595	1
5 -1 5 -1 5 -1 1 -1 -2	44084	1
1 -1 1 -1 1 4 -1 1 -1 -2	11095	1
1 5 6 -1 -2	4611	1
2 -1 1 4 -1 6 -1 -2	1113	1
1 2 -1 2 -1 4 -1 1 5 -1 -2	4326	1
1 -1 2 5 -1 1 3 -1 1 -1 5 -1 -2	4430	1
3 -1 5 -1 1 -1 6 -1 -2	1782	1
4 -1 2 4 -1 -2	6087	1
1 3 -1 1 5 -1 -2	15073	1
3 6 -1 1 -1 -2	1610	1
5 -1 1 -1 1 2 -1 3 -1 -2	6252	1
1 -1 4 -1 6 -1 -2	1961	1
1 -1 3 5 -1 -2	17381	5
1 2 -1 1 2 3 -1 -2	4897	1
3 5 -1 5 -1 -2	19507	4
4 6 -1 1 -1 5 -1 -2	1190	1
2 -1 1 -1 5 -1 -2	21572	6
5 -1 6 -1 2 -1 -2	2745	2
2 -1 5 -1 2 -1 1 -1 -2	14707	1
1 -1 5 -1 3 5 -1 -2	15170	1
1 3 -1 6 -1 -2	2290	1
5 -1 5 -1 1 -1 5 -1 -2	43464	2
2 5 -1 1 3 -1 -2	7726	2
3 -1 4 -1 1 -1 5 -1 -2	4980	1
5 -1 6 -1 -2	6579	6
5 -1 1 -1 6 -1 -2	5011	2
5 -1 4 5 -1 1 -1 -2	13094	1
1 -1 6 -1 1 -1 3 -1 -2	1833	1
1 -1 1 5 -1 1 -1 1 -1 -2	36756	1
2 -1 1 5 -1 1 -1 5 -1 -2	15521	1
1 6 -1 1 -1 -2	5033	1
5 -1 5 -1 4 -1 -2	17439	2
3 -1 5 -1 2 -1 5 -1 2 -1 -2	4533	1
1 -1 2 5 -1 1 -1 2 -1 5 -1 -2	9138	1
4 5 -1 3 -1 2 -1 2 -1 1 -1 -2	1816	1
1 -1 1 2 -1 2 -1 -2	16211	1
4 5 -1 1 -1 2 3 -1 -2	2651	1
5 -1 1 -1 4 -1 3 -1 1 -1 -2	4052	1
1 6 -1 1 -1 1 -1 -2	4403	1
6 -1 3 -1 2 -1 -2	1308	1
3 -1 1 4 -1 4 -1 -2	4260	1
4 5 -1 4 5 -1 -2	12709	1
4 6 -1 1 5 -1 -2	1312	1
1 2 -1 1 -1 2 -1 1 -1 -2	12778	1
1 -1 5 -1 2 -1 1 5 -1 -2	15983	1
1 -1 1 -1 5 -1 5 -1 -2	41713	3
1 3 -1 4 -1 5 6 -1 1 4 5 -1 -2	513	1
1 -1 3 -1 2 -1 1 -1 1 -1 -2	5387	1
1 5 -1 3 -1 1 -1 -2	15330	2
3 -1 1 -1 1 -1 4 -1 1 -1 -2	3865	1
1 -1 1 -1 2 -1 2 -1 -2	14899	1
4 5 -1 1 -1 -2	15060	5
2 5 -1 1 -1 4 -1 1 -1 -2	5682	1
5 -1 2 -1 2 -1 3 -1 -2	6255	1
1 -1 3 -1 2 -1 3 -1 -2	5715	1
1 6 -1 1 6 -1 -2	3254	1
6 -1 4 -1 4 -1 -2	1776	1
2 -1 1 5 -1 1 -1 -2	18988	2
1 -1 4 -1 4 -1 -2	12934	2
6 -1 1 -1 1 -1 -2	5255	2
3 -1 3 4 -1 5 -1 -2	3946	1
1 6 -1 -2	5662	7
2 -1 6 -1 -2	3159	3
5 -1 1 5 -1 1 -1 -2	45637	2
3 -1 1 -1 1 -1 1 -1 2 -1 -2	5429	1
1 5 -1 3 5 -1 -2	16049	1
1 5 -1 1 3 6 -1 1 -1 3 -1 4 -1 1 -1 -2	280	1
3 -1 1 -1 2 3 -1 -2	5415	1
2 -1 4 -1 6 -1 -2	1195	1
1 4 -1 1 -1 1 4 -1 -2	9435	1
3 -1 1 -1 2 -1 1 5 -1 -2	6361	1
1 5 -1 1 -1 1 4 -1 -2	11765	1
2 -1 1 -1 2 -1 1 -1 -2	15004	1
1 2 3 -1 -2	6676	1
6 -1 4 -1 1 -1 -2	2129	1
5 -1 1 2 -1 5 -1 1 -1 -2	14742	1
1 2 5 -1 -2	19671	4
1 -1 5 -1 4 -1 5 -1 6 -1 -2	1203	1
5 -1 1 -1 1 5 -1 1 4 -1 3 -1 -2	3524	1
1 3 -1 5 -1 2 -1 -2	7400	1
2 -1 1 6 -1 1 5 -1 -2	2036	1
1 4 5 -1 4 -1 -2	10328	1
6 -1 1 5 -1 5 -1 5 -1 -2	3765	1
2 -1 1 2 3 -1 -2	5309	1
4 -1 5 -1 2 -1 1 -1 2 -1 2 -1 -2	2227	1
3 -1 2 4 -1 -2	3279	1
1 -1 4 -1 5 -1 -2	15175	5
1 -1 6 -1 1 -1 -2	5288	1
1 -1 3 -1 5 -1 1 5 -1 -2	12466	1
6 -1 2 -1 1 -1 -2	2644	1
1 -1 1 5 -1 5 6 -1 4 -1 -2	1480	1
3 -1 1 -1 2 -1 2 -1 1 5 -1 -2	3856	1
2 4 -1 1 -1 1 -1 -2	5619	1
1 -1 2 -1 3 -1 -2	8850	4
1 -1 3 -1 4 -1 -2	6428	1
1 -1 1 -1 1 3 -1 -2	15681	1
5 -1 1 6 -1 1 -1 -2	4148	1
1 -1 2 4 5 -1 6 -1 1 -1 -2	720	1
1 -1 6 -1 5 -1 6 -1 -2	2528	1
3 -1 1 -1 5 -1 1 5 -1 -2	12261	1
1 -1 3 -1 5 -1 1 -1 3 -1 -2	8260	1
2 -1 2 -1 2 -1 -2	21226	3
2 -1 4 5 -1 -2	8354	2
1 5 -1 1 3 -1 -2	15373	1
5 -1 5 -1 1 -1 1 -1 5 -1 4 -1 1 -1 -2	4322	1
2 5 -1 1 -1 5 -1 -2	18772	1
5 -1 1 -1 2 3 -1 2 -1 -2	4313	1
6 -1 5 6 -1 1 -1 1 -1 -2	2396	1
2 -1 1 2 5 -1 1 -1 3 -1 -2	4698	1
1 3 -1 4 5 -1 4 -1 -2	3861	1
2 -1 5 -1 1 -1 1 -1 -2	17221	1
4 -1 1 -1 2 -1 -2	7929	2
1 -1 4 -1 1 -1 1 2 -1 2 -1 5 -1 3 -1 -2	921	1
3 -1 1 5 -1 -2	17774	4
2 5 -1 5 -1 1 -1 1 -1 -2	15187	1
4 -1 1 -1 4 -1 4 -1 1 -1 -2	5647	1
2 -1 2 -1 3 -1 1 -1 -2	6030	2
5 -1 1 -1 3 -1 3 -1 2 -1 -2	4163	1
3 -1 3 5 -1 5 -1 -2	14176	1
5 -1 2 3 -1 -2	7652	1
1 3 5 -1 1 -1 2 -1 2 -1 -2	4416	1
1 -1 6 -1 1 -1 2 -1 -2	2171	1
2 -1 5 -1 3 5 -1 -2	8133	1
4 5 -1 1 -1 1 -1 -2	12579	1
3 -1 5 -1 1 6 -1 -2	1893	1
1 5 -1 1 4 -1 6 -1 -2	1696	1
4 -1 6 -1 1 -1 1 5 -1 -2	1478	1
2 -1 6 -1 1 4 -1 2 -1 1 -1 2 -1 -2	411	1
1 2 -1 2 -1 1 -1 -2	16203	1
1 2 -1 5 -1 -2	20731	3
1 3 4 5 -1 -2	4263	1
1 -1 1 -1 2 -1 1 -1 -2	18414	2
2 -1 3 -1 1 -1 -2	8664	3
1 4 -1 4 -1 -2	12915	1
1 5 -1 2 -1 2 -1 2 5 -1 -2	9711	1
1 -1 2 5 -1 3 -1 5 -1 -2	6345	1
4 -1 4 -1 2 4 6 -1 5 -1 -2	325	1
1 4 -1 1 3 -1 1 -1 1 -1 -2	4185	1
1 -1 2 -1 5 -1 1 -1 5 -1 -2	13210	2
1 -1 2 -1 2 -1 1 -1 -2	15124	2
3 4 -1 5 -1 5 -1 3 -1 -2	3202	1
3 -1 3 -1 3 -1 3 -1 -2	10780	1
5 -1 1 5 -1 3 -1 2 -1 1 -1 -2	5067	1
2 -1 5 -1 1 3 -1 3 -1 -2	4832	1
2 -1 3 -1 4 -1 3 -1 -2	2504	1
4 6 -1 1 2 -1 1 -1 -2	757	1
3 -1 3 -1 1 -1 3 -1 5 -1 3 -1 -2	3743	1
5 -1 1 -1 2 -1 4 -1 -2	6396	1
3 -1 5 -1 1 -1 1 3 -1 -2	9554	1
5 6 -1 -2	6135	5
1 3 5 -1 1 -1 -2	14173	2
1 3 5 -1 5 -1 2 -1 -2	6715	1
1 -1 5 -1 1 -1 3 -1 -2	14155	1
5 -1 4 -1 4 -1 -2	13850	1
2 3 4 -1 1 3 -1 -2	1721	1
2 -1 4 -1 3 5 -1 1 -1 -2	2773	1
5 -1 1 -1 1 -1 1 -1 -2	41939	1
1 -1 1 -1 1 -1 5 -1 5 -1 -2	30685	1
1 -1 4 -1 3 5 -1 1 -1 -2	4562	1
6 -1 6 -1 5 -1 1 4 -1 -2	1022	1
1 -1 1 2 -1 5 -1 1 -1 -2	14670	1
4 -1 1 5 -1 2 -1 -2	7166	1
4 -1 3 -1 1 4 -1 1 -1 -2	3502	1
5 -1 5 -1 4 -1 2 -1 2 -1 -2	4144	1
2 -1 3 -1 2 -1 -2	7886	1
1 5 -1 2 -1 1 5 -1 -2	17863	1
1 -1 1 3 -1 2 -1 5 -1 1 -1 1 3 -1 -2	2507	1
1 -1 1 2 -1 1 -1 -2	18948	2
1 2 -1 1 -1 4 -1 2 -1 4 -1 1 -1 2 -1 -2	909	1
2 -1 5 -1 4 -1 4 -1 -2	4926	1
5 -1 1 2 -1 2 -1 -2	15374	1
1 3 -1 6 -1 3 -1 -2	1620	1
2 3 -1 1 5 -1 2 -1 -2	4977	1
3 4 -1 1 5 -1 -2	4724	1
1 -1 1 -1 1 -1 2 -1 -2	18541	2
1 -1 6 -1 2 -1 1 -1 -2	2184	1
5 -1 1 -1 4 -1 2 -1 -2	6541	1
1 3 4 -1 -2	4864	1
1 -1 3 5 -1 5 -1 1 -1 -2	12013	1
1 -1 1 -1 5 -1 2 -1 -2	17668	1
6 -1 1 -1 1 -1 5 -1 -2	3969	1
5 -1 3 -1 4 -1 1 -1 3 -1 3 -1 -2	1721	1
1 -1 2 -1 2 -1 1 3 4 -1 1 4 -1 5 -1 5 -1 6 -1 4 -1 -2	42	1
1 -1 1 5 -1 4 -1 -2	13582	4
4 -1 1 2 5 -1 6 -1 -2	1021	1
1 2 -1 1 -1 3 -1 4 -1 -2	2738	1
3 -1 5 -1 5 -1 -2	19541	3
1 3 -1 1 -1 4 -1 -2	5541	1
1 2 5 -1 1 2 5 -1 1 -1 -2	10853	1
2 3 -1 5 -1 1 -1 -2	6194	1
5 -1 1 4 -1 2 -1 1 -1 -2	5496	1
2 5 -1 1 -1 3 -1 3 6 -1 1 -1 -2	461	1
6 -1 5 -1 3 -1 -2	2245	1
1 -1 2 -1 4 -1 1 -1 -2	6355	1
2 4 -1 2 -1 1 4 -1 2 5 6 -1 6 -1 3 -1 1 -1 1 2 -1 -2	45	1
1 2 -1 1 5 -1 3 -1 -2	6947	1
2 -1 5 -1 2 5 -1 3 5 -1 -2	5214	1
5 -1 3 -1 5 -1 5 -1 -2	16368	1
5 -1 1 -1 1 -1 2 5 -1 -2	15309	1
1 4 -1 1 -1 1 -1 1 -1 1 -1 -2	8397	1
5 -1 1 -1 5 -1 3 -1 -2	14632	1
5 -1 5 -1 4 -1 1 -1 -2	12603	1
4 -1 1 -1 1 -1 4 -1 -2	9700	1
5 -1 4 -1 1 -1 -2	15226	3
2 -1 1 -1 5 -1 1 -1 1 4 -1 -2	4237	1
6 -1 1 5 -1 -2	5228	1
1 -1 1 -1 5 -1 1 -1 2 -1 1 2 -1 1 -1 -2	3864	1
1 -1 2 5 -1 3 -1 -2	7659	1
3 -1 1 -1 1 -1 2 -1 -2	7023	1
3 5 -1 1 5 -1 -2	15820	1
3 -1 2 -1 5 -1 -2	9016	2
3 -1 1 3 -1 -2	15637	2
5 -1 2 -1 2 -1 5 -1 -2	16878	1
4 -1 4 -1 1 -1 5 -1 -2	9616	1
1 2 5 -1 2 5 -1 -2	14351	1
4 -1 1 -1 1 -1 5 -1 -2	11937	1
4 -1 1 -1 2 3 -1 3 -1 -2	1934	1
5 -1 3 4 -1 -2	5390	1
1 -1 4 -1 1 -1 1 -1 4 -1 -2	6890	1
2 -1 2 -1 3 -1 1 5 -1 -2	5389	1
3 -1 3 -1 1 -1 1 -1 5 -1 -2	8139	1
1 -1 1 -1 1 -1 1 5 -1 -2	36854	1
1 2 3 -1 1 -1 -2	5978	1
2 -1 1 -1 3 -1 3 -1 1 -1 1 -1 -2	2852	1
4 -1 1 2 -1 -2	8038	1
1 5 -1 4 -1 5 -1 4 -1 4 -1 -2	4822	1
5 6 -1 2 -1 1 -1 -2	2344	1
3 -1 3 5 -1 -2	16757	2
6 -1 5 -1 5 -1 -2	5539	1
1 2 -1 1 3 -1 6 -1 2 -1 4 -1 -2	370	1
6 -1 5 -1 5 -1 1 6 -1 -2	2211	1
4 -1 1 3 -1 5 -1 -2	5423	1
1 -1 5 -1 1 5 -1 -2	45392	1
5 -1 2 -1 1 -1 1 -1 -2	17519	1
4 -1 1 5 -1 -2	15778	2
4 -1 1 5 -1 6 -1 1 -1 -2	1427	1
4 5 -1 5 -1 1 -1 5 -1 -2	10779	1
4 5 -1 5 -1 1 -1 -2	12994	1
1 -1 6 -1 3 -1 3 -1 1 -1 -2	1046	1
1 -1 1 -1 1 5 -1 3 -1 -2	12835	1
2 5 -1 1 5 -1 4 -1 6 -1 6 -1 1 -1 -2	264	1
1 -1 4 -1 1 -1 1 -1 -2	12593	2
4 5 -1 6 -1 -2	2090	1
2 -1 2 -1 4 -1 3 -1 -2	2627	1
3 -1 5 -1 1 3 -1 2 -1 3 -1 -2	3038	1
6 -1 6 -1 5 -1 -2	4056	1
2 5 -1 1 -1 1 5 -1 1 -1 -2	13727	1
1 5 6 -1 5 -1 -2	4141	1
3 -1 2 3 5 -1 -2	5652	1
5 -1 3 -1 3 -1 4 -1 4 -1 -2	2286	1
3 -1 1 -1 1 -1 1 -1 -2	14477	1
1 -1 1 4 -1 1 -1 1 3 4 -1 -2	2387	1
1 -1 5 -1 5 -1 3 5 -1 4 -1 -2	3803	1
5 -1 5 -1 1 -1 1 -1 -2	42080	2
1 -1 6 -1 5 -1 5 -1 -2	4090	1
1 2 -1 2 -1 2 -1 4 -1 1 -1 -2	2994	1
2 -1 1 -1 1 4 -1 -2	6754	1
1 -1 5 -1 4 5 -1 1 -1 -2	10503	1
1 -1 1 -1 4 -1 4 -1 -2	9827	1
5 -1 3 -1 3 -1 -2	16695	1
1 -1 1 3 5 -1 5 -1 -2	12434	1
1 -1 1 6 -1 -2	5067	2
3 -1 6 -1 1 5 -1 -2	1948	1
4 -1 3 -1 2 -1 1 -1 5 -1 -2	2383	1
2 -1 1 -1 1 -1 2 3 -1 -2	4376	1
4 -1 5 -1 1 -1 4 5 -1 -2	8103	1
1 -1 1 5 -1 2 -1 -2	19465	1
1 3 -1 2 3 -1 -2	5639	1
3 5 -1 5 -1 3 -1 -2	14301	1
3 -1 2 -1 2 -1 3 -1 -2	4911	1
1 -1 1 -1 1 6 -1 -2	4364	1
4 -1 2 -1 4 -1 -2	6670	1
1 -1 1 4 -1 4 -1 5 -1 -2	8083	1
5 -1 2 -1 5 -1 2 6 -1 1 -1 -2	930	1
5 -1 1 -1 1 4 -1 2 -1 -2	5656	1
1 2 -1 1 -1 2 5 -1 -2	13392	1
6 -1 2 5 -1 5 -1 -2	2469	1
3 6 -1 1 -1 4 -1 3 -1 4 -1 -2	300	1
2 3 6 -1 2 -1 1 -1 1 5 -1 -2	445	1
1 -1 2 -1 1 2 -1 -2	16128	1
3 -1 1 2 -1 1 -1 6 -1 -2	990	1
1 -1 1 6 -1 1 -1 3 -1 1 6 -1 1 -1 -2	494	1
3 -1 1 -1 4 -1 -2	6261	1
5 -1 1 -1 1 -1 1 5 -1 1 -1 -2	27318	1
3 -1 1 -1 3 -1 -2	15572	1
1 -1 5 -1 1 -1 5 -1 -2	41630	1
6 -1 1 -1 6 -1 1 -1 -2	2811	1
3 5 -1 1 3 -1 1 -1 1 -1 -2	8443	1
5 -1 5 -1 2 -1 5 -1 -2	21208	2
6 -1 1 -1 4 -1 -2	2097	1
1 -1 3 -1 5 -1 5 -1 -2	14120	1
1 -1 5 -1 2 5 -1 1 -1 -2	15286	1
1 -1 3 -1 1 -1 2 -1 -2	7115	1
4 -1 3 -1 5 -1 3 -1 1 -1 -2	3047	1
4 -1 3 -1 3 -1 -2	5572	1
1 -1 3 -1 5 -1 1 -1 5 -1 -2	10549	1
1 5 -1 5 -1 2 5 -1 1 -1 -2	14279	1
1 2 -1 2 5 -1 -2	16078	1
6 -1 3 -1 1 -1 1 -1 1 -1 -2	1337	1
4 -1 3 4 -1 -2	4694	1
4 -1 2 -1 2 -1 -2	7175	1
1 2 -1 1 4 -1 5 -1 2 -1 6 -1 5 -1 1 -1 -2	313	1
1 -1 5 -1 3 4 -1 -2	4366	1
1 -1 6 -1 1 -1 1 5 6 -1 6 -1 -2	976	1
5 -1 2 -1 3 -1 -2	9205	1
1 5 -1 5 -1 2 -1 1 -1 1 -1 -2	12282	1
3 4 5 -1 4 -1 1 3 -1 1 -1 -2	2028	1
1 3 -1 1 3 -1 1 -1 -2	11518	1
5 -1 1 -1 1 2 -1 -2	18078	1
1 -1 3 -1 1 2 -1 1 5 -1 -2	5716	1
5 -1 3 5 -1 -2	19696	2
6 -1 5 -1 1 5 -1 1 -1 -2	3677	1
1 3 6 -1 -2	1551	1
4 -1 1 -1 2 4 -1 -2	4600	1
6 -1 1 -1 6 -1 -2	3575	1
1 -1 2 -1 3 5 -1 -2	7716	1
5 -1 1 -1 2 -1 1 -1 5 -1 -2	13445	1
2 5 -1 1 -1 1 5 -1 -2	16804	1
5 6 -1 5 -1 1 -1 -2	4398	1
1 -1 1 -1 2 5 -1 -2	18509	2
1 -1 1 -1 4 -1 1 -1 1 2 5 -1 -2	3995	1
2 -1 1 3 -1 -2	8776	1
1 5 -1 6 -1 -2	5409	2
1 -1 5 -1 5 6 -1 1 -1 1 -1 -2	2713	1
5 -1 4 -1 4 5 -1 -2	11778	1
5 -1 2 -1 2 -1 -2	21535	2
3 -1 5 6 -1 2 -1 -2	1194	1
1 6 -1 5 -1 -2	4738	1
1 -1 6 -1 1 -1 2 5 -1 -2	1958	1
1 -1 5 -1 1 4 -1 -2	12656	1
5 -1 1 -1 2 -1 5 -1 5 -1 1 -1 -2	9483	1
6 -1 1 6 -1 -2	3692	1
4 -1 1 -1 5 -1 1 -1 -2	11860	1
2 -1 5 6 -1 1 -1 1 -1 3 -1 -2	793	1
5 -1 5 -1 6 -1 -2	5565	1
1 -1 2 -1 1 2 -1 1 -1 -2	12769	1
6 -1 6 -1 2 -1 6 -1 4 -1 4 -1 -2	149	1
1 3 -1 1 -1 1 -1 1 -1 1 2 -1 -2	4453	1
1 -1 1 2 3 4 -1 6 -1 -2	429	1
1 -1 5 -1 1 4 -1 1 -1 -2	10371	1
4 -1 3 -1 5 6 -1 -2	960	1
1 -1 1 5 -1 2 -1 5 -1 -2	15919	1
4 -1 5 -1 2 5 -1 -2	7428	1
1 5 -1 2 -1 4 5 -1 -2	6487	1
2 -1 6 -1 1 -1 1 -1 4 -1 -2	797	1
2 3 -1 5 -1 3 -1 5 -1 1 2 -1 -2	2447	1
5 -1 1 -1 6 -1 1 5 -1 -2	3658	1
5 -1 5 -1 1 2 -1 -2	18408	1
5 -1 5 -1 5 -1 1 4 -1 -2	10718	1
1 2 -1 5 -1 3 -1 5 -1 -2	6183	1
1 -1 5 6 -1 5 -1 5 -1 4 -1 -2	1289	1
1 -1 3 -1 6 -1 -2	2218	1
1 -1 5 -1 5 -1 5 -1 1 -1 -2	31032	1
5 -1 2 3 -1 5 -1 -2	6644	1
5 -1 4 -1 3 -1 -2	6729	1
3 -1 1 5 -1 1 -1 1 2 5 -1 -2	5192	1
1 -1 6 -1 1 -1 5 -1 -2	4041	1
2 -1 1 3 -1 2 -1 -2	6305	1
1 -1 4 -1 2 -1 1 4 -1 3 -1 -2	1653	1
1 -1 1 -1 3 -1 1 -1 -2	15126	1
5 -1 4 5 -1 -2	16940	1
1 5 -1 1 -1 4 -1 1 -1 -2	11156	1
5 -1 5 -1 2 -1 1 -1 -2	18448	1
3 -1 1 -1 1 -1 1 -1 1 -1 1 5 -1 -2	6666	1
1 -1 1 -1 1 4 -1 -2	13425	1
4 5 -1 1 6 -1 -2	1798	1
5 -1 5 -1 5 -1 1 -1 1 -1 -2	31594	1
1 -1 1 4 5 -1 5 -1 -2	10782	1
5 -1 5 -1 5 -1 2 -1 -2	21286	1
3 -1 5 -1 1 -1 1 -1 -2	13619	1
3 -1 3 -1 6 -1 1 -1 -2	1417	1
1 2 -1 5 -1 3 5 -1 -2	6804	1
1 -1 5 -1 1 -1 1 5 -1 -2	36504	1
6 -1 1 5 -1 1 -1 -2	4477	1
1 4 -1 1 -1 1 -1 -2	13132	1
5 -1 1 -1 6 -1 1 -1 1 2 -1 -2	1515	1
1 -1 2 -1 1 -1 1 -1 -2	18239	1
1 2 -1 1 5 -1 -2	18871	1
2 -1 5 -1 5 -1 -2	24978	1
1 5 -1 1 -1 5 -1 1 -1 -2	36751	1
5 -1 5 -1 1 -1 5 -1 5 -1 -2	32887	1
1 -1 3 4 -1 1 -1 -2	4397	1
1 -1 5 -1 1 4 5 -1 -2	10778	1
1 2 -1 1 4 -1 1 -1 -2	6080	1
2 -1 2 -1 4 -1 -2	7304	1
2 5 -1 5 -1 5 -1 4 -1 -2	6175	1
1 -1 1 3 -1 1 -1 2 -1 5 -1 -2	4781	1
1 5 -1 5 -1 3 -1 -2	15908	1
3 -1 2 -1 1 -1 5 -1 1 2 -1 5 -1 -2	2661	1
5 -1 3 -1 4 -1 -2	6753	1
5 -1 2 5 -1 1 -1 5 -1 -2	15814	1
3 -1 1 4 -1 -2	6422	3
3 -1 2 3 -1 3 6 -1 4 -1 1 4 -1 5 -1 3 -1 1 -1 -2	59	1
1 5 -1 4 -1 1 -1 -2	13476	1
5 -1 5 -1 6 -1 5 -1 5 -1 -2	3535	1
5 -1 1 -1 5 -1 1 -1 -2	41832	1
1 5 -1 3 -1 2 -1 3 -1 4 -1 1 -1 2 -1 3 5 -1 -2	305	1
3 6 -1 -2	1922	1
1 -1 3 -1 1 3 -1 -2	12996	1
1 -1 2 -1 2 -1 2 -1 -2	12895	1
2 -1 5 -1 4 -1 1 -1 1 -1 -2	4816	1
3 6 -1 2 -1 4 -1 1 -1 1 5 -1 2 3 -1 1 3 5 -1 -2	123	1
1 5 -1 2 5 -1 1 4 -1 -2	5786	1
2 -1 2 4 -1 -2	6299	1
5 -1 3 -1 2 -1 -2	9227	1
3 -1 4 -1 2 -1 5 -1 4 -1 -2	1716	1
1 3 -1 1 -1 6 -1 1 5 -1 6 -1 -2	653	1
5 -1 1 -1 1 -1 5 -1 -2	41877	1
1 -1 3 -1 1 -1 6 -1 -2	1803	1
4 -1 6 -1 5 -1 -2	1922	1
1 -1 1 6 -1 6 -1 1 3 -1 6 -1 5 -1 2 -1 -2	120	1
1 -1 1 2 4 -1 -2	5353	1
2 -1 5 -1 2 4 -1 4 -1 -2	3206	1
1 -1 5 -1 2 -1 5 -1 -2	18097	1
3 -1 3 -1 1 -1 1 5 -1 -2	9878	1
1 -1 5 -1 2 5 -1 5 -1 3 -1 2 -1 -2	2859	1
1 -1 3 -1 3 -1 1 -1 4 -1 -2	3063	1
5 -1 5 -1 5 -1 1 5 -1 -2	38852	1
1 2 -1 4 -1 2 -1 1 -1 -2	4586	1
5 6 -1 5 6 -1 -2	3691	1
1 4 5 -1 6 -1 -2	1843	1
2 3 -1 1 -1 -2	7370	1
1 -1 3 5 -1 1 -1 -2	14647	1
1 5 -1 3 -1 4 -1 -2	5878	1
3 4 -1 5 -1 1 -1 2 -1 1 -1 -2	1831	1
1 -1 1 -1 2 -1 1 -1 1 -1 -2	13864	1
2 -1 1 5 -1 2 -1 -2	16218	1
2 -1 6 -1 1 -1 2 -1 5 -1 -2	1302	1
4 -1 3 -1 4 -1 -2	5443	1
2 -1 1 -1 1 5 -1 3 -1 -2	6471	1
1 -1 2 5 -1 4 -1 -2	6886	1
5 -1 3 -1 4 -1 1 -1 3 -1 -2	3150	1
1 -1 1 -1 3 -1 1 6 -1 5 -1 6 -1 -2	477	1
1 -1 5 -1 1 4 -1 1 -1 1 2 -1 -2	3958	1
4 -1 1 -1 6 -1 -2	1879	1
1 2 -1 1 5 -1 1 -1 1 -1 5 -1 -2	10359	1
1 -1 5 -1 4 -1 1 -1 -2	12163	1
1 2 -1 1 3 -1 -2	7803	1
1 2 -1 3 -1 -2	8780	1
